{"learner":{"attributes":{"scikit_learn":"{\"_estimator_type\": \"regressor\"}"},"feature_names":[],"feature_types":[],"gradient_booster":{"model":{"cats":{"enc":[],"feature_segments":[],"sorted_idx":[]},"gbtree_model_param":{"num_parallel_tree":"1","num_trees":"800"},"iteration_indptr":[0,1,2,3,4,5,6,7,8,9,10,11,12,13,14,15,16,17,18,19,20,21,22,23,24,25,26,27,28,29,30,31,32,33,34,35,36,37,38,39,40,41,42,43,44,45,46,47,48,49,50,51,52,53,54,55,56,57,58,59,60,61,62,63,64,65,66,67,68,69,70,71,72,73,74,75,76,77,78,79,80,81,82,83,84,85,86,87,88,89,90,91,92,93,94,95,96,97,98,99,100,101,102,103,104,105,106,107,108,109,110,111,112,113,114,115,116,117,118,119,120,121,122,123,124,125,126,127,128,129,130,131,132,133,134,135,136,137,138,139,140,141,142,143,144,145,146,147,148,149,150,151,152,153,154,155,156,157,158,159,160,161,162,163,164,165,166,167,168,169,170,171,172,173,174,175,176,177,178,179,180,181,182,183,184,185,186,187,188,189,190,191,192,193,194,195,196,197,198,199,200,201,202,203,204,205,206,207,208,209,210,211,212,213,214,215,216,217,218,219,220,221,222,223,224,225,226,227,228,229,230,231,232,233,234,235,236,237,238,239,240,241,242,243,244,245,246,247,248,249,250,251,252,253,254,255,256,257,258,259,260,261,262,263,264,265,266,267,268,269,270,271,272,273,274,275,276,277,278,279,280,281,282,283,284,285,286,287,288,289,290,291,292,293,294,295,296,297,298,299,300,301,302,303,304,305,306,307,308,309,310,311,312,313,314,315,316,317,318,319,320,321,322,323,324,325,326,327,328,329,330,331,332,333,334,335,336,337,338,339,340,341,342,343,344,345,346,347,348,349,350,351,352,353,354,355,356,357,358,359,360,361,362,363,364,365,366,367,368,369,370,371,372,373,374,375,376,377,378,379,380,381,382,383,384,385,386,387,388,389,390,391,392,393,394,395,396,397,398,399,400,401,402,403,404,405,406,407,408,409,410,411,412,413,414,415,416,417,418,419,420,421,422,423,424,425,426,427,428,429,430,431,432,433,434,435,436,437,438,439,440,441,442,443,444,445,446,447,448,449,450,451,452,453,454,455,456,457,458,459,460,461,462,463,464,465,466,467,468,469,470,471,472,473,474,475,476,477,478,479,480,481,482,483,484,485,486,487,488,489,490,491,492,493,494,495,496,497,498,499,500,501,502,503,504,505,506,507,508,509,510,511,512,513,514,515,516,517,518,519,520,521,522,523,524,525,526,527,528,529,530,531,532,533,534,535,536,537,538,539,540,541,542,543,544,545,546,547,548,549,550,551,552,553,554,555,556,557,558,559,560,561,562,563,564,565,566,567,568,569,570,571,572,573,574,575,576,577,578,579,580,581,582,583,584,585,586,587,588,589,590,591,592,593,594,595,596,597,598,599,600,601,602,603,604,605,606,607,608,609,610,611,612,613,614,615,616,617,618,619,620,621,622,623,624,625,626,627,628,629,630,631,632,633,634,635,636,637,638,639,640,641,642,643,644,645,646,647,648,649,650,651,652,653,654,655,656,657,658,659,660,661,662,663,664,665,666,667,668,669,670,671,672,673,674,675,676,677,678,679,680,681,682,683,684,685,686,687,688,689,690,691,692,693,694,695,696,697,698,699,700,701,702,703,704,705,706,707,708,709,710,711,712,713,714,715,716,717,718,719,720,721,722,723,724,725,726,727,728,729,730,731,732,733,734,735,736,737,738,739,740,741,742,743,744,745,746,747,748,749,750,751,752,753,754,755,756,757,758,759,760,761,762,763,764,765,766,767,768,769,770,771,772,773,774,775,776,777,778,779,780,781,782,783,784,785,786,787,788,789,790,791,792,793,794,795,796,797,798,799,800],"tree_info":[0,0,0,0,0,0,0,0,0,0,0,0,0,0,0,0,0,0,0,0,0,0,0,0,0,0,0,0,0,0,0,0,0,0,0,0,0,0,0,0,0,0,0,0,0,0,0,0,0,0,0,0,0,0,0,0,0,0,0,0,0,0,0,0,0,0,0,0,0,0,0,0,0,0,0,0,0,0,0,0,0,0,0,0,0,0,0,0,0,0,0,0,0,0,0,0,0,0,0,0,0,0,0,0,0,0,0,0,0,0,0,0,0,0,0,0,0,0,0,0,0,0,0,0,0,0,0,0,0,0,0,0,0,0,0,0,0,0,0,0,0,0,0,0,0,0,0,0,0,0,0,0,0,0,0,0,0,0,0,0,0,0,0,0,0,0,0,0,0,0,0,0,0,0,0,0,0,0,0,0,0,0,0,0,0,0,0,0,0,0,0,0,0,0,0,0,0,0,0,0,0,0,0,0,0,0,0,0,0,0,0,0,0,0,0,0,0,0,0,0,0,0,0,0,0,0,0,0,0,0,0,0,0,0,0,0,0,0,0,0,0,0,0,0,0,0,0,0,0,0,0,0,0,0,0,0,0,0,0,0,0,0,0,0,0,0,0,0,0,0,0,0,0,0,0,0,0,0,0,0,0,0,0,0,0,0,0,0,0,0,0,0,0,0,0,0,0,0,0,0,0,0,0,0,0,0,0,0,0,0,0,0,0,0,0,0,0,0,0,0,0,0,0,0,0,0,0,0,0,0,0,0,0,0,0,0,0,0,0,0,0,0,0,0,0,0,0,0,0,0,0,0,0,0,0,0,0,0,0,0,0,0,0,0,0,0,0,0,0,0,0,0,0,0,0,0,0,0,0,0,0,0,0,0,0,0,0,0,0,0,0,0,0,0,0,0,0,0,0,0,0,0,0,0,0,0,0,0,0,0,0,0,0,0,0,0,0,0,0,0,0,0,0,0,0,0,0,0,0,0,0,0,0,0,0,0,0,0,0,0,0,0,0,0,0,0,0,0,0,0,0,0,0,0,0,0,0,0,0,0,0,0,0,0,0,0,0,0,0,0,0,0,0,0,0,0,0,0,0,0,0,0,0,0,0,0,0,0,0,0,0,0,0,0,0,0,0,0,0,0,0,0,0,0,0,0,0,0,0,0,0,0,0,0,0,0,0,0,0,0,0,0,0,0,0,0,0,0,0,0,0,0,0,0,0,0,0,0,0,0,0,0,0,0,0,0,0,0,0,0,0,0,0,0,0,0,0,0,0,0,0,0,0,0,0,0,0,0,0,0,0,0,0,0,0,0,0,0,0,0,0,0,0,0,0,0,0,0,0,0,0,0,0,0,0,0,0,0,0,0,0,0,0,0,0,0,0,0,0,0,0,0,0,0,0,0,0,0,0,0,0,0,0,0,0,0,0,0,0,0,0,0,0,0,0,0,0,0,0,0,0,0,0,0,0,0,0,0,0,0,0,0,0,0,0,0,0,0,0,0,0,0,0,0,0,0,0,0,0,0,0,0,0,0,0,0,0,0,0,0,0,0,0,0,0,0,0,0,0,0,0,0,0,0,0,0,0,0,0,0,0,0,0,0,0,0,0,0,0,0,0,0,0,0,0,0,0,0,0,0,0,0,0,0,0,0,0,0,0,0,0,0,0,0,0,0,0,0,0,0,0,0,0,0,0,0,0,0,0,0,0,0,0,0,0,0,0,0,0,0,0,0,0,0,0,0,0,0,0,0,0,0,0,0,0,0,0,0,0,0,0,0,0,0,0,0,0,0,0,0,0,0,0,0,0,0,0,0,0,0],"trees":[{"base_weights":[-9.8571666E-2,-1.2873776E-1,3.203376E-2,-1.4467439E-1,-0E0,-0E0,2.7756284E-3,-1.497675E-1,-0E0,-0E0,-4.871288E-3],"categories":[],"categories_nodes":[],"categories_segments":[],"categories_sizes":[],"default_left":[0,0,0,0,0,0,0,0,0,0,0],"id":0,"left_children":[1,3,5,7,-1,-1,-1,9,-1,-1,-1],"loss_changes":[1.9524094E-1,1.0973388E-1,1.911584E-2,2.4316072E-2,0E0,0E0,0E0,1.32851E-2,0E0,0E0,0E0],"parents":[2147483647,0,0,1,1,2,2,3,3,7,7],"right_children":[2,4,6,8,-1,-1,-1,10,-1,-1,-1],"split_conditions":[1.3805294E0,1.2357442E0,-1.5772794E0,1.8521758E0,-0E0,-0E0,2.7756284E-3,-2.0003803E0,-0E0,-0E0,-4.871288E-3],"split_indices":[2,12,7,3,0,0,0,0,0,0,0],"split_type":[0,0,0,0,0,0,0,0,0,0,0],"sum_hessian":[3.523612E1,3.1746267E1,3.489849E0,3.0171999E1,1.5742676E0,1.7184937E0,1.7713553E0,2.9171999E1,1E0,4E0,2.5171999E1],"tree_param":{"num_deleted":"0","num_feature":"28","num_nodes":"11","size_leaf_vector":"1"}},{"base_weights":[-7.363163E-2,-1.3318278E-1,9.1166556E-4,-0E0,-4.2119427E-3,-0E0,7.480842E-2,-0E0,2.9600682E-3],"categories":[],"categories_nodes":[],"categories_segments":[],"categories_sizes":[],"default_left":[0,0,0,0,0,0,0,0,0],"id":1,"left_children":[1,3,5,-1,-1,-1,7,-1,-1],"loss_changes":[2.017665E-1,2.11595E-2,3.407186E-2,0E0,0E0,0E0,1.3743751E-2,0E0,0E0],"parents":[2147483647,0,0,1,1,2,2,6,6],"right_children":[2,4,6,-1,-1,-1,8,-1,-1],"split_conditions":[6.128757E-1,-2.3042755E0,-8.909143E-1,-0E0,-4.2119427E-3,-0E0,-5.7719976E-1,-0E0,2.9600682E-3],"split_indices":[13,16,2,0,0,0,5,0,0],"split_type":[0,0,0,0,0,0,0,0,0],"sum_hessian":[2.9526089E1,1.9705011E1,9.821078E0,1E0,1.8705011E1,4.7311873E0,5.0898914E0,1.1775284E0,3.9123628E0],"tree_param":{"num_deleted":"0","num_feature":"28","num_nodes":"9","size_leaf_vector":"1"}},{"base_weights":[3.648768E-2,-8.4692344E-2,5.7687875E-2,-1.300931E-1,-0E0,-1.4008278E-1,-0E0,4.291189E-3,-0E0,-0E0,-4.4234474E-3,-0E0,-3.4253957E-4],"categories":[],"categories_nodes":[],"categories_segments":[],"categories_sizes":[],"default_left":[0,0,0,0,0,0,0,0,0,0,0,0,0],"id":2,"left_children":[1,3,-1,5,7,9,-1,-1,11,-1,-1,-1,-1],"loss_changes":[8.152569E0,1.6577111E-1,0E0,3.7478417E-2,5.2670382E-2,2.3241311E-2,0E0,0E0,7.339245E-4,0E0,0E0,0E0,0E0],"parents":[2147483647,0,0,1,1,3,3,4,4,5,5,8,8],"right_children":[2,4,-1,6,8,10,-1,-1,12,-1,-1,-1,-1],"split_conditions":[1.6506723E0,1.5679279E-1,5.7687875E-2,1.3805294E0,-8.86899E-1,-7.6291207E-3,-0E0,4.291189E-3,-6.184512E-3,-0E0,-4.4234474E-3,-0E0,-3.4253957E-4],"split_indices":[12,12,0,2,14,25,0,0,25,0,0,0,0],"split_type":[0,0,0,0,0,0,0,0,0,0,0,0,0],"sum_hessian":[2.9930113E1,2.8771935E1,1.1581776E0,2.1412798E1,7.359136E0,2.0240051E1,1.1727471E0,1.5742676E0,5.7848682E0,1E0,1.9240051E1,1.1553353E0,4.6295333E0],"tree_param":{"num_deleted":"0","num_feature":"28","num_nodes":"13","size_leaf_vector":"1"}},{"base_weights":[1.0272714E-2,4.3958012E-2,-7.716428E-2,-1.1687864E-1,1.0564959E-1,-1.4892052E-1,-0E0,5.837797E-3,-0E0,-5.0251E-3,-0E0,-1.1151503E-3,3.4569748E-5],"categories":[],"categories_nodes":[],"categories_segments":[],"categories_sizes":[],"default_left":[0,0,0,0,0,0,0,0,0,0,0,0,0],"id":3,"left_children":[1,-1,3,5,7,9,11,-1,-1,-1,-1,-1,-1],"loss_changes":[5.7470355E0,0E0,2.8844124E-1,8.5584104E-2,6.444745E-2,1.4965773E-2,9.956337E-3,0E0,0E0,0E0,0E0,0E0,0E0],"parents":[2147483647,0,0,2,2,3,3,4,4,5,5,6,6],"right_children":[2,-1,4,6,8,10,12,-1,-1,-1,-1,-1,-1],"split_conditions":[-2.2228343E0,4.3958012E-2,1.3805294E0,2.5484768E-1,1.9458835E-1,1.6013351E-1,1.0686225E-1,5.837797E-3,-0E0,-5.0251E-3,-0E0,-1.1151503E-3,3.4569748E-5],"split_indices":[3,0,2,7,6,23,3,0,0,0,0,0,0],"split_type":[0,0,0,0,0,0,0,0,0,0,0,0,0],"sum_hessian":[3.7829624E1,1.575356E0,3.625427E1,3.2327217E1,3.927053E0,2.3387724E1,8.939492E0,2.1543002E0,1.7727528E0,1.8810135E1,4.57759E0,6.202093E0,2.7373993E0],"tree_param":{"num_deleted":"0","num_feature":"28","num_nodes":"13","size_leaf_vector":"1"}},{"base_weights":[-6.561123E-2,-9.3456104E-2,4.024394E-3,-1.3445437E-1,-0E0,-0E0,-1.4115123E-1,4.339223E-2,-1.6079856E-3,-0E0,-4.4071344E-3,-0E0,2.1637515E-3],"categories":[],"categories_nodes":[],"categories_segments":[],"categories_sizes":[],"default_left":[0,0,0,0,0,0,0,0,0,0,0,0,0],"id":4,"left_children":[1,3,-1,5,7,-1,9,11,-1,-1,-1,-1,-1],"loss_changes":[1.9862437E-1,1.1004877E-1,0E0,2.284211E-2,3.4930367E-2,0E0,1.1996537E-2,1.352668E-2,0E0,0E0,0E0,0E0,0E0],"parents":[2147483647,0,0,1,1,3,3,4,4,6,6,7,7],"right_children":[2,4,-1,6,8,-1,10,12,-1,-1,-1,-1,-1],"split_conditions":[1.9238923E0,3.5873446E-1,4.024394E-3,-2.3042755E0,2.7353713E-1,-0E0,-1.5885808E0,2.9591882E-1,-1.6079856E-3,-0E0,-4.4071344E-3,-0E0,2.1637515E-3],"split_indices":[14,5,0,16,17,0,15,8,0,0,0,0,0],"split_type":[0,0,0,0,0,0,0,0,0,0,0,0,0],"sum_hessian":[3.611332E1,3.435908E1,1.7542386E0,2.2170542E1,1.21885395E1,1E0,2.1170542E1,4.8907833E0,7.297756E0,1.1466435E0,2.00239E1,1.1583267E0,3.7324567E0],"tree_param":{"num_deleted":"0","num_feature":"28","num_nodes":"13","size_leaf_vector":"1"}},{"base_weights":[9.987267E-4,4.3180898E-2,-8.374073E-2,-1.23320065E-1,-0E0,-1.3274872E-1,-0E0,-0E0,1.1612276E-3,-4.1596126E-3,-0E0,-6.68417E-4,-0E0],"categories":[],"categories_nodes":[],"categories_segments":[],"categories_sizes":[],"default_left":[0,0,0,0,0,0,0,0,0,0,0,0,0],"id":5,"left_children":[1,-1,3,5,7,9,-1,11,-1,-1,-1,-1,-1],"loss_changes":[5.6007485E0,0E0,1.549221E-1,3.544408E-2,4.9629305E-3,2.2210896E-2,0E0,3.6274195E-3,0E0,0E0,0E0,0E0,0E0],"parents":[2147483647,0,0,2,2,3,3,4,4,5,5,7,7],"right_children":[2,-1,4,6,8,10,-1,12,-1,-1,-1,-1,-1],"split_conditions":[-2.2228343E0,4.3180898E-2,9.223293E-1,1.3237857E0,9.321278E-1,1.5227598E0,-0E0,9.486036E-2,1.1612276E-3,-4.1596126E-3,-0E0,-6.68417E-4,-0E0],"split_indices":[3,0,13,14,9,3,0,26,0,0,0,0,0],"split_type":[0,0,0,0,0,0,0,0,0,0,0,0,0],"sum_hessian":[3.8400703E1,1.575356E0,3.6825348E1,2.6628696E1,1.019665E1,2.4854675E1,1.7740226E0,7.884225E0,2.3124247E0,2.3854675E1,1E0,6.3071036E0,1.5771215E0],"tree_param":{"num_deleted":"0","num_feature":"28","num_nodes":"13","size_leaf_vector":"1"}},{"base_weights":[4.793915E-2,4.2388454E-2,-5.2985106E-2,-1.0148105E-1,9.466671E-2,-1.4425853E-1,-0E0,-0E0,4.977004E-3,-4.8408695E-3,-0E0,6.0266524E-4,-0E0],"categories":[],"categories_nodes":[],"categories_segments":[],"categories_sizes":[],"default_left":[0,0,0,0,0,0,0,0,0,0,0,0,0],"id":6,"left_children":[1,-1,3,5,7,9,11,-1,-1,-1,-1,-1,-1],"loss_changes":[5.1533384E0,0E0,2.30355E-1,1.4269134E-1,5.4281916E-2,9.635359E-3,1.5062761E-3,0E0,0E0,0E0,0E0,0E0,0E0],"parents":[2147483647,0,0,2,2,3,3,4,4,5,5,6,6],"right_children":[2,-1,4,6,8,10,12,-1,-1,-1,-1,-1,-1],"split_conditions":[-2.2228343E0,4.2388454E-2,1.3805294E0,2.5484768E-1,-1.5772794E0,1.5752977E-1,-2.267361E-1,-0E0,4.977004E-3,-4.8408695E-3,-0E0,6.0266524E-4,-0E0],"split_indices":[3,0,2,7,7,23,1,0,0,0,0,0,0],"split_type":[0,0,0,0,0,0,0,0,0,0,0,0,0],"sum_hessian":[3.0928062E1,1.575356E0,2.9352705E1,2.4879974E1,4.4727325E0,1.8663786E1,6.216187E0,1.7184937E0,2.7542386E0,1.5086197E1,3.57759E0,2.7324567E0,3.48373E0],"tree_param":{"num_deleted":"0","num_feature":"28","num_nodes":"13","size_leaf_vector":"1"}},{"base_weights":[-5.7353422E-2,5.8439698E-2,-1.0067759E-1,7.6178024E-3,-0E0,-1.1469143E-1,-0E0,-1.2316015E-1,-0E0,-3.927756E-3,-0E0],"categories":[],"categories_nodes":[],"categories_segments":[],"categories_sizes":[],"default_left":[0,0,0,0,0,0,0,0,0,0,0],"id":7,"left_children":[1,3,5,-1,-1,7,-1,9,-1,-1,-1],"loss_changes":[2.0673424E-1,1.410616E-1,5.543825E-2,0E0,0E0,3.687942E-2,0E0,3.1371176E-2,0E0,0E0,0E0],"parents":[2147483647,0,0,1,1,2,2,5,5,7,7],"right_children":[2,4,6,-1,-1,8,-1,10,-1,-1,-1],"split_conditions":[1.11232206E-1,-1.6035917E-1,1.5898397E0,7.6178024E-3,-0E0,1.4110636E0,-0E0,2.4321282E0,-0E0,-3.927756E-3,-0E0],"split_indices":[19,15,3,0,0,5,0,4,0,0,0],"split_type":[0,0,0,0,0,0,0,0,0,0,0],"sum_hessian":[3.482711E1,6.24533E0,2.8581781E1,1.5714786E0,4.673851E0,2.6008905E1,2.572876E0,2.4853569E1,1.1553353E0,2.3707952E1,1.1456177E0],"tree_param":{"num_deleted":"0","num_feature":"28","num_nodes":"11","size_leaf_vector":"1"}},{"base_weights":[3.0695157E-2,-8.5441895E-2,5.9227325E-2,-1.14612535E-1,2.4733467E-3,-0E0,-1.2467135E-1,-0E0,-4.1069384E-3],"categories":[],"categories_nodes":[],"categories_segments":[],"categories_sizes":[],"default_left":[0,0,0,0,0,0,0,0,0],"id":8,"left_children":[1,3,-1,5,-1,-1,7,-1,-1],"loss_changes":[8.580409E0,1.8192019E-1,0E0,4.1510284E-2,0E0,0E0,4.1756332E-2,0E0,0E0],"parents":[2147483647,0,0,1,1,3,3,6,6],"right_children":[2,4,-1,6,-1,-1,8,-1,-1],"split_conditions":[1.4969685E0,1.9238923E0,5.9227325E-2,-1.431827E0,2.4733467E-3,-0E0,-5.7930565E-3,-0E0,-4.1069384E-3],"split_indices":[0,14,0,11,0,0,25,0,0],"split_type":[0,0,0,0,0,0,0,0,0],"sum_hessian":[3.2082535E1,3.0932913E1,1.1496236E0,2.9161556E1,1.7713553E0,2E0,2.7161556E1,2.5776186E0,2.4583939E1],"tree_param":{"num_deleted":"0","num_feature":"28","num_nodes":"9","size_leaf_vector":"1"}},{"base_weights":[-8.312551E-2,-9.788864E-2,-0E0,-0E0,-1.1320147E-1,-1.190069E-1,-0E0,-0E0,-3.7141007E-3],"categories":[],"categories_nodes":[],"categories_segments":[],"categories_sizes":[],"default_left":[0,0,0,0,0,0,0,0,0],"id":9,"left_children":[1,3,-1,-1,5,7,-1,-1,-1],"loss_changes":[6.963605E-2,7.3682874E-2,0E0,0E0,2.5315195E-2,1.9312799E-2,0E0,0E0,0E0],"parents":[2147483647,0,0,1,1,4,4,5,5],"right_children":[2,4,-1,-1,6,8,-1,-1,-1],"split_conditions":[1.471486E0,-2.565655E-3,-0E0,-0E0,1.558318E0,-2.3042755E0,-0E0,-0E0,-3.7141007E-3],"split_indices":[2,18,0,0,6,16,0,0,0],"split_type":[0,0,0,0,0,0,0,0,0],"sum_hessian":[3.5558186E1,3.262987E1,2.928316E0,2.732974E0,2.9896896E1,2.874344E1,1.1534564E0,1E0,2.774344E1],"tree_param":{"num_deleted":"0","num_feature":"28","num_nodes":"9","size_leaf_vector":"1"}},{"base_weights":[1.3750411E-2,-8.427596E-2,5.8336694E-2,-1.0669154E-1,-0E0,-0E0,-1.2274479E-1,-3.8969635E-3,-0E0],"categories":[],"categories_nodes":[],"categories_segments":[],"categories_sizes":[],"default_left":[0,0,0,0,0,0,0,0,0],"id":10,"left_children":[1,3,-1,5,-1,-1,7,-1,-1],"loss_changes":[8.386579E0,1.2212476E-1,0E0,9.2904925E-2,0E0,0E0,2.8470784E-2,0E0,0E0],"parents":[2147483647,0,0,1,1,3,3,6,6],"right_children":[2,4,-1,6,-1,-1,8,-1,-1],"split_conditions":[1.5094482E0,1.471486E0,5.8336694E-2,-2.565655E-3,-0E0,-0E0,1.4110636E0,-3.8969635E-3,-0E0],"split_indices":[0,2,0,18,0,0,5,0,0],"split_type":[0,0,0,0,0,0,0,0,0],"sum_hessian":[3.752994E1,3.6380318E1,1.1496236E0,3.305194E1,3.3283777E0,2.1581419E0,3.0893799E1,2.9164816E1,1.7289838E0],"tree_param":{"num_deleted":"0","num_feature":"28","num_nodes":"9","size_leaf_vector":"1"}},{"base_weights":[3.6331754E-2,-6.5412596E-2,5.7400715E-2,-8.749314E-2,-0E0,-0E0,-1.0715563E-1,-3.6120025E-4,-0E0,-3.4270817E-3,-0E0],"categories":[],"categories_nodes":[],"categories_segments":[],"categories_sizes":[],"default_left":[0,0,0,0,0,0,0,0,0,0,0],"id":11,"left_children":[1,3,-1,5,-1,7,9,-1,-1,-1,-1],"loss_changes":[7.971971E0,9.2819616E-2,0E0,4.2593777E-2,0E0,9.961118E-4,2.3937196E-2,0E0,0E0,0E0,0E0],"parents":[2147483647,0,0,1,1,3,3,5,5,6,6],"right_children":[2,4,-1,6,-1,8,10,-1,-1,-1,-1],"split_conditions":[1.4969685E0,1.471486E0,5.7400715E-2,-1.1063039E0,-0E0,-1.3053705E0,1.4025743E0,-3.6120025E-4,-0E0,-3.4270817E-3,-0E0],"split_indices":[0,2,0,0,0,0,6,0,0,0,0],"split_type":[0,0,0,0,0,0,0,0,0,0,0],"sum_hessian":[3.5249657E1,3.4100033E1,1.1496236E0,3.0744524E1,3.3555071E0,6.8715467E0,2.3872978E1,5.8715467E0,1E0,2.271952E1,1.1534564E0],"tree_param":{"num_deleted":"0","num_feature":"28","num_nodes":"11","size_leaf_vector":"1"}},{"base_weights":[3.704963E-2,4.0711377E-2,-5.399964E-2,-3.6358132E-3,-0E0,4.959538E-2,-5.2699797E-2,-0E0,4.2078183E-3,-0E0,-1.7666497E-3],"categories":[],"categories_nodes":[],"categories_segments":[],"categories_sizes":[],"default_left":[0,0,0,0,0,0,0,0,0,0,0],"id":12,"left_children":[1,-1,3,-1,5,7,9,-1,-1,-1,-1],"loss_changes":[4.790319E0,0E0,1.01990476E-1,0E0,5.502423E-2,9.612554E-2,1.8430762E-3,0E0,0E0,0E0,0E0],"parents":[2147483647,0,0,2,2,4,4,5,5,6,6],"right_children":[2,-1,4,-1,6,8,10,-1,-1,-1,-1],"split_conditions":[-2.2228343E0,4.0711377E-2,-7.4901557E-1,-3.6358132E-3,4.4776425E-1,1.4642046E-1,-6.493673E-1,-0E0,4.2078183E-3,-0E0,-1.7666497E-3],"split_indices":[3,0,5,0,19,27,5,0,0,0,0],"split_type":[0,0,0,0,0,0,0,0,0,0,0],"sum_hessian":[3.2827236E1,1.575356E0,3.1251879E1,1.2346718E1,1.890516E1,8.557118E0,1.03480425E1,3.4760447E0,5.081074E0,1.7283092E0,8.619734E0],"tree_param":{"num_deleted":"0","num_feature":"28","num_nodes":"11","size_leaf_vector":"1"}},{"base_weights":[-5.705585E-2,-9.918589E-2,8.728656E-2,-0E0,-1.1619025E-1,-0E0,5.450282E-3,-1.2224952E-1,-0E0,-0E0,-3.9030616E-3],"categories":[],"categories_nodes":[],"categories_segments":[],"categories_sizes":[],"default_left":[0,0,0,0,0,0,0,0,0,0,0],"id":13,"left_children":[1,3,5,-1,7,-1,-1,9,-1,-1,-1],"loss_changes":[2.3591301E-1,8.556676E-2,5.7844106E-2,0E0,1.6300738E-2,0E0,0E0,1.0623783E-2,0E0,0E0,0E0],"parents":[2147483647,0,0,1,1,2,2,4,4,7,7],"right_children":[2,4,6,-1,8,-1,-1,10,-1,-1,-1],"split_conditions":[1.1357172E0,-2.565655E-3,-8.5831845E-1,-0E0,1.4110636E0,-0E0,5.450282E-3,5.5591784E-2,-0E0,-0E0,-3.9030616E-3],"split_indices":[2,18,9,0,5,0,0,21,0,0,0],"split_type":[0,0,0,0,0,0,0,0,0,0,0],"sum_hessian":[3.539208E1,3.0319408E1,5.0726705E0,2.1581419E0,2.8161268E1,2.9183705E0,2.1543002E0,2.6432878E1,1.7283885E0,2.583943E0,2.3848936E1],"tree_param":{"num_deleted":"0","num_feature":"28","num_nodes":"11","size_leaf_vector":"1"}},{"base_weights":[-8.642853E-2,-1.00476E-1,-0E0,-1.1596806E-1,-0E0,-0E0,-1.2279016E-1,-3.9090416E-3,-0E0],"categories":[],"categories_nodes":[],"categories_segments":[],"categories_sizes":[],"default_left":[0,0,0,0,0,0,0,0,0],"id":14,"left_children":[1,3,-1,5,-1,-1,7,-1,-1],"loss_changes":[6.9734514E-2,6.928861E-2,0E0,3.0551761E-2,0E0,0E0,9.875506E-3,0E0,0E0],"parents":[2147483647,0,0,1,1,3,3,6,6],"right_children":[2,4,-1,6,-1,-1,8,-1,-1],"split_conditions":[1.8521758E0,1.4110636E0,-0E0,-1.6904241E0,-0E0,-0E0,1.4465973E-1,-3.9090416E-3,-0E0],"split_indices":[3,5,0,7,0,0,23,0,0],"split_type":[0,0,0,0,0,0,0,0,0],"sum_hessian":[3.32503E1,3.1250301E1,2E0,2.8361374E1,2.888927E0,1.1456177E0,2.7215755E1,2.4638166E1,2.57759E0],"tree_param":{"num_deleted":"0","num_feature":"28","num_nodes":"9","size_leaf_vector":"1"}},{"base_weights":[-3.3198867E-2,-6.145968E-2,1.0963568E-1,-8.697255E-2,-0E0,4.4157594E-3,-0E0,-0E0,-1.0626987E-1,-0E0,1.0186579E-3,-3.7518283E-3,-0E0],"categories":[],"categories_nodes":[],"categories_segments":[],"categories_sizes":[],"default_left":[0,0,0,0,0,0,0,0,0,0,0,0,0],"id":15,"left_children":[1,3,5,7,9,-1,-1,-1,11,-1,-1,-1,-1],"loss_changes":[1.2725936E-1,7.039812E-2,6.356798E-3,7.274699E-2,4.9654813E-3,0E0,0E0,0E0,3.177166E-2,0E0,0E0,0E0,0E0],"parents":[2147483647,0,0,1,1,2,2,3,3,4,4,8,8],"right_children":[2,4,6,8,10,-1,-1,-1,12,-1,-1,-1,-1],"split_conditions":[1.9238923E0,9.223293E-1,7.4768886E-2,-2.565655E-3,-1.0811955E0,4.4157594E-3,-0E0,-0E0,6.240911E-1,-0E0,1.0186579E-3,-3.7518283E-3,-0E0],"split_indices":[14,13,6,18,6,0,0,0,11,0,0,0,0],"split_type":[0,0,0,0,0,0,0,0,0,0,0,0,0],"sum_hessian":[3.482432E1,3.2470146E1,2.354177E0,2.5020464E1,7.4496818E0,1.1543002E0,1.1998767E0,2.1503868E0,2.2870077E1,4.142957E0,3.3067245E0,1.8267176E1,4.6029015E0],"tree_param":{"num_deleted":"0","num_feature":"28","num_nodes":"13","size_leaf_vector":"1"}},{"base_weights":[-2.3903077E-2,-5.8842678E-2,8.935865E-2,-0E0,-8.94936E-2,4.726871E-3,-0E0,-3.7169928E-4,1.677586E-3,-9.958884E-2,-0E0,-3.2077092E-3,-0E0],"categories":[],"categories_nodes":[],"categories_segments":[],"categories_sizes":[],"default_left":[0,0,0,0,0,0,0,0,0,0,0,0,0],"id":16,"left_children":[1,3,5,7,9,-1,-1,-1,-1,11,-1,-1,-1],"loss_changes":[1.3228449E-1,6.264209E-2,4.861261E-2,1.1213329E-2,2.369976E-2,0E0,0E0,0E0,0E0,1.8387571E-2,0E0,0E0,0E0],"parents":[2147483647,0,0,1,1,2,2,3,3,4,4,9,9],"right_children":[2,4,6,8,10,-1,-1,-1,-1,12,-1,-1,-1],"split_conditions":[1.3805294E0,-8.86899E-1,1.9458835E-1,-8.978206E-1,1.0139025E0,4.726871E-3,-0E0,-3.7169928E-4,1.677586E-3,1.5898397E0,-0E0,-3.2077092E-3,-0E0],"split_indices":[2,14,6,2,13,0,0,0,0,3,0,0,0],"split_type":[0,0,0,0,0,0,0,0,0,0,0,0,0],"sum_hessian":[3.4954735E1,3.0454874E1,4.4998617E0,1.0035084E1,2.041979E1,2.727109E0,1.7727528E0,7.885308E0,2.1497757E0,1.8686865E1,1.7329254E0,1.7686865E1,1E0],"tree_param":{"num_deleted":"0","num_feature":"28","num_nodes":"13","size_leaf_vector":"1"}},{"base_weights":[5.0119713E-2,4.019169E-2,-3.8274415E-2,-7.119414E-2,-0E0,-9.125758E-2,-0E0,-0E0,4.3031927E-2,-0E0,-2.9780813E-3,-0E0,3.4425033E-3],"categories":[],"categories_nodes":[],"categories_segments":[],"categories_sizes":[],"default_left":[0,0,0,0,0,0,0,0,0,0,0,0,0],"id":17,"left_children":[1,-1,3,5,7,9,-1,-1,11,-1,-1,-1,-1],"loss_changes":[4.5844297E0,0E0,6.880134E-2,5.8185942E-2,1.2011065E-2,2.0708784E-2,0E0,0E0,3.7166025E-2,0E0,0E0,0E0,0E0],"parents":[2147483647,0,0,2,2,3,3,4,4,5,5,8,8],"right_children":[2,-1,4,6,8,10,-1,-1,12,-1,-1,-1,-1],"split_conditions":[-2.2228343E0,4.019169E-2,2.5484768E-1,1.8521758E0,-0E0,-1.6904241E0,-0E0,-0E0,-9.851162E-1,-0E0,-2.9780813E-3,-0E0,3.4425033E-3],"split_indices":[3,0,7,3,13,7,0,0,11,0,0,0,0],"split_type":[0,0,0,0,0,0,0,0,0,0,0,0,0],"sum_hessian":[3.305837E1,1.575356E0,3.1483013E1,2.1962269E1,9.520743E0,1.9962269E1,2E0,4.0344E0,5.486344E0,1.1456177E0,1.881665E1,2.751636E0,2.7347078E0],"tree_param":{"num_deleted":"0","num_feature":"28","num_nodes":"13","size_leaf_vector":"1"}},{"base_weights":[-6.296569E-2,-1.0243953E-1,-0E0,-0E0,-1.06903724E-1,1.6630134E-2,-1.8101575E-2,-3.3385043E-3,-0E0,-0E0,9.141033E-4,-1.031614E-3,-0E0],"categories":[],"categories_nodes":[],"categories_segments":[],"categories_sizes":[],"default_left":[0,0,0,0,0,0,0,0,0,0,0,0,0],"id":18,"left_children":[1,3,5,-1,7,9,11,-1,-1,-1,-1,-1,-1],"loss_changes":[7.221475E-2,6.5781325E-3,4.8039854E-3,0E0,2.9078722E-3,2.4825125E-3,7.2095925E-3,0E0,0E0,0E0,0E0,0E0,0E0],"parents":[2147483647,0,0,1,1,2,2,4,4,5,5,6,6],"right_children":[2,4,6,-1,8,10,12,-1,-1,-1,-1,-1,-1],"split_conditions":[2.9837677E-1,-1.259822E0,2.5954403E-2,-0E0,9.32255E-1,-3.535158E-1,1.1308419E0,-3.3385043E-3,-0E0,-0E0,9.141033E-4,-1.031614E-3,-0E0],"split_indices":[8,14,17,0,15,7,14,0,0,0,0,0,0],"split_type":[0,0,0,0,0,0,0,0,0,0,0,0,0],"sum_hessian":[3.1783754E1,1.8267633E1,1.3516121E1,1E0,1.7267633E1,4.481495E0,9.034626E0,1.6092827E1,1.1748064E0,1.1747706E0,3.3067245E0,7.877658E0,1.1569675E0],"tree_param":{"num_deleted":"0","num_feature":"28","num_nodes":"13","size_leaf_vector":"1"}},{"base_weights":[7.408213E-2,-2.6340408E-2,5.5929437E-2,-6.150882E-2,9.360607E-2,-9.386917E-2,-0E0,-0E0,5.2113747E-3,-3.005027E-3,-0E0,5.68952E-4,-0E0],"categories":[],"categories_nodes":[],"categories_segments":[],"categories_sizes":[],"default_left":[0,0,0,0,0,0,0,0,0,0,0,0,0],"id":19,"left_children":[1,3,-1,5,7,9,11,-1,-1,-1,-1,-1,-1],"loss_changes":[7.301679E0,1.3346991E-1,0E0,8.3049886E-2,5.2250665E-2,1.7321944E-2,1.5524961E-3,0E0,0E0,0E0,0E0,0E0,0E0],"parents":[2147483647,0,0,1,1,3,3,4,4,5,5,6,6],"right_children":[2,4,-1,6,8,10,12,-1,-1,-1,-1,-1,-1],"split_conditions":[1.5094482E0,1.1357172E0,5.5929437E-2,2.4735346E-1,-8.5831845E-1,1.8521758E0,4.019207E-2,-0E0,5.2113747E-3,-3.005027E-3,-0E0,5.68952E-4,-0E0],"split_indices":[0,2,0,7,9,3,0,0,0,0,0,0,0],"split_type":[0,0,0,0,0,0,0,0,0,0,0,0,0],"sum_hessian":[3.4229706E1,3.3080082E1,1.1496236E0,2.9180157E1,3.8999233E0,2.1383621E1,7.796536E0,1.7456232E0,2.1543002E0,2.0383621E1,1E0,3.3163998E0,4.4801364E0],"tree_param":{"num_deleted":"0","num_feature":"28","num_nodes":"13","size_leaf_vector":"1"}},{"base_weights":[-1.664899E-2,1.1514857E-1,-5.6281593E-2,-0E0,7.3020346E-3,-9.240363E-2,-0E0,-0E0,-1.0016196E-1,8.138867E-3,-0E0,-0E0,-3.214996E-3,-0E0,6.131929E-4],"categories":[],"categories_nodes":[],"categories_segments":[],"categories_sizes":[],"default_left":[0,0,0,0,0,0,0,0,0,0,0,0,0,0,0],"id":20,"left_children":[1,3,5,-1,-1,7,9,-1,11,13,-1,-1,-1,-1,-1],"loss_changes":[1.7320304E-1,1.06080174E-1,8.734759E-2,0E0,0E0,2.178052E-2,3.2387368E-4,0E0,1.9195795E-2,1.2342946E-3,0E0,0E0,0E0,0E0,0E0],"parents":[2147483647,0,0,1,1,2,2,5,5,6,6,8,8,9,9],"right_children":[2,4,6,-1,-1,8,10,-1,12,14,-1,-1,-1,-1,-1],"split_conditions":[1.11232206E-1,1.9223875E-1,3.5873446E-1,-0E0,7.3020346E-3,-1.6904241E0,2.5954403E-2,-0E0,-2.3042755E0,-1.8254197E0,-0E0,-0E0,-3.214996E-3,-0E0,6.131929E-4],"split_indices":[19,21,5,0,0,7,17,0,16,0,0,0,0,0,0],"split_type":[0,0,0,0,0,0,0,0,0,0,0,0,0,0,0],"sum_hessian":[3.65527E1,5.0934014E0,3.1459297E1,2.9391012E0,2.1543002E0,2.1271805E1,1.0187492E1,1.1456177E0,2.0126186E1,3.8893116E0,6.2981806E0,1E0,1.9126186E1,1.1597085E0,2.7296028E0],"tree_param":{"num_deleted":"0","num_feature":"28","num_nodes":"15","size_leaf_vector":"1"}},{"base_weights":[5.311639E-2,4.9469568E-2,-4.066797E-2,-7.036483E-2,3.4846999E-3,-9.65805E-2,-0E0,-0E0,-3.1136295E-3,-0E0,2.716189E-4],"categories":[],"categories_nodes":[],"categories_segments":[],"categories_sizes":[],"default_left":[0,0,0,0,0,0,0,0,0,0,0],"id":21,"left_children":[1,-1,3,5,-1,7,9,-1,-1,-1,-1],"loss_changes":[5.7972517E0,0E0,1.3321951E-1,8.041443E-2,0E0,2.3113817E-2,3.0568265E-4,0E0,0E0,0E0,0E0],"parents":[2147483647,0,0,2,2,3,3,5,5,6,6],"right_children":[2,-1,4,6,-1,8,10,-1,-1,-1,-1],"split_conditions":[-1.069147E0,4.9469568E-2,1.6488801E0,9.223293E-1,3.4846999E-3,-1.6904241E0,-2.0615508E-1,-0E0,-3.1136295E-3,-0E0,2.716189E-4],"split_indices":[10,0,14,13,0,7,6,0,0,0,0],"split_type":[0,0,0,0,0,0,0,0,0,0,0],"sum_hessian":[3.1913153E1,1.1468346E0,3.076632E1,2.901208E1,1.7542386E0,2.3551416E1,5.4606633E0,1.1456177E0,2.24058E1,2.7316558E0,2.7290077E0],"tree_param":{"num_deleted":"0","num_feature":"28","num_nodes":"11","size_leaf_vector":"1"}},{"base_weights":[3.4704886E-2,-5.9885528E-2,5.4627765E-2,-7.9627074E-2,-0E0,-0E0,-9.513674E-2,-0E0,-3.155594E-3],"categories":[],"categories_nodes":[],"categories_segments":[],"categories_sizes":[],"default_left":[0,0,0,0,0,0,0,0,0],"id":22,"left_children":[1,3,-1,5,-1,-1,7,-1,-1],"loss_changes":[7.2112436E0,7.69773E-2,0E0,6.8073064E-2,0E0,0E0,3.050837E-2,0E0,0E0],"parents":[2147483647,0,0,1,1,3,3,6,6],"right_children":[2,4,-1,6,-1,-1,8,-1,-1],"split_conditions":[1.5094482E0,1.471486E0,5.4627765E-2,-2.565655E-3,-0E0,-0E0,-6.184512E-3,-0E0,-3.155594E-3],"split_indices":[0,2,0,18,0,0,25,0,0],"split_type":[0,0,0,0,0,0,0,0,0],"sum_hessian":[3.5823505E1,3.467388E1,1.1496236E0,3.1318375E1,3.3555071E0,2.1574192E0,2.9160955E1,2.7305677E0,2.6430387E1],"tree_param":{"num_deleted":"0","num_feature":"28","num_nodes":"9","size_leaf_vector":"1"}},{"base_weights":[3.702233E-2,-5.9193067E-2,5.3751335E-2,-8.212669E-2,-0E0,-0E0,-9.565103E-2,-0E0,-3.0196833E-3],"categories":[],"categories_nodes":[],"categories_segments":[],"categories_sizes":[],"default_left":[0,0,0,0,0,0,0,0,0],"id":23,"left_children":[1,3,-1,5,-1,-1,7,-1,-1],"loss_changes":[6.972571E0,8.496468E-2,0E0,5.8827266E-2,0E0,0E0,1.8250883E-2,0E0,0E0],"parents":[2147483647,0,0,1,1,3,3,6,6],"right_children":[2,4,-1,6,-1,-1,8,-1,-1],"split_conditions":[1.4905186E0,1.471486E0,5.3751335E-2,-1.1655158E0,-0E0,-0E0,-2.3042755E0,-0E0,-3.0196833E-3],"split_indices":[0,2,0,10,0,0,16,0,0],"split_type":[0,0,0,0,0,0,0,0,0],"sum_hessian":[3.454062E1,3.3390995E1,1.1496236E0,2.9462679E1,3.928316E0,1.5755547E0,2.7887125E1,1E0,2.6887125E1],"tree_param":{"num_deleted":"0","num_feature":"28","num_nodes":"9","size_leaf_vector":"1"}},{"base_weights":[-3.5893206E-2,5.1130008E-2,-7.41952E-2,-0E0,6.677278E-3,-9.63684E-2,-0E0,-3.1659799E-3,-0E0],"categories":[],"categories_nodes":[],"categories_segments":[],"categories_sizes":[],"default_left":[0,0,0,0,0,0,0,0,0],"id":24,"left_children":[1,3,5,-1,-1,7,-1,-1,-1],"loss_changes":[1.2312625E-1,1.3930617E-1,4.693818E-2,0E0,0E0,2.1241337E-2,0E0,0E0,0E0],"parents":[2147483647,0,0,1,1,2,2,5,5],"right_children":[2,4,6,-1,-1,8,-1,-1,-1],"split_conditions":[1.11232206E-1,3.3352938E-1,1.0693719E0,-0E0,6.677278E-3,1.4256338E0,-0E0,-3.1659799E-3,-0E0],"split_indices":[19,21,13,0,0,3,0,0,0],"split_type":[0,0,0,0,0,0,0,0,0],"sum_hessian":[3.1341671E1,5.486689E0,2.585498E1,3.3323889E0,2.1543002E0,1.9972935E1,5.8820457E0,1.8395842E1,1.5770941E0],"tree_param":{"num_deleted":"0","num_feature":"28","num_nodes":"9","size_leaf_vector":"1"}},{"base_weights":[3.4428243E-2,-6.7346044E-2,5.291434E-2,-0E0,-8.747544E-2,-9.276655E-2,-0E0,-0E0,-3.0318326E-3],"categories":[],"categories_nodes":[],"categories_segments":[],"categories_sizes":[],"default_left":[0,0,0,0,0,0,0,0,0],"id":25,"left_children":[1,3,-1,-1,5,7,-1,-1,-1],"loss_changes":[6.79323E0,5.293584E-2,0E0,0E0,1.4733911E-2,1.1600271E-2,0E0,0E0,0E0],"parents":[2147483647,0,0,1,1,4,4,5,5],"right_children":[2,4,-1,-1,6,8,-1,-1,-1],"split_conditions":[1.4969685E0,1.11232206E-1,5.291434E-2,-0E0,1.2041715E0,-9.3022764E-2,-0E0,-0E0,-3.0318326E-3],"split_indices":[0,19,0,0,15,26,0,0,0],"split_type":[0,0,0,0,0,0,0,0,0],"sum_hessian":[3.2102207E1,3.0952583E1,1.1496236E0,6.095598E0,2.4856983E1,2.3703627E1,1.1533582E0,2.7528715E0,2.0950754E1],"tree_param":{"num_deleted":"0","num_feature":"28","num_nodes":"9","size_leaf_vector":"1"}},{"base_weights":[-3.6570296E-2,-7.35756E-2,1.1151324E-1,-9.0536565E-2,-0E0,4.6878215E-3,-0E0,-1.09400235E-1,-0E0,-0E0,-3.5085604E-3],"categories":[],"categories_nodes":[],"categories_segments":[],"categories_sizes":[],"default_left":[0,0,0,0,0,0,0,0,0,0,0],"id":26,"left_children":[1,3,5,7,-1,-1,-1,9,-1,-1,-1],"loss_changes":[1.7144977E-1,5.134219E-2,8.768275E-3,4.6532184E-2,0E0,0E0,0E0,2.342382E-2,0E0,0E0,0E0],"parents":[2147483647,0,0,1,1,2,2,3,3,7,7],"right_children":[2,4,6,8,-1,-1,-1,10,-1,-1,-1],"split_conditions":[1.1357172E0,9.6151E-1,1.5523074E0,1.0693719E0,-0E0,4.6878215E-3,-0E0,-2.3042755E0,-0E0,-0E0,-3.5085604E-3],"split_indices":[2,22,2,13,0,0,0,16,0,0,0],"split_type":[0,0,0,0,0,0,0,0,0,0,0],"sum_hessian":[3.225147E1,2.8907305E1,3.3441641E0,2.5014986E1,3.8923182E0,1.5714786E0,1.7726855E0,2.0704939E1,4.310047E0,1E0,1.9704939E1],"tree_param":{"num_deleted":"0","num_feature":"28","num_nodes":"11","size_leaf_vector":"1"}},{"base_weights":[-6.936973E-2,-8.59309E-2,-0E0,-9.569182E-2,-0E0,-0E0,-1.0081267E-1,-3.5088444E-3,-0E0],"categories":[],"categories_nodes":[],"categories_segments":[],"categories_sizes":[],"default_left":[0,0,0,0,0,0,0,0,0],"id":27,"left_children":[1,3,-1,5,-1,-1,7,-1,-1],"loss_changes":[6.4487085E-2,2.2536844E-2,0E0,1.8874615E-2,0E0,0E0,1.9509792E-2,0E0,0E0],"parents":[2147483647,0,0,1,1,3,3,6,6],"right_children":[2,4,-1,6,-1,-1,8,-1,-1],"split_conditions":[7.698927E-1,1.0763546E0,-0E0,-2.3042755E0,-0E0,-0E0,1.6929716E0,-3.5088444E-3,-0E0],"split_indices":[6,11,0,16,0,0,13,0,0],"split_type":[0,0,0,0,0,0,0,0,0],"sum_hessian":[3.5826675E1,3.1732801E1,4.093872E0,2.7856823E1,3.8759785E0,1E0,2.6856823E1,2.1121668E1,5.7351565E0],"tree_param":{"num_deleted":"0","num_feature":"28","num_nodes":"9","size_leaf_vector":"1"}},{"base_weights":[5.469515E-2,3.7978508E-2,-2.654068E-2,-6.26593E-2,9.0732194E-2,-9.098541E-2,-0E0,-0E0,4.9493043E-3,-3.188464E-3,-0E0,-0E0,2.1605004E-4],"categories":[],"categories_nodes":[],"categories_segments":[],"categories_sizes":[],"default_left":[0,0,0,0,0,0,0,0,0,0,0,0,0],"id":28,"left_children":[1,-1,3,5,7,9,11,-1,-1,-1,-1,-1,-1],"loss_changes":[4.0473433E0,0E0,1.3108003E-1,7.011972E-2,4.5513898E-2,2.1602482E-2,2.2421866E-4,0E0,0E0,0E0,0E0,0E0,0E0],"parents":[2147483647,0,0,2,2,3,3,4,4,5,5,6,6],"right_children":[2,-1,4,6,8,10,12,-1,-1,-1,-1,-1,-1],"split_conditions":[-2.2228343E0,3.7978508E-2,1.3805294E0,2.5484768E-1,-5.337398E-1,6.461707E-1,9.963506E-1,-0E0,4.9493043E-3,-3.188464E-3,-0E0,-0E0,2.1605004E-4],"split_indices":[3,0,2,7,5,14,21,0,0,0,0,0,0],"split_type":[0,0,0,0,0,0,0,0,0,0,0,0,0],"sum_hessian":[3.3493202E1,1.575356E0,3.1917847E1,2.8017923E1,3.8999233E0,2.123265E1,6.7852736E0,1.7456232E0,2.1543002E0,1.7205908E1,4.026742E0,3.4620712E0,3.3232021E0],"tree_param":{"num_deleted":"0","num_feature":"28","num_nodes":"13","size_leaf_vector":"1"}},{"base_weights":[5.5292357E-2,-1.4559786E-2,3.728155E-2,-5.0761096E-2,1.1381587E-1,-7.451595E-2,-0E0,-0E0,4.8479307E-3,-2.5583417E-3,-0E0,-0E0,2.9944954E-4],"categories":[],"categories_nodes":[],"categories_segments":[],"categories_sizes":[],"default_left":[0,0,0,0,0,0,0,0,0,0,0,0,0],"id":29,"left_children":[1,3,-1,5,7,9,11,-1,-1,-1,-1,-1,-1],"loss_changes":[3.8659844E0,1.4811924E-1,0E0,5.060401E-2,1.1126205E-2,1.5924022E-2,4.857625E-4,0E0,0E0,0E0,0E0,0E0,0E0],"parents":[2147483647,0,0,1,1,3,3,4,4,5,5,6,6],"right_children":[2,4,-1,6,8,10,12,-1,-1,-1,-1,-1,-1],"split_conditions":[3.049944E0,1.3805294E0,3.728155E-2,7.328921E-1,-8.5831845E-1,9.223293E-1,-4.6091852E-1,-0E0,4.8479307E-3,-2.5583417E-3,-0E0,-0E0,2.9944954E-4],"split_indices":[16,2,0,9,9,13,2,0,0,0,0,0,0],"split_type":[0,0,0,0,0,0,0,0,0,0,0,0,0],"sum_hessian":[3.798777E1,3.641241E1,1.575356E0,3.1912617E1,4.4997945E0,2.3386581E1,8.526035E0,2.3454943E0,2.1543002E0,1.980946E1,3.5771215E0,4.650535E0,3.8755007E0],"tree_param":{"num_deleted":"0","num_feature":"28","num_nodes":"13","size_leaf_vector":"1"}},{"base_weights":[3.3844117E-2,-6.61187E-2,5.1485132E-2,-8.0506615E-2,-0E0,-8.638045E-2,-0E0,-2.864444E-3,-0E0],"categories":[],"categories_nodes":[],"categories_segments":[],"categories_sizes":[],"default_left":[0,0,0,0,0,0,0,0,0],"id":30,"left_children":[1,3,-1,5,-1,7,-1,-1,-1],"loss_changes":[6.43152E0,4.7745064E-2,0E0,1.9509912E-2,0E0,1.2862444E-2,0E0,0E0,0E0],"parents":[2147483647,0,0,1,1,3,3,5,5],"right_children":[2,4,-1,6,-1,8,-1,-1,-1],"split_conditions":[1.4969685E0,1.0621889E0,5.1485132E-2,2.4321282E0,-0E0,1.6013351E-1,-0E0,-2.864444E-3,-0E0],"split_indices":[0,5,0,4,0,23,0,0,0],"split_type":[0,0,0,0,0,0,0,0,0],"sum_hessian":[3.166348E1,3.0513857E1,1.1496236E0,2.7622839E1,2.8910182E0,2.6477222E1,1.1456177E0,2.2899632E1,3.57759E0],"tree_param":{"num_deleted":"0","num_feature":"28","num_nodes":"9","size_leaf_vector":"1"}},{"base_weights":[3.875513E-2,-4.5721125E-2,5.0659075E-2,-8.223872E-2,8.5135244E-2,-0E0,-1.0902215E-1,-0E0,4.791408E-3,-3.8843912E-3,-0E0],"categories":[],"categories_nodes":[],"categories_segments":[],"categories_sizes":[],"default_left":[0,0,0,0,0,0,0,0,0,0,0],"id":31,"left_children":[1,3,-1,5,7,-1,9,-1,-1,-1,-1],"loss_changes":[6.1493983E0,1.8008336E-1,0E0,2.9358879E-2,4.079484E-2,0E0,2.5874242E-2,0E0,0E0,0E0,0E0],"parents":[2147483647,0,0,1,1,3,3,4,4,6,6],"right_children":[2,4,-1,6,8,-1,10,-1,-1,-1,-1],"split_conditions":[1.5094482E0,1.3805294E0,5.0659075E-2,-3.668959E-1,-5.337398E-1,-0E0,1.3948181E-2,-0E0,4.791408E-3,-3.8843912E-3,-0E0],"split_indices":[0,2,0,1,5,0,1,0,0,0,0],"split_type":[0,0,0,0,0,0,0,0,0,0,0],"sum_hessian":[3.6673233E1,3.552361E1,1.1496236E0,3.1050877E1,4.4727325E0,1.1343396E1,1.970748E1,2.318432E0,2.1543002E0,1.5224268E1,4.4832115E0],"tree_param":{"num_deleted":"0","num_feature":"28","num_nodes":"11","size_leaf_vector":"1"}},{"base_weights":[4.7788095E-2,-4.2761866E-2,4.9846295E-2,-5.7700656E-2,-0E0,-8.835338E-2,-0E0,-0E0,-2.9187268E-3,1.3575745E-3,-6.809119E-4],"categories":[],"categories_nodes":[],"categories_segments":[],"categories_sizes":[],"default_left":[0,0,0,0,0,0,0,0,0,0,0],"id":32,"left_children":[1,3,-1,5,-1,7,9,-1,-1,-1,-1],"loss_changes":[5.9167333E0,3.0817878E-2,0E0,4.1777246E-2,0E0,1.8912688E-2,1.1012012E-2,0E0,0E0,0E0,0E0],"parents":[2147483647,0,0,1,1,3,3,5,5,6,6],"right_children":[2,4,-1,6,-1,8,10,-1,-1,-1,-1],"split_conditions":[1.5094482E0,5.895833E-1,4.9846295E-2,8.247274E-1,-0E0,-7.6291207E-3,2.7353713E-1,-0E0,-2.9187268E-3,1.3575745E-3,-6.809119E-4],"split_indices":[0,11,0,27,0,25,17,0,0,0,0],"split_type":[0,0,0,0,0,0,0,0,0,0,0],"sum_hessian":[3.3465534E1,3.231591E1,1.1496236E0,2.6554375E1,5.7615347E0,1.610356E1,1.0450816E1,1E0,1.5103559E1,2E0,8.450816E0],"tree_param":{"num_deleted":"0","num_feature":"28","num_nodes":"11","size_leaf_vector":"1"}},{"base_weights":[6.6143915E-2,-2.3768233E-2,4.9348418E-2,-5.911217E-2,1.0951524E-1,-9.8860845E-2,-0E0,4.454907E-3,-0E0,-3.5519102E-3,-0E0,6.181104E-4,-0E0],"categories":[],"categories_nodes":[],"categories_segments":[],"categories_sizes":[],"default_left":[0,0,0,0,0,0,0,0,0,0,0,0,0],"id":33,"left_children":[1,3,-1,5,7,9,11,-1,-1,-1,-1,-1,-1],"loss_changes":[5.7086387E0,1.3706163E-1,0E0,9.2952885E-2,4.9277954E-3,2.898693E-2,2.0726628E-3,0E0,0E0,0E0,0E0,0E0,0E0],"parents":[2147483647,0,0,1,1,3,3,4,4,5,5,6,6],"right_children":[2,4,-1,6,8,10,12,-1,-1,-1,-1,-1,-1],"split_conditions":[1.6506723E0,1.3805294E0,4.9348418E-2,3.5873446E-1,1.5523074E0,5.7037777E-1,2.7353713E-1,4.454907E-3,-0E0,-3.5519102E-3,-0E0,6.181104E-4,-0E0],"split_indices":[12,2,0,5,2,14,17,0,0,0,0,0,0],"split_type":[0,0,0,0,0,0,0,0,0,0,0,0,0],"sum_hessian":[3.322915E1,3.207097E1,1.1581776E0,2.8753935E1,3.3170347E0,1.9148483E1,9.605453E0,1.5714786E0,1.7455561E0,1.5115699E1,4.032784E0,3.8824642E0,5.722988E0],"tree_param":{"num_deleted":"0","num_feature":"28","num_nodes":"13","size_leaf_vector":"1"}},{"base_weights":[3.45889E-2,-4.647684E-2,4.4326097E-2,-7.547097E-2,7.930381E-2,-9.163594E-2,-0E0,2.9935904E-3,-0E0,-2.9500013E-3,-0E0],"categories":[],"categories_nodes":[],"categories_segments":[],"categories_sizes":[],"default_left":[0,0,0,0,0,0,0,0,0,0,0],"id":34,"left_children":[1,3,-1,5,7,9,-1,-1,-1,-1,-1],"loss_changes":[4.722614E0,1.22664906E-1,0E0,5.985494E-2,3.3758953E-4,1.9866765E-2,0E0,0E0,0E0,0E0,0E0],"parents":[2147483647,0,0,1,1,3,3,4,4,5,5],"right_children":[2,4,-1,6,8,10,-1,-1,-1,-1,-1],"split_conditions":[1.4969685E0,1.3237857E0,4.4326097E-2,1.5898397E0,4.019207E-2,9.952076E-1,-0E0,2.9935904E-3,-0E0,-2.9500013E-3,-0E0],"split_indices":[0,14,0,3,0,20,0,0,0,0,0],"split_type":[0,0,0,0,0,0,0,0,0,0,0],"sum_hessian":[3.2669243E1,3.1519722E1,1.1495211E0,2.9170649E1,2.349072E0,2.659306E1,2.57759E0,1.1491953E0,1.1998767E0,2.5016956E1,1.576103E0],"tree_param":{"num_deleted":"0","num_feature":"28","num_nodes":"11","size_leaf_vector":"1"}},{"base_weights":[-3.305939E-2,8.989654E-3,-7.904089E-2,-9.2213834E-4,8.953251E-2,-9.562136E-2,-0E0,6.6026645E-3,-0E0,-1.14722796E-1,-0E0,-0E0,-3.9067524E-3],"categories":[],"categories_nodes":[],"categories_segments":[],"categories_sizes":[],"default_left":[0,0,0,0,0,0,0,0,0,0,0,0,0],"id":35,"left_children":[1,3,5,-1,7,9,-1,-1,-1,11,-1,-1,-1],"loss_changes":[1.0243035E-1,7.450056E-2,2.115877E-2,0E0,1.0257904E-1,9.8442435E-3,0E0,0E0,0E0,2.1948144E-2,0E0,0E0,0E0],"parents":[2147483647,0,0,1,1,2,2,4,4,5,5,9,9],"right_children":[2,4,6,-1,8,10,-1,-1,-1,12,-1,-1,-1],"split_conditions":[2.7353713E-1,-5.337398E-1,9.223293E-1,-9.2213834E-4,-7.086295E-2,6.461707E-1,-0E0,6.6026645E-3,-0E0,-9.3022764E-2,-0E0,-0E0,-3.9067524E-3],"split_indices":[17,5,13,0,15,14,0,0,0,26,0,0,0],"split_type":[0,0,0,0,0,0,0,0,0,0,0,0,0],"sum_hessian":[3.3494404E1,1.2235695E1,2.125871E1,4.4508247E0,7.78487E0,1.6522852E1,4.7358594E0,2.5714786E0,5.2133913E0,1.192146E1,4.601391E0,1.5990667E0,1.0322393E1],"tree_param":{"num_deleted":"0","num_feature":"28","num_nodes":"13","size_leaf_vector":"1"}},{"base_weights":[-2.320337E-2,-5.8154255E-2,8.0718234E-2,-0E0,-8.922006E-2,2.8321417E-3,-0E0,-7.7177687E-3,-0E0,-3.5431527E-3,-0E0,-0E0,-3.2395756E-4,-0E0,1.55244E-4],"categories":[],"categories_nodes":[],"categories_segments":[],"categories_sizes":[],"default_left":[0,0,0,0,0,0,0,0,0,0,0,0,0,0,0],"id":36,"left_children":[1,3,5,7,9,-1,-1,11,13,-1,-1,-1,-1,-1,-1],"loss_changes":[1.0426982E-1,3.7807412E-2,9.15844E-5,4.6934604E-4,2.4923429E-2,0E0,0E0,3.328919E-4,1.00040095E-4,0E0,0E0,0E0,0E0,0E0,0E0],"parents":[2147483647,0,0,1,1,2,2,3,3,4,4,7,7,8,8],"right_children":[2,4,6,8,10,-1,-1,12,14,-1,-1,-1,-1,-1,-1],"split_conditions":[1.3805294E0,-4.8801258E-1,2.2866757E0,1.5679279E-1,5.7037777E-1,2.8321417E-3,-0E0,-8.221327E-1,5.2577736E-5,-3.5431527E-3,-0E0,-0E0,-3.2395756E-4,-0E0,1.55244E-4],"split_indices":[2,14,2,12,14,0,0,3,22,0,0,0,0,0,0],"split_type":[0,0,0,0,0,0,0,0,0,0,0,0,0,0,0],"sum_hessian":[2.9521214E1,2.602142E1,3.4997945E0,1.0791764E1,1.5229655E1,2.299918E0,1.1998767E0,6.8796997E0,3.912065E0,1.00486145E1,5.1810403E0,1E0,5.8796997E0,1.1762357E0,2.7358294E0],"tree_param":{"num_deleted":"0","num_feature":"28","num_nodes":"15","size_leaf_vector":"1"}},{"base_weights":[-1.8202342E-2,-4.557898E-2,-0E0,-5.6276944E-2,-0E0,4.8098046E-2,-0E0,-0E0,-6.4310886E-2,1.616835E-3,-0E0,-0E0,-2.2846959E-3],"categories":[],"categories_nodes":[],"categories_segments":[],"categories_sizes":[],"default_left":[0,0,0,0,0,0,0,0,0,0,0,0,0],"id":37,"left_children":[1,3,5,7,-1,9,-1,-1,11,-1,-1,-1,-1],"loss_changes":[3.8266197E-2,1.8795665E-2,1.3608623E-2,9.625666E-3,0E0,1.2906361E-4,0E0,0E0,9.060614E-3,0E0,0E0,0E0,0E0],"parents":[2147483647,0,0,1,1,2,2,3,3,5,5,8,8],"right_children":[2,4,6,8,-1,10,-1,-1,12,-1,-1,-1,-1],"split_conditions":[3.5873446E-1,1.471486E0,2.7353713E-1,-7.692578E-2,-0E0,6.7001593E-1,-0E0,-0E0,-1.440072E0,1.616835E-3,-0E0,-0E0,-2.2846959E-3],"split_indices":[5,2,17,26,0,4,0,0,6,0,0,0,0],"split_type":[0,0,0,0,0,0,0,0,0,0,0,0,0],"sum_hessian":[3.4404976E1,2.3066484E1,1.133849E1,2.072099E1,2.3454943E0,4.882464E0,6.456026E0,2.7605999E0,1.796039E1,3.7296028E0,1.1528611E0,3.877376E0,1.4083014E1],"tree_param":{"num_deleted":"0","num_feature":"28","num_nodes":"13","size_leaf_vector":"1"}},{"base_weights":[6.2943205E-2,-2.6529528E-2,4.8176516E-2,-4.911776E-2,2.387355E-3,-5.8393065E-2,-0E0,-0E0,-2.0091464E-3],"categories":[],"categories_nodes":[],"categories_segments":[],"categories_sizes":[],"default_left":[0,0,0,0,0,0,0,0,0],"id":38,"left_children":[1,3,-1,5,-1,7,-1,-1,-1],"loss_changes":[5.455715E0,6.617281E-2,0E0,2.2300899E-2,0E0,1.7780796E-2,0E0,0E0,0E0],"parents":[2147483647,0,0,1,1,3,3,5,5],"right_children":[2,4,-1,6,-1,8,-1,-1,-1],"split_conditions":[1.6506723E0,1.9238923E0,4.8176516E-2,1.5898397E0,2.387355E-3,-9.402428E-1,-0E0,-0E0,-2.0091464E-3],"split_indices":[12,14,0,3,0,3,0,0,0],"split_type":[0,0,0,0,0,0,0,0,0],"sum_hessian":[3.2490746E1,3.1332567E1,1.1581776E0,3.016115E1,1.171417E0,2.7588274E1,2.572876E0,2.8904307E0,2.4697844E1],"tree_param":{"num_deleted":"0","num_feature":"28","num_nodes":"9","size_leaf_vector":"1"}},{"base_weights":[8.503078E-2,-7.981866E-4,4.556776E-2,1.8546136E-2,-4.3549977E-2,1.2349621E-1,-0E0,-0E0,-5.269285E-2,-0E0,5.6245006E-3,-1.987414E-3,-0E0],"categories":[],"categories_nodes":[],"categories_segments":[],"categories_sizes":[],"default_left":[0,0,0,0,0,0,0,0,0,0,0,0,0],"id":39,"left_children":[1,3,-1,5,7,9,-1,-1,11,-1,-1,-1,-1],"loss_changes":[4.7290506E0,3.9027285E-2,0E0,7.603874E-2,9.505089E-3,2.9816277E-2,0E0,0E0,9.932987E-3,0E0,0E0,0E0,0E0],"parents":[2147483647,0,0,1,1,3,3,4,4,5,5,8,8],"right_children":[2,4,-1,6,8,10,-1,-1,12,-1,-1,-1,-1],"split_conditions":[1.8029274E0,-2.617109E-1,4.556776E-2,2.519679E-2,-1.7197286E0,-7.383356E-1,-0E0,-0E0,7.698927E-1,-0E0,5.6245006E-3,-1.987414E-3,-0E0],"split_indices":[16,1,0,26,9,5,0,0,6,0,0,0,0],"split_type":[0,0,0,0,0,0,0,0,0,0,0,0,0],"sum_hessian":[3.1248192E1,3.0097387E1,1.1508039E0,1.3059156E1,1.703823E1,4.30279E0,8.756366E0,2.293287E0,1.4744945E1,2.1536932E0,2.1490972E0,1.1224486E1,3.5204582E0],"tree_param":{"num_deleted":"0","num_feature":"28","num_nodes":"13","size_leaf_vector":"1"}},{"base_weights":[-2.4125196E-2,3.8124833E-2,-6.454516E-2,6.3858815E-3,-0E0,-0E0,-8.411476E-2,-8.960683E-2,-0E0,-0E0,-2.8139811E-3],"categories":[],"categories_nodes":[],"categories_segments":[],"categories_sizes":[],"default_left":[0,0,0,0,0,0,0,0,0,0,0],"id":40,"left_children":[1,3,5,-1,-1,-1,7,9,-1,-1,-1],"loss_changes":[9.1677696E-2,1.053942E-1,2.9901177E-2,0E0,0E0,0E0,8.022308E-3,4.231721E-3,0E0,0E0,0E0],"parents":[2147483647,0,0,1,1,2,2,6,6,7,7],"right_children":[2,4,6,-1,-1,-1,8,10,-1,-1,-1],"split_conditions":[1.11232206E-1,-4.3992934E-1,-3.1372146E-3,6.3858815E-3,-0E0,-0E0,8.855763E-1,-1.9550804E0,-0E0,-0E0,-2.8139811E-3],"split_indices":[19,6,25,0,0,0,18,6,0,0,0],"split_type":[0,0,0,0,0,0,0,0,0,0,0],"sum_hessian":[2.9207628E1,6.6510816E0,2.2556545E1,1.5714786E0,5.079603E0,5.459827E0,1.7096718E1,1.5945497E1,1.1512221E0,1E0,1.4945497E1],"tree_param":{"num_deleted":"0","num_feature":"28","num_nodes":"11","size_leaf_vector":"1"}},{"base_weights":[5.0169904E-2,3.2873806E-2,-1.5615154E-2,4.399825E-2,-5.680034E-2,-0E0,6.2688068E-3,-6.330393E-2,-0E0,-2.0685133E-3,-0E0],"categories":[],"categories_nodes":[],"categories_segments":[],"categories_sizes":[],"default_left":[0,0,0,0,0,0,0,0,0,0,0],"id":41,"left_children":[1,-1,3,5,7,-1,-1,9,-1,-1,-1],"loss_changes":[3.0109212E0,0E0,9.261287E-2,9.382477E-2,1.5335493E-2,0E0,0E0,1.3471752E-2,0E0,0E0,0E0],"parents":[2147483647,0,0,2,2,3,3,4,4,7,7],"right_children":[2,-1,4,6,8,-1,-1,10,-1,-1,-1],"split_conditions":[-2.2228343E0,3.2873806E-2,2.7353713E-1,1.8320236E-1,9.6029216E-1,-0E0,6.2688068E-3,1.5898397E0,-0E0,-2.0685133E-3,-0E0],"split_indices":[3,0,17,17,2,0,0,3,0,0,0],"split_type":[0,0,0,0,0,0,0,0,0,0,0],"sum_hessian":[3.4671593E1,1.575356E0,3.3096237E1,8.534461E0,2.4561777E1,6.962982E0,1.5714786E0,2.3406147E1,1.1556305E0,2.2406147E1,1E0],"tree_param":{"num_deleted":"0","num_feature":"28","num_nodes":"11","size_leaf_vector":"1"}},{"base_weights":[4.4777066E-2,3.227051E-2,-2.1374779E-2,-5.454269E-2,6.499957E-2,-6.739849E-2,-0E0,-0E0,3.5745236E-3,-2.2641157E-3,-0E0],"categories":[],"categories_nodes":[],"categories_segments":[],"categories_sizes":[],"default_left":[0,0,0,0,0,0,0,0,0,0,0],"id":42,"left_children":[1,-1,3,5,7,9,-1,-1,-1,-1,-1],"loss_changes":[2.9252954E0,0E0,9.358108E-2,2.415952E-2,2.9676825E-2,1.0761902E-2,0E0,0E0,0E0,0E0,0E0],"parents":[2147483647,0,0,2,2,3,3,4,4,5,5],"right_children":[2,-1,4,6,8,10,-1,-1,-1,-1,-1],"split_conditions":[-2.2228343E0,3.227051E-2,1.3805294E0,1.0530089E0,-8.5096633E-1,1.6082684E0,-0E0,-0E0,3.5745236E-3,-2.2641157E-3,-0E0],"split_indices":[3,0,2,11,12,27,0,0,0,0,0],"split_type":[0,0,0,0,0,0,0,0,0,0,0],"sum_hessian":[3.3828075E1,1.575356E0,3.2252716E1,2.7752855E1,4.4998617E0,2.314864E1,4.604217E0,1.7727528E0,2.727109E0,2.014864E1,3E0],"tree_param":{"num_deleted":"0","num_feature":"28","num_nodes":"11","size_leaf_vector":"1"}},{"base_weights":[-9.063462E-3,-3.1205775E-2,2.1332866E-3,-6.403812E-2,-0E0,-7.061237E-2,-0E0,-0E0,1.1434669E-3,-0E0,-2.306329E-3],"categories":[],"categories_nodes":[],"categories_segments":[],"categories_sizes":[],"default_left":[0,0,0,0,0,0,0,0,0,0,0],"id":43,"left_children":[1,3,-1,5,7,9,-1,-1,-1,-1,-1],"loss_changes":[4.7365855E-2,5.499522E-2,0E0,1.4098898E-2,6.866079E-3,9.547517E-3,0E0,0E0,0E0,0E0,0E0],"parents":[2147483647,0,0,1,1,3,3,4,4,5,5],"right_children":[2,4,-1,6,8,10,-1,-1,-1,-1,-1],"split_conditions":[1.9238923E0,3.0326328E-1,2.1332866E-3,1.8564656E0,9.963506E-1,-7.326004E-3,-0E0,-0E0,1.1434669E-3,-0E0,-2.306329E-3],"split_indices":[14,8,0,10,21,22,0,0,0,0,0],"split_type":[0,0,0,0,0,0,0,0,0,0,0],"sum_hessian":[3.567087E1,3.3316696E1,2.354177E0,2.0559471E1,1.2757223E1,1.9559471E1,1E0,9.031111E0,3.7261124E0,1.5990667E0,1.7960405E1],"tree_param":{"num_deleted":"0","num_feature":"28","num_nodes":"11","size_leaf_vector":"1"}},{"base_weights":[-5.579741E-2,-8.614189E-2,-0E0,-0E0,-1.01876475E-1,-0E0,7.160987E-2,-0E0,-1.0926913E-1,2.672103E-3,-0E0,-3.436173E-3,-0E0],"categories":[],"categories_nodes":[],"categories_segments":[],"categories_sizes":[],"default_left":[0,0,0,0,0,0,0,0,0,0,0,0,0],"id":44,"left_children":[1,3,5,-1,7,-1,9,-1,11,-1,-1,-1,-1],"loss_changes":[9.032421E-2,2.3963705E-2,1.6929498E-2,0E0,1.05184615E-2,0E0,1.21107325E-4,0E0,8.402169E-3,0E0,0E0,0E0,0E0],"parents":[2147483647,0,0,1,1,2,2,4,4,6,6,8,8],"right_children":[2,4,6,-1,8,-1,10,-1,12,-1,-1,-1,-1],"split_conditions":[6.461707E-1,-1.8254197E0,1.4642046E-1,-0E0,-5.407946E-3,-0E0,4.019207E-2,-0E0,1.9480097E0,2.672103E-3,-0E0,-3.436173E-3,-0E0],"split_indices":[14,0,27,0,25,0,0,0,27,0,0,0,0],"split_type":[0,0,0,0,0,0,0,0,0,0,0,0,0],"sum_hessian":[2.88891E1,2.3712797E1,5.1763015E0,4.7352624E0,1.8977535E1,2.8749E0,2.3014014E0,1.7307749E0,1.724676E1,1.1491953E0,1.1522061E0,1.624676E1,1E0],"tree_param":{"num_deleted":"0","num_feature":"28","num_nodes":"13","size_leaf_vector":"1"}},{"base_weights":[-3.9934207E-2,5.2407958E-2,-8.669951E-2,-0E0,6.1512315E-3,-9.711126E-2,-0E0,-0E0,-1.05712175E-1,-0E0,-3.500937E-3],"categories":[],"categories_nodes":[],"categories_segments":[],"categories_sizes":[],"default_left":[0,0,0,0,0,0,0,0,0,0,0],"id":45,"left_children":[1,3,5,-1,-1,7,-1,-1,9,-1,-1],"loss_changes":[1.5281005E-1,8.8234134E-2,1.6462758E-2,0E0,0E0,1.8722728E-2,0E0,0E0,1.027301E-2,0E0,0E0],"parents":[2147483647,0,0,1,1,2,2,5,5,8,8],"right_children":[2,4,6,-1,-1,8,-1,-1,10,-1,-1],"split_conditions":[1.11232206E-1,3.3725813E-2,1.5752977E-1,-0E0,6.1512315E-3,-7.326004E-3,-0E0,-0E0,-1.5885808E0,-0E0,-3.500937E-3],"split_indices":[19,19,23,0,0,22,0,0,15,0,0],"split_type":[0,0,0,0,0,0,0,0,0,0,0],"sum_hessian":[2.9363157E1,6.236432E0,2.3126726E1,4.664953E0,1.5714786E0,1.997626E1,3.1504662E0,1.5990667E0,1.8377193E1,2.7221982E0,1.5654995E1],"tree_param":{"num_deleted":"0","num_feature":"28","num_nodes":"11","size_leaf_vector":"1"}},{"base_weights":[4.527582E-2,-3.468838E-2,4.6367098E-2,-5.005692E-2,-0E0,-6.0074367E-2,-0E0,-0E0,-2.3925712E-3],"categories":[],"categories_nodes":[],"categories_segments":[],"categories_sizes":[],"default_left":[0,0,0,0,0,0,0,0,0],"id":46,"left_children":[1,3,-1,5,-1,7,-1,-1,-1],"loss_changes":[5.1033044E0,3.6781885E-2,0E0,1.6294062E-2,0E0,1.9435167E-2,0E0,0E0,0E0],"parents":[2147483647,0,0,1,1,3,3,5,5],"right_children":[2,4,-1,6,-1,8,-1,-1,-1],"split_conditions":[1.5094482E0,1.471486E0,4.6367098E-2,6.942888E-1,-0E0,-1.2705002E0,-0E0,-0E0,-2.3925712E-3],"split_indices":[0,2,0,7,0,6,0,0,0],"split_type":[0,0,0,0,0,0,0,0,0],"sum_hessian":[3.4794422E1,3.36448E1,1.1496236E0,3.0316422E1,3.3283777E0,2.5258053E1,5.0583677E0,8.303541E0,1.6954512E1],"tree_param":{"num_deleted":"0","num_feature":"28","num_nodes":"9","size_leaf_vector":"1"}},{"base_weights":[6.455453E-2,-1.6740823E-2,4.227078E-2,1.9500408E-2,-7.085924E-2,6.0822736E-3,-0E0,-9.768016E-2,-0E0,-0E0,-3.3424722E-3],"categories":[],"categories_nodes":[],"categories_segments":[],"categories_sizes":[],"default_left":[0,0,0,0,0,0,0,0,0,0,0],"id":47,"left_children":[1,3,-1,5,7,-1,-1,9,-1,-1,-1],"loss_changes":[4.1454105E0,8.627865E-2,0E0,1.0062896E-1,4.1990645E-2,0E0,0E0,1.9781098E-2,0E0,0E0,0E0],"parents":[2147483647,0,0,1,1,3,3,4,4,7,7],"right_children":[2,4,-1,6,8,-1,-1,10,-1,-1,-1],"split_conditions":[1.4905186E0,-2.7838466E-1,4.227078E-2,2.8744152E-1,2.6703545E-1,6.0822736E-3,-0E0,-1.2744143E0,-0E0,-0E0,-3.3424722E-3],"split_indices":[0,0,0,20,2,0,0,11,0,0,0],"split_type":[0,0,0,0,0,0,0,0,0,0,0],"sum_hessian":[3.03422E1,2.9192678E1,1.1495211E0,1.2333818E1,1.685886E1,1.5714786E0,1.076234E1,1.2798852E1,4.060009E0,1.5990667E0,1.1199785E1],"tree_param":{"num_deleted":"0","num_feature":"28","num_nodes":"11","size_leaf_vector":"1"}},{"base_weights":[3.8869105E-2,3.1269778E-2,-2.7266994E-2,-5.8384746E-2,-0E0,-7.875029E-2,-0E0,1.886584E-3,-8.1821805E-4,-0E0,-2.7875693E-3,-0E0,5.685845E-4,-2.3695022E-4,-0E0],"categories":[],"categories_nodes":[],"categories_segments":[],"categories_sizes":[],"default_left":[0,0,0,0,0,0,0,0,0,0,0,0,0,0,0],"id":48,"left_children":[1,-1,3,5,7,9,-1,11,13,-1,-1,-1,-1,-1,-1],"loss_changes":[2.770966E0,0E0,2.7630765E-2,2.4345517E-2,3.6499147E-5,2.1112807E-2,0E0,2.511116E-3,5.568629E-4,0E0,0E0,0E0,0E0,0E0,0E0],"parents":[2147483647,0,0,2,2,3,3,4,4,5,5,7,7,8,8],"right_children":[2,-1,4,6,8,10,-1,12,14,-1,-1,-1,-1,-1,-1],"split_conditions":[-2.2228343E0,3.1269778E-2,4.356532E-2,1.1958212E0,4.880382E-1,-2.3042755E0,-0E0,2.2853443E-1,7.4891233E-1,-0E0,-2.7875693E-3,-0E0,5.685845E-4,-2.3695022E-4,-0E0],"split_indices":[3,0,16,11,24,16,0,8,4,0,0,0,0,0,0],"split_type":[0,0,0,0,0,0,0,0,0,0,0,0,0,0,0],"sum_hessian":[3.267776E1,1.575356E0,3.1102404E1,1.4107625E1,1.699478E1,1.1229741E1,2.8778834E0,7.230044E0,9.764735E0,1E0,1.0229741E1,1.1578195E0,6.072224E0,8.041929E0,1.7228065E0],"tree_param":{"num_deleted":"0","num_feature":"28","num_nodes":"15","size_leaf_vector":"1"}},{"base_weights":[-2.1225998E-2,-4.9983952E-2,7.124858E-2,-0E0,-6.271297E-2,-0E0,3.7576724E-3,-0E0,-8.640848E-2,-0E0,-3.0940634E-3],"categories":[],"categories_nodes":[],"categories_segments":[],"categories_sizes":[],"default_left":[0,0,0,0,0,0,0,0,0,0,0],"id":49,"left_children":[1,3,5,-1,7,-1,-1,-1,9,-1,-1],"loss_changes":[8.9172564E-2,3.1678572E-2,2.4751766E-2,0E0,3.670022E-2,0E0,0E0,0E0,2.1793872E-2,0E0,0E0],"parents":[2147483647,0,0,1,1,2,2,4,4,8,8],"right_children":[2,4,6,-1,8,-1,-1,-1,10,-1,-1],"split_conditions":[1.3805294E0,-8.5959013E-4,-5.337398E-1,-0E0,-3.7734088E-1,-0E0,3.7576724E-3,-0E0,-8.791775E-2,-0E0,-3.0940634E-3],"split_indices":[2,18,5,0,1,0,0,0,26,0,0],"split_type":[0,0,0,0,0,0,0,0,0,0,0],"sum_hessian":[3.519024E1,3.1317446E1,3.872794E0,3.732974E0,2.758447E1,1.7184937E0,2.1543002E0,8.612324E0,1.8972147E1,3.90411E0,1.5068037E1],"tree_param":{"num_deleted":"0","num_feature":"28","num_nodes":"11","size_leaf_vector":"1"}},{"base_weights":[4.3630034E-2,-1.1130678E-2,3.0752731E-2,-5.623464E-2,3.0149944E-4,-0E0,-7.139342E-2,1.1115501E-1,-2.2784844E-3,-0E0,-2.4980858E-3,5.957703E-3,-0E0,-0E0,-4.666513E-4],"categories":[],"categories_nodes":[],"categories_segments":[],"categories_sizes":[],"default_left":[0,0,0,0,0,0,0,0,0,0,0,0,0,0,0],"id":50,"left_children":[1,3,-1,5,7,-1,9,11,13,-1,-1,-1,-1,-1,-1],"loss_changes":[2.6359015E0,4.74867E-2,0E0,1.8056419E-2,6.107676E-2,0E0,1.8373676E-2,4.0430743E-2,3.1324173E-3,0E0,0E0,0E0,0E0,0E0,0E0],"parents":[2147483647,0,0,1,1,3,3,4,4,6,6,7,7,8,8],"right_children":[2,4,-1,6,8,-1,10,12,14,-1,-1,-1,-1,-1,-1],"split_conditions":[1.6506723E0,-7.4901557E-1,3.0752731E-2,-1.5885808E0,1.11232206E-1,-0E0,-2.3042755E0,-2.617109E-1,-6.650226E-1,-0E0,-2.4980858E-3,5.957703E-3,-0E0,-0E0,-4.666513E-4],"split_indices":[12,5,0,15,19,0,16,1,4,0,0,0,0,0,0],"split_type":[0,0,0,0,0,0,0,0,0,0,0,0,0,0,0],"sum_hessian":[3.8398853E1,3.6823498E1,1.575356E0,1.5497525E1,2.132597E1,2.7194524E0,1.2778073E1,3.9357476E0,1.7390223E1,1E0,1.1778073E1,1.5714786E0,2.3642693E0,5.049597E0,1.2340626E1],"tree_param":{"num_deleted":"0","num_feature":"28","num_nodes":"15","size_leaf_vector":"1"}},{"base_weights":[4.7834978E-2,-1.4850903E-2,4.118657E-2,9.381264E-3,-5.1095407E-2,-2.3749943E-3,9.489501E-2,-0E0,-6.965645E-2,-0E0,-1.1480957E-4,5.3899526E-3,-0E0,-2.5860951E-3,-0E0],"categories":[],"categories_nodes":[],"categories_segments":[],"categories_sizes":[],"default_left":[0,0,0,0,0,0,0,0,0,0,0,0,0,0,0],"id":51,"left_children":[1,3,-1,5,7,9,11,-1,13,-1,-1,-1,-1,-1,-1],"loss_changes":[3.9697876E0,5.4907262E-2,0E0,6.205275E-2,2.4670634E-2,4.734328E-5,7.077286E-2,0E0,2.8705463E-2,0E0,0E0,0E0,0E0,0E0,0E0],"parents":[2147483647,0,0,1,1,3,3,4,4,5,5,6,6,8,8],"right_children":[2,4,-1,6,8,10,12,-1,14,-1,-1,-1,-1,-1,-1],"split_conditions":[1.4969685E0,-2.7838466E-1,4.118657E-2,-1.2903866E0,-4.3201956E-1,-2.4501379E-3,4.4651926E-1,-0E0,1.187656E0,-0E0,-1.1480957E-4,5.3899526E-3,-0E0,-2.5860951E-3,-0E0],"split_indices":[0,0,0,0,1,25,19,0,14,0,0,0,0,0,0],"split_type":[0,0,0,0,0,0,0,0,0,0,0,0,0,0,0],"sum_hessian":[3.837279E1,3.722327E1,1.1495211E0,1.4484961E1,2.273831E1,8.4486685E0,6.0362926E0,5.8807597E0,1.685755E1,2.5771215E0,5.8715467E0,3.1554217E0,2.8808708E0,1.4522927E1,2.3346226E0],"tree_param":{"num_deleted":"0","num_feature":"28","num_nodes":"15","size_leaf_vector":"1"}},{"base_weights":[6.2005736E-2,-1.1552115E-2,4.383495E-2,3.8015224E-2,-4.43605E-2,3.1662416E-3,-0E0,-5.8879532E-2,-0E0,-2.1730645E-3,-0E0],"categories":[],"categories_nodes":[],"categories_segments":[],"categories_sizes":[],"default_left":[0,0,0,0,0,0,0,0,0,0,0],"id":52,"left_children":[1,3,-1,5,7,-1,-1,9,-1,-1,-1],"loss_changes":[4.455385E0,6.1669573E-2,0E0,2.9392699E-2,2.5879193E-2,0E0,0E0,1.4103569E-2,0E0,0E0,0E0],"parents":[2147483647,0,0,1,1,3,3,4,4,7,7],"right_children":[2,4,-1,6,8,-1,-1,10,-1,-1,-1],"split_conditions":[1.5094482E0,1.9822884E-1,4.383495E-2,-1.3251132E-2,6.240911E-1,3.1662416E-3,-0E0,1.5752977E-1,-0E0,-2.1730645E-3,-0E0],"split_indices":[0,17,0,23,11,0,0,23,0,0,0],"split_type":[0,0,0,0,0,0,0,0,0,0,0],"sum_hessian":[3.508365E1,3.3934025E1,1.1496236E0,7.382196E0,2.655183E1,2.7262187E0,4.6559772E0,2.2104069E1,4.4477615E0,1.6953602E1,5.150466E0],"tree_param":{"num_deleted":"0","num_feature":"28","num_nodes":"11","size_leaf_vector":"1"}},{"base_weights":[-2.3342235E-2,1.5668843E-2,-6.6151604E-2,5.7538985E-3,-0E0,-0E0,-8.7356605E-2,-1.07365735E-1,-0E0,-0E0,-3.6361543E-3],"categories":[],"categories_nodes":[],"categories_segments":[],"categories_sizes":[],"default_left":[0,0,0,0,0,0,0,0,0,0,0],"id":53,"left_children":[1,3,5,-1,-1,-1,7,9,-1,-1,-1],"loss_changes":[8.576042E-2,9.132084E-2,3.4161568E-2,0E0,0E0,0E0,4.2975217E-2,2.5637165E-2,0E0,0E0,0E0],"parents":[2147483647,0,0,1,1,2,2,6,6,7,7],"right_children":[2,4,6,-1,-1,-1,8,10,-1,-1,-1],"split_conditions":[-2.7838466E-1,2.8744152E-1,-4.3201956E-1,5.7538985E-3,-0E0,-0E0,4.3896598E-1,-7.326004E-3,-0E0,-0E0,-3.6361543E-3],"split_indices":[0,20,1,0,0,0,2,22,0,0,0],"split_type":[0,0,0,0,0,0,0,0,0,0,0],"sum_hessian":[3.461743E1,1.2332993E1,2.228444E1,1.5714786E0,1.0761514E1,5.455592E0,1.6828846E1,1.4530848E1,2.2979987E0,1.5990667E0,1.2931781E1],"tree_param":{"num_deleted":"0","num_feature":"28","num_nodes":"11","size_leaf_vector":"1"}},{"base_weights":[3.0073421E-2,-4.868228E-2,4.318999E-2,-0E0,-6.935515E-2,-0E0,-1.08104855E-1,-3.724134E-3,-0E0],"categories":[],"categories_nodes":[],"categories_segments":[],"categories_sizes":[],"default_left":[0,0,0,0,0,0,0,0,0],"id":54,"left_children":[1,3,-1,-1,5,-1,7,-1,-1],"loss_changes":[4.501997E0,4.9409345E-2,0E0,0E0,4.842113E-2,0E0,2.022618E-2,0E0,0E0],"parents":[2147483647,0,0,1,1,4,4,6,6],"right_children":[2,4,-1,-1,6,-1,8,-1,-1],"split_conditions":[1.5094482E0,3.4248938E-3,4.318999E-2,-0E0,-7.49178E-1,-0E0,4.214348E-1,-3.724134E-3,-0E0],"split_indices":[0,17,0,0,15,0,14,0,0],"split_type":[0,0,0,0,0,0,0,0,0],"sum_hessian":[3.265734E1,3.1507715E1,1.1496236E0,6.2191834E0,2.5288532E1,1.1325094E1,1.3963438E1,1.166037E1,2.3030677E0],"tree_param":{"num_deleted":"0","num_feature":"28","num_nodes":"9","size_leaf_vector":"1"}},{"base_weights":[5.000315E-2,-3.0343896E-2,4.2497046E-2,-5.700183E-2,1.7097217E-3,-7.18628E-2,-0E0,-2.7000736E-3,-0E0],"categories":[],"categories_nodes":[],"categories_segments":[],"categories_sizes":[],"default_left":[0,0,0,0,0,0,0,0,0],"id":55,"left_children":[1,3,-1,5,-1,7,-1,-1,-1],"loss_changes":[4.2617974E0,7.533571E-2,0E0,3.553301E-2,0E0,3.1077787E-2,0E0,0E0,0E0],"parents":[2147483647,0,0,1,1,3,3,5,5],"right_children":[2,4,-1,6,-1,8,-1,-1,-1],"split_conditions":[1.5094482E0,1.9238923E0,4.2497046E-2,1.4256338E0,1.7097217E-3,6.461707E-1,-0E0,-2.7000736E-3,-0E0],"split_indices":[0,14,0,3,0,14,0,0,0],"split_type":[0,0,0,0,0,0,0,0,0],"sum_hessian":[3.1110365E1,2.9960741E1,1.1496236E0,2.7606564E1,2.354177E0,2.3879004E1,3.72756E0,1.8697628E1,5.181376E0],"tree_param":{"num_deleted":"0","num_feature":"28","num_nodes":"9","size_leaf_vector":"1"}},{"base_weights":[-5.6638694E-3,-3.8122583E-2,-0E0,-5.1484544E-2,-0E0,2.5408203E-2,-0E0,-0E0,-1.9764015E-3,1.0487546E-3,-0E0],"categories":[],"categories_nodes":[],"categories_segments":[],"categories_sizes":[],"default_left":[0,0,0,0,0,0,0,0,0,0,0],"id":56,"left_children":[1,3,5,7,-1,9,-1,-1,-1,-1,-1],"loss_changes":[2.3316313E-2,1.3882887E-2,3.455838E-3,9.830624E-3,0E0,1.6496566E-3,0E0,0E0,0E0,0E0,0E0],"parents":[2147483647,0,0,1,1,2,2,3,3,5,5],"right_children":[2,4,6,8,-1,10,-1,-1,-1,-1,-1],"split_conditions":[6.8218774E-1,1.1958212E0,2.7353713E-1,-1.0772388E0,-0E0,7.8365905E-3,-0E0,-0E0,-1.9764015E-3,1.0487546E-3,-0E0],"split_indices":[27,11,17,11,0,15,0,0,0,0,0],"split_type":[0,0,0,0,0,0,0,0,0,0,0],"sum_hessian":[2.9224758E1,1.5710508E1,1.351425E1,1.339974E1,2.3107674E0,4.3531017E0,9.161148E0,3.3404288E0,1.0059312E1,3.177655E0,1.1754465E0],"tree_param":{"num_deleted":"0","num_feature":"28","num_nodes":"11","size_leaf_vector":"1"}},{"base_weights":[3.3877913E-2,-3.7019584E-2,4.183108E-2,2.9434852E-2,-6.8236224E-2,1.6759976E-3,-0E0,-8.711734E-2,-0E0,-0E0,-2.8168273E-3],"categories":[],"categories_nodes":[],"categories_segments":[],"categories_sizes":[],"default_left":[0,0,0,0,0,0,0,0,0,0,0],"id":57,"left_children":[1,3,-1,5,7,-1,-1,9,-1,-1,-1],"loss_changes":[4.1858444E0,9.334348E-2,0E0,8.300863E-3,3.276971E-2,0E0,0E0,1.323238E-2,0E0,0E0,0E0],"parents":[2147483647,0,0,1,1,3,3,4,4,7,7],"right_children":[2,4,-1,6,8,-1,-1,10,-1,-1,-1],"split_conditions":[1.5094482E0,6.251932E-2,4.183108E-2,7.301836E-1,1.0693719E0,1.6759976E-3,-0E0,-2.182451E0,-0E0,-0E0,-2.8168273E-3],"split_indices":[0,20,0,27,13,0,0,27,0,0,0],"split_type":[0,0,0,0,0,0,0,0,0,0,0],"sum_hessian":[3.482536E1,3.3675735E1,1.1496236E0,5.662118E0,2.8013617E1,3.5090199E0,2.153098E0,2.1117922E1,6.8956947E0,1.5766175E0,1.9541304E1],"tree_param":{"num_deleted":"0","num_feature":"28","num_nodes":"11","size_leaf_vector":"1"}},{"base_weights":[3.957842E-2,-4.2904213E-2,8.2201415E-1,-5.194509E-2,-0E0,-1.6607101E-3,5.1824227E-2,-0E0,-6.0440097E-2,-2.0870732E-3,-0E0],"categories":[],"categories_nodes":[],"categories_segments":[],"categories_sizes":[],"default_left":[0,0,0,0,0,0,0,0,0,0,0],"id":58,"left_children":[1,3,5,7,-1,-1,-1,-1,9,-1,-1],"loss_changes":[2.5238957E0,1.6218394E-2,3.894431E0,1.9381285E-2,0E0,0E0,0E0,0E0,1.2093663E-2,0E0,0E0],"parents":[2147483647,0,0,1,1,2,2,3,3,8,8],"right_children":[2,4,6,8,-1,-1,-1,-1,10,-1,-1],"split_conditions":[9.119695E-3,1.0763546E0,-5.332164E-2,-7.4719507E-3,-0E0,-1.6607101E-3,5.1824227E-2,-0E0,1.5752977E-1,-2.0870732E-3,-0E0],"split_indices":[25,11,26,25,0,0,0,0,23,0,0],"split_type":[0,0,0,0,0,0,0,0,0,0,0],"sum_hessian":[3.1524921E1,2.87955E1,2.7294216E0,2.5337063E1,3.4584367E0,1.582587E0,1.1468346E0,1.5776186E0,2.3759443E1,2.0186567E1,3.572876E0],"tree_param":{"num_deleted":"0","num_feature":"28","num_nodes":"11","size_leaf_vector":"1"}},{"base_weights":[5.2539177E-2,8.9925355E-1,-3.2555517E-2,4.0079825E-2,-0E0,-6.9702975E-2,1.286481E-2,-7.594262E-2,-0E0,-0E0,1.6788462E-3,-0E0,-2.5044193E-3],"categories":[],"categories_nodes":[],"categories_segments":[],"categories_sizes":[],"default_left":[0,0,0,0,0,0,0,0,0,0,0,0,0],"id":59,"left_children":[1,3,5,-1,-1,7,9,11,-1,-1,-1,-1,-1],"loss_changes":[2.9485695E0,1.5865753E0,8.2937E-2,0E0,0E0,1.4880516E-2,8.930805E-3,1.5943587E-2,0E0,0E0,0E0,0E0,0E0],"parents":[2147483647,0,0,1,1,2,2,5,5,6,6,7,7],"right_children":[2,4,6,-1,-1,8,10,12,-1,-1,-1,-1,-1],"split_conditions":[-1.069147E0,-2.0419824E-1,6.461707E-1,4.0079825E-2,-0E0,1.4478294E0,1.3237857E0,-7.326004E-3,-0E0,-0E0,1.6788462E-3,-0E0,-2.5044193E-3],"split_indices":[10,1,14,0,0,15,14,22,0,0,0,0,0],"split_type":[0,0,0,0,0,0,0,0,0,0,0,0,0],"sum_hessian":[3.3502625E1,2.722378E0,3.0780245E1,1.575356E0,1.147022E0,2.269367E1,8.0865755E0,2.1540312E1,1.1533582E0,5.75462E0,2.3319552E0,1.5990667E0,1.9941244E1],"tree_param":{"num_deleted":"0","num_feature":"28","num_nodes":"13","size_leaf_vector":"1"}},{"base_weights":[-3.8492113E-2,-7.069403E-2,-0E0,-0E0,-1.0103522E-1,-0E0,1.8408697E-3,-0E0,-1.0988914E-1,-0E0,-3.5186512E-3],"categories":[],"categories_nodes":[],"categories_segments":[],"categories_sizes":[],"default_left":[0,0,0,0,0,0,0,0,0,0,0],"id":60,"left_children":[1,3,5,-1,7,-1,-1,-1,9,-1,-1],"loss_changes":[7.6384395E-2,4.605347E-2,1.4611627E-2,0E0,1.9325018E-2,0E0,0E0,0E0,1.0794759E-2,0E0,0E0],"parents":[2147483647,0,0,1,1,2,2,4,4,8,8],"right_children":[2,4,6,-1,8,-1,-1,-1,10,-1,-1],"split_conditions":[2.6703545E-1,-3.7734088E-1,-1.2338837E-1,-0E0,-2.182451E0,-0E0,1.8408697E-3,-0E0,-1.3053705E0,-0E0,-3.5186512E-3],"split_indices":[2,1,12,0,27,0,0,0,0,0,0],"split_type":[0,0,0,0,0,0,0,0,0,0,0],"sum_hessian":[3.2208702E1,2.4129396E1,8.079306E0,8.315197E0,1.5814199E1,5.1987405E0,2.8805654E0,1E0,1.4814199E1,1.1476693E0,1.366653E1],"tree_param":{"num_deleted":"0","num_feature":"28","num_nodes":"11","size_leaf_vector":"1"}},{"base_weights":[-2.3376921E-2,-4.868552E-2,4.5193136E-2,-0E0,-6.719136E-2,-0E0,1.8153636E-3,-0E0,-7.586564E-2,-2.5618258E-3,-0E0],"categories":[],"categories_nodes":[],"categories_segments":[],"categories_sizes":[],"default_left":[0,0,0,0,0,0,0,0,0,0,0],"id":61,"left_children":[1,3,5,-1,7,-1,-1,-1,9,-1,-1],"loss_changes":[6.3899666E-2,2.7694993E-2,8.006487E-4,0E0,1.5329152E-2,0E0,0E0,0E0,1.420664E-2,0E0,0E0],"parents":[2147483647,0,0,1,1,2,2,4,4,8,8],"right_children":[2,4,6,-1,8,-1,-1,-1,10,-1,-1],"split_conditions":[1.3237857E0,-3.668959E-1,-1.15683146E-1,-0E0,-7.0569078E-3,-0E0,1.8153636E-3,-0E0,1.1464175E0,-2.5618258E-3,-0E0],"split_indices":[14,1,12,0,22,0,0,0,6,0,0],"split_type":[0,0,0,0,0,0,0,0,0,0,0],"sum_hessian":[3.354697E1,3.0040932E1,3.5060396E0,8.609509E0,2.1431421E1,1.7740226E0,1.7320169E0,2.1729014E0,1.925852E1,1.6937939E1,2.3205817E0],"tree_param":{"num_deleted":"0","num_feature":"28","num_nodes":"11","size_leaf_vector":"1"}},{"base_weights":[-5.2019153E-3,-4.646089E-2,3.1911533E-2,-5.6298256E-2,-0E0,-0E0,9.9094905E-2,-0E0,-7.325962E-2,4.372331E-3,-0E0,-2.420475E-3,-0E0],"categories":[],"categories_nodes":[],"categories_segments":[],"categories_sizes":[],"default_left":[0,0,0,0,0,0,0,0,0,0,0,0,0],"id":62,"left_children":[1,3,5,7,-1,-1,9,-1,11,-1,-1,-1,-1],"loss_changes":[5.9454497E-2,1.7177265E-2,4.6153814E-2,1.5410766E-2,0E0,0E0,1.785317E-2,0E0,9.788506E-3,0E0,0E0,0E0,0E0],"parents":[2147483647,0,0,1,1,2,2,3,3,6,6,8,8],"right_children":[2,4,6,8,-1,-1,10,-1,12,-1,-1,-1,-1],"split_conditions":[1.9860788E-1,1.1357172E0,-8.064436E-1,-3.8888833E-1,-0E0,-0E0,-2.617109E-1,-0E0,3.978561E-1,4.372331E-3,-0E0,-2.420475E-3,-0E0],"split_indices":[3,2,11,1,0,0,1,0,1,0,0,0,0],"split_type":[0,0,0,0,0,0,0,0,0,0,0,0,0],"sum_hessian":[3.2108086E1,2.1465387E1,1.0642698E1,1.9719831E1,1.7455561E0,5.7352347E0,4.9074636E0,5.612218E0,1.4107613E1,2.5714786E0,2.3359847E0,1.2959339E1,1.148274E0],"tree_param":{"num_deleted":"0","num_feature":"28","num_nodes":"13","size_leaf_vector":"1"}},{"base_weights":[-1.0250915E-2,3.493911E-2,-4.8421986E-2,4.901042E-3,-0E0,-0E0,-8.4174216E-2,-9.764587E-2,-0E0,-0E0,-3.3437982E-3],"categories":[],"categories_nodes":[],"categories_segments":[],"categories_sizes":[],"default_left":[0,0,0,0,0,0,0,0,0,0,0],"id":63,"left_children":[1,3,5,-1,-1,-1,7,9,-1,-1,-1],"loss_changes":[6.5695316E-2,5.668743E-2,4.064017E-2,0E0,0E0,0E0,1.735694E-2,1.3143696E-2,0E0,0E0,0E0],"parents":[2147483647,0,0,1,1,2,2,6,6,7,7],"right_children":[2,4,6,-1,-1,-1,8,10,-1,-1,-1],"split_conditions":[2.7353713E-1,-4.3992934E-1,-1.2705002E0,4.901042E-3,-0E0,-0E0,8.902902E-1,0E0,-0E0,-0E0,-3.3437982E-3],"split_indices":[17,6,6,0,0,0,19,8,0,0,0],"split_type":[0,0,0,0,0,0,0,0,0,0,0],"sum_hessian":[3.219632E1,8.783475E0,2.3412846E1,1.5714786E0,7.211996E0,1.0598227E1,1.281462E1,1.1086112E1,1.7285082E0,1.7522104E0,9.333901E0],"tree_param":{"num_deleted":"0","num_feature":"28","num_nodes":"11","size_leaf_vector":"1"}},{"base_weights":[3.6227304E-2,-4.2544693E-2,4.0622067E-2,-6.963618E-2,-0E0,-0E0,-9.053401E-2,-0E0,-2.8832199E-3],"categories":[],"categories_nodes":[],"categories_segments":[],"categories_sizes":[],"default_left":[0,0,0,0,0,0,0,0,0],"id":64,"left_children":[1,3,-1,5,-1,-1,7,-1,-1],"loss_changes":[3.9547987E0,4.4863872E-2,0E0,2.088914E-2,0E0,0E0,4.3941587E-3,0E0,0E0],"parents":[2147483647,0,0,1,1,3,3,6,6],"right_children":[2,4,-1,6,-1,-1,8,-1,-1],"split_conditions":[1.3203735E0,8.158499E-2,4.0622067E-2,6.251932E-2,-0E0,-0E0,-5.8883773E-3,-0E0,-2.8832199E-3],"split_indices":[0,26,0,20,0,0,22,0,0],"split_type":[0,0,0,0,0,0,0,0,0],"sum_hessian":[3.0224916E1,2.9075293E1,1.1496236E0,1.9477962E1,9.59733E0,5.8141193E0,1.3663842E1,1.1756842E0,1.2488158E1],"tree_param":{"num_deleted":"0","num_feature":"28","num_nodes":"9","size_leaf_vector":"1"}},{"base_weights":[-2.975824E-2,-0E0,-5.2003767E-2,1.1123358E-2,-0E0,-7.3548965E-2,-0E0,-0E0,7.983854E-4,-9.704074E-2,-0E0,-0E0,-4.210905E-3],"categories":[],"categories_nodes":[],"categories_segments":[],"categories_sizes":[],"default_left":[0,0,0,0,0,0,0,0,0,0,0,0,0],"id":65,"left_children":[1,3,5,7,-1,9,-1,-1,-1,11,-1,-1,-1],"loss_changes":[3.9223757E-2,8.066291E-4,2.6335739E-2,2.9892446E-3,0E0,2.9943183E-2,0E0,0E0,0E0,4.381168E-2,0E0,0E0,0E0],"parents":[2147483647,0,0,1,1,2,2,3,3,5,5,9,9],"right_children":[2,4,6,8,-1,10,-1,-1,-1,12,-1,-1,-1],"split_conditions":[5.1352555E-1,4.880382E-1,2.7443767E-1,-3.3234233E-1,-0E0,1.4465973E-1,-0E0,-0E0,7.983854E-4,-6.070803E-2,-0E0,-0E0,-4.210905E-3],"split_indices":[20,24,14,15,0,23,0,0,0,23,0,0,0],"split_type":[0,0,0,0,0,0,0,0,0,0,0,0,0],"sum_hessian":[3.6249866E1,1.0548676E1,2.5701193E1,5.5193152E0,5.029361E0,1.7217422E1,8.48377E0,1.1597561E0,4.3595595E0,1.2644546E1,4.572876E0,4.899149E0,7.7453966E0],"tree_param":{"num_deleted":"0","num_feature":"28","num_nodes":"13","size_leaf_vector":"1"}},{"base_weights":[-0E0,1.5429846E-2,-2.9745435E-2,-0E0,5.5329975E-2,-4.0317252E-2,-0E0,1.0485376E-1,-0E0,-4.989906E-2,-0E0,-0E0,4.7796867E-3,-2.37379E-3,-0E0],"categories":[],"categories_nodes":[],"categories_segments":[],"categories_sizes":[],"default_left":[0,0,0,0,0,0,0,0,0,0,0,0,0,0,0],"id":66,"left_children":[1,3,5,-1,7,9,-1,11,-1,13,-1,-1,-1,-1,-1],"loss_changes":[1.9783404E-2,2.309652E-2,1.0094633E-2,0E0,4.4625998E-2,8.748887E-3,0E0,3.4345634E-2,0E0,1.4085233E-2,0E0,0E0,0E0,0E0,0E0],"parents":[2147483647,0,0,1,1,2,2,4,4,5,5,7,7,9,9],"right_children":[2,4,6,-1,8,10,-1,12,-1,14,-1,-1,-1,-1,-1],"split_conditions":[5.1352555E-1,2.6914963E-1,1.1958212E0,-0E0,9.98999E-1,1.3948181E-2,-0E0,1.6445422E-1,-0E0,5.024663E-1,-0E0,-0E0,4.7796867E-3,-2.37379E-3,-0E0],"split_indices":[20,8,11,0,22,1,0,22,0,10,0,0,0,0,0],"split_type":[0,0,0,0,0,0,0,0,0,0,0,0,0,0,0],"sum_hessian":[3.0342068E1,1.2657672E1,1.7684397E1,5.0511227E0,7.6065493E0,1.5380639E1,2.3037574E0,5.455533E0,2.1510162E0,1.3207426E1,2.1732125E0,2.306436E0,3.1490972E0,6.8998113E0,6.3076153E0],"tree_param":{"num_deleted":"0","num_feature":"28","num_nodes":"15","size_leaf_vector":"1"}},{"base_weights":[-1.0964264E-2,2.6395341E-2,-3.7180178E-2,4.7478853E-3,-0E0,-6.480785E-2,-0E0,-4.077213E-3,-0E0],"categories":[],"categories_nodes":[],"categories_segments":[],"categories_sizes":[],"default_left":[0,0,0,0,0,0,0,0,0],"id":67,"left_children":[1,3,5,-1,-1,7,-1,-1,-1],"loss_changes":[4.186173E-2,5.9070315E-2,1.815227E-2,0E0,0E0,5.2264288E-2,0E0,0E0,0E0],"parents":[2147483647,0,0,1,1,2,2,5,5],"right_children":[2,4,6,-1,-1,8,-1,-1,-1],"split_conditions":[1.11232206E-1,-4.3992934E-1,9.9635077E-1,4.7478853E-3,-0E0,4.30384E-2,-0E0,-4.077213E-3,-0E0],"split_indices":[19,6,21,0,0,26,0,0,0],"split_type":[0,0,0,0,0,0,0,0,0],"sum_hessian":[3.5233757E1,6.66146E0,2.8572298E1,1.5714786E0,5.089981E0,1.3055045E1,1.5517253E1,5.025547E0,8.029498E0],"tree_param":{"num_deleted":"0","num_feature":"28","num_nodes":"9","size_leaf_vector":"1"}},{"base_weights":[5.494272E-2,2.8462263E-2,-1.704245E-5,-2.7061246E-2,5.3472426E-2,-0E0,-4.1489135E-2,2.8272232E-3,-0E0,-1.4637237E-3,-0E0],"categories":[],"categories_nodes":[],"categories_segments":[],"categories_sizes":[],"default_left":[0,0,0,0,0,0,0,0,0,0,0],"id":68,"left_children":[1,-1,3,5,7,-1,9,-1,-1,-1,-1],"loss_changes":[2.2113664E0,0E0,3.711359E-2,1.562596E-2,2.2540776E-2,0E0,8.7292455E-3,0E0,0E0,0E0,0E0],"parents":[2147483647,0,0,2,2,3,3,4,4,6,6],"right_children":[2,-1,4,6,8,-1,10,-1,-1,-1,-1],"split_conditions":[-2.2228343E0,2.8462263E-2,9.6383077E-1,3.434896E-1,1.9458835E-1,-0E0,1.0763546E0,2.8272232E-3,-0E0,-1.4637237E-3,-0E0],"split_indices":[3,0,2,20,6,0,11,0,0,0,0],"split_type":[0,0,0,0,0,0,0,0,0,0,0],"sum_hessian":[3.435997E1,1.575356E0,3.2784615E1,2.831188E1,4.4727325E0,7.76402E0,2.0547861E1,3.299918E0,1.1728144E0,1.8247986E1,2.2998753E0],"tree_param":{"num_deleted":"0","num_feature":"28","num_nodes":"11","size_leaf_vector":"1"}},{"base_weights":[3.2292757E-2,-3.7378483E-2,3.7991796E-2,-5.5264886E-2,-0E0,-0E0,-6.1392162E-2,-2.037264E-3,-0E0],"categories":[],"categories_nodes":[],"categories_segments":[],"categories_sizes":[],"default_left":[0,0,0,0,0,0,0,0,0],"id":69,"left_children":[1,3,-1,5,-1,-1,7,-1,-1],"loss_changes":[3.4572117E0,2.9086106E-2,0E0,1.1035018E-2,0E0,0E0,6.1964467E-3,0E0,0E0],"parents":[2147483647,0,0,1,1,3,3,6,6],"right_children":[2,4,-1,6,-1,-1,8,-1,-1],"split_conditions":[1.4969685E0,6.128757E-1,3.7991796E-2,-7.326004E-3,-0E0,-0E0,1.4256338E0,-2.037264E-3,-0E0],"split_indices":[0,13,0,22,0,0,3,0,0],"split_type":[0,0,0,0,0,0,0,0,0],"sum_hessian":[3.1511354E1,3.0361832E1,1.1495211E0,2.2869799E1,7.4920344E0,1.5990667E0,2.1270731E1,1.8545208E1,2.7255237E0],"tree_param":{"num_deleted":"0","num_feature":"28","num_nodes":"9","size_leaf_vector":"1"}},{"base_weights":[4.5716614E-2,-2.267912E-2,3.92485E-2,-5.2201983E-2,5.6077205E-2,-0E0,-6.0172025E-2,-0E0,2.9892265E-3,-0E0,-2.2189687E-3],"categories":[],"categories_nodes":[],"categories_segments":[],"categories_sizes":[],"default_left":[0,0,0,0,0,0,0,0,0,0,0],"id":70,"left_children":[1,3,-1,5,7,-1,9,-1,-1,-1,-1],"loss_changes":[3.6248455E0,7.781024E-2,0E0,1.4064282E-2,2.158122E-2,0E0,1.9623004E-2,0E0,0E0,0E0,0E0],"parents":[2147483647,0,0,1,1,3,3,4,4,6,6],"right_children":[2,4,-1,6,8,-1,10,-1,-1,-1,-1],"split_conditions":[1.4905186E0,1.3805294E0,3.92485E-2,-7.8891724E-2,2.9356515E-1,-0E0,-1.4021215E0,-0E0,2.9892265E-3,-0E0,-2.2189687E-3],"split_indices":[0,2,0,26,27,0,0,0,0,0,0],"split_type":[0,0,0,0,0,0,0,0,0,0,0],"sum_hessian":[3.318911E1,3.2039486E1,1.1496236E0,2.8166693E1,3.872794E0,3.3303635E0,2.483633E1,1.1556976E0,2.7170963E0,5.150956E0,1.9685373E1],"tree_param":{"num_deleted":"0","num_feature":"28","num_nodes":"11","size_leaf_vector":"1"}},{"base_weights":[8.216473E-2,4.0959947E-2,-0E0,4.5667645E-2,-1.9617077E-2,-0E0,4.685276E-3,-2.473242E-2,-0E0,-1.027187E-3,-0E0],"categories":[],"categories_nodes":[],"categories_segments":[],"categories_sizes":[],"default_left":[0,0,0,0,0,0,0,0,0,0,0],"id":71,"left_children":[1,-1,3,5,7,-1,-1,9,-1,-1,-1],"loss_changes":[3.7785332E0,0E0,2.4006005E-2,4.883257E-2,4.9998304E-3,0E0,0E0,7.2866855E-3,0E0,0E0,0E0],"parents":[2147483647,0,0,2,2,3,3,4,4,7,7],"right_children":[2,-1,4,6,8,-1,-1,10,-1,-1,-1],"split_conditions":[-1.8108711E0,4.0959947E-2,1.11232206E-1,2.7791431E-2,1.8564656E0,-0E0,4.685276E-3,7.189666E-1,-0E0,-1.027187E-3,-0E0],"split_indices":[3,0,19,19,10,0,0,19,0,0,0],"split_type":[0,0,0,0,0,0,0,0,0,0,0],"sum_hessian":[3.2097954E1,1.1468346E0,3.0951118E1,5.6592627E0,2.5291857E1,4.0877843E0,1.5714786E0,2.3714571E1,1.5772862E0,1.8110712E1,5.6038585E0],"tree_param":{"num_deleted":"0","num_feature":"28","num_nodes":"11","size_leaf_vector":"1"}},{"base_weights":[6.259993E-2,-4.202005E-3,3.642371E-2,2.4175636E-2,-5.1201534E-2,4.077321E-3,-0E0,-7.0590846E-2,-0E0,-0E0,-2.7350625E-3],"categories":[],"categories_nodes":[],"categories_segments":[],"categories_sizes":[],"default_left":[0,0,0,0,0,0,0,0,0,0,0],"id":72,"left_children":[1,3,-1,5,7,-1,-1,9,-1,-1,-1],"loss_changes":[3.0450914E0,5.5437017E-2,0E0,5.064898E-2,2.3332365E-2,0E0,0E0,2.5023118E-2,0E0,0E0,0E0],"parents":[2147483647,0,0,1,1,3,3,4,4,7,7],"right_children":[2,4,-1,6,8,-1,-1,10,-1,-1,-1],"split_conditions":[1.4905186E0,-2.7838466E-1,3.642371E-2,1.11232206E-1,5.7037777E-1,4.077321E-3,-0E0,2.2726691E-1,-0E0,-0E0,-2.7350625E-3],"split_indices":[0,0,0,19,14,0,0,8,0,0,0],"split_type":[0,0,0,0,0,0,0,0,0,0,0],"sum_hessian":[3.0654993E1,2.9505472E1,1.1495211E0,1.2066879E1,1.7438593E1,2.1554217E0,9.911457E0,1.3382893E1,4.055701E0,2.7494657E0,1.0633427E1],"tree_param":{"num_deleted":"0","num_feature":"28","num_nodes":"11","size_leaf_vector":"1"}},{"base_weights":[-8.789967E-3,-1.478705E-1,-0E0,-6.0112313E-3,-0E0,-6.732196E-3,3.2608803E-2,-1.9617308E-2,-0E0,7.7226445E-2,-0E0,-9.860117E-4,-0E0,-0E0,3.6336856E-3],"categories":[],"categories_nodes":[],"categories_segments":[],"categories_sizes":[],"default_left":[0,0,0,0,0,0,0,0,0,0,0,0,0,0,0],"id":73,"left_children":[1,3,5,-1,-1,7,9,11,-1,13,-1,-1,-1,-1,-1],"loss_changes":[9.168524E-2,3.225319E-2,1.5716875E-2,0E0,0E0,3.3283408E-3,3.2154314E-2,6.2034484E-3,0E0,3.0973844E-2,0E0,0E0,0E0,0E0,0E0],"parents":[2147483647,0,0,1,1,2,2,5,5,6,6,7,7,9,9],"right_children":[2,4,6,-1,-1,8,10,12,-1,14,-1,-1,-1,-1,-1],"split_conditions":[-1.2599747E0,4.247704E-1,-5.337398E-1,-6.0112313E-3,-0E0,5.9441257E-1,7.8365905E-3,1.8564656E0,-0E0,-1.1184592E0,-0E0,-9.860117E-4,-0E0,-0E0,3.6336856E-3],"split_indices":[4,10,5,0,0,11,15,10,0,14,0,0,0,0,0],"split_type":[0,0,0,0,0,0,0,0,0,0,0,0,0,0,0],"sum_hessian":[3.0925476E1,3.3059216E0,2.7619555E1,2.14833E0,1.1575915E0,1.4499437E1,1.3120117E1,9.474032E0,5.025405E0,6.909007E0,6.2111106E0,8.474032E0,1E0,2.582587E0,4.32642E0],"tree_param":{"num_deleted":"0","num_feature":"28","num_nodes":"15","size_leaf_vector":"1"}},{"base_weights":[7.901494E-2,-3.3632764E-3,4.003255E-2,-3.1042958E-2,-0E0,-5.109227E-2,-0E0,-0E0,1.8198123E-2,-1.7911699E-3,-0E0,-0E0,8.394553E-4],"categories":[],"categories_nodes":[],"categories_segments":[],"categories_sizes":[],"default_left":[0,0,0,0,0,0,0,0,0,0,0,0,0],"id":74,"left_children":[1,3,-1,5,7,9,-1,-1,11,-1,-1,-1,-1],"loss_changes":[3.6436055E0,1.5358541E-2,0E0,1.6257599E-2,2.6601355E-3,7.4555874E-3,0E0,0E0,2.3955808E-3,0E0,0E0,0E0,0E0],"parents":[2147483647,0,0,1,1,3,3,4,4,5,5,8,8],"right_children":[2,4,-1,6,8,10,-1,-1,12,-1,-1,-1,-1],"split_conditions":[2.4796875E0,1.474532E-1,4.003255E-2,6.940564E-1,2.7039614E-1,2.5484768E-1,-0E0,-0E0,-1.4010115E-1,-1.7911699E-3,-0E0,-0E0,8.394553E-4],"split_indices":[16,5,0,18,8,7,0,0,7,0,0,0,0],"split_type":[0,0,0,0,0,0,0,0,0,0,0,0,0],"sum_hessian":[2.7753143E1,2.6606308E1,1.1468346E0,1.5261678E1,1.1344629E1,1.123114E1,4.030538E0,4.312133E0,7.032497E0,1.004813E1,1.1830096E0,1.5755081E0,5.456989E0],"tree_param":{"num_deleted":"0","num_feature":"28","num_nodes":"13","size_leaf_vector":"1"}},{"base_weights":[2.9151129E-2,7.958229E-1,-3.6282912E-2,3.942863E-2,-0E0,-1.5416782E-1,-0E0,-6.2696137E-3,-0E0,-2.1127565E-2,-0E0,-0E0,-9.88254E-4],"categories":[],"categories_nodes":[],"categories_segments":[],"categories_sizes":[],"default_left":[0,0,0,0,0,0,0,0,0,0,0,0,0],"id":75,"left_children":[1,3,5,-1,-1,7,9,-1,-1,11,-1,-1,-1],"loss_changes":[2.0980043E0,1.6254458E0,6.1028425E-2,0E0,0E0,3.5163343E-2,7.072202E-3,0E0,0E0,5.15345E-3,0E0,0E0,0E0],"parents":[2147483647,0,0,1,1,2,2,5,5,6,6,9,9],"right_children":[2,4,6,-1,-1,8,10,-1,-1,12,-1,-1,-1],"split_conditions":[-1.069147E0,-1.8639268E-1,-1.2599747E0,3.942863E-2,-0E0,0E0,9.9635077E-1,-6.2696137E-3,-0E0,-8.348848E-1,-0E0,-0E0,-9.88254E-4],"split_indices":[10,1,4,0,0,1,21,0,0,6,0,0,0],"split_type":[0,0,0,0,0,0,0,0,0,0,0,0,0],"sum_hessian":[3.26751E1,2.2925868E0,3.0382511E1,1.1482321E0,1.1443546E0,3.3059216E0,2.707659E1,2.14833E0,1.1575915E0,1.4843671E1,1.223292E1,4.5774717E0,1.0266199E1],"tree_param":{"num_deleted":"0","num_feature":"28","num_nodes":"13","size_leaf_vector":"1"}},{"base_weights":[-3.2378748E-2,-6.3738346E-2,1.5300886E-3,-0E0,-8.57615E-2,-0E0,-9.732399E-2,-3.508599E-3,-0E0],"categories":[],"categories_nodes":[],"categories_segments":[],"categories_sizes":[],"default_left":[0,0,0,0,0,0,0,0,0],"id":76,"left_children":[1,3,-1,-1,5,-1,7,-1,-1],"loss_changes":[8.330597E-2,2.7270652E-2,0E0,0E0,2.2263363E-2,0E0,1.4531195E-2,0E0,0E0],"parents":[2147483647,0,0,1,1,4,4,6,6],"right_children":[2,4,-1,-1,6,-1,8,-1,-1],"split_conditions":[1.3805294E0,-3.668959E-1,1.5300886E-3,-0E0,-7.326004E-3,-0E0,8.9507036E-2,-3.508599E-3,-0E0],"split_indices":[2,1,0,0,22,0,2,0,0],"split_type":[0,0,0,0,0,0,0,0,0],"sum_hessian":[2.7180727E1,2.4280872E1,2.8998563E0,7.6091523E0,1.6671719E1,1.5990667E0,1.5072653E1,1.1192553E1,3.8800998E0],"tree_param":{"num_deleted":"0","num_feature":"28","num_nodes":"9","size_leaf_vector":"1"}},{"base_weights":[7.899328E-2,-0E0,4.0357113E-2,-4.2969562E-2,2.9742928E-2,-7.869898E-2,-0E0,-0E0,1.0647011E-1,-0E0,-2.547745E-3,4.2671305E-3,-0E0],"categories":[],"categories_nodes":[],"categories_segments":[],"categories_sizes":[],"default_left":[0,0,0,0,0,0,0,0,0,0,0,0,0],"id":77,"left_children":[1,3,-1,5,7,9,-1,-1,11,-1,-1,-1,-1],"loss_changes":[3.710682E0,4.548256E-2,0E0,1.7157424E-2,5.576453E-2,1.2912527E-3,0E0,0E0,1.7239973E-2,0E0,0E0,0E0,0E0],"parents":[2147483647,0,0,1,1,3,3,4,4,5,5,8,8],"right_children":[2,4,-1,6,8,10,-1,-1,12,-1,-1,-1,-1],"split_conditions":[1.6506723E0,1.9860788E-1,4.0357113E-2,0E0,-6.81174E-1,-1.5700747E0,-0E0,-0E0,7.8365905E-3,-0E0,-2.547745E-3,4.2671305E-3,-0E0],"split_indices":[12,3,0,14,12,0,0,0,15,0,0,0,0],"split_type":[0,0,0,0,0,0,0,0,0,0,0,0,0],"sum_hessian":[3.0233109E1,2.907493E1,1.1581776E0,1.770813E1,1.1366801E1,7.3473897E0,1.0360739E1,6.4824157E0,4.884386E0,1E0,6.3473897E0,3.1491952E0,1.7351909E0],"tree_param":{"num_deleted":"0","num_feature":"28","num_nodes":"13","size_leaf_vector":"1"}},{"base_weights":[4.5613103E-2,3.883402E-2,-2.2624558E-2,-4.2452443E-2,-0E0,-5.7672348E-2,-0E0,1.4786499E-3,-0E0,-2.083105E-3,-0E0,2.8756444E-4,-0E0],"categories":[],"categories_nodes":[],"categories_segments":[],"categories_sizes":[],"default_left":[0,0,0,0,0,0,0,0,0,0,0,0,0],"id":78,"left_children":[1,-1,3,5,7,9,-1,11,-1,-1,-1,-1,-1],"loss_changes":[3.5437598E0,0E0,2.2219624E-2,1.4275316E-2,1.1612459E-5,1.0766331E-2,0E0,3.7013114E-4,0E0,0E0,0E0,0E0,0E0],"parents":[2147483647,0,0,2,2,3,3,4,4,5,5,7,7],"right_children":[2,-1,4,6,8,10,-1,12,-1,-1,-1,-1,-1],"split_conditions":[-1.8108711E0,3.883402E-2,3.5873446E-1,6.240911E-1,4.4651926E-1,1.4256338E0,-0E0,-2.3208977E-1,-0E0,-2.083105E-3,-0E0,2.8756444E-4,-0E0],"split_indices":[3,0,5,11,19,3,0,1,0,0,0,0,0],"split_type":[0,0,0,0,0,0,0,0,0,0,0,0,0],"sum_hessian":[3.2778328E1,1.1468346E0,3.1631493E1,2.0597221E1,1.103427E1,1.4994122E1,5.603101E0,4.31121E0,6.7230597E0,1.22665615E1,2.72756E0,3.15474E0,1.1564701E0],"tree_param":{"num_deleted":"0","num_feature":"28","num_nodes":"13","size_leaf_vector":"1"}},{"base_weights":[-9.20777E-3,-0E0,-6.4356945E-2,2.9099697E-2,-1.0081427E-2,-0E0,-9.733446E-2,-0E0,3.963185E-3,-1.9553278E-2,-0E0,-0E0,-3.5825032E-3,-8.428635E-4,-0E0],"categories":[],"categories_nodes":[],"categories_segments":[],"categories_sizes":[],"default_left":[0,0,0,0,0,0,0,0,0,0,0,0,0,0,0],"id":79,"left_children":[1,3,5,7,9,-1,11,-1,-1,13,-1,-1,-1,-1,-1],"loss_changes":[3.0872315E-2,1.2517514E-2,2.3093786E-2,3.413809E-2,3.8119568E-3,0E0,4.1849837E-3,0E0,0E0,3.1274213E-3,0E0,0E0,0E0,0E0,0E0],"parents":[2147483647,0,0,1,1,2,2,3,3,4,4,6,6,9,9],"right_children":[2,4,6,8,10,-1,12,-1,-1,14,-1,-1,-1,-1,-1],"split_conditions":[5.3619117E-1,4.051719E-2,-8.791775E-2,9.0226936E-1,7.670325E-1,-0E0,-0E0,-0E0,3.963185E-3,1.0693719E0,-0E0,-0E0,-3.5825032E-3,-8.428635E-4,-0E0],"split_indices":[0,26,26,22,19,0,13,0,0,13,0,0,0,0,0],"split_type":[0,0,0,0,0,0,0,0,0,0,0,0,0,0,0],"sum_hessian":[3.5375347E1,2.8176931E1,7.198414E0,1.1682526E1,1.6494406E1,2.1766567E0,5.021757E0,1.0111047E1,1.5714786E0,1.3620863E1,2.8735435E0,1.7276809E0,3.2940762E0,1.0043741E1,3.5771215E0],"tree_param":{"num_deleted":"0","num_feature":"28","num_nodes":"15","size_leaf_vector":"1"}},{"base_weights":[6.548975E-2,-0E0,3.939683E-2,-2.3428153E-2,4.6654E-2,-0E0,-4.0105414E-2,-0E0,2.7676781E-3,-1.603326E-3,-0E0],"categories":[],"categories_nodes":[],"categories_segments":[],"categories_sizes":[],"default_left":[0,0,0,0,0,0,0,0,0,0,0],"id":80,"left_children":[1,3,-1,5,7,-1,9,-1,-1,-1,-1],"loss_changes":[3.5664806E0,2.8741937E-2,0E0,1.6018752E-2,1.9687612E-2,0E0,1.4378034E-2,0E0,0E0,0E0,0E0],"parents":[2147483647,0,0,1,1,3,3,4,4,6,6],"right_children":[2,4,-1,6,8,-1,10,-1,-1,-1,-1],"split_conditions":[1.6506723E0,9.6383077E-1,3.939683E-2,-4.4717085E-1,1.8507697E-1,-0E0,7.670325E-1,-0E0,2.7676781E-3,-1.603326E-3,-0E0],"split_indices":[12,2,0,0,21,0,19,0,0,0,0],"split_type":[0,0,0,0,0,0,0,0,0,0,0],"sum_hessian":[3.5242702E1,3.4084522E1,1.1581776E0,2.9594673E1,4.489849E0,1.0195143E1,1.939953E1,1.7727528E0,2.7170963E0,1.5521315E1,3.8782158E0],"tree_param":{"num_deleted":"0","num_feature":"28","num_nodes":"11","size_leaf_vector":"1"}},{"base_weights":[-3.430681E-2,-8.292952E-2,-0E0,-3.004019E-3,-0E0,-0E0,-4.565595E-3,-0E0,2.3172821E-3,-9.703912E-3,-0E0,1.4058777E-4,-0E0,-4.5223022E-4,-0E0],"categories":[],"categories_nodes":[],"categories_segments":[],"categories_sizes":[],"default_left":[0,0,0,0,0,0,0,0,0,0,0,0,0,0,0],"id":81,"left_children":[1,3,5,-1,-1,7,9,-1,11,13,-1,-1,-1,-1,-1],"loss_changes":[3.356102E-2,2.0784967E-2,2.840177E-4,0E0,0E0,4.115971E-5,8.907528E-4,0E0,1.0121695E-4,1.0745039E-3,0E0,0E0,0E0,0E0,0E0],"parents":[2147483647,0,0,1,1,2,2,5,5,6,6,8,8,9,9],"right_children":[2,4,6,-1,-1,8,10,-1,12,14,-1,-1,-1,-1,-1],"split_conditions":[4.7803098E-1,4.3896598E-1,3.7635166E-2,-3.004019E-3,-0E0,-8.465311E-1,7.670325E-1,-0E0,1.5578082E0,1.0693719E0,-0E0,1.4058777E-4,-0E0,-4.5223022E-4,-0E0],"split_indices":[24,2,26,0,0,2,19,0,9,13,0,0,0,0,0],"split_type":[0,0,0,0,0,0,0,0,0,0,0,0,0,0,0],"sum_hessian":[3.0955084E1,9.348644E0,2.160644E1,8.170989E0,1.177655E0,8.980997E0,1.2625443E1,2.315956E0,6.6650405E0,1.147554E1,1.1499028E0,5.4831524E0,1.1818883E0,8.898419E0,2.5771215E0],"tree_param":{"num_deleted":"0","num_feature":"28","num_nodes":"15","size_leaf_vector":"1"}},{"base_weights":[-2.5725212E-2,-0E0,-1.2329339E-1,-0E0,1.8295517E-2,-0E0,-1.9186363E-1,9.223016E-2,-0E0,-0E0,-7.1516447E-3,-0E0,4.358287E-3],"categories":[],"categories_nodes":[],"categories_segments":[],"categories_sizes":[],"default_left":[0,0,0,0,0,0,0,0,0,0,0,0,0],"id":82,"left_children":[1,3,5,-1,7,-1,9,11,-1,-1,-1,-1,-1],"loss_changes":[1.2032449E-1,4.359383E-3,7.934886E-2,0E0,4.074344E-2,0E0,5.5049166E-2,3.0273896E-2,0E0,0E0,0E0,0E0,0E0],"parents":[2147483647,0,0,1,1,2,2,4,4,6,6,7,7],"right_children":[2,4,6,-1,8,-1,10,12,-1,-1,-1,-1,-1],"split_conditions":[2.2437245E-1,1.9860788E-1,-7.0621185E-2,-0E0,1.7403361E-1,-0E0,3.222659E-1,1.6445422E-1,-0E0,-0E0,-7.1516447E-3,-0E0,4.358287E-3],"split_indices":[0,3,26,0,4,0,18,22,0,0,0,0,0],"split_type":[0,0,0,0,0,0,0,0,0,0,0,0,0],"sum_hessian":[3.2319096E1,2.3953121E1,8.365974E0,1.1929384E1,1.2023737E1,3.3427873E0,5.023187E0,4.302221E0,7.721516E0,1.1529087E0,3.8702784E0,1.7307422E0,2.5714786E0],"tree_param":{"num_deleted":"0","num_feature":"28","num_nodes":"13","size_leaf_vector":"1"}},{"base_weights":[4.0186383E-2,-5.8275396E-3,2.367069E-2,-3.60942E-2,6.6392176E-2,-4.3078374E-2,-0E0,2.6841094E-3,-0E0,-1.62305E-3,-0E0],"categories":[],"categories_nodes":[],"categories_segments":[],"categories_sizes":[],"default_left":[0,0,0,0,0,0,0,0,0,0,0],"id":83,"left_children":[1,3,-1,5,7,9,-1,-1,-1,-1,-1],"loss_changes":[1.5502999E0,5.7017002E-2,0E0,1.1188369E-2,8.156937E-3,1.24547295E-2,0E0,0E0,0E0,0E0,0E0],"parents":[2147483647,0,0,1,1,3,3,4,4,5,5],"right_children":[2,4,-1,6,8,10,-1,-1,-1,-1,-1],"split_conditions":[1.6576511E0,1.3805294E0,2.367069E-2,7.698927E-1,1.5869443E0,1.5752977E-1,-0E0,2.6841094E-3,-0E0,-1.62305E-3,-0E0],"split_indices":[12,2,0,6,2,23,0,0,0,0,0],"split_type":[0,0,0,0,0,0,0,0,0,0,0],"sum_hessian":[3.2494118E1,3.0918762E1,1.575356E0,2.7018906E1,3.8998563E0,2.4699179E1,2.319728E0,2.7170963E0,1.18276E0,1.9548712E1,5.150466E0],"tree_param":{"num_deleted":"0","num_feature":"28","num_nodes":"11","size_leaf_vector":"1"}},{"base_weights":[5.255138E-2,3.782991E-2,-7.6618805E-3,5.952352E-3,-3.5513625E-2,-0E0,8.37299E-2,-0E0,-5.4796297E-2,4.242357E-3,-0E0,-0E0,-2.2038126E-3],"categories":[],"categories_nodes":[],"categories_segments":[],"categories_sizes":[],"default_left":[0,0,0,0,0,0,0,0,0,0,0,0,0],"id":84,"left_children":[1,-1,3,5,7,-1,9,-1,11,-1,-1,-1,-1],"loss_changes":[3.3141713E0,0E0,2.8511573E-2,4.0738E-2,2.1663316E-2,0E0,3.0230403E-2,0E0,1.4809202E-2,0E0,0E0,0E0,0E0],"parents":[2147483647,0,0,2,2,3,3,4,4,6,6,8,8],"right_children":[2,-1,4,6,8,-1,10,-1,12,-1,-1,-1,-1],"split_conditions":[-1.8108711E0,3.782991E-2,-2.7838466E-1,-1.2903866E0,-8.079218E-1,-0E0,4.4651926E-1,-0E0,-7.8891724E-2,4.242357E-3,-0E0,-0E0,-2.2038126E-3],"split_indices":[3,0,0,0,9,0,19,0,26,0,0,0,0],"split_type":[0,0,0,0,0,0,0,0,0,0,0,0,0],"sum_hessian":[3.5801514E1,1.1468346E0,3.465468E1,1.1746802E1,2.2907875E1,6.8715467E0,4.8752556E0,6.6509113E0,1.6256964E1,2.5714786E0,2.3037767E0,4.9107456E0,1.1346218E1],"tree_param":{"num_deleted":"0","num_feature":"28","num_nodes":"13","size_leaf_vector":"1"}},{"base_weights":[3.1687696E-2,-3.7494373E-2,3.4144077E-2,-0E0,-5.1637604E-3,-8.67885E-3,-0E0,-5.647469E-4,-0E0],"categories":[],"categories_nodes":[],"categories_segments":[],"categories_sizes":[],"default_left":[0,0,0,0,0,0,0,0,0],"id":85,"left_children":[1,3,-1,5,-1,7,-1,-1,-1],"loss_changes":[2.7943256E0,5.4421466E-2,0E0,1.668237E-3,0E0,4.602042E-3,0E0,0E0,0E0],"parents":[2147483647,0,0,1,1,3,3,5,5],"right_children":[2,4,-1,6,-1,8,-1,-1,-1],"split_conditions":[1.4905186E0,1.7244476E0,3.4144077E-2,6.055532E-1,-5.1637604E-3,6.9889027E-1,-0E0,-5.647469E-4,-0E0],"split_indices":[0,16,0,5,0,18,0,0,0],"split_type":[0,0,0,0,0,0,0,0,0],"sum_hessian":[2.775814E1,2.660862E1,1.1495211E0,2.4461693E1,2.1469264E0,2.1147945E1,3.313748E0,1.669382E1,4.454124E0],"tree_param":{"num_deleted":"0","num_feature":"28","num_nodes":"9","size_leaf_vector":"1"}},{"base_weights":[2.0543797E-2,2.2373402E-2,-1.7620215E-2,-3.81482E-2,3.4903485E-2,-4.817894E-2,-0E0,1.5793053E-3,-0E0,-1.7131328E-3,-0E0],"categories":[],"categories_nodes":[],"categories_segments":[],"categories_sizes":[],"default_left":[0,0,0,0,0,0,0,0,0,0,0],"id":86,"left_children":[1,-1,3,5,7,9,-1,-1,-1,-1,-1],"loss_changes":[1.4276584E0,0E0,4.217556E-2,1.9983422E-2,2.7789832E-3,1.8909812E-2,0E0,0E0,0E0,0E0,0E0],"parents":[2147483647,0,0,2,2,3,3,4,4,5,5],"right_children":[2,-1,4,6,8,10,-1,-1,-1,-1,-1],"split_conditions":[-2.2228343E0,2.2373402E-2,1.3805294E0,1.0737381E0,1.5869443E0,1.4256338E0,-0E0,1.5793053E-3,-0E0,-1.7131328E-3,-0E0],"split_indices":[3,0,2,11,2,3,0,0,0,0,0],"split_type":[0,0,0,0,0,0,0,0,0,0,0],"sum_hessian":[3.695218E1,1.575356E0,3.5376823E1,3.2476967E1,2.8998563E0,2.859747E1,3.879497E0,1.7170963E0,1.18276E0,2.5867231E1,2.7302377E0],"tree_param":{"num_deleted":"0","num_feature":"28","num_nodes":"11","size_leaf_vector":"1"}},{"base_weights":[4.111163E-2,-1.1591191E-2,3.3430334E-2,-0E0,-5.159772E-3,-7.2399885E-3,2.5457855E-2,-5.1074807E-4,-0E0,2.0893083E-3,-0E0],"categories":[],"categories_nodes":[],"categories_segments":[],"categories_sizes":[],"default_left":[0,0,0,0,0,0,0,0,0,0,0],"id":87,"left_children":[1,3,-1,5,-1,7,9,-1,-1,-1,-1],"loss_changes":[2.612699E0,1.1796059E-1,0E0,1.1656414E-2,0E0,3.0246768E-3,2.947844E-2,0E0,0E0,0E0,0E0],"parents":[2147483647,0,0,1,1,3,3,5,5,6,6],"right_children":[2,4,-1,6,-1,8,10,-1,-1,-1,-1],"split_conditions":[1.4905186E0,9.669125E-3,3.3430334E-2,-5.337398E-1,-5.159772E-3,7.430974E-1,-2.7838466E-1,-5.1074807E-4,-0E0,2.0893083E-3,-0E0],"split_indices":[0,25,0,5,0,18,0,0,0,0,0],"split_type":[0,0,0,0,0,0,0,0,0,0,0],"sum_hessian":[3.5214973E1,3.4065453E1,1.1495211E0,3.0918526E1,3.1469264E0,1.5247114E1,1.5671412E1,1.237357E1,2.8735435E0,7.305419E0,8.365993E0],"tree_param":{"num_deleted":"0","num_feature":"28","num_nodes":"11","size_leaf_vector":"1"}},{"base_weights":[-0E0,-2.0103734E-2,4.0473964E-2,-4.1282956E-2,-0E0,2.512874E-3,-0E0,-5.830986E-2,-0E0,-2.170654E-3,-0E0],"categories":[],"categories_nodes":[],"categories_segments":[],"categories_sizes":[],"default_left":[0,0,0,0,0,0,0,0,0,0,0],"id":88,"left_children":[1,3,5,7,-1,-1,-1,9,-1,-1,-1],"loss_changes":[2.0028852E-2,2.1043807E-2,1.8069346E-2,1.9718435E-2,0E0,0E0,0E0,2.0231728E-2,0E0,0E0,0E0],"parents":[2147483647,0,0,1,1,2,2,3,3,7,7],"right_children":[2,4,6,8,-1,-1,-1,10,-1,-1,-1],"split_conditions":[1.1357172E0,1.474532E-1,1.9458835E-1,1.1958212E0,-0E0,2.512874E-3,-0E0,1.7994169E0,-0E0,-2.170654E-3,-0E0],"split_indices":[2,5,6,11,0,0,0,10,0,0,0],"split_type":[0,0,0,0,0,0,0,0,0,0,0],"sum_hessian":[3.2626854E1,2.8736944E1,3.8899107E0,1.839954E1,1.0337404E1,2.7170963E0,1.1728144E0,1.45235615E1,3.8759785E0,1.2946276E1,1.5772862E0],"tree_param":{"num_deleted":"0","num_feature":"28","num_nodes":"11","size_leaf_vector":"1"}},{"base_weights":[4.241723E-2,2.1798883E-2,-0E0,-7.353755E-2,4.037009E-3,-8.656704E-2,-0E0,-0E0,3.843053E-2,-2.9565466E-3,-0E0,-0E0,2.2389516E-3],"categories":[],"categories_nodes":[],"categories_segments":[],"categories_sizes":[],"default_left":[0,0,0,0,0,0,0,0,0,0,0,0,0],"id":89,"left_children":[1,-1,3,5,7,9,-1,-1,11,-1,-1,-1,-1],"loss_changes":[1.2997643E0,0E0,4.147945E-2,7.2421953E-3,1.8303884E-2,4.590176E-3,0E0,0E0,1.4064597E-2,0E0,0E0,0E0,0E0],"parents":[2147483647,0,0,2,2,3,3,4,4,5,5,8,8],"right_children":[2,-1,4,6,8,10,-1,-1,12,-1,-1,-1,-1],"split_conditions":[-2.2228343E0,2.1798883E-2,4.6073905E-1,1.0737381E0,-3.242721E-1,0E0,-0E0,-0E0,1.0686225E-1,-2.9565466E-3,-0E0,-0E0,2.2389516E-3],"split_indices":[3,0,24,11,12,1,0,0,3,0,0,0,0],"split_type":[0,0,0,0,0,0,0,0,0,0,0,0,0],"sum_hessian":[3.234712E1,1.575356E0,3.0771763E1,6.5944633E0,2.41773E1,5.446794E0,1.1476693E0,1.2506071E1,1.1671228E1,4.446794E0,1E0,6.7862315E0,4.884997E0],"tree_param":{"num_deleted":"0","num_feature":"28","num_nodes":"13","size_leaf_vector":"1"}},{"base_weights":[-5.7342682E-2,-7.6832324E-3,-1.720374E-1,-2.6707886E-2,-0E0,-0E0,-7.3414734E-3,-4.1870862E-2,-0E0,-0E0,-1.6084757E-3],"categories":[],"categories_nodes":[],"categories_segments":[],"categories_sizes":[],"default_left":[0,0,0,0,0,0,0,0,0,0,0],"id":90,"left_children":[1,3,5,7,-1,-1,-1,9,-1,-1,-1],"loss_changes":[9.14106E-2,1.1177106E-2,6.198229E-2,1.2790101E-2,0E0,0E0,0E0,9.596374E-3,0E0,0E0,0E0],"parents":[2147483647,0,0,1,1,2,2,3,3,7,7],"right_children":[2,4,6,8,-1,-1,-1,10,-1,-1,-1],"split_conditions":[8.877467E-1,7.445669E-1,-7.5879014E-1,5.055016E-1,-0E0,-0E0,-7.3414734E-3,-1.0636532E0,-0E0,-0E0,-1.6084757E-3],"split_indices":[20,27,13,24,0,0,0,11,0,0,0],"split_type":[0,0,0,0,0,0,0,0,0,0,0],"sum_hessian":[3.1058126E1,2.5460754E1,5.597373E0,1.685916E1,8.601594E0,2.3018003E0,3.2955725E0,1.3561768E1,3.2973926E0,2.3427181E0,1.1219049E1],"tree_param":{"num_deleted":"0","num_feature":"28","num_nodes":"11","size_leaf_vector":"1"}},{"base_weights":[3.5169378E-2,2.1484422E-2,-4.4763344E-3,-6.7210704E-2,-0E0,-0E0,-8.7450735E-2,2.8208347E-2,-0E0,-3.0312221E-3,-0E0,-0E0,3.6365048E-3,-3.3434227E-4,-0E0],"categories":[],"categories_nodes":[],"categories_segments":[],"categories_sizes":[],"default_left":[0,0,0,0,0,0,0,0,0,0,0,0,0,0,0],"id":91,"left_children":[1,-1,3,5,7,-1,9,11,13,-1,-1,-1,-1,-1,-1],"loss_changes":[1.2793057E0,0E0,3.3635717E-2,1.0591816E-2,8.379482E-3,0E0,4.8231333E-3,2.9404592E-2,1.1104493E-3,0E0,0E0,0E0,0E0,0E0,0E0],"parents":[2147483647,0,0,2,2,3,3,4,4,6,6,7,7,8,8],"right_children":[2,-1,4,6,8,-1,10,12,14,-1,-1,-1,-1,-1,-1],"split_conditions":[-2.2228343E0,2.1484422E-2,4.6073905E-1,-9.5062894E-1,2.7353713E-1,-0E0,9.119524E-3,1.3103092E-2,5.055016E-1,-3.0312221E-3,-0E0,-0E0,3.6365048E-3,-3.3434227E-4,-0E0],"split_indices":[3,0,24,5,17,0,25,17,24,0,0,0,0,0,0],"split_type":[0,0,0,0,0,0,0,0,0,0,0,0,0,0,0],"sum_hessian":[3.308657E1,1.575356E0,3.1511215E1,6.5902257E0,2.4920988E1,1.7218759E0,4.8683496E0,9.530813E0,1.5390176E1,3.8683496E0,1E0,7.9593344E0,1.5714786E0,7.940435E0,7.449741E0],"tree_param":{"num_deleted":"0","num_feature":"28","num_nodes":"15","size_leaf_vector":"1"}},{"base_weights":[-2.1752682E-2,-5.752062E-3,-0E0,-2.6317822E-2,1.4150264E-2,-1.2524262E-3,-0E0,6.801845E-2,-0E0,-0E0,2.844E-3],"categories":[],"categories_nodes":[],"categories_segments":[],"categories_sizes":[],"default_left":[0,0,0,0,0,0,0,0,0,0,0],"id":92,"left_children":[1,-1,3,5,7,-1,-1,9,-1,-1,-1],"loss_changes":[7.887321E-2,0E0,1.4873344E-2,9.5070535E-3,2.2113893E-2,0E0,0E0,1.3415808E-2,0E0,0E0,0E0],"parents":[2147483647,0,0,2,2,3,3,4,4,7,7],"right_children":[2,-1,4,6,8,-1,-1,10,-1,-1,-1],"split_conditions":[-1.8108711E0,-5.752062E-3,-0E0,6.128757E-1,-2.617109E-1,-1.2524262E-3,-0E0,2.2853443E-1,-0E0,-0E0,2.844E-3],"split_indices":[3,0,12,13,1,0,0,8,0,0,0],"split_type":[0,0,0,0,0,0,0,0,0,0,0],"sum_hessian":[3.2096725E1,1.5714786E0,3.0525246E1,1.5979796E1,1.4545449E1,1.1202798E1,4.776998E0,4.45261E0,1.0092839E1,1.1528225E0,3.2997878E0],"tree_param":{"num_deleted":"0","num_feature":"28","num_nodes":"11","size_leaf_vector":"1"}},{"base_weights":[-1.730786E-2,-0E0,-7.530241E-3,-2.6978986E-2,2.0847717E-2,-1.7121299E-3,-0E0,5.525762E-2,-0E0,-0E0,2.5868653E-3],"categories":[],"categories_nodes":[],"categories_segments":[],"categories_sizes":[],"default_left":[0,0,0,0,0,0,0,0,0,0,0],"id":93,"left_children":[1,3,-1,5,7,-1,-1,9,-1,-1,-1],"loss_changes":[1.5207088E-1,1.8303331E-2,0E0,1.3749289E-2,2.6931386E-2,0E0,0E0,2.0886775E-2,0E0,0E0,0E0],"parents":[2147483647,0,0,1,1,3,3,4,4,7,7],"right_children":[2,4,-1,6,8,-1,-1,10,-1,-1,-1],"split_conditions":[1.8029274E0,-7.5064313E-1,-7.530241E-3,-1.6020334E-1,1.7403361E-1,-1.7121299E-3,-0E0,1.4642046E-1,-0E0,-0E0,2.5868653E-3],"split_indices":[16,5,0,11,4,0,0,27,0,0,0],"split_type":[0,0,0,0,0,0,0,0,0,0,0],"sum_hessian":[3.278575E1,3.1211485E1,1.5742676E0,1.2193068E1,1.9018417E1,6.1695924E0,6.0234747E0,1.0669576E1,8.348841E0,4.0682898E0,6.6012864E0],"tree_param":{"num_deleted":"0","num_feature":"28","num_nodes":"11","size_leaf_vector":"1"}},{"base_weights":[-3.5526343E-2,-0E0,-1.2329668E-1,-7.1902256E-3,6.66455E-2,-0E0,-2.2192079E-1,-2.7854877E-2,-0E0,2.3823718E-3,-0E0,-8.1876805E-3,-0E0,-9.95759E-4,-0E0],"categories":[],"categories_nodes":[],"categories_segments":[],"categories_sizes":[],"default_left":[0,0,0,0,0,0,0,0,0,0,0,0,0,0,0],"id":94,"left_children":[1,3,5,7,9,-1,11,13,-1,-1,-1,-1,-1,-1,-1],"loss_changes":[1.3060707E-1,2.0482242E-2,1.1246851E-1,7.382728E-3,5.337633E-4,0E0,6.2039733E-2,1.8647285E-3,0E0,0E0,0E0,0E0,0E0,0E0,0E0],"parents":[2147483647,0,0,1,1,2,2,3,3,4,4,6,6,7,7],"right_children":[2,4,6,8,10,-1,12,14,-1,-1,-1,-1,-1,-1,-1],"split_conditions":[2.2437245E-1,1.3805294E0,4.7134048E-1,-7.4901557E-1,2.8778434E-2,-0E0,1.1913319E0,1.1958212E0,-0E0,2.3823718E-3,-0E0,-8.1876805E-3,-0E0,-9.95759E-4,-0E0],"split_indices":[0,2,13,5,0,0,13,11,0,0,0,0,0,0,0],"split_type":[0,0,0,0,0,0,0,0,0,0,0,0,0,0,0],"sum_hessian":[3.5966198E1,2.5305756E1,1.0660442E1,2.196159E1,3.3441641E0,5.7774324E0,4.8830094E0,1.0045099E1,1.19164915E1,2.1442876E0,1.1998767E0,3.7225976E0,1.1604117E0,8.471264E0,1.5738347E0],"tree_param":{"num_deleted":"0","num_feature":"28","num_nodes":"15","size_leaf_vector":"1"}},{"base_weights":[3.0301375E-2,-2.0634372E-2,3.42343E-2,-2.2086814E-1,-0E0,-8.38558E-3,-0E0,-4.0673153E-3,3.1270478E-2,-5.8897573E-4,-0E0,-0E0,2.2008065E-3],"categories":[],"categories_nodes":[],"categories_segments":[],"categories_sizes":[],"default_left":[0,0,0,0,0,0,0,0,0,0,0,0,0],"id":95,"left_children":[1,3,-1,5,7,-1,-1,9,11,-1,-1,-1,-1],"loss_changes":[2.7796588E0,1.660361E-1,0E0,1.9051775E-2,5.8552753E-3,0E0,0E0,8.897751E-3,1.7881606E-2,0E0,0E0,0E0,0E0],"parents":[2147483647,0,0,1,1,3,3,4,4,7,7,8,8],"right_children":[2,4,-1,6,8,-1,-1,10,12,-1,-1,-1,-1],"split_conditions":[1.5094482E0,-1.2599747E0,3.42343E-2,3.053155E-1,1.3805294E0,-8.38558E-3,-0E0,2.5484768E-1,2.9356515E-1,-5.8897573E-4,-0E0,-0E0,2.2008065E-3],"split_indices":[0,4,0,15,2,0,0,7,27,0,0,0,0],"split_type":[0,0,0,0,0,0,0,0,0,0,0,0,0],"sum_hessian":[3.780871E1,3.6659084E1,1.1496236E0,2.732273E0,3.392681E1,1.574165E0,1.158108E0,2.945408E1,4.4727325E0,2.3391996E1,6.062085E0,1.1556976E0,3.3170347E0],"tree_param":{"num_deleted":"0","num_feature":"28","num_nodes":"13","size_leaf_vector":"1"}},{"base_weights":[4.001377E-2,2.129751E-2,-0E0,-4.645671E-2,7.376711E-3,-0E0,