{"learner":{"attributes":{"scikit_learn":"{\"_estimator_type\": \"regressor\"}"},"feature_names":[],"feature_types":[],"gradient_booster":{"model":{"cats":{"enc":[],"feature_segments":[],"sorted_idx":[]},"gbtree_model_param":{"num_parallel_tree":"1","num_trees":"800"},"iteration_indptr":[0,1,2,3,4,5,6,7,8,9,10,11,12,13,14,15,16,17,18,19,20,21,22,23,24,25,26,27,28,29,30,31,32,33,34,35,36,37,38,39,40,41,42,43,44,45,46,47,48,49,50,51,52,53,54,55,56,57,58,59,60,61,62,63,64,65,66,67,68,69,70,71,72,73,74,75,76,77,78,79,80,81,82,83,84,85,86,87,88,89,90,91,92,93,94,95,96,97,98,99,100,101,102,103,104,105,106,107,108,109,110,111,112,113,114,115,116,117,118,119,120,121,122,123,124,125,126,127,128,129,130,131,132,133,134,135,136,137,138,139,140,141,142,143,144,145,146,147,148,149,150,151,152,153,154,155,156,157,158,159,160,161,162,163,164,165,166,167,168,169,170,171,172,173,174,175,176,177,178,179,180,181,182,183,184,185,186,187,188,189,190,191,192,193,194,195,196,197,198,199,200,201,202,203,204,205,206,207,208,209,210,211,212,213,214,215,216,217,218,219,220,221,222,223,224,225,226,227,228,229,230,231,232,233,234,235,236,237,238,239,240,241,242,243,244,245,246,247,248,249,250,251,252,253,254,255,256,257,258,259,260,261,262,263,264,265,266,267,268,269,270,271,272,273,274,275,276,277,278,279,280,281,282,283,284,285,286,287,288,289,290,291,292,293,294,295,296,297,298,299,300,301,302,303,304,305,306,307,308,309,310,311,312,313,314,315,316,317,318,319,320,321,322,323,324,325,326,327,328,329,330,331,332,333,334,335,336,337,338,339,340,341,342,343,344,345,346,347,348,349,350,351,352,353,354,355,356,357,358,359,360,361,362,363,364,365,366,367,368,369,370,371,372,373,374,375,376,377,378,379,380,381,382,383,384,385,386,387,388,389,390,391,392,393,394,395,396,397,398,399,400,401,402,403,404,405,406,407,408,409,410,411,412,413,414,415,416,417,418,419,420,421,422,423,424,425,426,427,428,429,430,431,432,433,434,435,436,437,438,439,440,441,442,443,444,445,446,447,448,449,450,451,452,453,454,455,456,457,458,459,460,461,462,463,464,465,466,467,468,469,470,471,472,473,474,475,476,477,478,479,480,481,482,483,484,485,486,487,488,489,490,491,492,493,494,495,496,497,498,499,500,501,502,503,504,505,506,507,508,509,510,511,512,513,514,515,516,517,518,519,520,521,522,523,524,525,526,527,528,529,530,531,532,533,534,535,536,537,538,539,540,541,542,543,544,545,546,547,548,549,550,551,552,553,554,555,556,557,558,559,560,561,562,563,564,565,566,567,568,569,570,571,572,573,574,575,576,577,578,579,580,581,582,583,584,585,586,587,588,589,590,591,592,593,594,595,596,597,598,599,600,601,602,603,604,605,606,607,608,609,610,611,612,613,614,615,616,617,618,619,620,621,622,623,624,625,626,627,628,629,630,631,632,633,634,635,636,637,638,639,640,641,642,643,644,645,646,647,648,649,650,651,652,653,654,655,656,657,658,659,660,661,662,663,664,665,666,667,668,669,670,671,672,673,674,675,676,677,678,679,680,681,682,683,684,685,686,687,688,689,690,691,692,693,694,695,696,697,698,699,700,701,702,703,704,705,706,707,708,709,710,711,712,713,714,715,716,717,718,719,720,721,722,723,724,725,726,727,728,729,730,731,732,733,734,735,736,737,738,739,740,741,742,743,744,745,746,747,748,749,750,751,752,753,754,755,756,757,758,759,760,761,762,763,764,765,766,767,768,769,770,771,772,773,774,775,776,777,778,779,780,781,782,783,784,785,786,787,788,789,790,791,792,793,794,795,796,797,798,799,800],"tree_info":[0,0,0,0,0,0,0,0,0,0,0,0,0,0,0,0,0,0,0,0,0,0,0,0,0,0,0,0,0,0,0,0,0,0,0,0,0,0,0,0,0,0,0,0,0,0,0,0,0,0,0,0,0,0,0,0,0,0,0,0,0,0,0,0,0,0,0,0,0,0,0,0,0,0,0,0,0,0,0,0,0,0,0,0,0,0,0,0,0,0,0,0,0,0,0,0,0,0,0,0,0,0,0,0,0,0,0,0,0,0,0,0,0,0,0,0,0,0,0,0,0,0,0,0,0,0,0,0,0,0,0,0,0,0,0,0,0,0,0,0,0,0,0,0,0,0,0,0,0,0,0,0,0,0,0,0,0,0,0,0,0,0,0,0,0,0,0,0,0,0,0,0,0,0,0,0,0,0,0,0,0,0,0,0,0,0,0,0,0,0,0,0,0,0,0,0,0,0,0,0,0,0,0,0,0,0,0,0,0,0,0,0,0,0,0,0,0,0,0,0,0,0,0,0,0,0,0,0,0,0,0,0,0,0,0,0,0,0,0,0,0,0,0,0,0,0,0,0,0,0,0,0,0,0,0,0,0,0,0,0,0,0,0,0,0,0,0,0,0,0,0,0,0,0,0,0,0,0,0,0,0,0,0,0,0,0,0,0,0,0,0,0,0,0,0,0,0,0,0,0,0,0,0,0,0,0,0,0,0,0,0,0,0,0,0,0,0,0,0,0,0,0,0,0,0,0,0,0,0,0,0,0,0,0,0,0,0,0,0,0,0,0,0,0,0,0,0,0,0,0,0,0,0,0,0,0,0,0,0,0,0,0,0,0,0,0,0,0,0,0,0,0,0,0,0,0,0,0,0,0,0,0,0,0,0,0,0,0,0,0,0,0,0,0,0,0,0,0,0,0,0,0,0,0,0,0,0,0,0,0,0,0,0,0,0,0,0,0,0,0,0,0,0,0,0,0,0,0,0,0,0,0,0,0,0,0,0,0,0,0,0,0,0,0,0,0,0,0,0,0,0,0,0,0,0,0,0,0,0,0,0,0,0,0,0,0,0,0,0,0,0,0,0,0,0,0,0,0,0,0,0,0,0,0,0,0,0,0,0,0,0,0,0,0,0,0,0,0,0,0,0,0,0,0,0,0,0,0,0,0,0,0,0,0,0,0,0,0,0,0,0,0,0,0,0,0,0,0,0,0,0,0,0,0,0,0,0,0,0,0,0,0,0,0,0,0,0,0,0,0,0,0,0,0,0,0,0,0,0,0,0,0,0,0,0,0,0,0,0,0,0,0,0,0,0,0,0,0,0,0,0,0,0,0,0,0,0,0,0,0,0,0,0,0,0,0,0,0,0,0,0,0,0,0,0,0,0,0,0,0,0,0,0,0,0,0,0,0,0,0,0,0,0,0,0,0,0,0,0,0,0,0,0,0,0,0,0,0,0,0,0,0,0,0,0,0,0,0,0,0,0,0,0,0,0,0,0,0,0,0,0,0,0,0,0,0,0,0,0,0,0,0,0,0,0,0,0,0,0,0,0,0,0,0,0,0,0,0,0,0,0,0,0,0,0,0,0,0,0,0,0,0,0,0,0,0,0,0,0,0,0,0,0,0,0,0,0,0,0,0,0,0,0,0,0,0,0,0,0,0,0,0,0,0,0,0,0,0,0,0,0,0,0,0,0,0,0,0,0,0,0,0,0,0,0,0,0,0,0,0,0,0,0,0,0,0,0,0,0,0,0,0,0,0,0,0,0,0,0,0,0,0,0,0,0,0,0,0,0,0,0,0,0,0,0,0,0,0,0,0],"trees":[{"base_weights":[-5.133229E-1,-5.674297E-1,-3.1089582E-3,-0E0,-5.887399E-1,-1.8250383E-2,-0E0],"categories":[],"categories_nodes":[],"categories_segments":[],"categories_sizes":[],"default_left":[0,0,0,0,0,0,0],"id":0,"left_children":[1,3,-1,-1,5,-1,-1],"loss_changes":[1.8478155E-1,1.899004E-1,0E0,0E0,6.391907E-2,0E0,0E0],"parents":[2147483647,0,0,1,1,4,4],"right_children":[2,4,-1,-1,6,-1,-1],"split_conditions":[1.9048171E-1,-2.0404139E0,-3.1089582E-3,-0E0,9.233399E-1,-1.8250383E-2,-0E0],"split_indices":[3,2,0,0,21,0,0],"split_type":[0,0,0,0,0,0,0],"sum_hessian":[2.5125048E1,2.0775791E1,4.349257E0,1E0,1.9775791E1,1.863093E1,1.1448612E0],"tree_param":{"num_deleted":"0","num_feature":"28","num_nodes":"7","size_leaf_vector":"1"}},{"base_weights":[-7.6872975E-2,-4.8994002E-1,1.3275003E-1,-5.2739173E-1,-0E0,-1.6447257E-2,-0E0],"categories":[],"categories_nodes":[],"categories_segments":[],"categories_sizes":[],"default_left":[0,0,0,0,0,0,0],"id":1,"left_children":[1,3,-1,5,-1,-1,-1],"loss_changes":[4.4498634E1,3.1323957E-1,0E0,1.1256933E-1,0E0,0E0,0E0],"parents":[2147483647,0,0,1,1,3,3],"right_children":[2,4,-1,6,-1,-1,-1],"split_conditions":[1.8304296E0,1.7316792E0,1.3275003E-1,2.130435E0,-0E0,-1.6447257E-2,-0E0],"split_indices":[18,2,0,4,0,0,0],"split_type":[0,0,0,0,0,0,0],"sum_hessian":[2.282166E1,2.182166E1,1E0,1.982166E1,2E0,1.864256E1,1.1791005E0],"tree_param":{"num_deleted":"0","num_feature":"28","num_nodes":"7","size_leaf_vector":"1"}},{"base_weights":[2.3273972E-1,-5.160892E-1,1.475273E-1,-5.6697863E-1,-0E0,-0E0,-1.7726552E-2],"categories":[],"categories_nodes":[],"categories_segments":[],"categories_sizes":[],"default_left":[0,0,0,0,0,0,0],"id":2,"left_children":[1,3,-1,5,-1,-1,-1],"loss_changes":[9.124356E1,3.8965082E-1,0E0,1.906395E-1,0E0,0E0,0E0],"parents":[2147483647,0,0,1,1,3,3],"right_children":[2,4,-1,6,-1,-1,-1],"split_conditions":[1.872013E0,2.4362688E-1,1.475273E-1,-2.0404139E0,-0E0,-0E0,-1.7726552E-2],"split_indices":[7,13,0,2,0,0,0],"split_type":[0,0,0,0,0,0,0],"sum_hessian":[2.3658327E1,2.1073095E1,2.5852327E0,1.8500664E1,2.5724306E0,1E0,1.7500664E1],"tree_param":{"num_deleted":"0","num_feature":"28","num_nodes":"7","size_leaf_vector":"1"}},{"base_weights":[-1.8747754E-1,-4.9576345E-1,9.4918475E-2,-5.249318E-1,-1.253883E-5,-5.475796E-1,-0E0,-1.6973784E-2,-0E0],"categories":[],"categories_nodes":[],"categories_segments":[],"categories_sizes":[],"default_left":[0,0,0,0,0,0,0,0,0],"id":3,"left_children":[1,3,-1,5,-1,7,-1,-1,-1],"loss_changes":[3.1957224E1,1.5781784E-1,0E0,1.7329311E-1,0E0,1.2893915E-1,0E0,0E0,0E0],"parents":[2147483647,0,0,1,1,3,3,5,5],"right_children":[2,4,-1,6,-1,8,-1,-1,-1],"split_conditions":[1.872013E0,1.1036323E0,9.4918475E-2,9.1184825E-1,-1.253883E-5,1.2176883E0,-0E0,-1.6973784E-2,-0E0],"split_indices":[7,15,0,20,0,17,0,0,0],"split_type":[0,0,0,0,0,0,0,0,0],"sum_hessian":[2.9703465E1,2.8118233E1,1.5852326E0,2.55449E1,2.5733323E0,2.397247E1,1.5724306E0,2.279337E1,1.1791005E0],"tree_param":{"num_deleted":"0","num_feature":"28","num_nodes":"9","size_leaf_vector":"1"}},{"base_weights":[1.467542E-1,4.2110195E0,-4.7210312E-1,-1.5830612E-3,1.7449614E-1,-0E0,-4.871678E-1,-5.0246286E-1,-0E0,-1.5580323E-2,-0E0],"categories":[],"categories_nodes":[],"categories_segments":[],"categories_sizes":[],"default_left":[0,0,0,0,0,0,0,0,0,0,0],"id":4,"left_children":[1,3,5,-1,-1,-1,7,9,-1,-1,-1],"loss_changes":[7.604041E1,3.057119E1,1.3404179E-1,0E0,0E0,0E0,1.2138224E-1,9.0761185E-2,0E0,0E0,0E0],"parents":[2147483647,0,0,1,1,2,2,6,6,7,7],"right_children":[2,4,6,-1,-1,-1,8,10,-1,-1,-1],"split_conditions":[-1.4280508E0,-5.624194E-1,-1.5644932E0,-1.5830612E-3,1.7449614E-1,-0E0,2.6930056E0,1.2176883E0,-0E0,-1.5580323E-2,-0E0],"split_indices":[16,4,11,0,0,0,4,17,0,0,0],"split_type":[0,0,0,0,0,0,0,0,0,0,0],"sum_hessian":[2.7698679E1,3E0,2.4698679E1,1E0,2E0,1E0,2.3698679E1,2.2698679E1,1E0,2.1519577E1,1.1791005E0],"tree_param":{"num_deleted":"0","num_feature":"28","num_nodes":"11","size_leaf_vector":"1"}},{"base_weights":[-1.9246328E-1,2.5654526E0,-4.8425534E-1,1.2450468E-1,-1.5593147E-3,-0E0,-5.1286066E-1,-0E0,-5.275589E-1,-1.6244175E-2,-0E0],"categories":[],"categories_nodes":[],"categories_segments":[],"categories_sizes":[],"default_left":[0,0,0,0,0,0,0,0,0,0,0],"id":5,"left_children":[1,3,5,-1,-1,-1,7,-1,9,-1,-1],"loss_changes":[2.547767E1,1.4708351E1,3.127718E-1,0E0,0E0,0E0,1.4082909E-1,0E0,5.7142258E-2,0E0,0E0],"parents":[2147483647,0,0,1,1,2,2,6,6,8,8],"right_children":[2,4,6,-1,-1,-1,8,-1,10,-1,-1],"split_conditions":[-1.5654349E0,-4.1655442E-1,-1.4575986E0,1.2450468E-1,-1.5593147E-3,-0E0,-2.1206086E0,-0E0,9.1429335E-1,-1.6244175E-2,-0E0],"split_indices":[16,1,11,0,0,0,12,0,22,0,0],"split_type":[0,0,0,0,0,0,0,0,0,0,0],"sum_hessian":[3.0408903E1,2E0,2.8408903E1,1E0,1E0,2E0,2.6408903E1,1E0,2.5408903E1,2.4264042E1,1.1448612E0],"tree_param":{"num_deleted":"0","num_feature":"28","num_nodes":"11","size_leaf_vector":"1"}},{"base_weights":[2.812718E-1,-4.842646E-1,1.6992363E-1,-1.51054105E-2,-0E0],"categories":[],"categories_nodes":[],"categories_segments":[],"categories_sizes":[],"default_left":[0,0,0,0,0],"id":6,"left_children":[1,3,-1,-1,-1],"loss_changes":[9.932221E1,9.672022E-2,0E0,0E0,0E0],"parents":[2147483647,0,0,1,1],"right_children":[2,4,-1,-1,-1],"split_conditions":[1.3071033E0,1.3176783E0,1.6992363E-1,-1.51054105E-2,-0E0],"split_indices":[7,3,0,0,0],"split_type":[0,0,0,0,0],"sum_hessian":[2.1808702E1,1.9808702E1,2E0,1.8629602E1,1.1791005E0],"tree_param":{"num_deleted":"0","num_feature":"28","num_nodes":"5","size_leaf_vector":"1"}},{"base_weights":[1.3626869E-1,-4.719105E-1,1.665252E-1,-4.8633948E-1,-0E0,-4.997593E-1,-0E0,-1.5435011E-2,-0E0],"categories":[],"categories_nodes":[],"categories_segments":[],"categories_sizes":[],"default_left":[0,0,0,0,0,0,0,0,0],"id":7,"left_children":[1,3,-1,5,-1,7,-1,-1,-1],"loss_changes":[9.772831E1,1.2449551E-1,0E0,4.63562E-2,0E0,4.856825E-2,0E0,0E0,0E0],"parents":[2147483647,0,0,1,1,3,3,5,5],"right_children":[2,4,-1,6,-1,8,-1,-1,-1],"split_conditions":[1.872013E0,2.6930056E0,1.665252E-1,9.1429335E-1,-0E0,2.1910684E0,-0E0,-1.5435011E-2,-0E0],"split_indices":[7,4,0,22,0,1,0,0,0],"split_type":[0,0,0,0,0,0,0,0,0],"sum_hessian":[2.7110695E1,2.5110695E1,2E0,2.4110695E1,1E0,2.2965834E1,1.1448612E0,2.1795677E1,1.1701564E0],"tree_param":{"num_deleted":"0","num_feature":"28","num_nodes":"9","size_leaf_vector":"1"}},{"base_weights":[-1.3427109E-1,-4.73784E-1,8.372964E-2,-4.876195E-1,-0E0,-0E0,-1.4980385E-2],"categories":[],"categories_nodes":[],"categories_segments":[],"categories_sizes":[],"default_left":[0,0,0,0,0,0,0],"id":8,"left_children":[1,3,-1,5,-1,-1,-1],"loss_changes":[2.4930168E1,3.839588E-2,0E0,7.671356E-3,0E0,0E0,0E0],"parents":[2147483647,0,0,1,1,3,3],"right_children":[2,4,-1,6,-1,-1,-1],"split_conditions":[1.872013E0,8.9400166E-1,8.372964E-2,-1.4575986E0,-0E0,-0E0,-1.4980385E-2],"split_indices":[7,20,0,11,0,0,0],"split_type":[0,0,0,0,0,0,0],"sum_hessian":[2.3936934E1,2.23517E1,1.5852326E0,2.1206839E1,1.1448612E0,1E0,2.0206839E1],"tree_param":{"num_deleted":"0","num_feature":"28","num_nodes":"7","size_leaf_vector":"1"}},{"base_weights":[1.3959417E-1,-4.402793E-1,1.6152008E-1,-0E0,-4.5324218E-1,-1.39465965E-2,-0E0],"categories":[],"categories_nodes":[],"categories_segments":[],"categories_sizes":[],"default_left":[0,0,0,0,0,0,0],"id":9,"left_children":[1,3,-1,-1,5,-1,-1],"loss_changes":[9.154586E1,1.0163307E-1,0E0,0E0,2.5308132E-2,0E0,0E0],"parents":[2147483647,0,0,1,1,4,4],"right_children":[2,4,-1,-1,6,-1,-1],"split_conditions":[1.5885168E0,-2.0404139E0,1.6152008E-1,-0E0,9.233399E-1,-1.39465965E-2,-0E0],"split_indices":[7,2,0,0,21,0,0],"split_type":[0,0,0,0,0,0,0],"sum_hessian":[2.7510645E1,2.5510645E1,2E0,1E0,2.4510645E1,2.3365784E1,1.1448612E0],"tree_param":{"num_deleted":"0","num_feature":"28","num_nodes":"7","size_leaf_vector":"1"}},{"base_weights":[1.5474793E-1,-4.430404E-1,1.5828964E-1,-4.9597737E-1,-1.7901765E-3,-1.5719596E-2,-0E0],"categories":[],"categories_nodes":[],"categories_segments":[],"categories_sizes":[],"default_left":[0,0,0,0,0,0,0],"id":10,"left_children":[1,3,-1,5,-1,-1,-1],"loss_changes":[8.7800804E1,2.0247507E-1,0E0,4.4923306E-2,0E0,0E0,0E0],"parents":[2147483647,0,0,1,1,3,3],"right_children":[2,4,-1,6,-1,-1,-1],"split_conditions":[1.8304296E0,7.8939754E-1,1.5828964E-1,1.5483441E0,-1.7901765E-3,-1.5719596E-2,-0E0],"split_indices":[18,4,0,2,0,0,0],"split_type":[0,0,0,0,0,0,0],"sum_hessian":[2.6125061E1,2.4125061E1,2E0,1.9793877E1,4.3311853E0,1.7793877E1,2E0],"tree_param":{"num_deleted":"0","num_feature":"28","num_nodes":"7","size_leaf_vector":"1"}},{"base_weights":[1.01641126E-1,-4.1428983E-1,1.2345681E-1,-4.406036E-1,-0E0,-4.5267582E-1,-0E0,-0E0,-1.3950649E-2],"categories":[],"categories_nodes":[],"categories_segments":[],"categories_sizes":[],"default_left":[0,0,0,0,0,0,0,0,0],"id":11,"left_children":[1,3,-1,5,-1,7,-1,-1,-1],"loss_changes":[6.50639E1,1.870122E-1,0E0,3.4343243E-2,0E0,1.948595E-2,0E0,0E0,0E0],"parents":[2147483647,0,0,1,1,3,3,5,5],"right_children":[2,4,-1,6,-1,8,-1,-1,-1],"split_conditions":[1.872013E0,2.130435E0,1.2345681E-1,9.233399E-1,-0E0,-2.1805263E0,-0E0,-0E0,-1.3950649E-2],"split_indices":[7,4,0,21,0,5,0,0,0],"split_type":[0,0,0,0,0,0,0,0,0],"sum_hessian":[2.8703749E1,2.6118515E1,2.5852327E0,2.3939415E1,2.1791005E0,2.2794554E1,1.1448612E0,1.1565568E0,2.1637997E1],"tree_param":{"num_deleted":"0","num_feature":"28","num_nodes":"9","size_leaf_vector":"1"}},{"base_weights":[-4.1733965E-1,-4.4415548E-1,-0E0,-4.5893613E-1,-0E0,-0E0,-4.7183332E-1,-1.45118935E-2,-0E0],"categories":[],"categories_nodes":[],"categories_segments":[],"categories_sizes":[],"default_left":[0,0,0,0,0,0,0,0,0],"id":12,"left_children":[1,3,-1,5,-1,-1,7,-1,-1],"loss_changes":[1.3964081E-1,1.0648584E-1,0E0,1.8511772E-2,0E0,0E0,1.16939545E-2,0E0,0E0],"parents":[2147483647,0,0,1,1,3,3,6,6],"right_children":[2,4,-1,6,-1,-1,8,-1,-1],"split_conditions":[1.6492654E-1,2.6930056E0,-0E0,-1.5241525E-1,-0E0,-0E0,1.1036323E0,-1.45118935E-2,-0E0],"split_indices":[25,4,0,25,0,0,15,0,0],"split_type":[0,0,0,0,0,0,0,0,0],"sum_hessian":[2.5105783E1,2.2756527E1,2.349257E0,2.1756527E1,1E0,1.1439092E0,2.0612617E1,1.9612617E1,1E0],"tree_param":{"num_deleted":"0","num_feature":"28","num_nodes":"9","size_leaf_vector":"1"}},{"base_weights":[1.3210927E-1,-4.0351266E-1,1.5294495E-1,-4.2887527E-1,-0E0,-0E0,-4.4137362E-1,-1.3854326E-2,-0E0],"categories":[],"categories_nodes":[],"categories_segments":[],"categories_sizes":[],"default_left":[0,0,0,0,0,0,0,0,0],"id":13,"left_children":[1,3,-1,5,-1,-1,7,-1,-1],"loss_changes":[8.1882515E1,1.7190027E-1,0E0,4.3400288E-2,0E0,0E0,1.2381554E-2,0E0,0E0],"parents":[2147483647,0,0,1,1,3,3,6,6],"right_children":[2,4,-1,6,-1,-1,8,-1,-1],"split_conditions":[1.8304296E0,2.130435E0,1.5294495E-1,-1.8225732E0,-0E0,-0E0,1.7316792E0,-1.3854326E-2,-0E0],"split_indices":[18,4,0,14,0,0,2,0,0],"split_type":[0,0,0,0,0,0,0,0,0],"sum_hessian":[2.812786E1,2.612786E1,2E0,2.394876E1,2.1791005E0,1.1701564E0,2.2778603E1,2.0778603E1,2E0],"tree_param":{"num_deleted":"0","num_feature":"28","num_nodes":"9","size_leaf_vector":"1"}},{"base_weights":[-8.9803316E-2,1.0760891E-1,-4.0077093E-1,-4.1477013E-1,-0E0,-0E0,-1.2782961E-2],"categories":[],"categories_nodes":[],"categories_segments":[],"categories_sizes":[],"default_left":[0,0,0,0,0,0,0],"id":14,"left_children":[1,-1,3,5,-1,-1,-1],"loss_changes":[2.9533237E1,0E0,1.1580944E-2,1.2699604E-2,0E0,0E0,0E0],"parents":[2147483647,0,0,2,2,3,3],"right_children":[2,-1,4,6,-1,-1,-1],"split_conditions":[-1.5654349E0,1.0760891E-1,1.8360865E0,-2.064531E0,-0E0,-0E0,-1.2782961E-2],"split_indices":[16,0,4,5,0,0,0],"split_type":[0,0,0,0,0,0,0],"sum_hessian":[2.4966362E1,1E0,2.3966362E1,2.2376812E1,1.5895503E0,1.1565568E0,2.1220255E1],"tree_param":{"num_deleted":"0","num_feature":"28","num_nodes":"7","size_leaf_vector":"1"}},{"base_weights":[2.385842E-1,-3.494815E-1,1.4893776E-1,-1.1203555E-2,-0E0],"categories":[],"categories_nodes":[],"categories_segments":[],"categories_sizes":[],"default_left":[0,0,0,0,0],"id":15,"left_children":[1,3,-1,-1,-1],"loss_changes":[7.5370995E1,1.0617995E-1,0E0,0E0,0E0],"parents":[2147483647,0,0,1,1],"right_children":[2,4,-1,-1,-1],"split_conditions":[1.8304296E0,2.130435E0,1.4893776E-1,-1.1203555E-2,-0E0],"split_indices":[18,4,0,0,0],"split_type":[0,0,0,0,0],"sum_hessian":[2.4665056E1,2.2665056E1,2E0,2.0485956E1,2.1791005E0],"tree_param":{"num_deleted":"0","num_feature":"28","num_nodes":"5","size_leaf_vector":"1"}},{"base_weights":[1.4905588E-1,-3.527329E-1,3.4408512E0,-4.0653378E-1,-2.8540704E-3,-4.9874494E-3,1.4595902E-1,-4.2293233E-1,-0E0,-0E0,-1.3155644E-2],"categories":[],"categories_nodes":[],"categories_segments":[],"categories_sizes":[],"default_left":[0,0,0,0,0,0,0,0,0,0,0],"id":16,"left_children":[1,3,5,7,-1,-1,-1,9,-1,-1,-1],"loss_changes":[4.990155E1,6.446242E-2,2.3710896E1,8.252025E-2,0E0,0E0,0E0,2.2236824E-2,0E0,0E0,0E0],"parents":[2147483647,0,0,1,1,2,2,3,3,7,7],"right_children":[2,4,6,8,-1,-1,-1,10,-1,-1,-1],"split_conditions":[1.8304296E0,2.4362688E-1,-2.7539387E-1,4.3406878E0,-2.8540704E-3,-4.9874494E-3,1.4595902E-1,-2.1805263E0,-0E0,-0E0,-1.3155644E-2],"split_indices":[18,13,0,0,0,0,0,5,0,0,0],"split_type":[0,0,0,0,0,0,0,0,0,0,0],"sum_hessian":[2.75411E1,2.45411E1,3E0,1.8217138E1,6.3239617E0,1E0,2E0,1.7217138E1,1E0,1.1565568E0,1.6060581E1],"tree_param":{"num_deleted":"0","num_feature":"28","num_nodes":"11","size_leaf_vector":"1"}},{"base_weights":[1.4111905E-1,-3.7129432E-1,1.1294009E-1,-4.2511046E-1,-2.722033E-3,-0E0,-4.428192E-1,-0E0,-1.38017535E-2],"categories":[],"categories_nodes":[],"categories_segments":[],"categories_sizes":[],"default_left":[0,0,0,0,0,0,0,0,0],"id":17,"left_children":[1,3,-1,5,-1,-1,7,-1,-1],"loss_changes":[5.3668743E1,7.572842E-2,0E0,9.46846E-2,0E0,0E0,3.4108162E-2,0E0,0E0],"parents":[2147483647,0,0,1,1,3,3,6,6],"right_children":[2,4,-1,6,-1,-1,8,-1,-1],"split_conditions":[1.872013E0,1.3057539E-1,1.1294009E-1,-2.4752586E0,-2.722033E-3,-0E0,-1.5800277E0,-0E0,-1.38017535E-2],"split_indices":[7,13,0,7,0,0,13,0,0],"split_type":[0,0,0,0,0,0,0,0,0],"sum_hessian":[2.6237968E1,2.3652735E1,2.5852327E0,1.7918324E1,5.7344112E0,1E0,1.6918324E1,1.1565568E0,1.5761767E1],"tree_param":{"num_deleted":"0","num_feature":"28","num_nodes":"9","size_leaf_vector":"1"}},{"base_weights":[-6.5764576E-2,-3.5492018E-1,6.7138426E-2,-3.74303E-1,-0E0,-0E0,-3.8808706E-1,-0E0,-1.2330817E-2],"categories":[],"categories_nodes":[],"categories_segments":[],"categories_sizes":[],"default_left":[0,0,0,0,0,0,0,0,0],"id":18,"left_children":[1,3,-1,5,-1,-1,7,-1,-1],"loss_changes":[1.56291685E1,6.5181494E-2,0E0,6.307697E-2,0E0,0E0,1.6544104E-2,0E0,0E0],"parents":[2147483647,0,0,1,1,3,3,6,6],"right_children":[2,4,-1,6,-1,-1,8,-1,-1],"split_conditions":[1.872013E0,1.4848556E-1,6.7138426E-2,-2.0404139E0,-0E0,-0E0,-1.4575986E0,-0E0,-1.2330817E-2],"split_indices":[7,25,0,2,0,0,11,0,0],"split_type":[0,0,0,0,0,0,0,0,0],"sum_hessian":[2.2683603E1,2.1098372E1,1.5852326E0,1.9334192E1,1.7641788E0,1E0,1.8334192E1,2E0,1.6334192E1],"tree_param":{"num_deleted":"0","num_feature":"28","num_nodes":"9","size_leaf_vector":"1"}},{"base_weights":[1.3769698E-1,-3.6142424E-1,1.0904452E-1,-0E0,-3.7226555E-1,-3.8490167E-1,-0E0,-0E0,-1.1926397E-2],"categories":[],"categories_nodes":[],"categories_segments":[],"categories_sizes":[],"default_left":[0,0,0,0,0,0,0,0,0],"id":19,"left_children":[1,3,-1,-1,5,7,-1,-1,-1],"loss_changes":[5.0042747E1,5.5454493E-2,0E0,0E0,5.4217577E-2,3.519988E-2,0E0,0E0,0E0],"parents":[2147483647,0,0,1,1,4,4,5,5],"right_children":[2,4,-1,-1,6,8,-1,-1,-1],"split_conditions":[1.872013E0,-2.0404139E0,1.0904452E-1,-0E0,1.9704001E0,-1.8893814E0,-0E0,-0E0,-1.1926397E-2],"split_indices":[7,2,0,0,10,17,0,0,0],"split_type":[0,0,0,0,0,0,0,0,0],"sum_hessian":[2.5979485E1,2.339425E1,2.5852327E0,1E0,2.239425E1,2.124939E1,1.1448612E0,1.1701564E0,2.0079233E1],"tree_param":{"num_deleted":"0","num_feature":"28","num_nodes":"9","size_leaf_vector":"1"}},{"base_weights":[1.3501917E-1,1.3725738E-1,-3.5787228E-1,-3.6997595E-1,-0E0,-0E0,-3.8021627E-1,-1.1750112E-2,-0E0],"categories":[],"categories_nodes":[],"categories_segments":[],"categories_sizes":[],"default_left":[0,0,0,0,0,0,0,0,0],"id":20,"left_children":[1,-1,3,5,-1,-1,7,-1,-1],"loss_changes":[6.564939E1,0E0,7.016444E-2,2.7500391E-2,0E0,0E0,3.234768E-2,0E0,0E0],"parents":[2147483647,0,0,2,2,3,3,6,6],"right_children":[2,-1,4,6,-1,-1,8,-1,-1],"split_conditions":[-1.4280508E0,1.3725738E-1,1.2176883E0,-1.2677993E0,-0E0,-0E0,2.1910684E0,-1.1750112E-2,-0E0],"split_indices":[16,0,17,26,0,0,1,0,0],"split_type":[0,0,0,0,0,0,0,0,0],"sum_hessian":[2.7285099E1,2E0,2.5285099E1,2.4105999E1,1.1791005E0,1.1439092E0,2.296209E1,2.1791933E1,1.1701564E0],"tree_param":{"num_deleted":"0","num_feature":"28","num_nodes":"9","size_leaf_vector":"1"}},{"base_weights":[-9.4579436E-2,-3.6049584E-1,9.5175646E-2,-4.0794772E-1,-2.4670498E-3,-4.2457756E-1,-0E0,-0E0,-1.3227685E-2],"categories":[],"categories_nodes":[],"categories_segments":[],"categories_sizes":[],"default_left":[0,0,0,0,0,0,0,0,0],"id":21,"left_children":[1,3,-1,5,-1,7,-1,-1,-1],"loss_changes":[2.3278893E1,6.594586E-2,0E0,7.754111E-2,0E0,4.907036E-2,0E0,0E0,0E0],"parents":[2147483647,0,0,1,1,3,3,5,5],"right_children":[2,4,-1,6,-1,8,-1,-1,-1],"split_conditions":[1.8304296E0,4.384433E-1,9.5175646E-2,4.4734994E-1,-2.4670498E-3,-2.064531E0,-0E0,-0E0,-1.3227685E-2],"split_indices":[18,17,0,13,0,5,0,0,0],"split_type":[0,0,0,0,0,0,0,0,0],"sum_hessian":[2.609701E1,2.509701E1,1E0,1.950746E1,5.58955E0,1.8362598E1,1.1448612E0,1.1565568E0,1.7206041E1],"tree_param":{"num_deleted":"0","num_feature":"28","num_nodes":"9","size_leaf_vector":"1"}},{"base_weights":[1.2536286E-1,-3.4046733E-1,1.0291815E-1,-0E0,-3.513687E-1,-3.665072E-1,-0E0,-1.2525089E-2,-2.3525236E-3],"categories":[],"categories_nodes":[],"categories_segments":[],"categories_sizes":[],"default_left":[0,0,0,0,0,0,0,0,0],"id":22,"left_children":[1,3,-1,-1,5,7,-1,-1,-1],"loss_changes":[4.462257E1,6.2330723E-2,0E0,0E0,2.4409533E-2,4.109931E-2,0E0,0E0,0E0],"parents":[2147483647,0,0,1,1,4,4,5,5],"right_children":[2,4,-1,-1,6,8,-1,-1,-1],"split_conditions":[1.872013E0,-2.0404139E0,1.0291815E-1,-0E0,8.120674E-1,5.586951E-1,-0E0,-1.2525089E-2,-2.3525236E-3],"split_indices":[7,2,0,0,22,17,0,0,0],"split_type":[0,0,0,0,0,0,0,0,0],"sum_hessian":[2.6219584E1,2.3634352E1,2.5852327E0,1E0,2.2634352E1,2.0903967E1,1.7303848E0,1.5903966E1,5E0],"tree_param":{"num_deleted":"0","num_feature":"28","num_nodes":"9","size_leaf_vector":"1"}},{"base_weights":[-3.9283942E-2,9.6121326E-2,-3.2261398E-1,-3.5398832E-1,-3.334689E-4,-1.10308E-2,-0E0],"categories":[],"categories_nodes":[],"categories_segments":[],"categories_sizes":[],"default_left":[0,0,0,0,0,0,0],"id":23,"left_children":[1,-1,3,5,-1,-1,-1],"loss_changes":[2.3044498E1,0E0,5.31528E-2,7.0388556E-2,0E0,0E0,0E0],"parents":[2147483647,0,0,2,2,3,3],"right_children":[2,-1,4,6,-1,-1,-1],"split_conditions":[-1.4280508E0,9.6121326E-2,2.4362688E-1,4.3406878E0,-3.334689E-4,-1.10308E-2,-0E0],"split_indices":[16,0,13,0,0,0,0],"split_type":[0,0,0,0,0,0,0],"sum_hessian":[2.4520424E1,1E0,2.3520424E1,1.9786013E1,3.7344115E0,1.8786013E1,1E0],"tree_param":{"num_deleted":"0","num_feature":"28","num_nodes":"7","size_leaf_vector":"1"}},{"base_weights":[1.9028248E-1,-3.4204063E-1,1.2862793E-1,-3.830084E-1,-9.991372E-4,-0E0,-4.0031293E-1,-0E0,-1.2545685E-2],"categories":[],"categories_nodes":[],"categories_segments":[],"categories_sizes":[],"default_left":[0,0,0,0,0,0,0,0,0],"id":24,"left_children":[1,3,-1,5,-1,-1,7,-1,-1],"loss_changes":[5.6896465E1,6.379008E-2,0E0,8.844805E-2,0E0,0E0,5.156541E-2,0E0,0E0],"parents":[2147483647,0,0,1,1,3,3,6,6],"right_children":[2,4,-1,6,-1,-1,8,-1,-1],"split_conditions":[1.872013E0,2.4362688E-1,1.2862793E-1,-2.6372511E0,-9.991372E-4,-0E0,-2.064531E0,-0E0,-1.2545685E-2],"split_indices":[7,13,0,6,0,0,5,0,0],"split_type":[0,0,0,0,0,0,0,0,0],"sum_hessian":[2.3509314E1,2.1509314E1,2E0,1.7347334E1,4.1619806E0,1E0,1.6347334E1,1.1565568E0,1.5190776E1],"tree_param":{"num_deleted":"0","num_feature":"28","num_nodes":"9","size_leaf_vector":"1"}},{"base_weights":[1.6006514E-1,1.2605536E-1,-3.3186737E-1,-0E0,-3.427156E-1,-3.5327637E-1,-0E0,-0E0,-1.1059728E-2],"categories":[],"categories_nodes":[],"categories_segments":[],"categories_sizes":[],"default_left":[0,0,0,0,0,0,0,0,0],"id":25,"left_children":[1,-1,3,-1,5,7,-1,-1,-1],"loss_changes":[5.494004E1,0E0,5.7866573E-2,0E0,2.2701263E-2,2.8162718E-2,0E0,0E0,0E0],"parents":[2147483647,0,0,2,2,4,4,5,5],"right_children":[2,-1,4,-1,6,8,-1,-1,-1],"split_conditions":[-1.4280508E0,1.2605536E-1,-2.0404139E0,-0E0,1.6366211E0,8.95866E-1,-0E0,-0E0,-1.1059728E-2],"split_indices":[16,0,2,0,26,27,0,0,0],"split_type":[0,0,0,0,0,0,0,0,0],"sum_hessian":[2.4957365E1,2E0,2.2957365E1,1E0,2.1957365E1,2.0787209E1,1.1701564E0,1.5728805E0,1.9214329E1],"tree_param":{"num_deleted":"0","num_feature":"28","num_nodes":"9","size_leaf_vector":"1"}},{"base_weights":[1.1880756E-1,-3.182057E-1,2.879161E0,-2.3939687E-1,-2.0910056E-2,1.2353423E-1,-5.0517083E-3,-2.508158E-1,-0E0,-7.7580446E-3,-0E0],"categories":[],"categories_nodes":[],"categories_segments":[],"categories_sizes":[],"default_left":[0,0,0,0,0,0,0,0,0,0,0],"id":26,"left_children":[1,3,5,7,-1,-1,-1,9,-1,-1,-1],"loss_changes":[3.524155E1,9.314299E-2,1.7767471E1,2.767682E-2,0E0,0E0,0E0,7.5941086E-3,0E0,0E0,0E0],"parents":[2147483647,0,0,1,1,2,2,3,3,7,7],"right_children":[2,4,6,8,-1,-1,-1,10,-1,-1,-1],"split_conditions":[1.779726E0,1.3202645E0,8.749143E-1,2.130435E0,-2.0910056E-2,1.2353423E-1,-5.0517083E-3,9.1429335E-1,-0E0,-7.7580446E-3,-0E0],"split_indices":[18,6,2,4,0,0,0,22,0,0,0],"split_type":[0,0,0,0,0,0,0,0,0,0,0],"sum_hessian":[2.6393356E1,2.3393356E1,3E0,2.1808125E1,1.5852326E0,2E0,1E0,2.0218575E1,1.5895503E0,1.9073713E1,1.1448612E0],"tree_param":{"num_deleted":"0","num_feature":"28","num_nodes":"11","size_leaf_vector":"1"}},{"base_weights":[-6.36171E-2,-3.0227628E-1,8.508911E-2,-0E0,-3.297637E-1,-3.4291375E-1,-0E0,-0E0,-1.0651958E-2],"categories":[],"categories_nodes":[],"categories_segments":[],"categories_sizes":[],"default_left":[0,0,0,0,0,0,0,0,0],"id":27,"left_children":[1,3,-1,-1,5,7,-1,-1,-1],"loss_changes":[1.8366983E1,6.410909E-2,0E0,0E0,6.077814E-2,3.7002802E-2,0E0,0E0,0E0],"parents":[2147483647,0,0,1,1,4,4,5,5],"right_children":[2,4,-1,-1,6,8,-1,-1,-1],"split_conditions":[1.872013E0,2.0769422E-3,8.508911E-2,-0E0,7.753163E-1,-1.2677993E0,-0E0,-0E0,-1.0651958E-2],"split_indices":[7,21,0,0,13,26,0,0,0],"split_type":[0,0,0,0,0,0,0,0,0],"sum_hessian":[2.6130253E1,2.5130253E1,1E0,3.5850782E0,2.1545174E1,2.0366074E1,1.1791005E0,1.1439092E0,1.9222164E1],"tree_param":{"num_deleted":"0","num_feature":"28","num_nodes":"9","size_leaf_vector":"1"}},{"base_weights":[-6.2306207E-2,8.7729834E-2,-3.236358E-1,-3.4007254E-1,-0E0,-0E0,-3.5189047E-1,-1.1308162E-2,-0E0],"categories":[],"categories_nodes":[],"categories_segments":[],"categories_sizes":[],"default_left":[0,0,0,0,0,0,0,0,0],"id":28,"left_children":[1,-1,3,5,-1,-1,7,-1,-1],"loss_changes":[1.9573763E1,0E0,6.3599825E-2,6.2359333E-2,0E0,0E0,7.193637E-2,0E0,0E0],"parents":[2147483647,0,0,2,2,3,3,6,6],"right_children":[2,-1,4,6,-1,-1,8,-1,-1],"split_conditions":[-1.4280508E0,8.7729834E-2,1.6492654E-1,-2.0404139E0,-0E0,-0E0,1.9704001E0,-1.1308162E-2,-0E0],"split_indices":[16,0,25,2,0,0,10,0,0],"split_type":[0,0,0,0,0,0,0,0,0],"sum_hessian":[2.4532095E1,1E0,2.3532095E1,2.1767916E1,1.7641788E0,1E0,2.0767916E1,1.8477303E1,2.2906132E0],"tree_param":{"num_deleted":"0","num_feature":"28","num_nodes":"9","size_leaf_vector":"1"}},{"base_weights":[8.924339E-2,-3.0939353E-1,2.7377348E0,-3.3807766E-1,-0E0,1.1760712E-1,-4.646587E-3,-3.6080366E-1,-0E0,-1.1200433E-2,-0E0],"categories":[],"categories_nodes":[],"categories_segments":[],"categories_sizes":[],"default_left":[0,0,0,0,0,0,0,0,0,0,0],"id":29,"left_children":[1,3,5,7,-1,-1,-1,9,-1,-1,-1],"loss_changes":[3.2198708E1,1.1106706E-1,1.6171997E1,5.7043552E-2,0E0,0E0,0E0,4.5490265E-2,0E0,0E0,0E0],"parents":[2147483647,0,0,1,1,2,2,3,3,7,7],"right_children":[2,4,6,8,-1,-1,-1,10,-1,-1,-1],"split_conditions":[1.8304296E0,1.3583728E0,8.749143E-1,1.7112794E0,-0E0,1.1760712E-1,-4.646587E-3,1.5483441E0,-0E0,-1.1200433E-2,-0E0],"split_indices":[18,4,2,10,0,0,0,2,0,0,0],"split_type":[0,0,0,0,0,0,0,0,0,0,0],"sum_hessian":[2.7545073E1,2.4545073E1,3E0,2.1365973E1,3.1791005E0,2E0,1E0,1.907536E1,2.2906132E0,1.807536E1,1E0],"tree_param":{"num_deleted":"0","num_feature":"28","num_nodes":"11","size_leaf_vector":"1"}},{"base_weights":[-5.236853E-2,-3.0741328E-1,8.073269E-2,-2.2052884E-1,-2.171495E-2,-7.061726E-3,-0E0],"categories":[],"categories_nodes":[],"categories_segments":[],"categories_sizes":[],"default_left":[0,0,0,0,0,0,0],"id":30,"left_children":[1,3,-1,5,-1,-1,-1],"loss_changes":[1.6616327E1,2.1006036E-1,0E0,2.618301E-2,0E0,0E0,0E0],"parents":[2147483647,0,0,1,1,3,3],"right_children":[2,4,-1,6,-1,-1,-1],"split_conditions":[1.8304296E0,1.3202645E0,8.073269E-2,1.8360865E0,-2.171495E-2,-7.061726E-3,-0E0],"split_indices":[18,6,0,4,0,0,0],"split_type":[0,0,0,0,0,0,0],"sum_hessian":[2.3268652E1,2.2268652E1,1E0,2.068342E1,1.5852326E0,1.850432E1,2.1791005E0],"tree_param":{"num_deleted":"0","num_feature":"28","num_nodes":"7","size_leaf_vector":"1"}},{"base_weights":[-1.22496836E-1,-3.3074123E-1,1.3127954E0,-3.6718506E-1,-9.74294E-4,7.952167E-2,-0E0,-3.9436084E-1,-0E0,-1.26337875E-2,-0E0],"categories":[],"categories_nodes":[],"categories_segments":[],"categories_sizes":[],"default_left":[0,0,0,0,0,0,0,0,0,0,0],"id":31,"left_children":[1,3,5,7,-1,-1,-1,9,-1,-1,-1],"loss_changes":[8.991642E0,8.760834E-2,7.6194124E0,1.14884615E-1,0E0,0E0,0E0,9.571552E-2,0E0,0E0,0E0],"parents":[2147483647,0,0,1,1,2,2,3,3,7,7],"right_children":[2,4,6,8,-1,-1,-1,10,-1,-1,-1],"split_conditions":[1.0043375E0,5.586951E-1,-2.5367022E-1,8.120674E-1,-9.74294E-4,7.952167E-2,-0E0,3.158785E0,-0E0,-1.26337875E-2,-0E0],"split_indices":[24,17,0,22,0,0,0,0,0,0,0],"split_type":[0,0,0,0,0,0,0,0,0,0,0],"sum_hessian":[2.9273434E1,2.654062E1,2.7328122E0,2.195107E1,4.58955E0,1E0,1.7328122E0,1.9635607E1,2.315463E0,1.7635607E1,2E0],"tree_param":{"num_deleted":"0","num_feature":"28","num_nodes":"11","size_leaf_vector":"1"}},{"base_weights":[-1.7574271E-2,1.7336524E0,-2.815902E-1,8.3628275E-2,-0E0,-3.2626075E-1,-8.572495E-4,-3.4141624E-1,-0E0,-0E0,-1.0826079E-2],"categories":[],"categories_nodes":[],"categories_segments":[],"categories_sizes":[],"default_left":[0,0,0,0,0,0,0,0,0,0,0],"id":32,"left_children":[1,3,5,-1,-1,7,-1,9,-1,-1,-1],"loss_changes":[1.1239949E1,6.092351E0,6.960654E-2,0E0,0E0,4.0700912E-2,0E0,1.828599E-2,0E0,0E0,0E0],"parents":[2147483647,0,0,1,1,2,2,5,5,7,7],"right_children":[2,4,6,-1,-1,8,-1,10,-1,-1,-1],"split_conditions":[-9.991505E-1,-4.2050463E-1,1.3057539E-1,8.3628275E-2,-0E0,2.1910684E0,-8.572495E-4,-1.9995613E0,-0E0,-0E0,-1.0826079E-2],"split_indices":[26,1,13,0,0,1,0,8,0,0,0],"split_type":[0,0,0,0,0,0,0,0,0,0,0],"sum_hessian":[2.3824827E1,2.1439092E0,2.1680918E1,1E0,1.1439092E0,1.6501818E1,5.1791005E0,1.5331661E1,1.1701564E0,1.5728805E0,1.37587805E1],"tree_param":{"num_deleted":"0","num_feature":"28","num_nodes":"11","size_leaf_vector":"1"}},{"base_weights":[1.757681E-1,2.640916E0,-2.9335013E-1,-0E0,1.1214371E-1,-3.1029847E-1,-0E0,-3.1906924E-1,-0E0,-0E0,-1.00231515E-2],"categories":[],"categories_nodes":[],"categories_segments":[],"categories_sizes":[],"default_left":[0,0,0,0,0,0,0,0,0,0,0],"id":33,"left_children":[1,3,5,-1,-1,7,-1,9,-1,-1,-1],"loss_changes":[2.9974285E1,1.3012556E1,4.6330333E-2,0E0,0E0,4.8959255E-3,0E0,4.4430494E-3,0E0,0E0,0E0],"parents":[2147483647,0,0,1,1,2,2,5,5,7,7],"right_children":[2,4,6,-1,-1,8,-1,10,-1,-1,-1],"split_conditions":[-8.4761363E-1,3.5458776E-1,1.5825908E-1,-0E0,1.1214371E-1,1.4021124E0,-0E0,-1.9995613E0,-0E0,-0E0,-1.00231515E-2],"split_indices":[26,2,25,0,0,14,0,8,0,0,0],"split_type":[0,0,0,0,0,0,0,0,0,0,0],"sum_hessian":[2.3234413E1,3.144871E0,2.0089542E1,1.144871E0,2E0,1.8329836E1,1.7597066E0,1.7329836E1,1E0,1.5728805E0,1.5756954E1],"tree_param":{"num_deleted":"0","num_feature":"28","num_nodes":"11","size_leaf_vector":"1"}},{"base_weights":[-2.945815E-1,-1.9515534E-1,-2.2107178E-2,-2.0383018E-1,-0E0,-6.2571303E-3,-0E0],"categories":[],"categories_nodes":[],"categories_segments":[],"categories_sizes":[],"default_left":[0,0,0,0,0,0,0],"id":34,"left_children":[1,3,-1,5,-1,-1,-1],"loss_changes":[5.5676985E-1,1.6824365E-2,0E0,1.9907951E-4,0E0,0E0,0E0],"parents":[2147483647,0,0,1,1,3,3],"right_children":[2,4,-1,6,-1,-1,-1],"split_conditions":[1.9441125E0,2.130435E0,-2.2107178E-2,1.1046449E0,-0E0,-6.2571303E-3,-0E0],"split_indices":[6,4,0,15,0,0,0],"split_type":[0,0,0,0,0,0,0],"sum_hessian":[2.5526794E1,2.2941563E1,2.5852327E0,2.1352013E1,1.5895503E0,2.0352013E1,1E0],"tree_param":{"num_deleted":"0","num_feature":"28","num_nodes":"7","size_leaf_vector":"1"}},{"base_weights":[-4.5302804E-3,-2.3269293E-1,8.07855E-2,-0E0,-2.4319367E-1,-2.8367323E-1,-1.1365958E-3,-0E0,-8.846871E-3],"categories":[],"categories_nodes":[],"categories_segments":[],"categories_sizes":[],"default_left":[0,0,0,0,0,0,0,0,0],"id":35,"left_children":[1,3,-1,-1,5,7,-1,-1,-1],"loss_changes":[1.5900163E1,3.5259843E-2,0E0,0E0,2.9849172E-2,1.6631365E-2,0E0,0E0,0E0],"parents":[2147483647,0,0,1,1,4,4,5,5],"right_children":[2,4,-1,-1,6,8,-1,-1,-1],"split_conditions":[1.8304296E0,-2.306847E0,8.07855E-2,-0E0,5.586951E-1,-2.1805263E0,-1.1365958E-3,-0E0,-8.846871E-3],"split_indices":[18,15,0,0,17,5,0,0,0],"split_type":[0,0,0,0,0,0,0,0,0],"sum_hessian":[2.5815928E1,2.4815928E1,1E0,1.5850782E0,2.323085E1,1.7051748E1,6.1791005E0,1.1565568E0,1.5895192E1],"tree_param":{"num_deleted":"0","num_feature":"28","num_nodes":"9","size_leaf_vector":"1"}},{"base_weights":[2.3227136E-1,2.202766E0,-2.2050717E-1,1.0841026E-1,-0E0,-0E0,-2.2887653E-1,-2.3819382E-1,-0E0,-0E0,-7.6274425E-3],"categories":[],"categories_nodes":[],"categories_segments":[],"categories_sizes":[],"default_left":[0,0,0,0,0,0,0,0,0,0,0],"id":36,"left_children":[1,3,5,-1,-1,-1,7,9,-1,-1,-1],"loss_changes":[2.2587025E1,1.6282103E1,2.2620738E-2,0E0,0E0,0E0,1.5537262E-2,1.1150479E-2,0E0,0E0,0E0],"parents":[2147483647,0,0,1,1,2,2,6,6,7,7],"right_children":[2,4,6,-1,-1,-1,8,10,-1,-1,-1],"split_conditions":[-7.277386E-2,-4.1655442E-1,-2.0404139E0,1.0841026E-1,-0E0,-0E0,1.7383093E-1,0E0,-0E0,-0E0,-7.6274425E-3],"split_indices":[25,1,2,0,0,0,25,21,0,0,0],"split_type":[0,0,0,0,0,0,0,0,0,0,0],"sum_hessian":[2.2660868E1,3.7182634E0,1.8942606E1,2E0,1.7182634E0,1E0,1.7942606E1,1.6763504E1,1.1791005E0,2E0,1.4763505E1],"tree_param":{"num_deleted":"0","num_feature":"28","num_nodes":"11","size_leaf_vector":"1"}},{"base_weights":[9.114931E-2,-2.671203E-1,2.4301949E0,-1.8975478E-1,-2.010935E-2,1.0624206E-1,-6.0514067E-3,-0E0,-1.992306E-1,-6.24452E-3,-0E0],"categories":[],"categories_nodes":[],"categories_segments":[],"categories_sizes":[],"default_left":[0,0,0,0,0,0,0,0,0,0,0],"id":37,"left_children":[1,3,5,7,-1,-1,-1,-1,9,-1,-1],"loss_changes":[2.5172935E1,2.2178042E-1,1.4082575E1,2.3776889E-2,0E0,0E0,0E0,0E0,3.0328035E-3,0E0,0E0],"parents":[2147483647,0,0,1,1,2,2,3,3,8,8],"right_children":[2,4,6,8,-1,-1,-1,-1,10,-1,-1],"split_conditions":[1.779726E0,1.9441125E0,-4.1655442E-1,-1.8824419E0,-2.010935E-2,1.0624206E-1,-6.0514067E-3,-0E0,1.6366211E0,-6.24452E-3,-0E0],"split_indices":[18,6,1,6,0,0,0,0,26,0,0],"split_type":[0,0,0,0,0,0,0,0,0,0,0],"sum_hessian":[2.6973738E1,2.3973738E1,3E0,2.2388506E1,1.5852326E0,2E0,1E0,1.5728805E0,2.0815624E1,1.9055918E1,1.7597066E0],"tree_param":{"num_deleted":"0","num_feature":"28","num_nodes":"11","size_leaf_vector":"1"}},{"base_weights":[-2.58565E-1,-0E0,-2.7478763E-1,-2.9354915E-1,-0E0,-3.0232382E-1,-0E0,-9.383755E-3,-0E0],"categories":[],"categories_nodes":[],"categories_segments":[],"categories_sizes":[],"default_left":[0,0,0,0,0,0,0,0,0],"id":38,"left_children":[1,-1,3,5,-1,7,-1,-1,-1],"loss_changes":[4.2911768E-2,0E0,2.751553E-2,9.075522E-3,0E0,5.1983595E-3,0E0,0E0,0E0],"parents":[2147483647,0,0,2,2,3,3,5,5],"right_children":[2,-1,4,6,-1,8,-1,-1,-1],"split_conditions":[-1.8824419E0,-0E0,1.5825908E-1,4.3406878E0,-0E0,2.2197068E0,-0E0,-9.383755E-3,-0E0],"split_indices":[6,0,25,0,0,10,0,0,0],"split_type":[0,0,0,0,0,0,0,0,0],"sum_hessian":[2.2714994E1,2.1491623E0,2.0565832E1,1.8216576E1,2.349257E0,1.7216576E1,1E0,1.6070824E1,1.1457521E0],"tree_param":{"num_deleted":"0","num_feature":"28","num_nodes":"9","size_leaf_vector":"1"}},{"base_weights":[1.4434598E-1,-2.1051778E-1,7.84698E-2,-0E0,-2.2120771E-1,-2.4325718E-1,-0E0,-0E0,-7.73838E-3],"categories":[],"categories_nodes":[],"categories_segments":[],"categories_sizes":[],"default_left":[0,0,0,0,0,0,0,0,0],"id":39,"left_children":[1,3,-1,-1,5,7,-1,-1,-1],"loss_changes":[2.50379E1,3.3639193E-2,0E0,0E0,1.6921759E-2,2.2550464E-2,0E0,0E0,0E0],"parents":[2147483647,0,0,1,1,4,4,5,5],"right_children":[2,4,-1,-1,6,8,-1,-1,-1],"split_conditions":[1.872013E0,-1.8824419E0,7.84698E-2,-0E0,5.586951E-1,-2.064531E0,-0E0,-0E0,-7.73838E-3],"split_indices":[7,6,0,0,17,5,0,0,0],"split_type":[0,0,0,0,0,0,0,0,0],"sum_hessian":[2.5550997E1,2.2965763E1,2.5852327E0,1.5728805E0,2.1392883E1,1.7803333E1,3.5895503E0,1.741635E0,1.6061697E1],"tree_param":{"num_deleted":"0","num_feature":"28","num_nodes":"9","size_leaf_vector":"1"}},{"base_weights":[1.8945196E-1,-2.6474598E-1,1.0273552E-1,-1.7025563E-1,-2.0009847E-2,-5.247596E-3,-0E0],"categories":[],"categories_nodes":[],"categories_segments":[],"categories_sizes":[],"default_left":[0,0,0,0,0,0,0],"id":40,"left_children":[1,3,-1,5,-1,-1,-1],"loss_changes":[3.581753E1,2.539873E-1,0E0,1.5181303E-4,0E0,0E0,0E0],"parents":[2147483647,0,0,1,1,3,3],"right_children":[2,4,-1,6,-1,-1,-1],"split_conditions":[1.8304296E0,1.9441125E0,1.0273552E-1,1.1046449E0,-2.0009847E-2,-5.247596E-3,-0E0],"split_indices":[18,6,0,15,0,0,0],"split_type":[0,0,0,0,0,0,0],"sum_hessian":[2.1684038E1,1.9684038E1,2E0,1.8098806E1,1.5852326E0,1.7098806E1,1E0],"tree_param":{"num_deleted":"0","num_feature":"28","num_nodes":"7","size_leaf_vector":"1"}},{"base_weights":[9.179656E-2,2.2406044E0,-2.5001752E-1,1.0068085E-1,-9.085006E-3,-1.7519091E-1,-1.8218199E-2,-0E0,-5.5328356E-3],"categories":[],"categories_nodes":[],"categories_segments":[],"categories_sizes":[],"default_left":[0,0,0,0,0,0,0,0,0],"id":41,"left_children":[1,3,5,-1,-1,7,-1,-1,-1],"loss_changes":[2.135131E1,1.3890959E1,1.4266145E-1,0E0,0E0,2.0797193E-2,0E0,0E0,0E0],"parents":[2147483647,0,0,1,1,2,2,5,5],"right_children":[2,4,6,-1,-1,8,-1,-1,-1],"split_conditions":[-1.4280508E0,-4.1655442E-1,1.9441125E0,1.0068085E-1,-9.085006E-3,-1.8824419E0,-1.8218199E-2,-0E0,-5.5328356E-3],"split_indices":[16,1,6,0,0,6,0,0,0],"split_type":[0,0,0,0,0,0,0,0,0],"sum_hessian":[2.5951698E1,3E0,2.2951698E1,2E0,1E0,2.1366467E1,1.5852326E0,1.5728805E0,1.9793587E1],"tree_param":{"num_deleted":"0","num_feature":"28","num_nodes":"9","size_leaf_vector":"1"}},{"base_weights":[-5.4505352E-2,-2.4981996E-1,1.1248482E0,-1.733567E-1,-1.9412613E-2,6.823437E-2,-0E0,-1.810569E-1,-0E0,-0E0,-5.577958E-3],"categories":[],"categories_nodes":[],"categories_segments":[],"categories_sizes":[],"default_left":[0,0,0,0,0,0,0,0,0,0,0],"id":42,"left_children":[1,3,5,7,-1,-1,-1,9,-1,-1,-1],"loss_changes":[6.190978E0,2.3163807E-1,5.622879E0,1.1902034E-2,0E0,0E0,0E0,4.1924715E-3,0E0,0E0,0E0],"parents":[2147483647,0,0,1,1,2,2,3,3,7,7],"right_children":[2,4,6,8,-1,-1,-1,10,-1,-1,-1],"split_conditions":[1.0043375E0,1.5885168E0,-2.7194348E-1,9.6329725E-1,-1.9412613E-2,6.823437E-2,-0E0,-5.174303E-4,-0E0,-0E0,-5.577958E-3],"split_indices":[24,7,3,11,0,0,0,22,0,0,0],"split_type":[0,0,0,0,0,0,0,0,0,0,0],"sum_hessian":[2.6556416E1,2.3823158E1,2.7332575E0,2.2237925E1,1.5852326E0,1E0,1.7332575E0,2.0666447E1,1.5714786E0,1E0,1.9666447E1],"tree_param":{"num_deleted":"0","num_feature":"28","num_nodes":"11","size_leaf_vector":"1"}},{"base_weights":[-6.525113E-2,-2.2322002E-1,4.3774568E-2,-1.6113757E-1,-1.5419388E-2,-1.6536503E-1,-0E0,-0E0,-5.0686207E-3],"categories":[],"categories_nodes":[],"categories_segments":[],"categories_sizes":[],"default_left":[0,0,0,0,0,0,0,0,0],"id":43,"left_children":[1,3,-1,5,-1,7,-1,-1,-1],"loss_changes":[6.7597947E0,7.962859E-2,0E0,8.127034E-3,0E0,1.0909438E-3,0E0,0E0,0E0],"parents":[2147483647,0,0,1,1,3,3,5,5],"right_children":[2,4,-1,6,-1,8,-1,-1,-1],"split_conditions":[1.872013E0,1.9441125E0,4.3774568E-2,2.685459E0,-1.5419388E-2,-5.174303E-4,-0E0,-0E0,-5.0686207E-3],"split_indices":[7,6,0,4,0,22,0,0,0],"split_type":[0,0,0,0,0,0,0,0,0],"sum_hessian":[2.8284903E1,2.669967E1,1.5852326E0,2.469967E1,2E0,2.369967E1,1E0,1E0,2.269967E1],"tree_param":{"num_deleted":"0","num_feature":"28","num_nodes":"9","size_leaf_vector":"1"}},{"base_weights":[-5.750274E-2,1.3663019E0,-2.8007188E-1,-0E0,6.6554256E-2,-4.618342E-3,-5.2510697E-1,-6.1909294E-1,-0E0,-0E0,-2.1769697E-2],"categories":[],"categories_nodes":[],"categories_segments":[],"categories_sizes":[],"default_left":[0,0,0,0,0,0,0,0,0,0,0],"id":44,"left_children":[1,3,5,-1,-1,-1,7,9,-1,-1,-1],"loss_changes":[7.522365E0,3.9742765E0,2.6265454E-1,0E0,0E0,0E0,1.7243981E-1,1.3049257E-1,0E0,0E0,0E0],"parents":[2147483647,0,0,1,1,2,2,6,6,7,7],"right_children":[2,4,6,-1,-1,-1,8,10,-1,-1,-1],"split_conditions":[-8.4761363E-1,-2.9265246E-1,6.5507567E-1,-0E0,6.6554256E-2,-4.618342E-3,1.6294174E-1,6.976383E-1,-0E0,-0E0,-2.1769697E-2],"split_indices":[26,0,10,0,0,0,17,7,0,0,0],"split_type":[0,0,0,0,0,0,0,0,0,0,0],"sum_hessian":[2.324405E1,2.1439092E0,2.1100142E1,1.1439092E0,1E0,1.6352026E1,4.748115E0,3.5852327E0,1.1628826E0,1E0,2.5852327E0],"tree_param":{"num_deleted":"0","num_feature":"28","num_nodes":"11","size_leaf_vector":"1"}},{"base_weights":[-4.643311E-2,-2.1965209E-1,4.234485E-2,-1.5135787E-1,-1.4675598E-2,-0E0,-1.594305E-1,-4.949711E-3,-0E0],"categories":[],"categories_nodes":[],"categories_segments":[],"categories_sizes":[],"default_left":[0,0,0,0,0,0,0,0,0],"id":45,"left_children":[1,3,-1,5,-1,-1,7,-1,-1],"loss_changes":[6.2707725E0,5.4418564E-2,0E0,1.6162932E-2,0E0,0E0,5.88274E-3,0E0,0E0],"parents":[2147483647,0,0,1,1,3,3,6,6],"right_children":[2,4,-1,6,-1,-1,8,-1,-1],"split_conditions":[1.872013E0,1.3202645E0,4.234485E-2,-1.8824419E0,-1.4675598E-2,-0E0,7.262016E-1,-4.949711E-3,-0E0],"split_indices":[7,6,0,6,0,0,12,0,0],"split_type":[0,0,0,0,0,0,0,0,0],"sum_hessian":[2.4962757E1,2.3377525E1,1.5852326E0,2.1377525E1,2E0,1.5728805E0,1.9804646E1,1.8642218E1,1.1624262E0],"tree_param":{"num_deleted":"0","num_feature":"28","num_nodes":"9","size_leaf_vector":"1"}},{"base_weights":[-5.8912285E-2,-2.5586155E-1,1.3136942E0,-1.4602491E-1,-2.1260511E-2,6.492078E-2,-0E0,-1.5622233E-1,-0E0,-0E0,-4.8558586E-3],"categories":[],"categories_nodes":[],"categories_segments":[],"categories_sizes":[],"default_left":[0,0,0,0,0,0,0,0,0,0,0],"id":46,"left_children":[1,3,5,7,-1,-1,-1,9,-1,-1,-1],"loss_changes":[6.945525E0,6.75156E-1,3.9162292E0,3.9747357E-3,0E0,0E0,0E0,3.5871863E-3,0E0,0E0,0E0],"parents":[2147483647,0,0,1,1,2,2,3,3,7,7],"right_children":[2,4,6,8,-1,-1,-1,10,-1,-1,-1],"split_conditions":[1.0032827E0,1.9441125E0,-4.1655442E-1,1.241649E0,-2.1260511E-2,6.492078E-2,-0E0,-2.0712492E0,-0E0,-0E0,-4.8558586E-3],"split_indices":[24,6,1,8,0,0,0,13,0,0,0],"split_type":[0,0,0,0,0,0,0,0,0,0,0],"sum_hessian":[2.5405567E1,2.3247719E1,2.157848E0,2.0662487E1,2.5852327E0,1E0,1.1578479E0,1.8089611E1,2.572876E0,1.1701564E0,1.6919455E1],"tree_param":{"num_deleted":"0","num_feature":"28","num_nodes":"11","size_leaf_vector":"1"}},{"base_weights":[-0E0,-2.2278373E-1,1.1406932E0,-0E0,-2.5001526E-1,7.0340425E-2,-0E0,-0E0,-2.6096213E-1,-8.160252E-3,-0E0],"categories":[],"categories_nodes":[],"categories_segments":[],"categories_sizes":[],"default_left":[0,0,0,0,0,0,0,0,0,0,0],"id":47,"left_children":[1,3,5,-1,7,-1,-1,-1,9,-1,-1],"loss_changes":[5.8565235E0,6.111729E-2,6.134752E0,0E0,1.6358256E-2,0E0,0E0,0E0,1.8832326E-2,0E0,0E0],"parents":[2147483647,0,0,1,1,2,2,4,4,8,8],"right_children":[2,4,6,-1,8,-1,-1,-1,10,-1,-1],"split_conditions":[4.4839397E-1,-1.1433834E0,6.6491973E-1,-0E0,-1.9995613E0,7.0340425E-2,-0E0,-0E0,3.158785E0,-8.160252E-3,-0E0],"split_indices":[5,12,5,0,8,0,0,0,0,0,0],"split_type":[0,0,0,0,0,0,0,0,0,0,0],"sum_hessian":[2.1807175E1,1.9071873E1,2.7353024E0,3.1565568E0,1.5915316E1,1E0,1.7353023E0,1.1491623E0,1.4766153E1,1.3766153E1,1E0],"tree_param":{"num_deleted":"0","num_feature":"28","num_nodes":"11","size_leaf_vector":"1"}},{"base_weights":[-0E0,1.2077128E0,-1.9435613E-1,-7.4382587E-3,6.928533E-2,-0E0,-2.1041203E-1,-2.2233276E-1,-0E0,-0E0,-7.0865564E-3],"categories":[],"categories_nodes":[],"categories_segments":[],"categories_sizes":[],"default_left":[0,0,0,0,0,0,0,0,0,0,0],"id":48,"left_children":[1,3,5,-1,-1,-1,7,9,-1,-1,-1],"loss_changes":[5.146533E0,6.414923E0,3.653699E-2,0E0,0E0,0E0,1.5497625E-2,1.822728E-2,0E0,0E0,0E0],"parents":[2147483647,0,0,1,1,2,2,6,6,7,7],"right_children":[2,4,6,-1,-1,-1,8,10,-1,-1,-1],"split_conditions":[-1.4280508E0,-4.339075E-1,-1.5733219E0,-7.4382587E-3,6.928533E-2,-0E0,8.156979E-1,-1.4423673E0,-0E0,-0E0,-7.0865564E-3],"split_indices":[16,3,12,0,0,0,17,19,0,0,0],"split_type":[0,0,0,0,0,0,0,0,0,0,0],"sum_hessian":[2.140599E1,2E0,1.940599E1,1E0,1E0,2.1701565E0,1.7235834E1,1.5646284E1,1.5895503E0,1.5728805E0,1.4073403E1],"tree_param":{"num_deleted":"0","num_feature":"28","num_nodes":"11","size_leaf_vector":"1"}},{"base_weights":[1.4416099E-1,-1.8997936E-1,9.1732405E-2,-2.0450594E-1,-0E0,-2.2283922E-1,-0E0,-0E0,-6.980143E-3],"categories":[],"categories_nodes":[],"categories_segments":[],"categories_sizes":[],"default_left":[0,0,0,0,0,0,0,0,0],"id":49,"left_children":[1,3,-1,5,-1,7,-1,-1,-1],"loss_changes":[2.8392067E1,3.0159831E-2,0E0,2.6342034E-2,0E0,2.3434699E-2,0E0,0E0,0E0],"parents":[2147483647,0,0,1,1,3,3,5,5],"right_children":[2,4,-1,6,-1,8,-1,-1,-1],"split_conditions":[1.779726E0,1.2155324E0,9.1732405E-2,8.156979E-1,-0E0,-2.064531E0,-0E0,-0E0,-6.980143E-3],"split_indices":[18,11,0,17,0,5,0,0,0],"split_type":[0,0,0,0,0,0,0,0,0],"sum_hessian":[2.6094002E1,2.4094002E1,2E0,2.1376772E1,2.7172308E0,1.8376772E1,3E0,1.1701564E0,1.7206615E1],"tree_param":{"num_deleted":"0","num_feature":"28","num_nodes":"9","size_leaf_vector":"1"}},{"base_weights":[6.97224E-2,-2.0251927E-1,2.0054111E0,-1.3358416E-1,-1.8141992E-2,8.989777E-2,-7.0219804E-3,-0E0,-1.4251812E-1,-4.4072447E-3,-0E0],"categories":[],"categories_nodes":[],"categories_segments":[],"categories_sizes":[],"default_left":[0,0,0,0,0,0,0,0,0,0,0],"id":50,"left_children":[1,3,5,7,-1,-1,-1,-1,9,-1,-1],"loss_changes":[1.7043186E1,2.9480326E-1,1.0961575E1,1.0086745E-2,0E0,0E0,0E0,0E0,7.263154E-3,0E0,0E0],"parents":[2147483647,0,0,1,1,2,2,3,3,8,8],"right_children":[2,4,6,8,-1,-1,-1,-1,10,-1,-1],"split_conditions":[1.8304296E0,1.3202645E0,-4.1655442E-1,9.8994213E-1,-1.8141992E-2,8.989777E-2,-7.0219804E-3,-0E0,2.685459E0,-4.4072447E-3,-0E0],"split_indices":[18,6,1,27,0,0,0,0,4,0,0],"split_type":[0,0,0,0,0,0,0,0,0,0,0],"sum_hessian":[2.8860243E1,2.5860243E1,3E0,2.4275011E1,1.5852326E0,2E0,1E0,2.5728805E0,2.1702131E1,2.0702131E1,1E0],"tree_param":{"num_deleted":"0","num_feature":"28","num_nodes":"11","size_leaf_vector":"1"}},{"base_weights":[6.212565E-2,-1.9489685E-1,6.4754695E-2,-0E0,-2.0508352E-1,-2.1554318E-1,-0E0,-7.0324903E-3,-0E0],"categories":[],"categories_nodes":[],"categories_segments":[],"categories_sizes":[],"default_left":[0,0,0,0,0,0,0,0,0],"id":51,"left_children":[1,3,-1,-1,5,7,-1,-1,-1],"loss_changes":[1.7633669E1,2.8087378E-2,0E0,0E0,3.0606627E-2,3.7082434E-2,0E0,0E0,0E0],"parents":[2147483647,0,0,1,1,4,4,5,5],"right_children":[2,4,-1,-1,6,8,-1,-1,-1],"split_conditions":[1.872013E0,0E0,6.4754695E-2,-0E0,1.5825908E-1,3.158785E0,-0E0,-7.0324903E-3,-0E0],"split_indices":[7,21,0,0,25,0,0,0,0],"split_type":[0,0,0,0,0,0,0,0,0],"sum_hessian":[2.9123987E1,2.6538754E1,2.5852327E0,2E0,2.4538754E1,2.2779047E1,1.7597066E0,1.9779047E1,3E0],"tree_param":{"num_deleted":"0","num_feature":"28","num_nodes":"9","size_leaf_vector":"1"}},{"base_weights":[-6.8657145E-2,8.036051E-1,-2.6505917E-1,5.8156814E-2,-0E0,-1.3997935E-1,-2.1082753E-2,-0E0,-4.35689E-3],"categories":[],"categories_nodes":[],"categories_segments":[],"categories_sizes":[],"default_left":[0,0,0,0,0,0,0,0,0],"id":52,"left_children":[1,3,5,-1,-1,7,-1,-1,-1],"loss_changes":[4.147357E0,4.7458057E0,6.4352095E-1,0E0,0E0,6.8544447E-3,0E0,0E0,0E0],"parents":[2147483647,0,0,1,1,2,2,5,5],"right_children":[2,4,6,-1,-1,8,-1,-1,-1],"split_conditions":[-8.4761363E-1,-1.0282282E0,1.9441125E0,5.8156814E-2,-0E0,-2.6372511E0,-2.1082753E-2,-0E0,-4.35689E-3],"split_indices":[26,11,6,0,0,6,0,0,0],"split_type":[0,0,0,0,0,0,0,0,0],"sum_hessian":[2.3537548E1,3.2897322E0,2.0247816E1,1E0,2.2897322E0,1.7662584E1,2.5852327E0,1E0,1.6662584E1],"tree_param":{"num_deleted":"0","num_feature":"28","num_nodes":"9","size_leaf_vector":"1"}},{"base_weights":[1.16355106E-1,1.7760789E0,-2.4673885E-1,8.6223185E-2,-0E0,-1.168516E-1,-2.0626659E-2,-0E0,-1.20966226E-1,-0E0,-3.7624575E-3],"categories":[],"categories_nodes":[],"categories_segments":[],"categories_sizes":[],"default_left":[0,0,0,0,0,0,0,0,0,0,0],"id":53,"left_children":[1,3,5,-1,-1,7,-1,-1,9,-1,-1],"loss_changes":[1.5797773E1,9.903971E0,6.9132996E-1,0E0,0E0,2.8993934E-3,0E0,0E0,1.3811886E-4,0E0,0E0],"parents":[2147483647,0,0,1,1,2,2,5,5,8,8],"right_children":[2,4,6,-1,-1,8,-1,-1,10,-1,-1],"split_conditions":[-8.4761363E-1,-4.1655442E-1,1.3202645E0,8.6223185E-2,-0E0,-4.6588823E-1,-2.0626659E-2,-0E0,-1.8225732E0,-0E0,-3.7624575E-3],"split_indices":[26,1,6,0,0,1,0,0,14,0,0],"split_type":[0,0,0,0,0,0,0,0,0,0,0],"sum_hessian":[2.3218407E1,3.7163398E0,1.9502066E1,2E0,1.7163398E0,1.6916834E1,2.5852327E0,1E0,1.5916834E1,1.1701564E0,1.4746677E1],"tree_param":{"num_deleted":"0","num_feature":"28","num_nodes":"11","size_leaf_vector":"1"}},{"base_weights":[-7.711671E-3,1.0201455E0,-2.1773486E-1,5.599113E-2,-0E0,-1.2718776E-1,-1.737343E-2,-0E0,-1.3260798E-1,-4.1374206E-3,-0E0],"categories":[],"categories_nodes":[],"categories_segments":[],"categories_sizes":[],"default_left":[0,0,0,0,0,0,0,0,0,0,0],"id":54,"left_children":[1,3,5,-1,-1,7,-1,-1,9,-1,-1],"loss_changes":[4.65705E0,3.2483962E0,2.220577E-1,0E0,0E0,5.353093E-3,0E0,0E0,5.5077076E-3,0E0,0E0],"parents":[2147483647,0,0,1,1,2,2,5,5,8,8],"right_children":[2,4,6,-1,-1,8,-1,-1,10,-1,-1],"split_conditions":[-1.0282282E0,-4.1655442E-1,1.9441125E0,5.599113E-2,-0E0,-1.5800277E0,-1.737343E-2,-0E0,4.3406878E0,-4.1374206E-3,-0E0],"split_indices":[11,1,6,0,0,13,0,0,0,0,0],"split_type":[0,0,0,0,0,0,0,0,0,0,0],"sum_hessian":[2.1402594E1,2.5728805E0,1.8829712E1,1E0,1.5728805E0,1.724448E1,1.5852326E0,1.1565568E0,1.6087923E1,1.5087923E1,1E0],"tree_param":{"num_deleted":"0","num_feature":"28","num_nodes":"11","size_leaf_vector":"1"}},{"base_weights":[-1.7187911E-1,-1.8643595E-1,-0E0,-1.9813637E-1,-0E0,-6.5297596E-3,-0E0],"categories":[],"categories_nodes":[],"categories_segments":[],"categories_sizes":[],"default_left":[0,0,0,0,0,0,0],"id":55,"left_children":[1,3,-1,5,-1,-1,-1],"loss_changes":[3.0647874E-2,2.66065E-2,0E0,1.6210914E-2,0E0,0E0,0E0],"parents":[2147483647,0,0,1,1,3,3],"right_children":[2,4,-1,6,-1,-1,-1],"split_conditions":[1.2155324E0,1.6492654E-1,-0E0,2.8364277E0,-0E0,-6.5297596E-3,-0E0],"split_indices":[11,25,0,0,0,0,0],"split_type":[0,0,0,0,0,0,0],"sum_hessian":[2.2983103E1,2.0265873E1,2.7172308E0,1.8506166E1,1.7597066E0,1.5506166E1,3E0],"tree_param":{"num_deleted":"0","num_feature":"28","num_nodes":"7","size_leaf_vector":"1"}},{"base_weights":[6.020018E-3,6.341697E-2,-1.6583529E-1,-0E0,-1.7382723E-1,-5.402878E-3,-0E0],"categories":[],"categories_nodes":[],"categories_segments":[],"categories_sizes":[],"default_left":[0,0,0,0,0,0,0],"id":56,"left_children":[1,-1,3,-1,5,-1,-1],"loss_changes":[9.5319E0,0E0,1.126188E-2,0E0,7.3963404E-3,0E0,0E0],"parents":[2147483647,0,0,2,2,4,4],"right_children":[2,-1,4,-1,6,-1,-1],"split_conditions":[-1.4280508E0,6.341697E-2,-1.3634E0,-0E0,1.9704001E0,-5.402878E-3,-0E0],"split_indices":[16,0,10,0,10,0,0],"split_type":[0,0,0,0,0,0,0],"sum_hessian":[2.1656466E1,1E0,2.0656466E1,1.5728805E0,1.9083584E1,1.7937832E1,1.1457521E0],"tree_param":{"num_deleted":"0","num_feature":"28","num_nodes":"7","size_leaf_vector":"1"}},{"base_weights":[-3.1133637E-2,5.429798E-2,-1.963786E-1,-1.2644392E-1,-1.691014E-2,-0E0,-1.3082345E-1,-0E0,-4.172586E-3],"categories":[],"categories_nodes":[],"categories_segments":[],"categories_sizes":[],"default_left":[0,0,0,0,0,0,0,0,0],"id":57,"left_children":[1,-1,3,5,-1,-1,7,-1,-1],"loss_changes":[7.4951463E0,0E0,2.2892165E-1,6.7229867E-3,0E0,0E0,8.332968E-3,0E0,0E0],"parents":[2147483647,0,0,2,2,3,3,6,6],"right_children":[2,-1,4,6,-1,-1,8,-1,-1],"split_conditions":[-1.5654349E0,5.429798E-2,1.9441125E0,-2.064531E0,-1.691014E-2,-0E0,-1.8824419E0,-0E0,-4.172586E-3],"split_indices":[16,0,6,5,0,0,6,0,0],"split_type":[0,0,0,0,0,0,0,0,0],"sum_hessian":[2.5120277E1,1E0,2.4120277E1,2.2535044E1,1.5852326E0,1.1565568E0,2.1378487E1,2.1491623E0,1.9229324E1],"tree_param":{"num_deleted":"0","num_feature":"28","num_nodes":"9","size_leaf_vector":"1"}},{"base_weights":[-0E0,-1.6457239E-1,5.3483505E-2,-0E0,-5.275705E-3],"categories":[],"categories_nodes":[],"categories_segments":[],"categories_sizes":[],"default_left":[0,0,0,0,0],"id":58,"left_children":[1,3,-1,-1,-1],"loss_changes":[6.990109E0,2.3386598E-2,0E0,0E0,0E0],"parents":[2147483647,0,0,1,1],"right_children":[2,4,-1,-1,-1],"split_conditions":[1.8304296E0,-1.8824419E0,5.3483505E-2,-0E0,-5.275705E-3],"split_indices":[18,6,0,0,0],"split_type":[0,0,0,0,0],"sum_hessian":[2.3389196E1,2.2389196E1,1E0,2.1491623E0,2.0240034E1],"tree_param":{"num_deleted":"0","num_feature":"28","num_nodes":"5","size_leaf_vector":"1"}},{"base_weights":[8.356919E-2,1.8781148E0,-2.3204866E-1,8.127159E-2,-0E0,-1.09652564E-1,-2.0984618E-2,-1.1532159E-1,-0E0,-0E0,-3.625512E-3],"categories":[],"categories_nodes":[],"categories_segments":[],"categories_sizes":[],"default_left":[0,0,0,0,0,0,0,0,0,0,0],"id":59,"left_children":[1,3,5,-1,-1,7,-1,9,-1,-1,-1],"loss_changes":[1.5648133E1,7.389888E0,7.921945E-1,0E0,0E0,2.0724982E-3,0E0,4.5661628E-4,0E0,0E0,0E0],"parents":[2147483647,0,0,1,1,2,2,5,5,7,7],"right_children":[2,4,6,-1,-1,8,-1,10,-1,-1,-1],"split_conditions":[-8.4761363E-1,-4.1655442E-1,1.9441125E0,8.127159E-2,-0E0,8.097328E-1,-2.0984618E-2,-1.3634E0,-0E0,-0E0,-3.625512E-3],"split_indices":[26,1,6,0,0,21,0,10,0,0,0],"split_type":[0,0,0,0,0,0,0,0,0,0,0],"sum_hessian":[2.4405233E1,3.1467848E0,2.1258448E1,2E0,1.1467848E0,1.8673216E1,2.5852327E0,1.6942385E1,1.7308302E0,1.5728805E0,1.5369505E1],"tree_param":{"num_deleted":"0","num_feature":"28","num_nodes":"11","size_leaf_vector":"1"}},{"base_weights":[-5.4674413E-2,-2.4043232E-1,8.271398E-1,-1.0698287E-1,-2.0530669E-2,5.1462192E-2,-0E0,-1.17124796E-1,-0E0,-0E0,-3.717283E-3],"categories":[],"categories_nodes":[],"categories_segments":[],"categories_sizes":[],"default_left":[0,0,0,0,0,0,0,0,0,0,0],"id":60,"left_children":[1,3,5,7,-1,-1,-1,9,-1,-1,-1],"loss_changes":[3.6370928E0,7.194985E-1,3.339671E0,1.0301426E-2,0E0,0E0,0E0,9.210557E-4,0E0,0E0,0E0],"parents":[2147483647,0,0,1,1,2,2,3,3,7,7],"right_children":[2,4,6,8,-1,-1,-1,10,-1,-1,-1],"split_conditions":[1.0043375E0,1.3202645E0,-2.5367022E-1,9.6329725E-1,-2.0530669E-2,5.1462192E-2,-0E0,1.2455617E0,-0E0,-0E0,-3.717283E-3],"split_indices":[24,6,0,11,0,0,0,27,0,0,0],"split_type":[0,0,0,0,0,0,0,0,0,0,0],"sum_hessian":[2.1780739E1,1.906002E1,2.720718E0,1.6474789E1,2.5852327E0,1E0,1.7207179E0,1.4330433E1,2.1443546E0,1.5728805E0,1.2757552E1],"tree_param":{"num_deleted":"0","num_feature":"28","num_nodes":"11","size_leaf_vector":"1"}},{"base_weights":[-2.0088051E-1,-1.02119185E-1,-2.0086542E-2,-0E0,-1.0760276E-1,-1.1162516E-1,-0E0,-3.464692E-3,-0E0],"categories":[],"categories_nodes":[],"categories_segments":[],"categories_sizes":[],"default_left":[0,0,0,0,0,0,0,0,0],"id":61,"left_children":[1,3,-1,-1,5,7,-1,-1,-1],"loss_changes":[7.8143954E-1,9.516239E-3,0E0,0E0,5.407423E-3,3.1548142E-3,0E0,0E0,0E0],"parents":[2147483647,0,0,1,1,4,4,5,5],"right_children":[2,4,-1,-1,6,8,-1,-1,-1],"split_conditions":[1.3202645E0,-1.8824419E0,-2.0086542E-2,-0E0,1.3583728E0,-0E0,-0E0,-3.464692E-3,-0E0],"split_indices":[6,6,0,0,4,1,0,0,0],"split_type":[0,0,0,0,0,0,0,0,0],"sum_hessian":[2.569563E1,2.3110395E1,2.5852327E0,1.5728805E0,2.1537516E1,2.0376486E1,1.1610289E0,1.920633E1,1.1701564E0],"tree_param":{"num_deleted":"0","num_feature":"28","num_nodes":"9","size_leaf_vector":"1"}},{"base_weights":[1.3258456E-1,-1.2352169E-1,5.778035E-2,-1.3012917E-1,-0E0,-0E0,-1.5103783E-1,-4.76944E-3,-0E0],"categories":[],"categories_nodes":[],"categories_segments":[],"categories_sizes":[],"default_left":[0,0,0,0,0,0,0,0,0],"id":62,"left_children":[1,3,-1,5,-1,-1,7,-1,-1],"loss_changes":[1.3199109E1,1.3038874E-2,0E0,9.188324E-3,0E0,0E0,1.18127465E-2,0E0,0E0],"parents":[2147483647,0,0,1,1,3,3,6,6],"right_children":[2,4,-1,6,-1,-1,8,-1,-1],"split_conditions":[1.5885168E0,2.6131663E0,5.778035E-2,-1.0800933E0,-0E0,-0E0,2.1910684E0,-4.76944E-3,-0E0],"split_indices":[7,11,0,9,0,0,1,0,0],"split_type":[0,0,0,0,0,0,0,0,0],"sum_hessian":[2.5256807E1,2.2671576E1,2.5852327E0,2.10987E1,1.572876E0,5.2921195E0,1.580658E1,1.4636423E1,1.1701564E0],"tree_param":{"num_deleted":"0","num_feature":"28","num_nodes":"9","size_leaf_vector":"1"}},{"base_weights":[-0E0,7.690264E-1,-1.6757424E-1,-0E0,5.9748E-2,-8.833273E-2,-1.3829841E-2,-9.1036715E-2,-0E0,-0E0,-2.8243985E-3],"categories":[],"categories_nodes":[],"categories_segments":[],"categories_sizes":[],"default_left":[0,0,0,0,0,0,0,0,0,0,0],"id":63,"left_children":[1,3,5,-1,-1,7,-1,9,-1,-1,-1],"loss_changes":[3.394495E0,5.1431217E0,1.8528414E-1,0E0,0E0,1.1861175E-3,0E0,3.015101E-4,0E0,0E0,0E0],"parents":[2147483647,0,0,1,1,2,2,5,5,7,7],"right_children":[2,4,6,-1,-1,8,-1,10,-1,-1,-1],"split_conditions":[-7.277386E-2,-3.7105498E-1,1.9441125E0,-0E0,5.9748E-2,2.685459E0,-1.3829841E-2,-2.0712492E0,-0E0,-0E0,-2.8243985E-3],"split_indices":[25,3,6,0,0,4,0,13,0,0,0],"split_type":[0,0,0,0,0,0,0,0,0,0,0],"sum_hessian":[2.4250444E1,3.7173016E0,2.0533142E1,2.7173016E0,1E0,1.8533142E1,2E0,1.7533142E1,1E0,1.1701564E0,1.6362988E1],"tree_param":{"num_deleted":"0","num_feature":"28","num_nodes":"11","size_leaf_vector":"1"}},{"base_weights":[-0E0,-1.3508977E-1,4.8979223E-2,-1.5015846E-1,-0E0,-0E0,-4.8375777E-3],"categories":[],"categories_nodes":[],"categories_segments":[],"categories_sizes":[],"default_left":[0,0,0,0,0,0,0],"id":64,"left_children":[1,3,-1,5,-1,-1,-1],"loss_changes":[5.737333E0,1.513803E-2,0E0,1.9287825E-2,0E0,0E0,0E0],"parents":[2147483647,0,0,1,1,3,3],"right_children":[2,4,-1,6,-1,-1,-1],"split_conditions":[1.5885168E0,1.2666973E0,4.8979223E-2,-2.064531E0,-0E0,-0E0,-4.8375777E-3],"split_indices":[7,7,0,5,0,0,0],"split_type":[0,0,0,0,0,0,0],"sum_hessian":[2.2263968E1,2.1263968E1,1E0,1.7691092E1,3.572876E0,1.741635E0,1.5949456E1],"tree_param":{"num_deleted":"0","num_feature":"28","num_nodes":"7","size_leaf_vector":"1"}},{"base_weights":[-3.972855E-2,7.873137E-1,-2.049555E-1,-0E0,5.8117043E-2,-9.192818E-2,-2.0756356E-2,-9.4758905E-2,-0E0,-2.9282758E-3,-0E0],"categories":[],"categories_nodes":[],"categories_segments":[],"categories_sizes":[],"default_left":[0,0,0,0,0,0,0,0,0,0,0],"id":65,"left_children":[1,3,5,-1,-1,7,-1,9,-1,-1,-1],"loss_changes":[3.6361322E0,4.8455257E0,8.8006973E-1,0E0,0E0,2.4789423E-3,0E0,4.506111E-4,0E0,0E0,0E0],"parents":[2147483647,0,0,1,1,2,2,5,5,7,7],"right_children":[2,4,6,-1,-1,8,-1,10,-1,-1,-1],"split_conditions":[-9.991505E-1,5.5104035E-1,1.9441125E0,-0E0,5.8117043E-2,2.685459E0,-2.0756356E-2,1.3143715E0,-0E0,-2.9282758E-3,-0E0],"split_indices":[26,4,6,0,0,4,0,6,0,0,0],"split_type":[0,0,0,0,0,0,0,0,0,0,0],"sum_hessian":[2.655914E1,3.291646E0,2.3267494E1,2.291646E0,1E0,2.068226E1,2.5852327E0,1.968226E1,1E0,1.8539305E1,1.1429572E0],"tree_param":{"num_deleted":"0","num_feature":"28","num_nodes":"11","size_leaf_vector":"1"}},{"base_weights":[2.0143093E-1,-1.0640516E-1,7.535583E-2,-1.1600232E-1,-0E0,-0E0,-1.2258288E-1,-3.8565753E-3,-0E0],"categories":[],"categories_nodes":[],"categories_segments":[],"categories_sizes":[],"default_left":[0,0,0,0,0,0,0,0,0],"id":66,"left_children":[1,3,-1,5,-1,-1,7,-1,-1],"loss_changes":[1.8216911E1,5.6204796E-3,0E0,5.4831207E-3,0E0,0E0,6.1085224E-3,0E0,0E0],"parents":[2147483647,0,0,1,1,3,3,6,6],"right_children":[2,4,-1,6,-1,-1,8,-1,-1],"split_conditions":[1.5885168E0,4.3406878E0,7.535583E-2,-1.3634E0,-0E0,-0E0,2.1910684E0,-3.8565753E-3,-0E0],"split_indices":[7,0,0,10,0,0,1,0,0],"split_type":[0,0,0,0,0,0,0,0,0],"sum_hessian":[2.2546276E1,2.0546276E1,2E0,1.7546276E1,3E0,1.5728805E0,1.5973395E1,1.480324E1,1.1701564E0],"tree_param":{"num_deleted":"0","num_feature":"28","num_nodes":"9","size_leaf_vector":"1"}},{"base_weights":[6.258789E-2,-1.8446328E-1,1.6420898E0,-9.743639E-2,-2.0028835E-2,7.3848724E-2,-4.7476958E-3,-3.179636E-3,-0E0],"categories":[],"categories_nodes":[],"categories_segments":[],"categories_sizes":[],"default_left":[0,0,0,0,0,0,0,0,0],"id":67,"left_children":[1,3,5,7,-1,-1,-1,-1,-1],"loss_changes":[1.1490785E1,5.532987E-1,7.443036E0,6.372303E-3,0E0,0E0,0E0,0E0,0E0],"parents":[2147483647,0,0,1,1,2,2,3,3],"right_children":[2,4,6,8,-1,-1,-1,-1,-1],"split_conditions":[1.8304296E0,1.9441125E0,-4.1655442E-1,8.181691E-1,-2.0028835E-2,7.3848724E-2,-4.7476958E-3,-3.179636E-3,-0E0],"split_indices":[18,6,1,20,0,0,0,0,0],"split_type":[0,0,0,0,0,0,0,0,0],"sum_hessian":[2.5803148E1,2.2803148E1,3E0,2.1217916E1,1.5852326E0,2E0,1E0,1.8344574E1,2.873342E0],"tree_param":{"num_deleted":"0","num_feature":"28","num_nodes":"9","size_leaf_vector":"1"}},{"base_weights":[-3.99055E-2,8.8893765E-1,-1.8896349E-1,5.5007227E-2,-0E0,-8.2613096E-2,-2.096926E-2,-0E0,-8.739311E-2,-0E0,-2.7006667E-3],"categories":[],"categories_nodes":[],"categories_segments":[],"categories_sizes":[],"default_left":[0,0,0,0,0,0,0,0,0,0,0],"id":68,"left_children":[1,3,5,-1,-1,7,-1,-1,9,-1,-1],"loss_changes":[3.8296237E0,3.7857797E0,9.7562623E-1,0E0,0E0,7.2232783E-3,0E0,0E0,8.248389E-4,0E0,0E0],"parents":[2147483647,0,0,1,1,2,2,5,5,8,8],"right_children":[2,4,6,-1,-1,8,-1,-1,10,-1,-1],"split_conditions":[-9.991505E-1,-4.2050463E-1,1.3202645E0,5.5007227E-2,-0E0,-1.8824419E0,-2.096926E-2,-0E0,-1.8225732E0,-0E0,-2.7006667E-3],"split_indices":[26,1,6,0,0,6,0,0,14,0,0],"split_type":[0,0,0,0,0,0,0,0,0,0,0],"sum_hessian":[2.7975012E1,2.7182634E0,2.5256748E1,1E0,1.7182634E0,2.2671516E1,2.5852327E0,1.5728805E0,2.1098635E1,1.1701564E0,1.9928478E1],"tree_param":{"num_deleted":"0","num_feature":"28","num_nodes":"11","size_leaf_vector":"1"}},{"base_weights":[-4.047326E-2,-1.551144E-1,2.3019498E-2,-7.8350656E-2,-1.3627434E-2,-8.2115345E-2,-0E0,-2.5625355E-3,-0E0],"categories":[],"categories_nodes":[],"categories_segments":[],"categories_sizes":[],"default_left":[0,0,0,0,0,0,0,0,0],"id":69,"left_children":[1,3,-1,5,-1,7,-1,-1,-1],"loss_changes":[2.0178514E0,2.084443E-1,0E0,4.3765455E-3,0E0,2.207175E-3,0E0,0E0,0E0],"parents":[2147483647,0,0,1,1,3,3,5,5],"right_children":[2,4,-1,6,-1,8,-1,-1,-1],"split_conditions":[1.872013E0,1.9441125E0,2.3019498E-2,6.995278E-1,-1.3627434E-2,1.3143715E0,-0E0,-2.5625355E-3,-0E0],"split_indices":[7,6,0,12,0,6,0,0,0],"split_type":[0,0,0,0,0,0,0,0,0],"sum_hessian":[2.2809816E1,2.1224585E1,1.5852326E0,1.9224585E1,2E0,1.80617E1,1.1628826E0,1.6918745E1,1.1429572E0],"tree_param":{"num_deleted":"0","num_feature":"28","num_nodes":"9","size_leaf_vector":"1"}},{"base_weights":[-0E0,-1.3760652E-1,4.5745637E-2,-6.425807E-2,-3.2267457E-1,-0E0,-6.730021E-2,-1.33549115E-2,-0E0,-2.0897556E-3,-0E0],"categories":[],"categories_nodes":[],"categories_segments":[],"categories_sizes":[],"default_left":[0,0,0,0,0,0,0,0,0,0,0],"id":70,"left_children":[1,3,-1,5,7,-1,9,-1,-1,-1,-1],"loss_changes":[5.1119356E0,1.166895E-1,0E0,1.0814369E-3,1.0147783E-1,0E0,6.0883164E-4,0E0,0E0,0E0,0E0],"parents":[2147483647,0,0,1,1,3,3,4,4,6,6],"right_children":[2,4,-1,6,8,-1,10,-1,-1,-1,-1],"split_conditions":[1.872013E0,7.262016E-1,4.5745637E-2,-2.0625708E0,1.4383368E-4,-0E0,1.5495027E0,-1.33549115E-2,-0E0,-2.0897556E-3,-0E0],"split_indices":[7,12,0,12,16,0,18,0,0,0,0],"split_type":[0,0,0,0,0,0,0,0,0,0,0],"sum_hessian":[2.4375954E1,2.3375954E1,1E0,1.9640652E1,3.7353024E0,1.5850782E0,1.8055573E1,2E0,1.7353023E0,1.6912615E1,1.1429572E0],"tree_param":{"num_deleted":"0","num_feature":"28","num_nodes":"11","size_leaf_vector":"1"}},{"base_weights":[-0E0,6.2146276E-1,-1.4274946E-1,5.3150654E-2,-1.6405895E-4,-7.056962E-2,-1.3087806E-2,-7.4714385E-2,-0E0,-2.4073394E-3,-0E0],"categories":[],"categories_nodes":[],"categories_segments":[],"categories_sizes":[],"default_left":[0,0,0,0,0,0,0,0,0,0,0],"id":71,"left_children":[1,3,5,-1,-1,7,-1,9,-1,-1,-1],"loss_changes":[2.3490155E0,4.399659E0,2.0526907E-1,0E0,0E0,3.8348958E-3,0E0,1.8285587E-3,0E0,0E0,0E0],"parents":[2147483647,0,0,1,1,2,2,5,5,7,7],"right_children":[2,4,6,-1,-1,8,-1,10,-1,-1,-1],"split_conditions":[-9.991505E-1,-4.2050463E-1,1.9441125E0,5.3150654E-2,-1.6405895E-4,1.3583728E0,-1.3087806E-2,1.245138E0,-0E0,-2.4073394E-3,-0E0],"split_indices":[26,1,6,0,0,4,0,6,0,0,0],"split_type":[0,0,0,0,0,0,0,0,0,0,0],"sum_hessian":[2.5967102E1,3.8631246E0,2.2103977E1,1E0,2.8631246E0,2.0103977E1,2E0,1.8514427E1,1.5895503E0,1.6201313E1,2.3131137E0],"tree_param":{"num_deleted":"0","num_feature":"28","num_nodes":"11","size_leaf_vector":"1"}},{"base_weights":[1.4341646E-1,-1.0532413E-1,6.996597E-2,-1.1353979E-1,-0E0,-0E0,-1.3774002E-1,-0E0,-4.545096E-3],"categories":[],"categories_nodes":[],"categories_segments":[],"categories_sizes":[],"default_left":[0,0,0,0,0,0,0,0,0],"id":72,"left_children":[1,3,-1,5,-1,-1,7,-1,-1],"loss_changes":[1.6039776E1,1.4813691E-2,0E0,1.829046E-2,0E0,0E0,1.586774E-2,0E0,0E0],"parents":[2147483647,0,0,1,1,3,3,6,6],"right_children":[2,4,-1,6,-1,-1,8,-1,-1],"split_conditions":[1.872013E0,1.4599234E0,6.996597E-2,-1.0839574E0,-0E0,-0E0,-1.2018273E0,-0E0,-4.545096E-3],"split_indices":[7,26,0,11,0,0,9,0,0],"split_type":[0,0,0,0,0,0,0,0,0],"sum_hessian":[2.596482E1,2.396482E1,2E0,2.163178E1,2.3330388E0,6.289906E0,1.5341875E1,2.1429572E0,1.3198918E1],"tree_param":{"num_deleted":"0","num_feature":"28","num_nodes":"9","size_leaf_vector":"1"}},{"base_weights":[-0E0,-1.6532956E-1,5.130392E-2,-5.188227E-2,-3.439158E-1,-5.379227E-2,-0E0,-1.9610234E-2,-1.5330724E-3,-1.6685936E-3,-0E0],"categories":[],"categories_nodes":[],"categories_segments":[],"categories_sizes":[],"default_left":[0,0,0,0,0,0,0,0,0,0,0],"id":73,"left_children":[1,3,-1,5,7,9,-1,-1,-1,-1,-1],"loss_changes":[6.4888244E0,2.5843233E-1,0E0,1.5797466E-4,2.6745456E-1,1.1704862E-4,0E0,0E0,0E0,0E0,0E0],"parents":[2147483647,0,0,1,1,3,3,4,4,5,5],"right_children":[2,4,-1,6,8,10,-1,-1,-1,-1,-1],"split_conditions":[1.8304296E0,2.410283E-1,5.130392E-2,6.881146E-2,2.288327E0,2.130435E0,-0E0,-1.9610234E-2,-1.5330724E-3,-1.6685936E-3,-0E0],"split_indices":[18,5,0,5,27,4,0,0,0,0,0],"split_type":[0,0,0,0,0,0,0,0,0,0,0],"sum_hessian":[2.3404324E1,2.2404324E1,1E0,1.6202156E1,6.202169E0,1.5056844E1,1.1453111E0,1.5852326E0,4.616936E0,1.4056844E1,1E0],"tree_param":{"num_deleted":"0","num_feature":"28","num_nodes":"11","size_leaf_vector":"1"}},{"base_weights":[1.7889693E-1,-8.796163E-2,6.7540586E-2,-9.54599E-2,-0E0,-1.0687005E-1,-0E0,-0E0,-3.445121E-3],"categories":[],"categories_nodes":[],"categories_segments":[],"categories_sizes":[],"default_left":[0,0,0,0,0,0,0,0,0],"id":74,"left_children":[1,3,-1,5,-1,7,-1,-1,-1],"loss_changes":[1.4605583E1,6.7908615E-3,0E0,9.097263E-3,0E0,8.154839E-3,0E0,0E0,0E0],"parents":[2147483647,0,0,1,1,3,3,5,5],"right_children":[2,4,-1,6,-1,8,-1,-1,-1],"split_conditions":[1.5885168E0,1.1064396E0,6.7540586E-2,9.2533916E-1,-0E0,1.2455617E0,-0E0,-0E0,-3.445121E-3],"split_indices":[7,17,0,15,0,27,0,0,0],"split_type":[0,0,0,0,0,0,0,0,0],"sum_hessian":[2.3095093E1,2.1095093E1,2E0,1.8505543E1,2.5895503E0,1.5359335E1,3.1462083E0,1.5728805E0,1.3786454E1],"tree_param":{"num_deleted":"0","num_feature":"28","num_nodes":"9","size_leaf_vector":"1"}},{"base_weights":[-5.3921398E-2,4.7775158E-1,-1.8277457E-1,4.226343E-2,-0E0,-5.9011843E-2,-2.1458535E-2,-6.420062E-2,-0E0,-0E0,-1.9941838E-3],"categories":[],"categories_nodes":[],"categories_segments":[],"categories_sizes":[],"default_left":[0,0,0,0,0,0,0,0,0,0,0],"id":75,"left_children":[1,3,5,-1,-1,7,-1,9,-1,-1,-1],"loss_changes":[1.8163435E0,2.8593369E0,1.1212583E0,0E0,0E0,6.2349215E-3,0E0,1.284197E-3,0E0,0E0,0E0],"parents":[2147483647,0,0,1,1,2,2,5,5,7,7],"right_children":[2,4,6,-1,-1,8,-1,10,-1,-1,-1],"split_conditions":[-8.4761363E-1,-4.1655442E-1,1.3202645E0,4.226343E-2,-0E0,8.8325727E-1,-2.1458535E-2,-2.0404139E0,-0E0,-0E0,-1.9941838E-3],"split_indices":[26,1,6,0,0,10,0,2,0,0,0],"split_type":[0,0,0,0,0,0,0,0,0,0,0],"sum_hessian":[2.6391224E1,3.8631246E0,2.25281E1,1E0,2.8631246E0,1.9942867E1,2.5852327E0,1.820711E1,1.7357585E0,1E0,1.720711E1],"tree_param":{"num_deleted":"0","num_feature":"28","num_nodes":"11","size_leaf_vector":"1"}},{"base_weights":[-0E0,-1.1139611E-1,4.1629486E-2,-4.6218343E-2,-9.588781E-3,-5.1818397E-2,-0E0,-0E0,-1.6959389E-3],"categories":[],"categories_nodes":[],"categories_segments":[],"categories_sizes":[],"default_left":[0,0,0,0,0,0,0,0,0],"id":76,"left_children":[1,3,-1,5,-1,7,-1,-1,-1],"loss_changes":[4.127095E0,1.0411778E-1,0E0,3.1949244E-3,0E0,3.6790594E-3,0E0,0E0,0E0],"parents":[2147483647,0,0,1,1,3,3,5,5],"right_children":[2,4,-1,6,-1,8,-1,-1,-1],"split_conditions":[1.779726E0,4.1427585E-1,4.1629486E-2,1.09193E0,-9.588781E-3,-1.8824419E0,-0E0,-0E0,-1.6959389E-3],"split_indices":[18,14,0,6,0,6,0,0,0],"split_type":[0,0,0,0,0,0,0,0,0],"sum_hessian":[2.2237946E1,2.1237946E1,1E0,1.893445E1,2.303496E0,1.604846E1,2.8859897E0,1.5728805E0,1.4475579E1],"tree_param":{"num_deleted":"0","num_feature":"28","num_nodes":"9","size_leaf_vector":"1"}},{"base_weights":[2.6746659E-2,-9.343409E-2,7.786093E-1,-0E0,-1.02275826E-1,-0E0,4.8262883E-2,-0E0,-1.2954542E-1,-4.1588387E-3,-0E0],"categories":[],"categories_nodes":[],"categories_segments":[],"categories_sizes":[],"default_left":[0,0,0,0,0,0,0,0,0,0,0],"id":77,"left_children":[1,3,5,-1,7,-1,-1,-1,9,-1,-1],"loss_changes":[2.5917826E0,1.2292549E-2,2.7513056E0,0E0,1.7583966E-2,0E0,0E0,0E0,1.18359625E-2,0E0,0E0],"parents":[2147483647,0,0,1,1,2,2,4,4,8,8],"right_children":[2,4,6,-1,8,-1,-1,-1,10,-1,-1],"split_conditions":[9.274201E-1,-1.375509E0,-2.8786325E-1,-0E0,1.9441841E0,-0E0,4.8262883E-2,-0E0,2.8364277E0,-4.1588387E-3,-0E0],"split_indices":[15,13,0,0,27,0,0,0,0,0,0],"split_type":[0,0,0,0,0,0,0,0,0,0,0],"sum_hessian":[2.3086548E1,2.0086548E1,3E0,2.3131137E0,1.7773434E1,2E0,1E0,6.024036E0,1.1749399E1,1.0749399E1,1E0],"tree_param":{"num_deleted":"0","num_feature":"28","num_nodes":"11","size_leaf_vector":"1"}},{"base_weights":[9.018002E-2,-1.2282332E-1,1.3850174E0,-4.509296E-2,-2.2155249E-1,6.354667E-2,-4.718971E-3,-1.4227893E-3,-0E0,-2.5778648E-1,-0E0,-0E0,-8.787732E-3],"categories":[],"categories_nodes":[],"categories_segments":[],"categories_sizes":[],"default_left":[0,0,0,0,0,0,0,0,0,0,0,0,0],"id":78,"left_children":[1,3,5,7,9,-1,-1,-1,-1,11,-1,-1,-1],"loss_changes":[7.804389E0,2.852723E-2,5.836994E0,1.0165311E-3,4.041478E-2,0E0,0E0,0E0,0E0,1.024878E-2,0E0,0E0,0E0],"parents":[2147483647,0,0,1,1,2,2,3,3,4,4,9,9],"right_children":[2,4,6,8,10,-1,-1,-1,-1,12,-1,-1,-1],"split_conditions":[1.8304296E0,2.410283E-1,-4.1655442E-1,1.3143715E0,6.576171E-1,6.354667E-2,-4.718971E-3,-1.4227893E-3,-0E0,6.1043864E-1,-0E0,-0E0,-8.787732E-3],"split_indices":[18,5,1,6,11,0,0,0,0,21,0,0,0],"split_type":[0,0,0,0,0,0,0,0,0,0,0,0,0],"sum_hessian":[2.4391806E1,2.1391806E1,3E0,1.5617278E1,5.7745285E0,2E0,1E0,1.447432E1,1.1429572E0,4.6121025E0,1.1624262E0,1.1462083E0,3.465894E0],"tree_param":{"num_deleted":"0","num_feature":"28","num_nodes":"13","size_leaf_vector":"1"}},{"base_weights":[-3.16088E-2,6.2633955E-1,-1.8250234E-1,4.658575E-2,-0E0,-2.0532418E-2,-8.461427E-2,-0E0,-1.0193375E-1,-3.3745675E-3,-0E0],"categories":[],"categories_nodes":[],"categories_segments":[],"categories_sizes":[],"default_left":[0,0,0,0,0,0,0,0,0,0,0],"id":79,"left_children":[1,3,5,-1,-1,-1,7,-1,9,-1,-1],"loss_changes":[2.384692E0,3.1394937E0,6.292745E-1,0E0,0E0,0E0,1.6354427E-2,0E0,7.940114E-3,0E0,0E0],"parents":[2147483647,0,0,1,1,2,2,6,6,8,8],"right_children":[2,4,6,-1,-1,-1,8,-1,10,-1,-1],"split_conditions":[-9.991505E-1,-4.2050463E-1,-1.5298842E-1,4.658575E-2,-0E0,-2.0532418E-2,-1.0800933E0,-0E0,9.2533916E-1,-3.3745675E-3,-0E0],"split_indices":[26,1,26,0,0,0,9,0,15,0,0],"split_type":[0,0,0,0,0,0,0,0,0,0,0],"sum_hessian":[2.410373E1,3.290694E0,2.0813034E1,1E0,2.290694E0,1.5852326E0,1.9227802E1,4.715838E0,1.4511965E1,1.2365756E1,2.1462083E0],"tree_param":{"num_deleted":"0","num_feature":"28","num_nodes":"11","size_leaf_vector":"1"}},{"base_weights":[-3.7094258E-2,7.2083336E-1,-1.7490335E-1,-0E0,4.5886975E-2,-5.559765E-2,-4.851714E-1,-0E0,-1.7566959E-3,-1.823414E-2,-0E0],"categories":[],"categories_nodes":[],"categories_segments":[],"categories_sizes":[],"default_left":[0,0,0,0,0,0,0,0,0,0,0],"id":80,"left_children":[1,3,5,-1,-1,7,9,-1,-1,-1,-1],"loss_changes":[2.6244996E0,2.746636E0,5.841623E-1,0E0,0E0,3.1554475E-3,2.8986776E-1,0E0,0E0,0E0,0E0],"parents":[2147483647,0,0,1,1,2,2,5,5,6,6],"right_children":[2,4,6,-1,-1,8,10,-1,-1,-1,-1],"split_conditions":[-9.991505E-1,3.7925982E-1,7.262016E-1,-0E0,4.5886975E-2,-2.0404139E0,1.9704001E0,-0E0,-1.7566959E-3,-1.823414E-2,-0E0],"split_indices":[26,2,12,0,0,2,10,0,0,0,0],"split_type":[0,0,0,0,0,0,0,0,0,0,0],"sum_hessian":[2.553333E1,2.7192154E0,2.2814116E1,1.7192154E0,1E0,1.8493582E1,4.3205347E0,1E0,1.7493582E1,3.1747828E0,1.1457521E0],"tree_param":{"num_deleted":"0","num_feature":"28","num_nodes":"11","size_leaf_vector":"1"}},{"base_weights":[1.0252224E-1,6.157394E-2,-1.4751934E-1,-6.34944E-2,-1.6627697E-2,-0E0,-6.675222E-2,-2.1438485E-3,-0E0],"categories":[],"categories_nodes":[],"categories_segments":[],"categories_sizes":[],"default_left":[0,0,0,0,0,0,0,0,0],"id":81,"left_children":[1,-1,3,5,-1,-1,7,-1,-1],"loss_changes":[1.2862153E1,0E0,4.0116796E-1,4.1241124E-3,0E0,0E0,4.478447E-3,0E0,0E0],"parents":[2147483647,0,0,2,2,3,3,6,6],"right_children":[2,-1,4,6,-1,-1,8,-1,-1],"split_conditions":[-1.4280508E0,6.157394E-2,1.3644716E0,-2.0404139E0,-1.6627697E-2,-0E0,1.2666973E0,-2.1438485E-3,-0E0],"split_indices":[16,0,8,2,0,0,7,0,0],"split_type":[0,0,0,0,0,0,0,0,0],"sum_hessian":[2.2805775E1,2E0,2.0805775E1,1.9220541E1,1.5852326E0,1E0,1.8220541E1,1.6647665E1,1.572876E0],"tree_param":{"num_deleted":"0","num_feature":"28","num_nodes":"9","size_leaf_vector":"1"}},{"base_weights":[1.0805263E-1,-1.4113617E-1,6.0342483E-2,-5.7677314E-2,-1.3965187E-2,-0E0,-6.370776E-2,-0E0,-1.9724465E-3],"categories":[],"categories_nodes":[],"categories_segments":[],"categories_sizes":[],"default_left":[0,0,0,0,0,0,0,0,0],"id":82,"left_children":[1,3,-1,5,-1,-1,7,-1,-1],"loss_changes":[1.2289975E1,2.8931534E-1,0E0,7.7745095E-3,0E0,0E0,3.708303E-4,0E0,0E0],"parents":[2147483647,0,0,1,1,3,3,6,6],"right_children":[2,4,-1,6,-1,-1,8,-1,-1],"split_conditions":[1.872013E0,1.3202645E0,6.0342483E-2,-1.8824419E0,-1.3965187E-2,-0E0,-5.174303E-4,-0E0,-1.9724465E-3],"split_indices":[7,6,0,6,0,0,22,0,0],"split_type":[0,0,0,0,0,0,0,0,0],"sum_hessian":[2.2341822E1,2.0341822E1,2E0,1.8341822E1,2E0,1.5728805E0,1.6768942E1,1E0,1.5768942E1],"tree_param":{"num_deleted":"0","num_feature":"28","num_nodes":"9","size_leaf_vector":"1"}},{"base_weights":[-5.161666E-2,2.747819E-2,-2.1243664E-2,-5.8914885E-2,3.7833538E-2,-6.739392E-2,-0E0,-0E0,-2.1357387E-3],"categories":[],"categories_nodes":[],"categories_segments":[],"categories_sizes":[],"default_left":[0,0,0,0,0,0,0,0,0],"id":83,"left_children":[1,3,-1,5,-1,7,-1,-1,-1],"loss_changes":[1.7448883E0,3.2427905E0,0E0,3.9583966E-3,0E0,4.676275E-3,0E0,0E0,0E0],"parents":[2147483647,0,0,1,1,3,3,5,5],"right_children":[2,4,-1,6,-1,8,-1,-1,-1],"split_conditions":[1.3202645E0,1.5885168E0,-2.1243664E-2,1.2666973E0,3.7833538E-2,-2.0404139E0,-0E0,-0E0,-2.1357387E-3],"split_indices":[6,7,0,7,0,2,0,0,0],"split_type":[0,0,0,0,0,0,0,0,0],"sum_hessian":[2.5674557E1,2.3089325E1,2.5852327E0,2.2089325E1,1E0,1.7516449E1,4.572876E0,1E0,1.6516449E1],"tree_param":{"num_deleted":"0","num_feature":"28","num_nodes":"9","size_leaf_vector":"1"}},{"base_weights":[6.793623E-2,1.1870575E0,-9.4322786E-2,5.8378983E-2,-8.845024E-3,-0E0,-1.0149265E-1,-0E0,-1.1733446E-1,-0E0,-3.6935061E-3],"categories":[],"categories_nodes":[],"categories_segments":[],"categories_sizes":[],"default_left":[0,0,0,0,0,0,0,0,0,0,0],"id":84,"left_children":[1,3,5,-1,-1,-1,7,-1,9,-1,-1],"loss_changes":[5.729295E0,5.8977833E0,1.2920901E-2,0E0,0E0,0E0,1.4038011E-2,0E0,7.5876117E-3,0E0,0E0],"parents":[2147483647,0,0,1,1,2,2,6,6,8,8],"right_children":[2,4,6,-1,-1,-1,8,-1,10,-1,-1],"split_conditions":[-1.4280508E0,-2.5367022E-1,-1.2018273E0,5.8378983E-2,-8.845024E-3,-0E0,-1.2311482E0,-0E0,-2.064531E0,-0E0,-3.6935061E-3],"split_indices":[16,0,9,0,0,0,11,0,5,0,0],"split_type":[0,0,0,0,0,0,0,0,0,0,0],"sum_hessian":[2.6925713E1,3E0,2.3925713E1,2E0,1E0,2.1429572E0,2.1782755E1,4.7170253E0,1.706573E1,1.1565568E0,1.5909173E1],"tree_param":{"num_deleted":"0","num_feature":"28","num_nodes":"11","size_leaf_vector":"1"}},{"base_weights":[-1.3186254E-1,-5.2415527E-2,-1.2185951E-2,-0E0,-5.5270094E-2,-0E0,-5.9403025E-2,-1.8928389E-3,-0E0],"categories":[],"categories_nodes":[],"categories_segments":[],"categories_sizes":[],"default_left":[0,0,0,0,0,0,0,0,0],"id":85,"left_children":[1,3,-1,-1,5,-1,7,-1,-1],"loss_changes":[2.4933419E-1,3.200177E-3,0E0,0E0,3.619559E-3,0E0,7.636845E-5,0E0,0E0],"parents":[2147483647,0,0,1,1,4,4,6,6],"right_children":[2,4,-1,-1,6,-1,8,-1,-1],"split_conditions":[6.995278E-1,-2.0404139E0,-1.2185951E-2,-0E0,-1.2357901E0,-0E0,4.3406878E0,-1.8928389E-3,-0E0],"split_indices":[12,2,0,0,11,0,0,0,0],"split_type":[0,0,0,0,0,0,0,0,0],"sum_hessian":[2.1937763E1,1.9348213E1,2.5895503E0,1E0,1.8348213E1,1.5728805E0,1.6775333E1,1.4775333E1,2E0],"tree_param":{"num_deleted":"0","num_feature":"28","num_nodes":"9","size_leaf_vector":"1"}},{"base_weights":[-1.2228815E-1,-5.8211185E-2,-1.2791637E-2,-0E0,-6.31667E-2,-1.9897483E-3,-0E0],"categories":[],"categories_nodes":[],"categories_segments":[],"categories_sizes":[],"default_left":[0,0,0,0,0,0,0],"id":86,"left_children":[1,3,-1,-1,5,-1,-1],"loss_changes":[2.5622135E-1,6.197512E-3,0E0,0E0,4.157424E-4,0E0,0E0],"parents":[2147483647,0,0,1,1,4,4],"right_children":[2,4,-1,-1,6,-1,-1],"split_conditions":[1.0820886E0,-2.0011046E0,-1.2791637E-2,-0E0,1.5483441E0,-1.9897483E-3,-0E0],"split_indices":[12,15,0,0,2,0,0],"split_type":[0,0,0,0,0,0,0],"sum_hessian":[2.5857595E1,2.3699488E1,2.1581087E0,2.1701565E0,2.1529331E1,1.9529331E1,2E0],"tree_param":{"num_deleted":"0","num_feature":"28","num_nodes":"7","size_leaf_vector":"1"}},{"base_weights":[6.6045653E-3,-8.169156E-2,4.1984998E-2,-4.22343E-2,-8.499699E-3,-0E0,-4.603605E-2,-1.6087187E-3,-0E0],"categories":[],"categories_nodes":[],"categories_segments":[],"categories_sizes":[],"default_left":[0,0,0,0,0,0,0,0,0],"id":87,"left_children":[1,3,-1,5,-1,-1,7,-1,-1],"loss_changes":[4.0892854E0,3.1809255E-2,0E0,5.043555E-3,0E0,0E0,4.8659407E-3,0E0,0E0],"parents":[2147483647,0,0,1,1,3,3,6,6],"right_children":[2,4,-1,6,-1,-1,8,-1,-1],"split_conditions":[1.872013E0,1.9441125E0,4.1984998E-2,-1.8824419E0,-8.499699E-3,-0E0,1.09193E0,-1.6087187E-3,-0E0],"split_indices":[7,6,0,6,0,0,6,0,0],"split_type":[0,0,0,0,0,0,0,0,0],"sum_hessian":[2.596258E1,2.496258E1,1E0,2.396258E1,1E0,1.5728805E0,2.2389698E1,1.7930834E1,4.4588656E0],"tree_param":{"num_deleted":"0","num_feature":"28","num_nodes":"9","size_leaf_vector":"1"}},{"base_weights":[6.892033E-2,8.8804877E-1,-1.342898E-1,-0E0,5.6449354E-2,-3.3382062E-2,-2.0002495E-2,-3.6261596E-2,-0E0,-1.2217448E-3,-0E0],"categories":[],"categories_nodes":[],"categories_segments":[],"categories_sizes":[],"default_left":[0,0,0,0,0,0,0,0,0,0,0],"id":88,"left_children":[1,3,5,-1,-1,7,-1,9,-1,-1,-1],"loss_changes":[4.8865075E0,5.997926E0,7.8353274E-1,0E0,0E0,2.4933722E-3,0E0,2.8957166E-3,0E0,0E0,0E0],"parents":[2147483647,0,0,1,1,2,2,5,5,7,7],"right_children":[2,4,6,-1,-1,8,-1,10,-1,-1,-1],"split_conditions":[-8.4761363E-1,3.8310698E-1,1.9441125E0,-0E0,5.6449354E-2,1.3143715E0,-2.0002495E-2,1.2155324E0,-0E0,-1.2217448E-3,-0E0],"split_indices":[26,2,6,0,0,6,0,11,0,0,0],"split_type":[0,0,0,0,0,0,0,0,0,0,0],"sum_hessian":[2.5375696E1,4.863125E0,2.0512571E1,2.8631246E0,2E0,1.892734E1,1.5852326E0,1.7784382E1,1.1429572E0,1.563863E1,2.145752E0],"tree_param":{"num_deleted":"0","num_feature":"28","num_nodes":"11","size_leaf_vector":"1"}},{"base_weights":[-3.3084475E-2,-1.4371553E-1,6.7376834E-1,-5.362875E-2,-1.9634504E-2,4.050848E-2,-2.6889038E-3,-5.940921E-2,-0E0,-0E0,-1.9817047E-3],"categories":[],"categories_nodes":[],"categories_segments":[],"categories_sizes":[],"default_left":[0,0,0,0,0,0,0,0,0,0,0],"id":89,"left_children":[1,3,5,7,-1,-1,-1,9,-1,-1,-1],"loss_changes":[1.8171676E0,6.870215E-1,2.300702E0,8.694977E-3,0E0,0E0,0E0,5.0224364E-3,0E0,0E0,0E0],"parents":[2147483647,0,0,1,1,2,2,3,3,7,7],"right_children":[2,4,6,8,-1,-1,-1,10,-1,-1,-1],"split_conditions":[1.8304296E0,1.5885168E0,-4.2050463E-1,1.2155324E0,-1.9634504E-2,4.050848E-2,-2.6889038E-3,-1.2357901E0,-0E0,-0E0,-1.9817047E-3],"split_indices":[18,7,1,11,0,0,0,11,0,0,0],"split_type":[0,0,0,0,0,0,0,0,0,0,0],"sum_hessian":[2.4388317E1,2.2388317E1,2E0,2.0803083E1,1.5852326E0,1E0,1E0,1.9230207E1,1.572876E0,2.7158377E0,1.651437E1],"tree_param":{"num_deleted":"0","num_feature":"28","num_nodes":"11","size_leaf_vector":"1"}},{"base_weights":[-2.3967868E-2,5.480804E-1,-1.610772E-1,-0E0,3.9900854E-2,-6.476245E-2,-1.9273318E-2,-0E0,-9.6697785E-2,-3.4311106E-3,-0E0],"categories":[],"categories_nodes":[],"categories_segments":[],"categories_sizes":[],"default_left":[0,0,0,0,0,0,0,0,0,0,0],"id":90,"left_children":[1,3,5,-1,-1,7,-1,-1,9,-1,-1],"loss_changes":[1.8288876E0,2.24935E0,5.955413E-1,0E0,0E0,1.910878E-2,0E0,0E0,1.7866783E-2,0E0,0E0],"parents":[2147483647,0,0,1,1,2,2,5,5,8,8],"right_children":[2,4,6,-1,-1,8,-1,-1,10,-1,-1],"split_conditions":[-9.991505E-1,3.8310698E-1,1.5885168E0,-0E0,3.9900854E-2,7.375646E-1,-1.9273318E-2,-0E0,7.400202E-1,-3.4311106E-3,-0E0],"split_indices":[26,2,7,0,0,26,0,0,21,0,0],"split_type":[0,0,0,0,0,0,0,0,0,0,0],"sum_hessian":[2.365929E1,3.2897322E0,2.0369558E1,2.2897322E0,1E0,1.8784327E1,1.5852326E0,8.866393E0,9.917933E0,8.170427E0,1.7475061E0],"tree_param":{"num_deleted":"0","num_feature":"28","num_nodes":"11","size_leaf_vector":"1"}},{"base_weights":[-3.533294E-3,-1.363923E-1,3.930233E-2,-4.9094256E-2,-1.89188E-2,-0E0,-5.6082346E-2,-1.84635E-3,-0E0],"categories":[],"categories_nodes":[],"categories_segments":[],"categories_sizes":[],"default_left":[0,0,0,0,0,0,0,0,0],"id":91,"left_children":[1,3,-1,5,-1,-1,7,-1,-1],"loss_changes":[3.8696785E0,6.4359105E-1,0E0,7.573366E-3,0E0,0E0,6.385967E-3,0E0,0E0],"parents":[2147483647,0,0,1,1,3,3,6,6],"right_children":[2,4,-1,6,-1,-1,8,-1,-1],"split_conditions":[1.779726E0,1.2769305E0,3.930233E-2,-1.2152452E0,-1.89188E-2,-0E0,1.2666973E0,-1.84635E-3,-0E0],"split_indices":[18,7,0,19,0,0,7,0,0],"split_type":[0,0,0,0,0,0,0,0,0],"sum_hessian":[2.3511305E1,2.2511305E1,1E0,2.0926073E1,1.5852326E0,2.7158377E0,1.8210236E1,1.663736E1,1.572876E0],"tree_param":{"num_deleted":"0","num_feature":"28","num_nodes":"9","size_leaf_vector":"1"}},{"base_weights":[-0E0,3.871279E-2,-1.1550365E-1,-3.9880045E-2,-1.546228E-2,-4.8754852E-2,-0E0,-1.7099333E-3,-0E0],"categories":[],"categories_nodes":[],"categories_segments":[],"categories_sizes":[],"default_left":[0,0,0,0,0,0,0,0,0],"id":92,"left_children":[1,-1,3,5,-1,7,-1,-1,-1],"loss_changes":[3.642518E0,0E0,4.0932757E-1,6.2466227E-3,0E0,4.800614E-3,0E0,0E0,0E0],"parents":[2147483647,0,0,2,2,3,3,5,5],"right_children":[2,-1,4,6,-1,8,-1,-1,-1],"split_conditions":[-1.4280508E0,3.871279E-2,1.0820886E0,-9.505806E-2,-1.546228E-2,1.1900814E0,-0E0,-1.7099333E-3,-0E0],"split_indices":[16,0,12,0,0,2,0,0,0],"split_type":[0,0,0,0,0,0,0,0,0],"sum_hessian":[2.3395264E1,1E0,2.2395264E1,2.081003E1,1.5852326E0,1.622048E1,4.58955E0,1.3077523E1,3.1429572E0],"tree_param":{"num_deleted":"0","num_feature":"28","num_nodes":"9","size_leaf_vector":"1"}},{"base_weights":[2.3955466E-2,3.8132112E-2,-6.171819E-2,-0E0,-7.569973E-2,-0E0,-1.0160483E-1,-0E0,-3.3058394E-3],"categories":[],"categories_nodes":[],"categories_segments":[],"categories_sizes":[],"default_left":[0,0,0,0,0,0,0,0,0],"id":93,"left_children":[1,-1,3,-1,5,-1,7,-1,-1],"loss_changes":[3.3068786E0,0E0,1.972448E-2,0E0,2.1215685E-2,0E0,3.9233416E-3,0E0,0E0],"parents":[2147483647,0,0,2,2,4,4,6,6],"right_children":[2,-1,4,-1,6,-1,8,-1,-1],"split_conditions":[-1.4280508E0,3.8132112E-2,-1.0933975E0,-0E0,1.5574982E0,-0E0,-4.4817123E-1,-0E0,-3.3058394E-3],"split_indices":[16,0,5,0,27,0,3,0,0],"split_type":[0,0,0,0,0,0,0,0,0],"sum_hessian":[2.3556665E1,1E0,2.2556665E1,4.456071E0,1.8100594E1,6.443051E0,1.1657543E1,1.5733323E0,1.008421E1],"tree_param":{"num_deleted":"0","num_feature":"28","num_nodes":"9","size_leaf_vector":"1"}},{"base_weights":[-3.4167297E-2,5.0854623E-1,-1.4754444E-1,3.756014E-2,-0E0,-3.511828E-2,-1.9762732E-2,-3.9759044E-2,-0E0,-0E0,-1.4290508E-3],"categories":[],"categories_nodes":[],"categories_segments":[],"categories_sizes":[],"default_left":[0,0,0,0,0,0,0,0,0,0,0],"id":94,"left_children":[1,3,5,-1,-1,7,-1,9,-1,-1,-1],"loss_changes":[1.6135987E0,2.0253754E0,1.0465052E0,0E0,0E0,4.2743683E-3,0E0,5.2771457E-3,0E0,0E0,0E0],"parents":[2147483647,0,0,1,1,2,2,5,5,7,7],"right_children":[2,4,6,-1,-1,8,-1,10,-1,-1,-1],"split_conditions":[-9.991505E-1,-4.2050463E-1,1.9441125E0,3.756014E-2,-0E0,1.2155324E0,-1.9762732E-2,-1.2311482E0,-0E0,-0E0,-1.4290508E-3],"split_indices":[26,1,6,0,0,11,0,11,0,0,0],"split_type":[0,0,0,0,0,0,0,0,0,0,0],"sum_hessian":[2.693808E1,3.290694E0,2.3647387E1,1E0,2.290694E0,2.1062153E1,2.5852327E0,1.89164E1,2.145752E0,3.7158377E0,1.5200564E1],"tree_param":{"num_deleted":"0","num_feature":"28","num_nodes":"11","size_leaf_vector":"1"}},{"base_weights":[6.348534E-2,-8.587788E-2,1.1328135E0,-0E0,-1.2116414E-1,-2.6086806E-3,5.205166E-2,-4.9059454E-2,-1.0346666E-2,-1.6396145E-3,-0E0],"categories":[],"categories_nodes":[],"categories_segments":[],"categories_sizes":[],"default_left":[0,0,0,0,0,0,0,0,0,0,0],"id":95,"left_children":[1,3,5,-1,7,-1,-1,9,-1,-1,-1],"loss_changes":[5.2069798E0,5.3136885E-2,3.9133081E0,0E0,5.288051E-2,0E0,0E0,5.4399557E-3,0E0,0E0,0E0],"parents":[2147483647,0,0,1,1,2,2,4,4,7,7],"right_children":[2,4,6,-1,8,-1,-1,10,-1,-1,-1],"split_conditions":[1.8304296E0,1.9441841E0,-2.7539387E-1,-0E0,7.3681164E-1,-2.6086806E-3,5.205166E-2,5.7392085E-1,-1.0346666E-2,-1.6396145E-3,-0E0],"split_indices":[18,27,0,0,12,0,0,12,0,0,0],"split_type":[0,0,0,0,0,0,0,0,0,0,0],"sum_hessian":[2.7714481E1,2.4714481E1,3E0,9.17708E0,1.5537401E1,1E0,2E0,1.4362618E1,1.1747829E0,1.3199737E1,1.1628826E0],"tree_param":{"num_deleted":"0","num_feature":"28","num_nodes":"11","size_leaf_vector":"1"}},{"base_weights":[-2.8282303E-2,5.832841E-1,-1.3453488E-1,3.6215972E-2,-0E0,-2.8158866E-2,-4.441299E-1,-3.3567455E-2,-0E0,-0E0,-1.6330102E-2,-0E0,-1.2676076E-3],"categories":[],"categories_nodes":[],"categories_segments":[],"categories_sizes":[],"default_left":[0,0,0,0,0,0,0,0,0,0,0,0,0],"id":96,"left_children":[1,3,5,-1,-1,7,9,11,-1,-1,-1,-1,-1],"loss_changes":[1.7094765E0,1.6499578E0,6.022043E-1,0E0,0E0,5.406568E-3,1.79286E-1,2.8706286E-3,0E0,0E0,0E0,0E0,0E0],"parents":[2147483647,0,0,1,1,2,2,5,5,6,6,7,7],"right_children":[2,4,6,-1,-1,8,10,12,-1,-1,-1,-1,-1],"split_conditions":[-9.991505E-1,-4.2050463E-1,7.262016E-1,3.6215972E-2,-0E0,8.9400166E-1,-4.416374E-1,4.6226662E-1,-0E0,-0E0,-1.6330102E-2,-0E0,-1.2676076E-3],"split_indices":[26,1,12,0,0,20,1,26,0,0,0,0,0],"split_type":[0,0,0,0,0,0,0,0,0,0,0,0,0],"sum_hessian":[2.7552856E1,2.7173016E0,2.4835556E1,1E0,1.7173016E0,2.0498346E1,4.337209E0,1.8926868E1,1.5714786E0,1.1791005E0,3.1581087E0,5.7428246E0,1.3184044E1],"tree_param":{"num_deleted":"0","num_feature":"28","num_nodes":"13","size_leaf_vector":"1"}},{"base_weights":[-0E0,-9.95761E-2,3.567272E-2,-3.689078E-2,-1.1760406E-2,-4.611074E-2,-0E0,-1.5507081E-3,-0E0],"categories":[],"categories_nodes":[],"categories_segments":[],"categories_sizes":[],"default_left":[0,0,0,0,0,0,0,0,0],"id":97,"left_children":[1,3,-1,5,-1,7,-1,-1,-1],"loss_changes":[3.0813146E0,2.3964676E-1,0E0,8.549616E-3,0E0,5.0795935E-3,0E0,0E0,0E0],"parents":[2147483647,0,0,1,1,3,3,5,5],"right_children":[2,4,-1,6,-1,8,-1,-1,-1],"split_conditions":[1.872013E0,1.9441125E0,3.567272E-2,1.210813E0,-1.1760406E-2,4.3406878E0,-0E0,-1.5507081E-3,-0E0],"split_indices":[7,6,0,6,0,0,0,0,0],"split_type":[0,0,0,0,0,0,0,0,0],"sum_hessian":[2.5560354E1,2.4560354E1,1E0,2.2560354E1,2E0,1.8101488E1,4.4588656E0,1.6101488E1,2E0],"tree_param":{"num_deleted":"0","num_feature":"28","num_nodes":"9","size_leaf_vector":"1"}},{"base_weights":[-0E0,-9.138026E-2,5.6643295E-1,-1.210039E-1,-0E0,-2.1481705E-3,3.5137653E-2,-1.58331E-1,-0E0,-5.1542036E-3,-0E0],"categories":[],"categories_nodes":[],"categories_segments":[],"categories_sizes":[],"default_left":[0,0,0,0,0,0,0,0,0,0,0],"id":98,"left_children":[1,3,5,7,-1,-1,-1,9,-1,-1,-1],"loss_changes":[1.1397899E0,2.6049823E-2,1.791393E0,4.4498965E-2,0E0,0E0,0E0,1.4458731E-2,0E0,0E0,0E0],"parents":[2147483647,0,0,1,1,2,2,3,3,7,7],"right_children":[2,4,6,8,-1,-1,-1,10,-1,-1,-1],"split_conditions":[1.8304296E0,2.4488283E-2,-2.7539387E-1,1.6294174E-1,-0E0,-2.1481705E-3,3.5137653E-2,3.158785E0,-0E0,-5.1542036E-3,-0E0],"split_indices":[18,11,0,17,0,0,0,0,0,0,0],"split_type":[0,0,0,0,0,0,0,0,0,0,0],"sum_hessian":[2.2226776E1,2.0226776E1,2E0,1.2884827E1,7.341949E0,1E0,1E0,8.884827E0,4E0,7.8848267E0,1E0],"tree_param":{"num_deleted":"0","num_feature":"28","num_nodes":"11","size_leaf_vector":"1"}},{"base_weights":[-3.690634E-2,-1.4651486E-1,5.184742E-1,-2.7868344E-2,-4.9340612E-1,-0E0,3.173784E-2,-0E0,-3.3941824E-2,-1.8800955E-2,-0E0,-0E0,-1.1346319E-3],"categories":[],"categories_nodes":[],"categories_segments":[],"categories_sizes":[],"default_left":[0,0,0,0,0,0,0,0,0,0,0,0,0],"id":99,"left_children":[1,3,5,7,9,-1,-1,-1,11,-1,-1,-1,-1],"loss_changes":[1.4604456E0,6.7542946E-1,1.2382373E0,2.9757163E-3,2.522881E-1,0E0,0E0,0E0,2.079403E-3,0E0,0E0,0E0,0E0],"parents":[2147483647,0,0,1,1,2,2,3,3,4,4,8,8],"right_children":[2,4,6,8,10,-1,-1,-1,12,-1,-1,-1,-1],"split_conditions":[1.0043375E0,7.262016E-1,1.2666973E0,-1.2357901E0,1.4383368E-4,-0E0,3.173784E-2,-0E0,-1.5733219E0,-1.8800955E-2,-0E0,-0E0,-1.1346319E-3],"split_indices":[24,12,7,11,16,0,0,0,12,0,0,0,0],"split_type":[0,0,0,0,0,0,0,0,0,0,0,0,0],"sum_hessian":[2.4798367E1,2.2077652E1,2.7207162E0,1.8329992E1,3.747659E0,1.7207162E0,1E0,3.7158377E0,1.4614155E1,2.5852327E0,1.1624262E0,1.5850782E0,1.3029077E1],"tree_param":{"num_deleted":"0","num_feature":"28","num_nodes":"13","size_leaf_vector":"1"}},{"base_weights":[4.871633E-2,4.010706E-2,-1.2662832E-1,-1.4228473E-2,-1.8394211E-2,-1.9220343E-2,-0E0,-6.828943E-4,-0E0],"categories":[],"categories_nodes":[],"categories_segments":[],"categories_sizes":[],"default_left":[0,0,0,0,0,0,0,0,0],"id":100,"left_children":[1,-1,3,5,-1,7,-1,-1,-1],"loss_changes":[6.704126E0,0E0,9.724271E-1,1.9376567E-3,0E0,1.8908596E-3,0E0,0E0,0E0],"parents":[2147483647,0,0,2,2,3,3,5,5],"right_children":[2,-1,4,6,-1,8,-1,-1,-1],"split_conditions":[-8.4761363E-1,4.010706E-2,1.9441125E0,1.1349453E0,-1.8394211E-2,1.6492654E-1,-0E0,-6.828943E-4,-0E0],"split_indices":[26,0,6,18,0,25,0,0,0],"split_type":[0,0,0,0,0,0,0,0,0],"sum_hessian":[2.5251955E1,2.5733924E0,2.2678562E1,2.009333E1,2.5852327E0,1.5804621E1,4.288709E0,1.46299925E1,1.1746285E0],"tree_param":{"num_deleted":"0","num_feature":"28","num_nodes":"9","size_leaf_vector":"1"}},{"base_weights":[8.754783E-2,-6.570098E-2,1.0155104E0,-0E0,-7.6820016E-2,-0E0,4.8124082E-2,-8.3118066E-2,-0E0,-0E0,-2.820016E-3],"categories":[],"categories_nodes":[],"categories_segments":[],"categories_sizes":[],"default_left":[0,0,0,0,0,0,0,0,0,0,0],"id":101,"left_children":[1,3,5,-1,7,-1,-1,9,-1,-1,-1],"loss_changes":[4.621481E0,1.1043742E-2,2.9867315E0,0E0,9.396978E-3,0E0,0E0,1.1669114E-2,0E0,0E0,0E0],"parents":[2147483647,0,0,1,1,2,2,4,4,7,7],"right_children":[2,4,6,-1,8,-1,-1,10,-1,-1,-1],"split_conditions":[9.2533916E-1,-1.0800933E0,-4.416374E-1,-0E0,5.586951E-1,-0E0,4.8124082E-2,-2.0011046E0,-0E0,-0E0,-2.820016E-3],"split_indices":[15,9,1,0,17,0,0,15,0,0,0],"split_type":[0,0,0,0,0,0,0,0,0,0,0],"sum_hessian":[2.768912E1,2.409957E1,3.5895503E0,4.8686504E0,1.9230919E1,1.5895503E0,2E0,1.7641367E1,1.5895503E0,2.7457695E0,1.4895598E1],"tree_param":{"num_deleted":"0","num_feature":"28","num_nodes":"11","size_leaf_vector":"1"}},{"base_weights":[3.350288E-2,-1.3172953E-1,4.7161635E-2,-5.0359588E-2,-1.8835235E-2,-6.0270064E-2,-0E0,-0E0,-1.9300878E-3],"categories":[],"categories_nodes":[],"categories_segments":[],"categories_sizes":[],"default_left":[0,0,0,0,0,0,0,0,0],"id":102,"left_children":[1,3,-1,5,-1,7,-1,-1,-1],"loss_changes":[7.819379E0,6.429788E-1,0E0,1.0734167E-2,0E0,4.9759075E-3,0E0,0E0,0E0],"parents":[2147483647,0,0,1,1,3,3,5,5],"right_children":[2,4,-1,6,-1,8,-1,-1,-1],"split_conditions":[1.8304296E0,1.3096334E0,4.7161635E-2,1.264688E0,-1.8835235E-2,-2.0712492E0,-0E0,-0E0,-1.9300878E-3],"split_indices":[18,7,0,7,0,13,0,0,0],"split_type":[0,0,0,0,0,0,0,0,0],"sum_hessian":[2.6111042E1,2.4111042E1,2E0,2.252581E1,1.5852326E0,1.8380056E1,4.145752E0,1.1701564E0,1.7209902E1],"tree_param":{"num_deleted":"0","num_feature":"28","num_nodes":"9","size_leaf_vector":"1"}},{"base_weights":[9.385335E-2,4.6218414E-2,-1.0041751E-1,-1.5446189E-2,-1.4450002E-2,-2.1103075E-2,-0E0,-8.5673324E-4,-0E0],"categories":[],"categories_nodes":[],"categories_segments":[],"categories_sizes":[],"default_left":[0,0,0,0,0,0,0,0,0],"id":103,"left_children":[1,-1,3,5,-1,7,-1,-1,-1],"loss_changes":[7.1286798E0,0E0,4.0003246E-1,2.260625E-3,0E0,3.237525E-3,0E0,0E0,0E0],"parents":[2147483647,0,0,2,2,3,3,5,5],"right_children":[2,-1,4,6,-1,8,-1,-1,-1],"split_conditions":[-1.4280508E0,4.6218414E-2,1.9441125E0,2.8582783E-2,-1.4450002E-2,1.09193E0,-0E0,-8.5673324E-4,-0E0],"split_indices":[16,0,6,17,0,6,0,0,0],"split_type":[0,0,0,0,0,0,0,0,0],"sum_hessian":[2.1250772E1,2E0,1.9250772E1,1.7665539E1,1.5852326E0,1.4075989E1,3.5895503E0,1.1202201E1,2.8737874E0],"tree_param":{"num_deleted":"0","num_feature":"28","num_nodes":"9","size_leaf_vector":"1"}},{"base_weights":[6.0780767E-2,7.8368014E-1,-8.6708754E-2,4.5294035E-2,-0E0,-1.4988374E-2,-1.1762199E-2,-0E0,-2.026589E-2,-0E0,-7.9485145E-4],"categories":[],"categories_nodes":[],"categories_segments":[],"categories_sizes":[],"default_left":[0,0,0,0,0,0,0,0,0,0,0],"id":104,"left_children":[1,3,5,-1,-1,7,-1,-1,9,-1,-1],"loss_changes":[3.32123E0,3.5891953E0,2.9329693E-1,0E0,0E0,2.5378107E-3,0E0,0E0,2.931052E-3,0E0,0E0],"parents":[2147483647,0,0,1,1,2,2,5,5,8,8],"right_children":[2,4,6,-1,-1,8,-1,-1,10,-1,-1],"split_conditions":[-7.277386E-2,-4.1655442E-1,1.9441125E0,4.5294035E-2,-0E0,-1.5251522E0,-1.1762199E-2,-0E0,-1.2357901E0,-0E0,-7.9485145E-4],"split_indices":[25,1,6,0,0,5,0,0,11,0,0],"split_type":[0,0,0,0,0,0,0,0,0,0,0],"sum_hessian":[2.6244326E1,4.290694E0,2.1953632E1,2E0,2.290694E0,1.9953632E1,2E0,3.3131137E0,1.6640518E1,3.144359E0,1.349616E1],"tree_param":{"num_deleted":"0","num_feature":"28","num_nodes":"11","size_leaf_vector":"1"}},{"base_weights":[-3.9219707E-2,-1.222307E-1,4.8653412E-1,-3.839058E-2,-1.8790448E-2,3.1224003E-2,-1.8299675E-3,-4.408711E-2,-0E0,-0E0,-1.5527273E-3],"categories":[],"categories_nodes":[],"categories_segments":[],"categories_sizes":[],"default_left":[0,0,0,0,0,0,0,0,0,0,0],"id":105,"left_children":[1,3,5,7,-1,-1,-1,9,-1,-1,-1],"loss_changes":[1.0361127E0,6.812592E-1,1.463825E0,5.789537E-3,0E0,0E0,0E0,6.1537735E-3,0E0,0E0,0E0],"parents":[2147483647,0,0,1,1,2,2,3,3,7,7],"right_children":[2,4,6,8,-1,-1,-1,10,-1,-1,-1],"split_conditions":[1.8304296E0,1.5885168E0,-4.2050463E-1,1.2666973E0,-1.8790448E-2,3.1224003E-2,-1.8299675E-3,-1.5251522E0,-0E0,-0E0,-1.5527273E-3],"split_indices":[18,7,1,7,0,0,0,5,0,0,0],"split_type":[0,0,0,0,0,0,0,0,0,0,0],"sum_hessian":[2.5551468E1,2.3551468E1,2E0,2.1966234E1,1.5852326E0,1E0,1E0,1.9393358E1,2.572876E0,3.299514E0,1.6093845E1],"tree_param":{"num_deleted":"0","num_feature":"28","num_nodes":"11","size_leaf_vector":"1"}},{"base_weights":[4.9213942E-2,7.5253356E-1,-1.18230335E-1,4.4094197E-2,-0E0,-1.22386115E-2,-1.8444773E-2,-1.6316028E-2,-0E0,-0E0,-5.9859554E-4],"categories":[],"categories_nodes":[],"categories_segments":[],"categories_sizes":[],"default_left":[0,0,0,0,0,0,0,0,0,0,0],"id":106,"left_children":[1,3,5,-1,-1,7,-1,9,-1,-1,-1],"loss_changes":[3.2114656E0,3.4848392E0,7.069288E-1,0E0,0E0,1.404414E-3,0E0,1.1638687E-3,0E0,0E0,0E0],"parents":[2147483647,0,0,1,1,2,2,5,5,7,7],"right_children":[2,4,6,-1,-1,8,-1,10,-1,-1,-1],"split_conditions":[-8.4761363E-1,-4.1655442E-1,1.5885168E0,4.4094197E-2,-0E0,1.264688E0,-1.8444773E-2,-1.5733219E0,-0E0,-0E0,-5.9859554E-4],"split_indices":[26,1,7,0,0,7,0,12,0,0,0],"split_type":[0,0,0,0,0,0,0,0,0,0,0],"sum_hessian":[2.282115E1,4.290694E0,1.8530455E1,2E0,2.290694E0,1.6945223E1,1.5852326E0,1.4372347E1,2.572876E0,2.1701565E0,1.220219E1],"tree_param":{"num_deleted":"0","num_feature":"28","num_nodes":"11","size_leaf_vector":"1"}},{"base_weights":[-0E0,3.0094242E-2,-1.07768044E-1,-3.290299E-2,-1.3766637E-2,-0E0,-3.7776314E-2,-1.307707E-3,-0E0],"categories":[],"categories_nodes":[],"categories_segments":[],"categories_sizes":[],"default_left":[0,0,0,0,0,0,0,0,0],"id":107,"left_children":[1,-1,3,5,-1,-1,7,-1,-1],"loss_changes":[2.2660975E0,0E0,3.1279638E-1,4.7279913E-3,0E0,0E0,3.3457205E-3,0E0,0E0],"parents":[2147483647,0,0,2,2,3,3,6,6],"right_children":[2,-1,4,6,-1,-1,8,-1,-1],"split_conditions":[-1.4280508E0,3.0094242E-2,1.3202645E0,8.95866E-1,-1.3766637E-2,-0E0,1.210813E0,-1.307707E-3,-0E0],"split_indices":[16,0,6,27,0,0,6,0,0],"split_type":[0,0,0,0,0,0,0,0,0],"sum_hessian":[2.1828249E1,1E0,2.0828249E1,1.9243017E1,1.5852326E0,1.5728805E0,1.7670135E1,1.4782749E1,2.887387E0],"tree_param":{"num_deleted":"0","num_feature":"28","num_nodes":"9","size_leaf_vector":"1"}},{"base_weights":[7.482036E-2,-9.757776E-2,4.2610433E-2,-2.1886308E-2,-1.1293602E-2,-2.8812839E-2,-0E0,-1.0168151E-3,-0E0],"categories":[],"categories_nodes":[],"categories_segments":[],"categories_sizes":[],"default_left":[0,0,0,0,0,0,0,0,0],"id":108,"left_children":[1,3,-1,5,-1,7,-1,-1,-1],"loss_changes":[6.123154E0,2.347727E-1,0E0,3.687839E-3,0E0,3.5857018E-3,0E0,0E0,0E0],"parents":[2147483647,0,0,1,1,3,3,5,5],"right_children":[2,4,-1,6,-1,8,-1,-1,-1],"split_conditions":[1.872013E0,1.9441125E0,4.2610433E-2,1.2666973E0,-1.1293602E-2,1.3143715E0,-0E0,-1.0168151E-3,-0E0],"split_indices":[7,6,0,7,0,6,0,0,0],"split_type":[0,0,0,0,0,0,0,0,0],"sum_hessian":[2.194804E1,1.994804E1,2E0,1.794804E1,2E0,1.4375164E1,3.572876E0,1.3232206E1,1.1429572E0],"tree_param":{"num_deleted":"0","num_feature":"28","num_nodes":"9","size_leaf_vector":"1"}},{"base_weights":[-5.0900005E-2,3.1860873E-1,-1.4237991E-1,-0E0,2.613367E-2,-5.1835805E-2,-1.851951E-2,-0E0,-6.2723994E-2,-2.0430484E-3,-0E0],"categories":[],"categories_nodes":[],"categories_segments":[],"categories_sizes":[],