{"learner":{"attributes":{"scikit_learn":"{\"_estimator_type\": \"regressor\"}"},"feature_names":[],"feature_types":[],"gradient_booster":{"model":{"cats":{"enc":[],"feature_segments":[],"sorted_idx":[]},"gbtree_model_param":{"num_parallel_tree":"1","num_trees":"800"},"iteration_indptr":[0,1,2,3,4,5,6,7,8,9,10,11,12,13,14,15,16,17,18,19,20,21,22,23,24,25,26,27,28,29,30,31,32,33,34,35,36,37,38,39,40,41,42,43,44,45,46,47,48,49,50,51,52,53,54,55,56,57,58,59,60,61,62,63,64,65,66,67,68,69,70,71,72,73,74,75,76,77,78,79,80,81,82,83,84,85,86,87,88,89,90,91,92,93,94,95,96,97,98,99,100,101,102,103,104,105,106,107,108,109,110,111,112,113,114,115,116,117,118,119,120,121,122,123,124,125,126,127,128,129,130,131,132,133,134,135,136,137,138,139,140,141,142,143,144,145,146,147,148,149,150,151,152,153,154,155,156,157,158,159,160,161,162,163,164,165,166,167,168,169,170,171,172,173,174,175,176,177,178,179,180,181,182,183,184,185,186,187,188,189,190,191,192,193,194,195,196,197,198,199,200,201,202,203,204,205,206,207,208,209,210,211,212,213,214,215,216,217,218,219,220,221,222,223,224,225,226,227,228,229,230,231,232,233,234,235,236,237,238,239,240,241,242,243,244,245,246,247,248,249,250,251,252,253,254,255,256,257,258,259,260,261,262,263,264,265,266,267,268,269,270,271,272,273,274,275,276,277,278,279,280,281,282,283,284,285,286,287,288,289,290,291,292,293,294,295,296,297,298,299,300,301,302,303,304,305,306,307,308,309,310,311,312,313,314,315,316,317,318,319,320,321,322,323,324,325,326,327,328,329,330,331,332,333,334,335,336,337,338,339,340,341,342,343,344,345,346,347,348,349,350,351,352,353,354,355,356,357,358,359,360,361,362,363,364,365,366,367,368,369,370,371,372,373,374,375,376,377,378,379,380,381,382,383,384,385,386,387,388,389,390,391,392,393,394,395,396,397,398,399,400,401,402,403,404,405,406,407,408,409,410,411,412,413,414,415,416,417,418,419,420,421,422,423,424,425,426,427,428,429,430,431,432,433,434,435,436,437,438,439,440,441,442,443,444,445,446,447,448,449,450,451,452,453,454,455,456,457,458,459,460,461,462,463,464,465,466,467,468,469,470,471,472,473,474,475,476,477,478,479,480,481,482,483,484,485,486,487,488,489,490,491,492,493,494,495,496,497,498,499,500,501,502,503,504,505,506,507,508,509,510,511,512,513,514,515,516,517,518,519,520,521,522,523,524,525,526,527,528,529,530,531,532,533,534,535,536,537,538,539,540,541,542,543,544,545,546,547,548,549,550,551,552,553,554,555,556,557,558,559,560,561,562,563,564,565,566,567,568,569,570,571,572,573,574,575,576,577,578,579,580,581,582,583,584,585,586,587,588,589,590,591,592,593,594,595,596,597,598,599,600,601,602,603,604,605,606,607,608,609,610,611,612,613,614,615,616,617,618,619,620,621,622,623,624,625,626,627,628,629,630,631,632,633,634,635,636,637,638,639,640,641,642,643,644,645,646,647,648,649,650,651,652,653,654,655,656,657,658,659,660,661,662,663,664,665,666,667,668,669,670,671,672,673,674,675,676,677,678,679,680,681,682,683,684,685,686,687,688,689,690,691,692,693,694,695,696,697,698,699,700,701,702,703,704,705,706,707,708,709,710,711,712,713,714,715,716,717,718,719,720,721,722,723,724,725,726,727,728,729,730,731,732,733,734,735,736,737,738,739,740,741,742,743,744,745,746,747,748,749,750,751,752,753,754,755,756,757,758,759,760,761,762,763,764,765,766,767,768,769,770,771,772,773,774,775,776,777,778,779,780,781,782,783,784,785,786,787,788,789,790,791,792,793,794,795,796,797,798,799,800],"tree_info":[0,0,0,0,0,0,0,0,0,0,0,0,0,0,0,0,0,0,0,0,0,0,0,0,0,0,0,0,0,0,0,0,0,0,0,0,0,0,0,0,0,0,0,0,0,0,0,0,0,0,0,0,0,0,0,0,0,0,0,0,0,0,0,0,0,0,0,0,0,0,0,0,0,0,0,0,0,0,0,0,0,0,0,0,0,0,0,0,0,0,0,0,0,0,0,0,0,0,0,0,0,0,0,0,0,0,0,0,0,0,0,0,0,0,0,0,0,0,0,0,0,0,0,0,0,0,0,0,0,0,0,0,0,0,0,0,0,0,0,0,0,0,0,0,0,0,0,0,0,0,0,0,0,0,0,0,0,0,0,0,0,0,0,0,0,0,0,0,0,0,0,0,0,0,0,0,0,0,0,0,0,0,0,0,0,0,0,0,0,0,0,0,0,0,0,0,0,0,0,0,0,0,0,0,0,0,0,0,0,0,0,0,0,0,0,0,0,0,0,0,0,0,0,0,0,0,0,0,0,0,0,0,0,0,0,0,0,0,0,0,0,0,0,0,0,0,0,0,0,0,0,0,0,0,0,0,0,0,0,0,0,0,0,0,0,0,0,0,0,0,0,0,0,0,0,0,0,0,0,0,0,0,0,0,0,0,0,0,0,0,0,0,0,0,0,0,0,0,0,0,0,0,0,0,0,0,0,0,0,0,0,0,0,0,0,0,0,0,0,0,0,0,0,0,0,0,0,0,0,0,0,0,0,0,0,0,0,0,0,0,0,0,0,0,0,0,0,0,0,0,0,0,0,0,0,0,0,0,0,0,0,0,0,0,0,0,0,0,0,0,0,0,0,0,0,0,0,0,0,0,0,0,0,0,0,0,0,0,0,0,0,0,0,0,0,0,0,0,0,0,0,0,0,0,0,0,0,0,0,0,0,0,0,0,0,0,0,0,0,0,0,0,0,0,0,0,0,0,0,0,0,0,0,0,0,0,0,0,0,0,0,0,0,0,0,0,0,0,0,0,0,0,0,0,0,0,0,0,0,0,0,0,0,0,0,0,0,0,0,0,0,0,0,0,0,0,0,0,0,0,0,0,0,0,0,0,0,0,0,0,0,0,0,0,0,0,0,0,0,0,0,0,0,0,0,0,0,0,0,0,0,0,0,0,0,0,0,0,0,0,0,0,0,0,0,0,0,0,0,0,0,0,0,0,0,0,0,0,0,0,0,0,0,0,0,0,0,0,0,0,0,0,0,0,0,0,0,0,0,0,0,0,0,0,0,0,0,0,0,0,0,0,0,0,0,0,0,0,0,0,0,0,0,0,0,0,0,0,0,0,0,0,0,0,0,0,0,0,0,0,0,0,0,0,0,0,0,0,0,0,0,0,0,0,0,0,0,0,0,0,0,0,0,0,0,0,0,0,0,0,0,0,0,0,0,0,0,0,0,0,0,0,0,0,0,0,0,0,0,0,0,0,0,0,0,0,0,0,0,0,0,0,0,0,0,0,0,0,0,0,0,0,0,0,0,0,0,0,0,0,0,0,0,0,0,0,0,0,0,0,0,0,0,0,0,0,0,0,0,0,0,0,0,0,0,0,0,0,0,0,0,0,0,0,0,0,0,0,0,0,0,0,0,0,0,0,0,0,0,0,0,0,0,0,0,0,0,0,0,0,0,0,0,0,0,0,0,0,0,0,0,0,0,0,0,0,0,0,0,0,0,0,0,0,0,0,0,0,0,0,0,0,0,0,0,0,0,0,0,0,0,0,0,0,0,0,0,0,0,0,0,0,0,0,0,0,0,0,0,0],"trees":[{"base_weights":[-2.2821197E-4,1.6328225E-2,-3.0555344E-1,-5.02015E-1,-0E0,-0E0,-1.757904E-2],"categories":[],"categories_nodes":[],"categories_segments":[],"categories_sizes":[],"default_left":[0,0,0,0,0,0,0],"id":0,"left_children":[1,-1,3,5,-1,-1,-1],"loss_changes":[1.592752E0,0E0,5.9845245E-1,3.3589363E-2,0E0,0E0,0E0],"parents":[2147483647,0,0,2,2,3,3],"right_children":[2,-1,4,6,-1,-1,-1],"split_conditions":[-1.2349354E0,1.6328225E-2,0E0,-1.1303164E0,-0E0,-0E0,-1.757904E-2],"split_indices":[21,0,10,12,0,0,0],"split_type":[0,0,0,0,0,0,0],"sum_hessian":[8.298072E0,2.1117952E0,6.186277E0,4.0368586E0,2.1494184E0,1.242068E0,2.7947903E0],"tree_param":{"num_deleted":"0","num_feature":"37","num_nodes":"7","size_leaf_vector":"1"}},{"base_weights":[-0E0,2.6314878E-1,-2.73858E-1,-1.6799151E-3,5.099086E-1,-1.1183007E-2,-0E0,-0E0,1.8191917E-2],"categories":[],"categories_nodes":[],"categories_segments":[],"categories_sizes":[],"default_left":[0,0,0,0,0,0,0,0,0],"id":1,"left_children":[1,3,5,-1,7,-1,-1,-1,-1],"loss_changes":[7.792978E-1,7.2021765E-1,1.7042637E-1,0E0,2.9417515E-2,0E0,0E0,0E0,0E0],"parents":[2147483647,0,0,1,1,2,2,4,4],"right_children":[2,4,6,-1,8,-1,-1,-1,-1],"split_conditions":[-3.102688E-2,4.6945466E-3,7.3315334E-1,-1.6799151E-3,7.3844403E-1,-1.1183007E-2,-0E0,-0E0,1.8191917E-2],"split_indices":[33,26,10,0,34,0,0,0,0],"split_type":[0,0,0,0,0,0,0,0,0],"sum_hessian":[8.843371E0,4.9008794E0,3.9424918E0,1.5905527E0,3.3103268E0,2.8940933E0,1.0483985E0,1.1825686E0,2.1277583E0],"tree_param":{"num_deleted":"0","num_feature":"37","num_nodes":"9","size_leaf_vector":"1"}},{"base_weights":[-0E0,1.628306E-2,-3.011539E-1,-4.2584768E-1,-0E0,-1.45899635E-2,-0E0],"categories":[],"categories_nodes":[],"categories_segments":[],"categories_sizes":[],"default_left":[0,0,0,0,0,0,0],"id":2,"left_children":[1,-1,3,5,-1,-1,-1],"loss_changes":[1.527688E0,0E0,4.0054637E-1,6.1840177E-2,0E0,0E0,0E0],"parents":[2147483647,0,0,2,2,3,3],"right_children":[2,-1,4,6,-1,-1,-1],"split_conditions":[-1.2349354E0,1.628306E-2,8.4627223E-1,9.108509E-2,-0E0,-1.45899635E-2,-0E0],"split_indices":[21,0,10,35,0,0,0],"split_type":[0,0,0,0,0,0,0],"sum_hessian":[7.9524283E0,2.0654874E0,5.886941E0,4.652989E0,1.233952E0,3.5957785E0,1.0572106E0],"tree_param":{"num_deleted":"0","num_feature":"37","num_nodes":"7","size_leaf_vector":"1"}},{"base_weights":[-0E0,1.6422778E-2,-2.4922897E-1,-4.5629358E-1,3.5111685E-3,-1.5414496E-2,-0E0,4.4151917E-3,-0E0],"categories":[],"categories_nodes":[],"categories_segments":[],"categories_sizes":[],"default_left":[0,0,0,0,0,0,0,0,0],"id":3,"left_children":[1,-1,3,5,7,-1,-1,-1,-1],"loss_changes":[1.5351608E0,0E0,6.326217E-1,1.1555076E-2,4.9887218E-2,0E0,0E0,0E0,0E0],"parents":[2147483647,0,0,2,2,3,3,4,4],"right_children":[2,-1,4,6,8,-1,-1,-1,-1],"split_conditions":[-1.2349354E0,1.6422778E-2,0E0,9.108509E-2,-2.784361E-1,-1.5414496E-2,-0E0,4.4151917E-3,-0E0],"split_indices":[21,0,10,35,6,0,0,0,0],"split_type":[0,0,0,0,0,0,0,0,0],"sum_hessian":[9.251882E0,2.520158E0,6.7317233E0,4.3449383E0,2.3867853E0,3.25894E0,1.0859982E0,1.3051331E0,1.0816522E0],"tree_param":{"num_deleted":"0","num_feature":"37","num_nodes":"9","size_leaf_vector":"1"}},{"base_weights":[-0E0,1.8718521E-1,-2.9302776E-1,1.4977565E-2,-0E0,-3.589449E-1,-0E0,4.7808755E-3,-2.233576E-1,-1.352654E-2,-0E0,-0E0,-9.270882E-3],"categories":[],"categories_nodes":[],"categories_segments":[],"categories_sizes":[],"default_left":[0,0,0,0,0,0,0,0,0,0,0,0,0],"id":4,"left_children":[1,3,5,-1,7,9,-1,-1,11,-1,-1,-1,-1],"loss_changes":[6.6132087E-1,5.295723E-1,8.958283E-2,0E0,2.0731695E-1,8.529377E-2,0E0,0E0,4.0271863E-2,0E0,0E0,0E0,0E0],"parents":[2147483647,0,0,1,1,2,2,4,4,5,5,8,8],"right_children":[2,4,6,-1,8,10,-1,-1,12,-1,-1,-1,-1],"split_conditions":[-3.102688E-2,2.9029727E-2,5.167866E-1,1.4977565E-2,-1.3709908E0,8.347816E-1,-0E0,4.7808755E-3,-9.914966E-2,-1.352654E-2,-0E0,-0E0,-9.270882E-3],"split_indices":[33,29,13,0,11,1,0,0,14,0,0,0,0],"split_type":[0,0,0,0,0,0,0,0,0,0,0,0,0],"sum_hessian":[9.388011E0,5.227281E0,4.16073E0,2.0000298E0,3.2272513E0,3.134619E0,1.0261109E0,1.182874E0,2.044377E0,2.039907E0,1.094712E0,1.0323007E0,1.0120765E0],"tree_param":{"num_deleted":"0","num_feature":"37","num_nodes":"13","size_leaf_vector":"1"}},{"base_weights":[-0E0,1.7328916E-2,-2.3925012E-1,-4.340736E-1,-0E0,-0E0,-1.5230716E-2,2.3631728E-3,-0E0],"categories":[],"categories_nodes":[],"categories_segments":[],"categories_sizes":[],"default_left":[0,0,0,0,0,0,0,0,0],"id":5,"left_children":[1,-1,3,5,7,-1,-1,-1,-1],"loss_changes":[1.6583984E0,0E0,5.567173E-1,5.8362365E-2,1.2467079E-2,0E0,0E0,0E0,0E0],"parents":[2147483647,0,0,2,2,3,3,4,4],"right_children":[2,-1,4,6,8,-1,-1,-1,-1],"split_conditions":[-1.2349354E0,1.7328916E-2,0E0,-1.1303164E0,-3.3358926E-1,-0E0,-1.5230716E-2,2.3631728E-3,-0E0],"split_indices":[21,0,10,12,6,0,0,0,0],"split_type":[0,0,0,0,0,0,0,0,0],"sum_hessian":[9.349375E0,2.6493964E0,6.699978E0,4.293861E0,2.406117E0,1.1975175E0,3.0963435E0,1.009168E0,1.3969489E0],"tree_param":{"num_deleted":"0","num_feature":"37","num_nodes":"9","size_leaf_vector":"1"}},{"base_weights":[-0E0,-1.7821603E-1,2.119545E-1,-3.772074E-1,2.554763E-3,1.0811901E-2,-0E0,-0E0,-1.4722948E-2],"categories":[],"categories_nodes":[],"categories_segments":[],"categories_sizes":[],"default_left":[0,0,0,0,0,0,0,0,0],"id":6,"left_children":[1,3,5,7,-1,-1,-1,-1,-1],"loss_changes":[4.1540575E-1,5.08691E-1,2.6628476E-1,2.1291524E-1,0E0,0E0,0E0,0E0,0E0],"parents":[2147483647,0,0,1,1,2,2,3,3],"right_children":[2,4,6,8,-1,-1,-1,-1,-1],"split_conditions":[0E0,4.1517863E-1,-2.784361E-1,-5.661603E-1,2.554763E-3,1.0811901E-2,-0E0,-0E0,-1.4722948E-2],"split_indices":[10,13,6,18,0,0,0,0,0],"split_type":[0,0,0,0,0,0,0,0,0],"sum_hessian":[9.094767E0,5.306973E0,3.7877936E0,3.8581767E0,1.4487965E0,2.7061412E0,1.0816522E0,1.1041305E0,2.7540462E0],"tree_param":{"num_deleted":"0","num_feature":"37","num_nodes":"9","size_leaf_vector":"1"}},{"base_weights":[-0E0,1.7082922E-2,-9.929135E-2,-3.810011E-1,7.030122E-2,-0E0,-1.5591285E-2,-1.7480415E-3,2.52713E-1,1.008783E-2,-0E0],"categories":[],"categories_nodes":[],"categories_segments":[],"categories_sizes":[],"default_left":[0,0,0,0,0,0,0,0,0,0,0],"id":7,"left_children":[1,-1,3,5,7,-1,-1,-1,9,-1,-1],"loss_changes":[7.731935E-1,0E0,5.903861E-1,2.299133E-1,2.3085958E-1,0E0,0E0,0E0,7.837348E-2,0E0,0E0],"parents":[2147483647,0,0,2,2,3,3,4,4,8,8],"right_children":[2,-1,4,6,8,-1,-1,-1,10,-1,-1],"split_conditions":[-1.0487301E0,1.7082922E-2,8.675929E-3,-3.3766776E-1,9.0641516E-1,-0E0,-1.5591285E-2,-1.7480415E-3,-6.568592E-2,1.008783E-2,-0E0],"split_indices":[24,0,12,15,24,0,0,0,33,0,0],"split_type":[0,0,0,0,0,0,0,0,0,0,0],"sum_hessian":[8.669872E0,1.1247371E0,7.545135E0,3.474811E0,4.070324E0,1.2186404E0,2.2561705E0,1.1789104E0,2.891414E0,1.8910406E0,1.0003734E0],"tree_param":{"num_deleted":"0","num_feature":"37","num_nodes":"11","size_leaf_vector":"1"}},{"base_weights":[-0E0,1.5752884E-2,-2.4096842E-1,-4.0345588E-1,1.6463177E-3,-0E0,-1.4644638E-2],"categories":[],"categories_nodes":[],"categories_segments":[],"categories_sizes":[],"default_left":[0,0,0,0,0,0,0],"id":8,"left_children":[1,-1,3,5,-1,-1,-1],"loss_changes":[1.4009508E0,0E0,5.588294E-1,1.4348835E-1,0E0,0E0,0E0],"parents":[2147483647,0,0,2,2,3,3],"right_children":[2,-1,4,6,-1,-1,-1],"split_conditions":[-1.2349354E0,1.5752884E-2,1.106517E0,-5.2925265E-1,1.6463177E-3,-0E0,-1.4644638E-2],"split_indices":[21,0,34,18,0,0,0],"split_type":[0,0,0,0,0,0,0],"sum_hessian":[9.0321455E0,2.4933388E0,6.538807E0,5.076804E0,1.4620026E0,1.3236592E0,3.753145E0],"tree_param":{"num_deleted":"0","num_feature":"37","num_nodes":"7","size_leaf_vector":"1"}},{"base_weights":[1.8148966E-3,1.6402148E-2,-1.8791969E-1,-3.4460294E-1,1.7578659E-3,-0E0,-1.3020323E-2],"categories":[],"categories_nodes":[],"categories_segments":[],"categories_sizes":[],"default_left":[0,0,0,0,0,0,0],"id":9,"left_children":[1,-1,3,5,-1,-1,-1],"loss_changes":[1.3098304E0,0E0,4.5042157E-1,1.8229568E-1,0E0,0E0,0E0],"parents":[2147483647,0,0,2,2,3,3],"right_children":[2,-1,4,6,-1,-1,-1],"split_conditions":[-1.2349354E0,1.6402148E-2,8.4627223E-1,-5.2925265E-1,1.7578659E-3,-0E0,-1.3020323E-2],"split_indices":[21,0,10,18,0,0,0],"split_type":[0,0,0,0,0,0,0],"sum_hessian":[8.939745E0,2.5034442E0,6.436301E0,4.9319596E0,1.5043417E0,1.2244971E0,3.7074623E0],"tree_param":{"num_deleted":"0","num_feature":"37","num_nodes":"7","size_leaf_vector":"1"}},{"base_weights":[-0E0,2.5320515E-1,-1.643018E-1,1.4756757E-2,-3.9016808E-4,-3.470425E-1,5.8614365E-3,-0E0,-4.4573078E-1,-1.5432207E-2,-0E0],"categories":[],"categories_nodes":[],"categories_segments":[],"categories_sizes":[],"default_left":[0,0,0,0,0,0,0,0,0,0,0],"id":10,"left_children":[1,3,5,-1,-1,7,-1,-1,9,-1,-1],"loss_changes":[4.7569668E-1,5.316366E-1,5.9975106E-1,0E0,0E0,2.3476976E-1,0E0,0E0,1.3829052E-2,0E0,0E0],"parents":[2147483647,0,0,1,1,2,2,5,5,8,8],"right_children":[2,4,6,-1,-1,8,-1,-1,10,-1,-1],"split_conditions":[2.9029727E-2,-0E0,1.0002936E0,1.4756757E-2,-3.9016808E-4,-5.2925265E-1,5.8614365E-3,-0E0,7.190587E-1,-1.5432207E-2,-0E0],"split_indices":[29,33,27,0,0,18,0,0,5,0,0],"split_type":[0,0,0,0,0,0,0,0,0,0,0],"sum_hessian":[9.437177E0,3.4978235E0,5.939353E0,2.387568E0,1.1102555E0,4.8834977E0,1.055855E0,1.1352153E0,3.7482824E0,2.617332E0,1.1309503E0],"tree_param":{"num_deleted":"0","num_feature":"37","num_nodes":"11","size_leaf_vector":"1"}},{"base_weights":[-0E0,1.46065E-2,-2.4852099E-1,-3.9969626E-1,6.7441625E-4,-0E0,-1.4606881E-2],"categories":[],"categories_nodes":[],"categories_segments":[],"categories_sizes":[],"default_left":[0,0,0,0,0,0,0],"id":11,"left_children":[1,-1,3,5,-1,-1,-1],"loss_changes":[1.2833087E0,0E0,4.9311265E-1,1.3985479E-1,0E0,0E0,0E0],"parents":[2147483647,0,0,2,2,3,3],"right_children":[2,-1,4,6,-1,-1,-1],"split_conditions":[-1.2349354E0,1.46065E-2,1.106517E0,-5.2925265E-1,6.7441625E-4,-0E0,-1.4606881E-2],"split_indices":[21,0,34,18,0,0,0],"split_type":[0,0,0,0,0,0,0],"sum_hessian":[8.747473E0,2.534181E0,6.2132916E0,4.8679056E0,1.3453863E0,1.3236592E0,3.5442464E0],"tree_param":{"num_deleted":"0","num_feature":"37","num_nodes":"7","size_leaf_vector":"1"}},{"base_weights":[-0E0,1.5522142E-2,-2.3366193E-1,-3.884154E-1,-0E0,-0E0,-1.3550898E-2,1.8106576E-3,-0E0],"categories":[],"categories_nodes":[],"categories_segments":[],"categories_sizes":[],"default_left":[0,0,0,0,0,0,0,0,0],"id":12,"left_children":[1,-1,3,5,7,-1,-1,-1,-1],"loss_changes":[1.3409975E0,0E0,3.8597408E-1,4.9025893E-2,7.37979E-3,0E0,0E0,0E0,0E0],"parents":[2147483647,0,0,2,2,3,3,4,4],"right_children":[2,-1,4,6,8,-1,-1,-1,-1],"split_conditions":[-1.2349354E0,1.5522142E-2,0E0,-1.1303164E0,-6.288828E-1,-0E0,-1.3550898E-2,1.8106576E-3,-0E0],"split_indices":[21,0,10,12,5,0,0,0,0],"split_type":[0,0,0,0,0,0,0,0,0],"sum_hessian":[8.886487E0,2.5034442E0,6.3830433E0,4.2302704E0,2.1527727E0,1.1225448E0,3.1077259E0,1.0258806E0,1.1268922E0],"tree_param":{"num_deleted":"0","num_feature":"37","num_nodes":"9","size_leaf_vector":"1"}},{"base_weights":[-0E0,1.187507E-2,-2.1747398E-1,-3.818959E-1,1.9968245E-3,-4.3112612E-1,-0E0,-1.5324508E-2,-0E0],"categories":[],"categories_nodes":[],"categories_segments":[],"categories_sizes":[],"default_left":[0,0,0,0,0,0,0,0,0],"id":13,"left_children":[1,-1,3,5,-1,7,-1,-1,-1],"loss_changes":[8.283193E-1,0E0,5.3339756E-1,4.7504842E-2,0E0,5.30985E-2,0E0,0E0,0E0],"parents":[2147483647,0,0,2,2,3,3,5,5],"right_children":[2,-1,4,6,-1,8,-1,-1,-1],"split_conditions":[-1.2349354E0,1.187507E-2,1.106517E0,9.108509E-2,1.9968245E-3,0E0,-0E0,-1.5324508E-2,-0E0],"split_indices":[21,0,34,35,0,10,0,0,0],"split_type":[0,0,0,0,0,0,0,0,0],"sum_hessian":[8.52339E0,2.0223372E0,6.5010524E0,5.014228E0,1.4868248E0,3.9747033E0,1.0395246E0,2.7470987E0,1.2276045E0],"tree_param":{"num_deleted":"0","num_feature":"37","num_nodes":"9","size_leaf_vector":"1"}},{"base_weights":[1.3412105E-2,1.5367023E-2,-1.5927921E-1,-2.9972747E-1,9.7012176E-4,-0E0,-1.1571204E-2],"categories":[],"categories_nodes":[],"categories_segments":[],"categories_sizes":[],"default_left":[0,0,0,0,0,0,0],"id":14,"left_children":[1,-1,3,5,-1,-1,-1],"loss_changes":[1.1250807E0,0E0,3.4508845E-1,1.3071853E-1,0E0,0E0,0E0],"parents":[2147483647,0,0,2,2,3,3],"right_children":[2,-1,4,6,-1,-1,-1],"split_conditions":[-1.2349354E0,1.5367023E-2,1.106517E0,-5.2925265E-1,9.7012176E-4,-0E0,-1.1571204E-2],"split_indices":[21,0,34,18,0,0,0],"split_type":[0,0,0,0,0,0,0],"sum_hessian":[9.064924E0,2.5701516E0,6.494773E0,4.9279394E0,1.5668339E0,1.4696115E0,3.4583278E0],"tree_param":{"num_deleted":"0","num_feature":"37","num_nodes":"7","size_leaf_vector":"1"}},{"base_weights":[-0E0,1.3632157E-2,-2.0301975E-1,-4.149821E-1,4.5716442E-2,-1.4392931E-2,-0E0,-0E0,3.1964895E-3],"categories":[],"categories_nodes":[],"categories_segments":[],"categories_sizes":[],"default_left":[0,0,0,0,0,0,0,0,0],"id":15,"left_children":[1,-1,3,5,7,-1,-1,-1,-1],"loss_changes":[1.0332748E0,0E0,6.0264224E-1,5.5553615E-2,1.8496055E-2,0E0,0E0,0E0,0E0],"parents":[2147483647,0,0,2,2,3,3,4,4],"right_children":[2,-1,4,6,8,-1,-1,-1,-1],"split_conditions":[-1.2349354E0,1.3632157E-2,0E0,9.108509E-2,8.604684E-1,-1.4392931E-2,-0E0,-0E0,3.1964895E-3],"split_indices":[21,0,10,35,34,0,0,0,0],"split_type":[0,0,0,0,0,0,0,0,0],"sum_hessian":[9.061953E0,2.4933388E0,6.568614E0,4.270919E0,2.297695E0,3.1849208E0,1.0859982E0,1.0614053E0,1.2362897E0],"tree_param":{"num_deleted":"0","num_feature":"37","num_nodes":"9","size_leaf_vector":"1"}},{"base_weights":[-0E0,1.1156151E-2,-1.9129564E-1,-3.457529E-1,1.9589267E-3,-0E0,-1.2304164E-2],"categories":[],"categories_nodes":[],"categories_segments":[],"categories_sizes":[],"default_left":[0,0,0,0,0,0,0],"id":16,"left_children":[1,-1,3,5,-1,-1,-1],"loss_changes":[6.973586E-1,0E0,4.5786098E-1,9.206909E-2,0E0,0E0,0E0],"parents":[2147483647,0,0,2,2,3,3],"right_children":[2,-1,4,6,-1,-1,-1],"split_conditions":[-1.2349354E0,1.1156151E-2,8.4627223E-1,-7.222112E-1,1.9589267E-3,-0E0,-1.2304164E-2],"split_indices":[21,0,10,18,0,0,0],"split_type":[0,0,0,0,0,0,0],"sum_hessian":[8.517513E0,2.072736E0,6.4447775E0,5.022562E0,1.4222155E0,1.1951547E0,3.8274071E0],"tree_param":{"num_deleted":"0","num_feature":"37","num_nodes":"7","size_leaf_vector":"1"}},{"base_weights":[-0E0,1.30571695E-2,-2.3665354E-1,-3.8733548E-1,-0E0,-1.3516896E-2,-0E0],"categories":[],"categories_nodes":[],"categories_segments":[],"categories_sizes":[],"default_left":[0,0,0,0,0,0,0],"id":17,"left_children":[1,-1,3,5,-1,-1,-1],"loss_changes":[1.0286475E0,0E0,3.7470147E-1,6.484139E-2,0E0,0E0,0E0],"parents":[2147483647,0,0,2,2,3,3],"right_children":[2,-1,4,6,-1,-1,-1],"split_conditions":[-1.2691749E0,1.30571695E-2,2.528654E-1,1.1872877E-1,-0E0,-1.3516896E-2,-0E0],"split_indices":[21,0,10,35,0,0,0],"split_type":[0,0,0,0,0,0,0],"sum_hessian":[8.543019E0,2.2840676E0,6.258952E0,4.207257E0,2.0516953E0,3.167732E0,1.0395246E0],"tree_param":{"num_deleted":"0","num_feature":"37","num_nodes":"7","size_leaf_vector":"1"}},{"base_weights":[-0E0,-2.1281776E-1,1.773776E-1,-0E0,-9.096566E-3,-0E0,3.9352423E-1,1.7437864E-3,-5.70052E-3,-0E0,1.47510925E-2],"categories":[],"categories_nodes":[],"categories_segments":[],"categories_sizes":[],"default_left":[0,0,0,0,0,0,0,0,0,0,0],"id":18,"left_children":[1,3,5,-1,-1,7,9,-1,-1,-1,-1],"loss_changes":[3.9411294E-1,8.051418E-2,4.008917E-1,0E0,0E0,1.0123936E-1,5.5027604E-3,0E0,0E0,0E0,0E0],"parents":[2147483647,0,0,1,1,2,2,5,5,6,6],"right_children":[2,4,6,-1,-1,8,10,-1,-1,-1,-1],"split_conditions":[-3.0325183E-1,-9.515324E-1,7.8883654E-1,-0E0,-9.096566E-3,-1.5253015E0,8.029682E-1,1.7437864E-3,-5.70052E-3,-0E0,1.47510925E-2],"split_indices":[16,20,34,0,0,13,20,0,0,0,0],"split_type":[0,0,0,0,0,0,0,0,0,0,0],"sum_hessian":[8.709137E0,3.1344352E0,5.574702E0,1.2220614E0,1.9123738E0,2.6502209E0,2.924481E0,1.0369217E0,1.6132991E0,1.387987E0,1.5364939E0],"tree_param":{"num_deleted":"0","num_feature":"37","num_nodes":"11","size_leaf_vector":"1"}},{"base_weights":[-0E0,1.207962E-2,-7.431084E-2,-2.4996272E-1,4.623365E-2,-0E0,-9.7077545E-3,7.857696E-3,-0E0],"categories":[],"categories_nodes":[],"categories_segments":[],"categories_sizes":[],"default_left":[0,0,0,0,0,0,0,0,0],"id":19,"left_children":[1,-1,3,5,7,-1,-1,-1,-1],"loss_changes":[4.224988E-1,0E0,2.9262957E-1,1.1558318E-1,1.5839675E-1,0E0,0E0,0E0,0E0],"parents":[2147483647,0,0,2,2,3,3,4,4],"right_children":[2,-1,4,6,8,-1,-1,-1,-1],"split_conditions":[-1.0487301E0,1.207962E-2,1.0338266E0,-5.2925265E-1,-3.3350512E-2,-0E0,-9.7077545E-3,7.857696E-3,-0E0],"split_indices":[24,0,24,18,33,0,0,0,0],"split_type":[0,0,0,0,0,0,0,0,0],"sum_hessian":[8.78131E0,1.3176531E0,7.4636564E0,4.288656E0,3.1750002E0,1.029096E0,3.2595603E0,1.4389476E0,1.7360525E0],"tree_param":{"num_deleted":"0","num_feature":"37","num_nodes":"9","size_leaf_vector":"1"}},{"base_weights":[-0E0,1.3613317E-2,-1.5621671E-1,-9.72458E-3,-0E0,3.3790425E-3,-0E0],"categories":[],"categories_nodes":[],"categories_segments":[],"categories_sizes":[],"default_left":[0,0,0,0,0,0,0],"id":20,"left_children":[1,-1,3,-1,5,-1,-1],"loss_changes":[9.2429054E-1,0E0,3.606467E-1,0E0,3.0913621E-2,0E0,0E0],"parents":[2147483647,0,0,2,2,4,4],"right_children":[2,-1,4,-1,6,-1,-1],"split_conditions":[-1.2349354E0,1.3613317E-2,0E0,-9.72458E-3,-2.784361E-1,3.3790425E-3,-0E0],"split_indices":[21,0,10,0,6,0,0],"split_type":[0,0,0,0,0,0,0],"sum_hessian":[9.320916E0,2.5701516E0,6.7507644E0,4.2323956E0,2.5183687E0,1.4367166E0,1.0816522E0],"tree_param":{"num_deleted":"0","num_feature":"37","num_nodes":"7","size_leaf_vector":"1"}},{"base_weights":[-0E0,1.1262299E-2,-1.9222467E-1,-2.974712E-1,-0E0,-0E0,-3.3503187E-1,-1.2025032E-2,-0E0],"categories":[],"categories_nodes":[],"categories_segments":[],"categories_sizes":[],"default_left":[0,0,0,0,0,0,0,0,0],"id":21,"left_children":[1,-1,3,5,-1,-1,7,-1,-1],"loss_changes":[7.5356364E-1,0E0,2.7054754E-1,2.6057065E-2,0E0,0E0,7.452947E-2,0E0,0E0],"parents":[2147483647,0,0,2,2,3,3,6,6],"right_children":[2,-1,4,6,-1,-1,8,-1,-1],"split_conditions":[-1.2691749E0,1.1262299E-2,1.106517E0,-8.5686207E-1,-0E0,-0E0,9.108509E-2,-1.2025032E-2,-0E0],"split_indices":[21,0,34,13,0,0,35,0,0],"split_type":[0,0,0,0,0,0,0,0,0],"sum_hessian":[8.73654E0,2.4317858E0,6.3047533E0,5.1076503E0,1.1971034E0,1.0605589E0,4.0470915E0,2.9898808E0,1.0572106E0],"tree_param":{"num_deleted":"0","num_feature":"37","num_nodes":"9","size_leaf_vector":"1"}},{"base_weights":[-0E0,2.7072567E-1,-1.2951049E-1,1.3212128E-2,-0E0,-0E0,-2.3849823E-1,-1.0562347E-2,-0E0],"categories":[],"categories_nodes":[],"categories_segments":[],"categories_sizes":[],"default_left":[0,0,0,0,0,0,0,0,0],"id":22,"left_children":[1,3,5,-1,-1,-1,7,-1,-1],"loss_changes":[4.0056732E-1,2.7080607E-1,1.9695237E-1,0E0,0E0,0E0,1.8932542E-1,0E0,0E0],"parents":[2147483647,0,0,1,1,2,2,6,6],"right_children":[2,4,6,-1,-1,-1,8,-1,-1],"split_conditions":[2.9029727E-2,-7.050041E-3,-1.3709908E0,1.3212128E-2,-0E0,-0E0,7.4652195E-1,-1.0562347E-2,-0E0],"split_indices":[29,33,11,0,0,0,5,0,0],"split_type":[0,0,0,0,0,0,0,0,0],"sum_hessian":[8.473805E0,2.9789953E0,5.49481E0,1.8998145E0,1.0791808E0,1.1171368E0,4.3776736E0,2.9949868E0,1.3826866E0],"tree_param":{"num_deleted":"0","num_feature":"37","num_nodes":"9","size_leaf_vector":"1"}},{"base_weights":[-0E0,1.3799346E-2,-2.2467843E-1,-1.0084712E-2,-0E0],"categories":[],"categories_nodes":[],"categories_segments":[],"categories_sizes":[],"default_left":[0,0,0,0,0],"id":23,"left_children":[1,-1,3,-1,-1],"loss_changes":[1.0811445E0,0E0,2.9844937E-1,0E0,0E0],"parents":[2147483647,0,0,2,2],"right_children":[2,-1,4,-1,-1],"split_conditions":[-1.2349354E0,1.3799346E-2,1.106517E0,-1.0084712E-2,-0E0],"split_indices":[21,0,34,0,0],"split_type":[0,0,0,0,0],"sum_hessian":[8.368268E0,2.462146E0,5.9061227E0,4.72623E0,1.1798922E0],"tree_param":{"num_deleted":"0","num_feature":"37","num_nodes":"5","size_leaf_vector":"1"}},{"base_weights":[-0E0,9.429939E-3,-1.8193047E-1,-0E0,-2.738784E-1,-1.1638141E-2,-0E0],"categories":[],"categories_nodes":[],"categories_segments":[],"categories_sizes":[],"default_left":[0,0,0,0,0,0,0],"id":24,"left_children":[1,-1,3,-1,5,-1,-1],"loss_changes":[5.618652E-1,0E0,1.8736845E-1,0E0,2.2279122E-1,0E0,0E0],"parents":[2147483647,0,0,2,2,4,4],"right_children":[2,-1,4,-1,6,-1,-1],"split_conditions":[-1.2349354E0,9.429939E-3,-5.2925265E-1,-0E0,4.7032875E-1,-1.1638141E-2,-0E0],"split_indices":[21,0,18,0,12,0,0],"split_type":[0,0,0,0,0,0,0],"sum_hessian":[8.671703E0,2.1754692E0,6.496234E0,1.6905065E0,4.8057275E0,3.37404E0,1.4316877E0],"tree_param":{"num_deleted":"0","num_feature":"37","num_nodes":"7","size_leaf_vector":"1"}},{"base_weights":[-0E0,-1.7693774E-1,1.5782216E-1,-0E0,-9.629636E-3,-0E0,2.7319697E-1,1.2203204E-2,-0E0],"categories":[],"categories_nodes":[],"categories_segments":[],"categories_sizes":[],"default_left":[0,0,0,0,0,0,0,0,0],"id":25,"left_children":[1,3,5,-1,-1,-1,7,-1,-1],"loss_changes":[2.9957056E-1,2.3349194E-1,1.7103106E-1,0E0,0E0,0E0,1.9387847E-1,0E0,0E0],"parents":[2147483647,0,0,1,1,2,2,6,6],"right_children":[2,4,6,-1,-1,-1,8,-1,-1],"split_conditions":[6.2375262E-2,8.348666E-3,3.8913358E-3,-0E0,-9.629636E-3,-0E0,-2.8542134E-1,1.2203204E-2,-0E0],"split_indices":[12,30,26,0,0,0,6,0,0],"split_type":[0,0,0,0,0,0,0,0,0],"sum_hessian":[8.675528E0,4.261074E0,4.4144535E0,1.3962988E0,2.8647754E0,1.3160163E0,3.098437E0,2.0204144E0,1.0780227E0],"tree_param":{"num_deleted":"0","num_feature":"37","num_nodes":"9","size_leaf_vector":"1"}},{"base_weights":[5.6991754E-3,1.3128112E-2,-1.1486417E-1,-2.528195E-1,2.0312464E-3,-0E0,-9.138675E-3],"categories":[],"categories_nodes":[],"categories_segments":[],"categories_sizes":[],"default_left":[0,0,0,0,0,0,0],"id":26,"left_children":[1,-1,3,5,-1,-1,-1],"loss_changes":[7.0883507E-1,0E0,2.948397E-1,6.837115E-2,0E0,0E0,0E0],"parents":[2147483647,0,0,2,2,3,3],"right_children":[2,-1,4,6,-1,-1,-1],"split_conditions":[-1.2349354E0,1.3128112E-2,8.4627223E-1,-1.1303164E0,2.0312464E-3,-0E0,-9.138675E-3],"split_indices":[21,0,10,12,0,0,0],"split_type":[0,0,0,0,0,0,0],"sum_hessian":[8.5483465E0,2.1966467E0,6.3517E0,4.9586906E0,1.3930093E0,1.1175084E0,3.8411822E0],"tree_param":{"num_deleted":"0","num_feature":"37","num_nodes":"7","size_leaf_vector":"1"}},{"base_weights":[-0E0,1.0775802E-2,-1.0140874E-1,-2.309107E-1,1.1186971E-3,-0E0,-9.174672E-3],"categories":[],"categories_nodes":[],"categories_segments":[],"categories_sizes":[],"default_left":[0,0,0,0,0,0,0],"id":27,"left_children":[1,-1,3,5,-1,-1,-1],"loss_changes":[5.0271595E-1,0E0,2.3822716E-1,9.684065E-2,0E0,0E0,0E0],"parents":[2147483647,0,0,2,2,3,3],"right_children":[2,-1,4,6,-1,-1,-1],"split_conditions":[-1.2349354E0,1.0775802E-2,1.106517E0,-5.2925265E-1,1.1186971E-3,-0E0,-9.174672E-3],"split_indices":[21,0,34,18,0,0,0],"split_type":[0,0,0,0,0,0,0],"sum_hessian":[8.700916E0,2.3070846E0,6.3938317E0,4.8269978E0,1.5668339E0,1.4696115E0,3.3573864E0],"tree_param":{"num_deleted":"0","num_feature":"37","num_nodes":"7","size_leaf_vector":"1"}},{"base_weights":[-0E0,1.36502525E-2,-1.5771703E-1,-2.7876484E-1,-0E0,-0E0,-9.8590525E-3,8.422344E-4,-0E0],"categories":[],"categories_nodes":[],"categories_segments":[],"categories_sizes":[],"default_left":[0,0,0,0,0,0,0,0,0],"id":28,"left_children":[1,-1,3,5,7,-1,-1,-1,-1],"loss_changes":[7.952647E-1,0E0,2.1003844E-1,2.3057789E-2,1.8021099E-3,0E0,0E0,0E0,0E0],"parents":[2147483647,0,0,2,2,3,3,4,4],"right_children":[2,-1,4,6,8,-1,-1,-1,-1],"split_conditions":[-1.2349354E0,1.36502525E-2,0E0,-1.1303164E0,8.980505E-1,-0E0,-9.8590525E-3,8.422344E-4,-0E0],"split_indices":[21,0,10,12,9,0,0,0,0],"split_type":[0,0,0,0,0,0,0,0,0],"sum_hessian":[8.393308E0,1.9465334E0,6.446775E0,4.086544E0,2.360231E0,1.2131338E0,2.87341E0,1.2864294E0,1.0738014E0],"tree_param":{"num_deleted":"0","num_feature":"37","num_nodes":"9","size_leaf_vector":"1"}},{"base_weights":[-0E0,1.0664305E-2,-1.4819625E-1,-3.2212165E-1,3.5957624E-3,-1.1468695E-2,-0E0,3.3244775E-3,-0E0],"categories":[],"categories_nodes":[],"categories_segments":[],"categories_sizes":[],"default_left":[0,0,0,0,0,0,0,0,0],"id":29,"left_children":[1,-1,3,5,7,-1,-1,-1,-1],"loss_changes":[5.7296085E-1,0E0,3.6137444E-1,5.715865E-2,2.9877797E-2,0E0,0E0,0E0,0E0],"parents":[2147483647,0,0,2,2,3,3,4,4],"right_children":[2,-1,4,6,8,-1,-1,-1,-1],"split_conditions":[-1.2349354E0,1.0664305E-2,0E0,9.108509E-2,-2.784361E-1,-1.1468695E-2,-0E0,3.3244775E-3,-0E0],"split_indices":[21,0,10,35,6,0,0,0,0],"split_type":[0,0,0,0,0,0,0,0,0],"sum_hessian":[8.823018E0,2.2112932E0,6.611725E0,4.093356E0,2.5183687E0,3.007358E0,1.0859982E0,1.4367166E0,1.0816522E0],"tree_param":{"num_deleted":"0","num_feature":"37","num_nodes":"9","size_leaf_vector":"1"}},{"base_weights":[-0E0,2.0256327E-1,-1.5753816E-1,1.4493967E-2,-0E0,-6.319394E-3,-0E0,-3.847677E-3,1.590607E-3],"categories":[],"categories_nodes":[],"categories_segments":[],"categories_sizes":[],"default_left":[0,0,0,0,0,0,0,0,0],"id":30,"left_children":[1,3,5,-1,7,-1,-1,-1,-1],"loss_changes":[3.676514E-1,3.9829051E-1,4.111091E-2,0E0,4.4327304E-2,0E0,0E0,0E0,0E0],"parents":[2147483647,0,0,1,1,2,2,4,4],"right_children":[2,4,6,-1,8,-1,-1,-1,-1],"split_conditions":[-3.0258443E-2,2.9029727E-2,1.7802997E-1,1.4493967E-2,6.8343425E-1,-6.319394E-3,-0E0,-3.847677E-3,1.590607E-3],"split_indices":[33,29,12,0,25,0,0,0,0],"split_type":[0,0,0,0,0,0,0,0,0],"sum_hessian":[8.849676E0,5.0678144E0,3.7818615E0,1.7729986E0,3.2948158E0,2.6011157E0,1.180746E0,1.1588117E0,2.136004E0],"tree_param":{"num_deleted":"0","num_feature":"37","num_nodes":"9","size_leaf_vector":"1"}},{"base_weights":[-0E0,1.0275861E-2,-5.1074143E-2,-2.280345E-1,7.641124E-2,-0E0,-2.7422926E-1,7.643879E-3,-0E0,-0E0,-1.016996E-2],"categories":[],"categories_nodes":[],"categories_segments":[],"categories_sizes":[],"default_left":[0,0,0,0,0,0,0,0,0,0,0],"id":31,"left_children":[1,-1,3,5,7,-1,9,-1,-1,-1,-1],"loss_changes":[3.042504E-1,0E0,2.8662595E-1,4.6513468E-2,1.4655416E-1,0E0,4.6165794E-2,0E0,0E0,0E0,0E0],"parents":[2147483647,0,0,2,2,3,3,4,4,6,6],"right_children":[2,-1,4,6,8,-1,10,-1,-1,-1,-1],"split_conditions":[-1.0487301E0,1.0275861E-2,1.0338266E0,-3.280043E-1,-3.3350512E-2,-0E0,7.1652055E-1,7.643879E-3,-0E0,-0E0,-1.016996E-2],"split_indices":[24,0,24,9,33,0,34,0,0,0,0],"split_type":[0,0,0,0,0,0,0,0,0,0,0],"sum_hessian":[8.974916E0,1.4026147E0,7.572302E0,4.482929E0,3.0893726E0,1.0731304E0,3.4097989E0,1.6252018E0,1.4641709E0,1.1223834E0,2.2874155E0],"tree_param":{"num_deleted":"0","num_feature":"37","num_nodes":"11","size_leaf_vector":"1"}},{"base_weights":[3.1964246E-2,3.5393223E-1,-8.880786E-2,-0E0,1.5054241E-2,-2.1228664E-1,-0E0,-0E0,-8.719443E-3],"categories":[],"categories_nodes":[],"categories_segments":[],"categories_sizes":[],"default_left":[0,0,0,0,0,0,0,0,0],"id":32,"left_children":[1,3,5,-1,-1,7,-1,-1,-1],"loss_changes":[5.451931E-1,1.5476686E-1,1.6097298E-1,0E0,0E0,5.159791E-2,0E0,0E0,0E0],"parents":[2147483647,0,0,1,1,2,2,5,5],"right_children":[2,4,6,-1,-1,8,-1,-1,-1],"split_conditions":[-1.1665404E0,-5.701425E-1,8.675929E-3,-0E0,1.5054241E-2,-3.3766776E-1,-0E0,-0E0,-8.719443E-3],"split_indices":[21,23,12,0,0,15,0,0,0],"split_type":[0,0,0,0,0,0,0,0,0],"sum_hessian":[8.8033E0,3.0040941E0,5.799206E0,1.3975717E0,1.6065224E0,3.7618837E0,2.0373223E0,1.6107633E0,2.1511204E0],"tree_param":{"num_deleted":"0","num_feature":"37","num_nodes":"9","size_leaf_vector":"1"}},{"base_weights":[-0E0,1.0261995E-2,-5.77615E-2,-2.3033221E-1,4.8001133E-2,-0E0,-8.776817E-3,7.4163848E-3,-0E0],"categories":[],"categories_nodes":[],"categories_segments":[],"categories_sizes":[],"default_left":[0,0,0,0,0,0,0,0,0],"id":33,"left_children":[1,-1,3,5,7,-1,-1,-1,-1],"loss_changes":[3.0114174E-1,0E0,2.6608533E-1,8.698958E-2,1.4984353E-1,0E0,0E0,0E0,0E0],"parents":[2147483647,0,0,2,2,3,3,4,4],"right_children":[2,-1,4,6,8,-1,-1,-1,-1],"split_conditions":[-1.0487301E0,1.0261995E-2,1.0338266E0,-5.2925265E-1,-3.3350512E-2,-0E0,-8.776817E-3,7.4163848E-3,-0E0],"split_indices":[24,0,24,18,33,0,0,0,0],"split_type":[0,0,0,0,0,0,0,0,0],"sum_hessian":[9.295726E0,1.3176531E0,7.978073E0,4.380404E0,3.5976691E0,1.029096E0,3.3513079E0,1.6252018E0,1.9724672E0],"tree_param":{"num_deleted":"0","num_feature":"37","num_nodes":"9","size_leaf_vector":"1"}},{"base_weights":[-0E0,3.1423134E-1,-1.2944068E-1,-0E0,1.1424214E-2,-2.4773014E-1,-0E0,-8.776227E-3,-0E0],"categories":[],"categories_nodes":[],"categories_segments":[],"categories_sizes":[],"default_left":[0,0,0,0,0,0,0,0,0],"id":34,"left_children":[1,3,5,-1,-1,7,-1,-1,-1],"loss_changes":[4.4836947E-1,5.8737397E-3,1.9629425E-1,0E0,0E0,3.151661E-2,0E0,0E0,0E0],"parents":[2147483647,0,0,1,1,2,2,5,5],"right_children":[2,4,6,-1,-1,8,-1,-1,-1],"split_conditions":[-1.2349354E0,-6.826252E-1,0E0,-0E0,1.1424214E-2,6.509364E-2,-0E0,-8.776227E-3,-0E0],"split_indices":[21,23,10,0,0,35,0,0,0],"split_type":[0,0,0,0,0,0,0,0,0],"sum_hessian":[8.5780115E0,2.3070846E0,6.270927E0,1.0147578E0,1.2923269E0,4.1835856E0,2.087341E0,3.0854602E0,1.0981256E0],"tree_param":{"num_deleted":"0","num_feature":"37","num_nodes":"9","size_leaf_vector":"1"}},{"base_weights":[-0E0,3.0659494E-1,-1.1033348E-1,-0E0,1.1067915E-2,-2.7413926E-1,5.713647E-2,-0E0,-9.6008135E-3,-0E0,2.5304637E-3],"categories":[],"categories_nodes":[],"categories_segments":[],"categories_sizes":[],"default_left":[0,0,0,0,0,0,0,0,0,0,0],"id":35,"left_children":[1,3,5,-1,-1,7,9,-1,-1,-1,-1],"loss_changes":[4.1685137E-1,6.62452E-3,3.3464774E-1,0E0,0E0,1.6206056E-2,4.8066713E-3,0E0,0E0,0E0,0E0],"parents":[2147483647,0,0,1,1,2,2,5,5,6,6],"right_children":[2,4,6,-1,-1,8,10,-1,-1,-1,-1],"split_conditions":[-1.2349354E0,-8.0687445E-1,0E0,-0E0,1.1067915E-2,-1.1303164E0,9.164282E-1,-0E0,-9.6008135E-3,-0E0,2.5304637E-3],"split_indices":[21,23,10,0,0,12,10,0,0,0,0],"split_type":[0,0,0,0,0,0,0,0,0,0,0],"sum_hessian":[9.113659E0,2.4409132E0,6.672745E0,1.0158703E0,1.4250429E0,4.5605965E0,2.1121488E0,1.3220772E0,3.2385194E0,1.0085492E0,1.1035994E0],"tree_param":{"num_deleted":"0","num_feature":"37","num_nodes":"11","size_leaf_vector":"1"}},{"base_weights":[-0E0,6.1204E-3,-1.5377812E-1,-3.0345708E-1,1.3864181E-3,-3.5401106E-1,-0E0,-0E0,-1.2388987E-2],"categories":[],"categories_nodes":[],"categories_segments":[],"categories_sizes":[],"default_left":[0,0,0,0,0,0,0,0,0],"id":36,"left_children":[1,-1,3,5,-1,7,-1,-1,-1],"loss_changes":[2.9374564E-1,0E0,3.5708475E-1,4.8914015E-2,0E0,1.4081776E-2,0E0,0E0,0E0],"parents":[2147483647,0,0,2,2,3,3,5,5],"right_children":[2,-1,4,6,-1,8,-1,-1,-1],"split_conditions":[-1.2349354E0,6.1204E-3,8.4627223E-1,6.509364E-2,1.3864181E-3,-1.3309526E0,-0E0,-0E0,-1.2388987E-2],"split_indices":[21,0,10,35,0,1,0,0,0],"split_type":[0,0,0,0,0,0,0,0,0],"sum_hessian":[8.151069E0,1.9874792E0,6.1635895E0,4.6592474E0,1.5043417E0,3.5486374E0,1.1106101E0,1.1234552E0,2.4251823E0],"tree_param":{"num_deleted":"0","num_feature":"37","num_nodes":"9","size_leaf_vector":"1"}},{"base_weights":[-0E0,3.3570516E-1,-1.5264001E-1,-0E0,1.2511146E-2,-2.851688E-1,9.646948E-4,-1.0316222E-2,-0E0],"categories":[],"categories_nodes":[],"categories_segments":[],"categories_sizes":[],"default_left":[0,0,0,0,0,0,0,0,0],"id":37,"left_children":[1,3,5,-1,-1,7,-1,-1,-1],"loss_changes":[5.824945E-1,3.2963395E-2,3.1564987E-1,0E0,0E0,6.8059266E-2,0E0,0E0,0E0],"parents":[2147483647,0,0,1,1,2,2,5,5],"right_children":[2,4,6,-1,-1,8,-1,-1,-1],"split_conditions":[-1.2349354E0,-8.0687445E-1,8.4627223E-1,-0E0,1.2511146E-2,7.4652195E-1,9.646948E-4,-1.0316222E-2,-0E0],"split_indices":[21,23,10,0,0,5,0,0,0],"split_type":[0,0,0,0,0,0,0,0,0],"sum_hessian":[8.998002E0,2.6493964E0,6.3486056E0,1.0951152E0,1.5542814E0,4.956516E0,1.3920898E0,3.671911E0,1.2846048E0],"tree_param":{"num_deleted":"0","num_feature":"37","num_nodes":"9","size_leaf_vector":"1"}},{"base_weights":[-0E0,9.6138725E-3,-1.11922376E-1,-2.3802145E-1,1.4070403E-3,-0E0,-8.77529E-3],"categories":[],"categories_nodes":[],"categories_segments":[],"categories_sizes":[],"default_left":[0,0,0,0,0,0,0],"id":38,"left_children":[1,-1,3,5,-1,-1,-1],"loss_changes":[4.5060378E-1,0E0,2.5853315E-1,6.437713E-2,0E0,0E0,0E0],"parents":[2147483647,0,0,2,2,3,3],"right_children":[2,-1,4,6,-1,-1,-1],"split_conditions":[-1.2349354E0,9.6138725E-3,1.106517E0,-5.2925265E-1,1.4070403E-3,-0E0,-8.77529E-3],"split_indices":[21,0,34,18,0,0,0],"split_type":[0,0,0,0,0,0,0],"sum_hessian":[9.043189E0,2.4631424E0,6.5800467E0,5.1447964E0,1.4352504E0,1.3236592E0,3.8211372E0],"tree_param":{"num_deleted":"0","num_feature":"37","num_nodes":"7","size_leaf_vector":"1"}},{"base_weights":[2.3016613E-3,8.398043E-3,-6.3249715E-2,-1.9824068E-1,1.2319141E-2,-0E0,-2.319425E-1,3.2684049E-3,-0E0,-8.381697E-3,-0E0],"categories":[],"categories_nodes":[],"categories_segments":[],"categories_sizes":[],"default_left":[0,0,0,0,0,0,0,0,0,0,0],"id":39,"left_children":[1,-1,3,5,7,-1,9,-1,-1,-1,-1],"loss_changes":[3.0506995E-1,0E0,1.7004052E-1,1.3079867E-2,2.3621228E-2,0E0,7.943884E-3,0E0,0E0,0E0,0E0],"parents":[2147483647,0,0,2,2,3,3,4,4,6,6],"right_children":[2,-1,4,6,8,-1,10,-1,-1,-1,-1],"split_conditions":[-1.2349354E0,8.398043E-3,0E0,-2.8266475E-1,-7.998428E-2,-0E0,1.0338266E0,3.2684049E-3,-0E0,-8.381697E-3,-0E0],"split_indices":[21,0,10,9,4,0,24,0,0,0,0],"split_type":[0,0,0,0,0,0,0,0,0,0,0],"sum_hessian":[8.83677E0,2.520158E0,6.3166122E0,4.059024E0,2.2575886E0,1.1202348E0,2.938789E0,1.0317439E0,1.2258447E0,1.8163435E0,1.1224455E0],"tree_param":{"num_deleted":"0","num_feature":"37","num_nodes":"11","size_leaf_vector":"1"}},{"base_weights":[-0E0,2.6000813E-1,-1.1885078E-1,-0E0,9.687014E-3,-2.5380036E-1,2.1595035E-3,-8.515219E-3,-0E0],"categories":[],"categories_nodes":[],"categories_segments":[],"categories_sizes":[],"default_left":[0,0,0,0,0,0,0,0,0],"id":40,"left_children":[1,3,5,-1,-1,7,-1,-1,-1],"loss_changes":[3.298357E-1,1.0274798E-2,2.9209474E-1,0E0,0E0,6.9589317E-3,0E0,0E0,0E0],"parents":[2147483647,0,0,1,1,2,2,5,5],"right_children":[2,4,6,-1,-1,8,-1,-1,-1],"split_conditions":[-1.2349354E0,-8.0687445E-1,1.0444232E0,-0E0,9.687014E-3,0E0,2.1595035E-3,-8.515219E-3,-0E0],"split_indices":[21,23,34,0,0,10,0,0,0],"split_type":[0,0,0,0,0,0,0,0,0],"sum_hessian":[8.497584E0,2.3948457E0,6.102739E0,1.0951152E0,1.2997304E0,4.9162827E0,1.1864562E0,3.8166277E0,1.0996547E0],"tree_param":{"num_deleted":"0","num_feature":"37","num_nodes":"9","size_leaf_vector":"1"}},{"base_weights":[-0E0,8.867969E-3,-1.0826332E-1,-2.855102E-1,1.4853472E-2,-1.0217102E-2,-0E0,3.023948E-3,-0E0],"categories":[],"categories_nodes":[],"categories_segments":[],"categories_sizes":[],"default_left":[0,0,0,0,0,0,0,0,0],"id":41,"left_children":[1,-1,3,5,7,-1,-1,-1,-1],"loss_changes":[3.5523224E-1,0E0,2.8903764E-1,2.9102892E-2,2.1427346E-2,0E0,0E0,0E0,0E0],"parents":[2147483647,0,0,2,2,3,3,4,4],"right_children":[2,-1,4,6,8,-1,-1,-1,-1],"split_conditions":[-1.2349354E0,8.867969E-3,0E0,3.5734214E-2,-7.998428E-2,-1.0217102E-2,-0E0,3.023948E-3,-0E0],"split_indices":[21,0,10,35,4,0,0,0,0],"split_type":[0,0,0,0,0,0,0,0,0],"sum_hessian":[7.9960685E0,2.1466532E0,5.8494153E0,3.5216238E0,2.3277915E0,2.4286997E0,1.0929241E0,1.1811917E0,1.1465998E0],"tree_param":{"num_deleted":"0","num_feature":"37","num_nodes":"9","size_leaf_vector":"1"}},{"base_weights":[-0E0,7.995076E-3,-1.11139365E-1,-2.4282934E-1,2.3654972E-3,-2.813441E-1,-0E0,-9.403192E-3,-0E0],"categories":[],"categories_nodes":[],"categories_segments":[],"categories_sizes":[],"default_left":[0,0,0,0,0,0,0,0,0],"id":42,"left_children":[1,-1,3,5,-1,7,-1,-1,-1],"loss_changes":[3.2107785E-1,0E0,2.9085544E-1,4.4459313E-2,0E0,2.0581484E-4,0E0,0E0,0E0],"parents":[2147483647,0,0,2,2,3,3,5,5],"right_children":[2,-1,4,6,-1,8,-1,-1,-1],"split_conditions":[-1.2349354E0,7.995076E-3,8.4627223E-1,1.1872877E-1,2.3654972E-3,-2.8710687E-1,-0E0,-9.403192E-3,-0E0],"split_indices":[21,0,10,35,0,6,0,0,0],"split_type":[0,0,0,0,0,0,0,0,0],"sum_hessian":[8.784751E0,2.2019744E0,6.5827765E0,5.2779803E0,1.304796E0,4.238456E0,1.0395246E0,3.2226605E0,1.0157955E0],"tree_param":{"num_deleted":"0","num_feature":"37","num_nodes":"9","size_leaf_vector":"1"}},{"base_weights":[3.8431566E-3,2.7922505E-1,-6.0905606E-2,-0E0,1.0629647E-2,-1.907348E-1,2.9807612E-3,-0E0,-7.641143E-3],"categories":[],"categories_nodes":[],"categories_segments":[],"categories_sizes":[],"default_left":[0,0,0,0,0,0,0,0,0],"id":43,"left_children":[1,3,5,-1,-1,7,-1,-1,-1],"loss_changes":[3.0393568E-1,3.127134E-2,2.1908726E-1,0E0,0E0,8.038454E-2,0E0,0E0,0E0],"parents":[2147483647,0,0,1,1,2,2,5,5],"right_children":[2,4,6,-1,-1,8,-1,-1,-1],"split_conditions":[-1.2349354E0,-8.0687445E-1,1.106517E0,-0E0,1.0629647E-2,-5.2925265E-1,2.9807612E-3,-0E0,-7.641143E-3],"split_indices":[21,23,34,0,0,18,0,0,0],"split_type":[0,0,0,0,0,0,0,0,0],"sum_hessian":[8.969894E0,2.5470014E0,6.422893E0,1.0951152E0,1.4518862E0,5.1669207E0,1.2559727E0,1.4696115E0,3.6973088E0],"tree_param":{"num_deleted":"0","num_feature":"37","num_nodes":"9","size_leaf_vector":"1"}},{"base_weights":[-0E0,3.024495E-1,-8.827015E-2,-0E0,1.1639419E-2,-2.0772548E-1,8.956622E-4,-8.196149E-3,-0E0],"categories":[],"categories_nodes":[],"categories_segments":[],"categories_sizes":[],"default_left":[0,0,0,0,0,0,0,0,0],"id":44,"left_children":[1,3,5,-1,-1,7,-1,-1,-1],"loss_changes":[3.8151023E-1,4.45112E-2,1.9874004E-1,0E0,0E0,3.6281794E-2,0E0,0E0,0E0],"parents":[2147483647,0,0,1,1,2,2,5,5],"right_children":[2,4,6,-1,-1,8,-1,-1,-1],"split_conditions":[-1.2349354E0,-8.0687445E-1,1.106517E0,-0E0,1.1639419E-2,7.892312E-1,8.956622E-4,-8.196149E-3,-0E0],"split_indices":[21,23,34,0,0,1,0,0,0],"split_type":[0,0,0,0,0,0,0,0,0],"sum_hessian":[8.8874E0,2.5452354E0,6.342164E0,1.0951152E0,1.4501202E0,4.8807454E0,1.461419E0,2.8857377E0,1.9950076E0],"tree_param":{"num_deleted":"0","num_feature":"37","num_nodes":"9","size_leaf_vector":"1"}},{"base_weights":[-0E0,8.579346E-3,-7.2146095E-2,-2.1560898E-1,3.8265552E-2,-0E0,-7.6808077E-3,2.522951E-3,-0E0],"categories":[],"categories_nodes":[],"categories_segments":[],"categories_sizes":[],"default_left":[0,0,0,0,0,0,0,0,0],"id":45,"left_children":[1,-1,3,5,7,-1,-1,-1,-1],"loss_changes":[3.109016E-1,0E0,2.1746296E-1,1.6844064E-2,9.655049E-3,0E0,0E0,0E0,0E0],"parents":[2147483647,0,0,2,2,3,3,4,4],"right_children":[2,-1,4,6,8,-1,-1,-1,-1],"split_conditions":[-1.2349354E0,8.579346E-3,-3.2410122E-2,-1.1303164E0,-2.8570908E-1,-0E0,-7.6808077E-3,2.522951E-3,-0E0],"split_indices":[21,0,10,12,6,0,0,0,0],"split_type":[0,0,0,0,0,0,0,0,0],"sum_hessian":[8.927104E0,2.31719E0,6.609914E0,4.429803E0,2.180111E0,1.3220772E0,3.1077259E0,1.0235369E0,1.156574E0],"tree_param":{"num_deleted":"0","num_feature":"37","num_nodes":"9","size_leaf_vector":"1"}},{"base_weights":[-0E0,2.682767E-1,-7.077329E-2,-0E0,1.0272987E-2,-1.7780016E-1,7.056185E-4,-0E0,-7.200997E-3],"categories":[],"categories_nodes":[],"categories_segments":[],"categories_sizes":[],"default_left":[0,0,0,0,0,0,0,0,0],"id":46,"left_children":[1,3,5,-1,-1,7,-1,-1,-1],"loss_changes":[2.9193577E-1,3.206417E-2,1.5567215E-1,0E0,0E0,7.267371E-2,0E0,0E0,0E0],"parents":[2147483647,0,0,1,1,2,2,5,5],"right_children":[2,4,6,-1,-1,8,-1,-1,-1],"split_conditions":[-1.2349354E0,-8.0687445E-1,1.106517E0,-0E0,1.0272987E-2,-5.2925265E-1,7.056185E-4,-0E0,-7.200997E-3],"split_indices":[21,23,34,0,0,18,0,0,0],"split_type":[0,0,0,0,0,0,0,0,0],"sum_hessian":[8.910772E0,2.5434997E0,6.367273E0,1.0951152E0,1.4483845E0,5.051087E0,1.3161858E0,1.4696115E0,3.5814755E0],"tree_param":{"num_deleted":"0","num_feature":"37","num_nodes":"9","size_leaf_vector":"1"}},{"base_weights":[6.652529E-3,8.023052E-3,-3.539491E-2,-1.3423923E-1,1.5134185E-4,-0E0,-7.7907126E-3],"categories":[],"categories_nodes":[],"categories_segments":[],"categories_sizes":[],"default_left":[0,0,0,0,0,0,0],"id":47,"left_children":[1,-1,3,5,-1,-1,-1],"loss_changes":[2.30078E-1,0E0,9.503836E-2,1.8821584E-1,0E0,0E0,0E0],"parents":[2147483647,0,0,2,2,3,3],"right_children":[2,-1,4,6,-1,-1,-1],"split_conditions":[-1.2349354E0,8.023052E-3,4.7032875E-1,-5.2925265E-1,1.5134185E-4,-0E0,-7.7907126E-3],"split_indices":[21,0,12,18,0,0,0],"split_type":[0,0,0,0,0,0,0],"sum_hessian":[8.538518E0,2.0923796E0,6.446138E0,4.7879167E0,1.6582215E0,1.4504478E0,3.3374689E0],"tree_param":{"num_deleted":"0","num_feature":"37","num_nodes":"7","size_leaf_vector":"1"}},{"base_weights":[-0E0,8.653022E-3,-7.6199405E-2,-1.9896747E-1,1.5757866E-3,-0E0,-8.047684E-3],"categories":[],"categories_nodes":[],"categories_segments":[],"categories_sizes":[],"default_left":[0,0,0,0,0,0,0],"id":48,"left_children":[1,-1,3,5,-1,-1,-1],"loss_changes":[3.083438E-1,0E0,2.0212634E-1,8.956969E-2,0E0,0E0,0E0],"parents":[2147483647,0,0,2,2,3,3],"right_children":[2,-1,4,6,-1,-1,-1],"split_conditions":[-1.2349354E0,8.653022E-3,1.106517E0,-5.2925265E-1,1.5757866E-3,-0E0,-8.047684E-3],"split_indices":[21,0,34,18,0,0,0],"split_type":[0,0,0,0,0,0,0],"sum_hessian":[8.678701E0,2.1831799E0,6.495521E0,5.0335183E0,1.4620026E0,1.4696115E0,3.563907E0],"tree_param":{"num_deleted":"0","num_feature":"37","num_nodes":"7","size_leaf_vector":"1"}},{"base_weights":[-0E0,6.90261E-3,-3.8393803E-2,-2.1452151E-1,6.256313E-2,-0E0,-7.370814E-3,6.145358E-3,-0E0],"categories":[],"categories_nodes":[],"categories_segments":[],"categories_sizes":[],"default_left":[0,0,0,0,0,0,0,0,0],"id":49,"left_children":[1,-1,3,5,7,-1,-1,-1,-1],"loss_changes":[1.4982104E-1,0E0,2.4459665E-1,9.872973E-3,1.0969904E-1,0E0,0E0,0E0,0E0],"parents":[2147483647,0,0,2,2,3,3,4,4],"right_children":[2,-1,4,6,8,-1,-1,-1,-1],"split_conditions":[-8.9470845E-1,6.90261E-3,1.0338266E0,-1.1312097E0,-0E0,-0E0,-7.370814E-3,6.145358E-3,-0E0],"split_indices":[24,0,24,10,33,0,0,0,0],"split_type":[0,0,0,0,0,0,0,0,0],"sum_hessian":[9.315043E0,1.586987E0,7.728057E0,4.210397E0,3.51766E0,1.0747079E0,3.1356888E0,2.0356767E0,1.4819832E0],"tree_param":{"num_deleted":"0","num_feature":"37","num_nodes":"9","size_leaf_vector":"1"}},{"base_weights":[-0E0,2.1517861E-1,-1.24988906E-1,-0E0,8.292869E-3,-2.4956436E-1,8.162453E-4,-8.893888E-3,-0E0],"categories":[],"categories_nodes":[],"categories_segments":[],"categories_sizes":[],"default_left":[0,0,0,0,0,0,0,0,0],"id":50,"left_children":[1,3,5,-1,-1,7,-1,-1,-1],"loss_changes":[2.7162132E-1,1.8038094E-2,2.5779125E-1,0E0,0E0,6.1262637E-2,0E0,0E0,0E0],"parents":[2147483647,0,0,1,1,2,2,5,5],"right_children":[2,4,6,-1,-1,8,-1,-1,-1],"split_conditions":[-1.2349354E0,-8.0687445E-1,8.4627223E-1,-0E0,8.292869E-3,1.1872877E-1,8.162453E-4,-8.893888E-3,-0E0],"split_indices":[21,23,10,0,0,35,0,0,0],"split_type":[0,0,0,0,0,0,0,0,0],"sum_hessian":[8.752744E0,2.3781233E0,6.3746204E0,1.0951152E0,1.2830081E0,4.9601426E0,1.4144776E0,3.9206183E0,1.0395246E0],"tree_param":{"num_deleted":"0","num_feature":"37","num_nodes":"9","size_leaf_vector":"1"}},{"base_weights":[5.6670373E-3,2.632061E-1,-5.3160515E-2,-0E0,1.01562785E-2,-1.5976833E-1,9.943658E-4,-2.0028879E-1,-0E0,-0E0,-2.403652E-1,-8.571801E-3,-0E0],"categories":[],"categories_nodes":[],"categories_segments":[],"categories_sizes":[],"default_left":[0,0,0,0,0,0,0,0,0,0,0,0,0],"id":51,"left_children":[1,3,5,-1,-1,7,-1,9,-1,-1,11,-1,-1],"loss_changes":[2.7389553E-1,3.992811E-2,1.3828982E-1,0E0,0E0,4.7844097E-2,0E0,3.1721815E-2,0E0,0E0,1.4421612E-2,0E0,0E0],"parents":[2147483647,0,0,1,1,2,2,5,5,7,7,10,10],"right_children":[2,4,6,-1,-1,8,-1,10,-1,-1,12,-1,-1],"split_conditions":[-1.2349354E0,-8.0687445E-1,1.106517E0,-0E0,1.01562785E-2,9.108509E-2,9.943658E-4,-8.684848E-1,-0E0,-0E0,3.6782765E-1,-8.571801E-3,-0E0],"split_indices":[21,23,34,0,0,35,0,5,0,0,22,0,0],"split_type":[0,0,0,0,0,0,0,0,0,0,0,0,0],"sum_hessian":[9.222875E0,2.6493964E0,6.573478E0,1.0951152E0,1.5542814E0,5.1518774E0,1.4216007E0,4.1071515E0,1.0447261E0,1.0120158E0,3.0951357E0,2.0747259E0,1.0204098E0],"tree_param":{"num_deleted":"0","num_feature":"37","num_nodes":"13","size_leaf_vector":"1"}},{"base_weights":[-0E0,2.3954739E-1,-5.7831503E-2,-0E0,9.269484E-3,-1.8548585E-1,9.597249E-4,-8.220132E-3,-0E0],"categories":[],"categories_nodes":[],"categories_segments":[],"categories_sizes":[],"default_left":[0,0,0,0,0,0,0,0,0],"id":52,"left_children":[1,3,5,-1,-1,7,-1,-1,-1],"loss_changes":[2.2599478E-1,2.8501213E-2,1.7023125E-1,0E0,0E0,7.0676E-2,0E0,0E0,0E0],"parents":[2147483647,0,0,1,1,2,2,5,5],"right_children":[2,4,6,-1,-1,8,-1,-1,-1],"split_conditions":[-1.2349354E0,-8.0687445E-1,1.0246948E0,-0E0,9.269484E-3,7.892312E-1,9.597249E-4,-8.220132E-3,-0E0],"split_indices":[21,23,34,0,0,1,0,0,0],"split_type":[0,0,0,0,0,0,0,0,0],"sum_hessian":[9.128807E0,2.4933388E0,6.635468E0,1.0951152E0,1.3982236E0,4.599802E0,2.035666E0,2.5074947E0,2.0923076E0],"tree_param":{"num_deleted":"0","num_feature":"37","num_nodes":"9","size_leaf_vector":"1"}},{"base_weights":[-0E0,1.9608825E-1,-8.816626E-2,-0E0,1.0774058E-2,-6.2796664E-3,-0E0,9.229743E-4,-0E0],"categories":[],"categories_nodes":[],"categories_segments":[],"categories_sizes":[],"default_left":[0,0,0,0,0,0,0,0,0],"id":53,"left_children":[1,3,5,-1,-1,-1,7,-1,-1],"loss_changes":[1.9360399E-1,1.2812167E-1,1.6182385E-1,0E0,0E0,0E0,1.9082712E-3,0E0,0E0],"parents":[2147483647,0,0,1,1,2,2,6,6],"right_children":[2,4,6,-1,-1,-1,8,-1,-1],"split_conditions":[-1.1665404E0,-5.701425E-1,8.675929E-3,-0E0,1.0774058E-2,-6.2796664E-3,1.8202935E-1,9.229743E-4,-0E0],"split_indices":[21,23,12,0,0,0,0,0,0],"split_type":[0,0,0,0,0,0,0,0,0],"sum_hessian":[8.817084E0,2.5700538E0,6.2470307E0,1.5123996E0,1.0576543E0,3.978962E0,2.2680688E0,1.0160595E0,1.2520094E0],"tree_param":{"num_deleted":"0","num_feature":"37","num_nodes":"9","size_leaf_vector":"1"}},{"base_weights":[1.885634E-2,8.523137E-3,-3.4682494E-2,-1.4430909E-1,1.3337404E-3,-2.10948E-1,-0E0,-0E0,-7.3600905E-3],"categories":[],"categories_nodes":[],"categories_segments":[],"categories_sizes":[],"default_left":[0,0,0,0,0,0,0,0,0],"id":54,"left_children":[1,-1,3,5,-1,7,-1,-1,-1],"loss_changes":[2.7509916E-1,0E0,1.2190347E-1,8.9454636E-2,0E0,8.217663E-3,0E0,0E0,0E0],"parents":[2147483647,0,0,2,2,3,3,5,5],"right_children":[2,-1,4,6,-1,8,-1,-1,-1],"split_conditions":[-1.2349354E0,8.523137E-3,8.4627223E-1,3.592774E-1,1.3337404E-3,-3.280043E-1,-0E0,-0E0,-7.3600905E-3],"split_indices":[21,0,10,17,0,9,0,0,0],"split_type":[0,0,0,0,0,0,0,0,0],"sum_hessian":[8.896056E0,2.3392377E0,6.556818E0,5.0524764E0,1.5043417E0,3.8427572E0,1.2097192E0,1.1259257E0,2.7168317E0],"tree_param":{"num_deleted":"0","num_feature":"37","num_nodes":"9","size_leaf_vector":"1"}},{"base_weights":[1.8930071E-3,7.5696325E-3,-9.840152E-3,-1.6421625E-1,7.273147E-2,-2.0449403E-1,-0E0,6.5585184E-3,-0E0,-7.150686E-3,-0E0],"categories":[],"categories_nodes":[],"categories_segments":[],"categories_sizes":[],"default_left":[0,0,0,0,0,0,0,0,0,0,0],"id":55,"left_children":[1,-1,3,5,7,9,-1,-1,-1,-1,-1],"loss_changes":[1.537828E-1,0E0,1.7021179E-1,3.4792557E-2,1.1581772E-1,1.552105E-4,0E0,0E0,0E0,0E0,0E0],"parents":[2147483647,0,0,2,2,3,3,4,4,5,5],"right_children":[2,-1,4,6,8,10,-1,-1,-1,-1,-1],"split_conditions":[-1.0487301E0,7.5696325E-3,1.0338266E0,6.509364E-2,-0E0,9.9590576E-1,-0E0,6.5585184E-3,-0E0,-7.150686E-3,-0E0],"split_indices":[24,0,24,35,33,26,0,0,0,0,0],"split_type":[0,0,0,0,0,0,0,0,0,0,0],"sum_hessian":[9.230179E0,1.4026147E0,7.827564E0,4.493354E0,3.3342097E0,3.3744934E0,1.1188607E0,1.9030111E0,1.4311986E0,2.2225857E0,1.1519078E0],"tree_param":{"num_deleted":"0","num_feature":"37","num_nodes":"11","size_leaf_vector":"1"}},{"base_weights":[-0E0,1.9954622E-1,-4.332535E-2,-0E0,7.598013E-3,-1.559983E-1,-0E0,-0E0,-5.771927E-3,9.986601E-4,-0E0],"categories":[],"categories_nodes":[],"categories_segments":[],"categories_sizes":[],"default_left":[0,0,0,0,0,0,0,0,0,0,0],"id":56,"left_children":[1,3,5,-1,-1,7,9,-1,-1,-1,-1],"loss_changes":[1.4311145E-1,1.4009088E-2,1.0972854E-1,0E0,0E0,1.9316673E-2,2.3375263E-3,0E0,0E0,0E0,0E0],"parents":[2147483647,0,0,1,1,2,2,5,5,6,6],"right_children":[2,4,6,-1,-1,8,10,-1,-1,-1,-1],"split_conditions":[-1.2349354E0,-8.0687445E-1,-3.2410122E-2,-0E0,7.598013E-3,-1.1303164E0,-0E0,-0E0,-5.771927E-3,9.986601E-4,-0E0],"split_indices":[21,23,10,0,0,12,4,0,0,0,0],"split_type":[0,0,0,0,0,0,0,0,0,0,0],"sum_hessian":[8.454746E0,2.254659E0,6.200087E0,1.0158703E0,1.2387886E0,4.064366E0,2.1357214E0,1.2131338E0,2.8512318E0,1.1094224E0,1.026299E0],"tree_param":{"num_deleted":"0","num_feature":"37","num_nodes":"11","size_leaf_vector":"1"}},{"base_weights":[6.0231355E-4,8.362772E-3,-5.5761278E-2,-1.6620864E-1,1.8733218E-3,-0E0,-2.1304512E-1,-7.673368E-3,-0E0],"categories":[],"categories_nodes":[],"categories_segments":[],"categories_sizes":[],"default_left":[0,0,0,0,0,0,0,0,0],"id":57,"left_children":[1,-1,3,5,-1,-1,7,-1,-1],"loss_changes":[2.8669804E-1,0E0,1.6417542E-1,5.4329038E-2,0E0,0E0,3.0064747E-2,0E0,0E0],"parents":[2147483647,0,0,2,2,3,3,6,6],"right_children":[2,-1,4,6,-1,-1,8,-1,-1],"split_conditions":[-1.2349354E0,8.362772E-3,8.4627223E-1,-5.2925265E-1,1.8733218E-3,-0E0,7.4652195E-1,-7.673368E-3,-0E0],"split_indices":[21,0,10,18,0,0,5,0,0],"split_type":[0,0,0,0,0,0,0,0,0],"sum_hessian":[9.183446E0,2.3771844E0,6.806262E0,5.495379E0,1.310883E0,1.3450141E0,4.150365E0,3.0326974E0,1.1176673E0],"tree_param":{"num_deleted":"0","num_feature":"37","num_nodes":"9","size_leaf_vector":"1"}},{"base_weights":[-0E0,-1.00893706E-1,1.4164324E-1,-0E0,-4.371101E-3,-0E0,1.1274554E-2,-0E0,-4.138004E-3],"categories":[],"categories_nodes":[],"categories_segments":[],"categories_sizes":[],"default_left":[0,0,0,0,0,0,0,0,0],"id":58,"left_children":[1,3,5,-1,-1,7,-1,-1,-1],"loss_changes":[1.7451712E-1,2.4366125E-2,3.7750876E-1,0E0,0E0,5.4022077E-2,0E0,0E0,0E0],"parents":[2147483647,0,0,1,1,2,2,5,5],"right_children":[2,4,6,-1,-1,8,-1,-1,-1],"split_conditions":[-3.0325183E-1,-6.9892466E-1,7.8883654E-1,-0E0,-4.371101E-3,-1.5253015E0,1.1274554E-2,-0E0,-4.138004E-3],"split_indices":[16,14,34,0,0,13,0,0,0],"split_type":[0,0,0,0,0,0,0,0,0],"sum_hessian":[8.864214E0,3.3962715E0,5.467942E0,1.1405078E0,2.2557635E0,2.8763566E0,2.5915856E0,1.0369217E0,1.8394349E0],"tree_param":{"num_deleted":"0","num_feature":"37","num_nodes":"9","size_leaf_vector":"1"}},{"base_weights":[4.8513603E-4,2.2940941E-1,-4.6296608E-2,-0E0,8.93973E-3,-1.6228823E-1,9.1875525E-4,-0E0,-6.953297E-3],"categories":[],"categories_nodes":[],"categories_segments":[],"categories_sizes":[],"default_left":[0,0,0,0,0,0,0,0,0],"id":59,"left_children":[1,3,5,-1,-1,7,-1,-1,-1],"loss_changes":[2.074513E-1,3.4753814E-2,1.3486889E-1,0E0,0E0,7.4772924E-2,0E0,0E0,0E0],"parents":[2147483647,0,0,1,1,2,2,5,5],"right_children":[2,4,6,-1,-1,8,-1,-1,-1],"split_conditions":[-1.2349354E0,-8.0687445E-1,1.106517E0,-0E0,8.93973E-3,-5.2925265E-1,9.1875525E-4,-0E0,-6.953297E-3],"split_indices":[21,23,34,0,0,18,0,0,0],"split_type":[0,0,0,0,0,0,0,0,0],"sum_hessian":[8.829988E0,2.6493964E0,6.180591E0,1.0951152E0,1.5542814E0,4.613757E0,1.5668339E0,1.4696115E0,3.1441457E0],"tree_param":{"num_deleted":"0","num_feature":"37","num_nodes":"9","size_leaf_vector":"1"}},{"base_weights":[-0E0,1.9325002E-1,-2.3149032E-2,-0E0,7.2795623E-3,-1.5259773E-1,2.1093603E-2,-5.7159113E-3,-0E0,2.9207543E-3,-0E0],"categories":[],"categories_nodes":[],"categories_segments":[],"categories_sizes":[],"default_left":[0,0,0,0,0,0,0,0,0,0,0],"id":60,"left_children":[1,3,5,-1,-1,7,9,-1,-1,-1,-1],"loss_changes":[1.2736318E-1,1.17146745E-2,1.1064534E-1,0E0,0E0,2.3749836E-2,2.1388171E-2,0E0,0E0,0E0,0E0],"parents":[2147483647,0,0,1,1,2,2,5,5,6,6],"right_children":[2,4,6,-1,-1,8,10,-1,-1,-1,-1],"split_conditions":[-1.2349354E0,-9.540564E-1,0E0,-0E0,7.2795623E-3,9.108509E-2,2.8562444E-1,-5.7159113E-3,-0E0,2.9207543E-3,-0E0],"split_indices":[21,23,10,0,0,35,13,0,0,0,0],"split_type":[0,0,0,0,0,0,0,0,0,0,0],"sum_hessian":[8.582628E0,2.305982E0,6.2766466E0,1.0101535E0,1.2958285E0,3.8536196E0,2.4230268E0,2.7676213E0,1.0859982E0,1.417133E0,1.0058938E0],"tree_param":{"num_deleted":"0","num_feature":"37","num_nodes":"11","size_leaf_vector":"1"}},{"base_weights":[-0E0,-7.813972E-2,1.3114417E-1,-5.2325036E-3,-0E0,-0E0,2.1250875E-1,-0E0,2.9193276E-1,1.0566633E-2,-0E0],"categories":[],"categories_nodes":[],"categories_segments":[],"categories_sizes":[],"default_left":[0,0,0,0,0,0,0,0,0,0,0],"id":61,"left_children":[1,3,5,-1,-1,-1,7,-1,9,-1,-1],"loss_changes":[1.3110137E-1,6.1060708E-2,1.2379205E-1,0E0,0E0,0E0,8.743352E-2,0E0,1.8911004E-2,0E0,0E0],"parents":[2147483647,0,0,1,1,2,2,6,6,8,8],"right_children":[2,4,6,-1,-1,-1,8,-1,10,-1,-1],"split_conditions":[1.4339262E-2,2.3334669E-1,-1.3183374E0,-5.2325036E-3,-0E0,-0E0,-4.9753684E-1,-0E0,9.990065E-1,1.0566633E-2,-0E0],"split_indices":[26,17,1,0,0,0,10,0,28,0,0],"split_type":[0,0,0,0,0,0,0,0,0,0,0],"sum_hessian":[8.318088E0,3.178976E0,5.139112E0,1.8459336E0,1.3330424E0,1.059893E0,4.079219E0,1.3618609E0,2.717358E0,1.7061313E0,1.0112267E0],"tree_param":{"num_deleted":"0","num_feature":"37","num_nodes":"11","size_leaf_vector":"1"}},{"base_weights":[-0E0,7.3209573E-3,-5.853938E-2,-1.8896347E-1,1.9464656E-3,-0E0,-7.607473E-3],"categories":[],"categories_nodes":[],"categories_segments":[],"categories_sizes":[],"default_left":[0,0,0,0,0,0,0],"id":62,"left_children":[1,-1,3,5,-1,-1,-1],"loss_changes":[2.2729994E-1,0E0,1.841413E-1,7.364629E-2,0E0,0E0,0E0],"parents":[2147483647,0,0,2,2,3,3],"right_children":[2,-1,4,6,-1,-1,-1],"split_conditions":[-1.2349354E0,7.3209573E-3,1.106517E0,-7.222112E-1,1.9464656E-3,-0E0,-7.607473E-3],"split_indices":[21,0,34,18,0,0,0],"split_type":[0,0,0,0,0,0,0],"sum_hessian":[8.2477865E0,2.4241993E0,5.8235874E0,4.542975E0,1.2806128E0,1.3197522E0,3.2232227E0],"tree_param":{"num_deleted":"0","num_feature":"37","num_nodes":"7","size_leaf_vector":"1"}},{"base_weights":[1.6298126E-2,2.214417E-1,-1.9248243E-2,-0E0,8.43792E-3,-1.3488935E-1,4.1159306E-4,-0E0,-5.185242E-3],"categories":[],"categories_nodes":[],"categories_segments":[],"categories_sizes":[],"default_left":[0,0,0,0,0,0,0,0,0],"id":63,"left_children":[1,3,5,-1,-1,7,-1,-1,-1],"loss_changes":[1.7483617E-1,2.7280614E-2,8.898261E-2,0E0,0E0,2.801057E-2,0E0,0E0,0E0],"parents":[2147483647,0,0,1,1,2,2,5,5],"right_children":[2,4,6,-1,-1,8,-1,-1,-1],"split_conditions":[-1.2349354E0,-9.540564E-1,-3.2410122E-2,-0E0,8.43792E-3,-1.1303164E0,4.1159306E-4,-0E0,-5.185242E-3],"split_indices":[21,23,10,0,0,12,0,0,0],"split_type":[0,0,0,0,0,0,0,0,0],"sum_hessian":[8.527706E0,2.564435E0,5.9632716E0,1.0101535E0,1.5542814E0,4.001611E0,1.9616606E0,1.0177135E0,2.9838974E0],"tree_param":{"num_deleted":"0","num_feature":"37","num_nodes":"9","size_leaf_vector":"1"}},{"base_weights":[8.24546E-3,-3.563516E-2,1.6517307E-1,-1.5285182E-1,-0E0,-0E0,9.514406E-3,-5.9790052E-3,-0E0],"categories":[],"categories_nodes":[],"categories_segments":[],"categories_sizes":[],"default_left":[0,0,0,0,0,0,0,0,0],"id":64,"left_children":[1,3,5,7,-1,-1,-1,-1,-1],"loss_changes":[1.4043787E-1,9.994826E-2,2.1754396E-1,3.5052568E-2,0E0,0E0,0E0,0E0,0E0],"parents":[2147483647,0,0,1,1,2,2,3,3],"right_children":[2,4,6,8,-1,-1,-1,-1,-1],"split_conditions":[2.5660563E-1,6.509364E-2,-2.3727758E-1,5.8139855E-1,-0E0,-0E0,9.514406E-3,-5.9790052E-3,-0E0],"split_indices":[17,35,14,22,0,0,0,0,0],"split_type":[0,0,0,0,0,0,0,0,0],"sum_hessian":[9.133913E0,5.252054E0,3.8818593E0,3.6177459E0,1.6343081E0,1.3948437E0,2.4870157E0,2.598642E0,1.0191039E0],"tree_param":{"num_deleted":"0","num_feature":"37","num_nodes":"9","size_leaf_vector":"1"}},{"base_weights":[-0E0,-4.719752E-3,6.9577985E-2,-1.2135337E-3,2.2314194E-1,-0E0,9.365973E-3],"categories":[],"categories_nodes":[],"categories_segments":[],"categories_sizes":[],"default_left":[0,0,0,0,0,0,0],"id":65,"left_children":[1,-1,3,-1,5,-1,-1],"loss_changes":[1.104417E-1,0E0,2.3017386E-1,0E0,1.0307488E-1,0E0,0E0],"parents":[2147483647,0,0,2,2,4,4],"right_children":[2,-1,4,-1,6,-1,-1],"split_conditions":[-5.6982416E-1,-4.719752E-3,6.862844E-1,-1.2135337E-3,-5.8757953E-2,-0E0,9.365973E-3],"split_indices":[3,0,34,0,20,0,0],"split_type":[0,0,0,0,0,0,0],"sum_hessian":[8.641702E0,1.9595156E0,6.6821866E0,2.4251618E0,4.257025E0,1.5139165E0,2.7431083E0],"tree_param":{"num_deleted":"0","num_feature":"37","num_nodes":"7","size_leaf_vector":"1"}},{"base_weights":[7.328947E-3,5.6330212E-3,-1.3675985E-2,-0E0,-9.305518E-2,-0E0,-5.4486585E-3],"categories":[],"categories_nodes":[],"categories_segments":[],"categories_sizes":[],"default_left":[0,0,0,0,0,0,0],"id":66,"left_children":[1,-1,3,-1,5,-1,-1],"loss_changes":[1.2546714E-1,0E0,4.3932963E-2,0E0,8.228856E-2,0E0,0E0],"parents":[2147483647,0,0,2,2,4,4],"right_children":[2,-1,4,-1,6,-1,-1],"split_conditions":[-1.1665404E0,5.6330212E-3,-5.2925265E-1,-0E0,-3.280043E-1,-0E0,-5.4486585E-3],"split_indices":[21,0,18,0,9,0,0],"split_type":[0,0,0,0,0,0,0],"sum_hessian":[8.459791E0,2.53637E0,5.9234214E0,1.7003615E0,4.22306E0,1.3573483E0,2.8657117E0],"tree_param":{"num_deleted":"0","num_feature":"37","num_nodes":"7","size_leaf_vector":"1"}},{"base_weights":[-0E0,6.205254E-3,-3.1713072E-2,-5.319524E-3,3.5959136E-2,5.3885034E-3,-0E0],"categories":[],"categories_nodes":[],"categories_segments":[],"categories_sizes":[],"default_left":[0,0,0,0,0,0,0],"id":67,"left_children":[1,-1,3,-1,5,-1,-1],"loss_changes":[1.2737304E-1,0E0,1.6206494E-1,0E0,7.903501E-2,0E0,0E0],"parents":[2147483647,0,0,2,2,4,4],"right_children":[2,-1,4,-1,6,-1,-1],"split_conditions":[-8.9470845E-1,6.205254E-3,1.0338266E0,-5.319524E-3,-3.3350512E-2,5.3885034E-3,-0E0],"split_indices":[24,0,24,0,33,0,0],"split_type":[0,0,0,0,0,0,0],"sum_hessian":[9.401807E0,1.7743437E0,7.6274633E0,4.2504525E0,3.377011E0,1.6252018E0,1.7518094E0],"tree_param":{"num_deleted":"0","num_feature":"37","num_nodes":"7","size_leaf_vector":"1"}},{"base_weights":[-0E0,-6.3651025E-2,1.0773669E-1,-1.6039586E-1,-0E0,1.8795139E-1,-0E0,-5.971205E-3,-0E0,7.440292E-3,-0E0],"categories":[],"categories_nodes":[],"categories_segments":[],"categories_sizes":[],"default_left":[0,0,0,0,0,0,0,0,0,0,0],"id":68,"left_children":[1,3,5,7,-1,9,-1,-1,-1,-1,-1],"loss_changes":[7.90764E-2,1.1670186E-1,6.967879E-2,3.3581242E-2,0E0,9.418748E-3,0E0,0E0,0E0,0E0,0E0],"parents":[2147483647,0,0,1,1,2,2,3,3,5,5],"right_children":[2,4,6,8,-1,10,-1,-1,-1,-1,-1],"split_conditions":[2.528654E-1,4.1517863E-1,2.8562444E-1,1.2659635E-1,-0E0,9.925924E-1,-0E0,-5.971205E-3,-0E0,7.440292E-3,-0E0],"split_indices":[10,13,13,35,0,28,0,0,0,0,0],"split_type":[0,0,0,0,0,0,0,0,0,0,0],"sum_hessian":[9.245346E0,5.8094587E0,3.435887E0,4.608543E0,1.2009153E0,2.4299934E0,1.0058938E0,3.4897735E0,1.1187695E0,1.1230407E0,1.3069527E0],"tree_param":{"num_deleted":"0","num_feature":"37","num_nodes":"11","size_leaf_vector":"1"}},{"base_weights":[1.424689E-2,1.931914E-1,-2.1069467E-2,-0E0,1.01275155E-2,-1.2391145E-1,-0E0,-0E0,-5.041328E-3,8.2476693E-4,-0E0],"categories":[],"categories_nodes":[],"categories_segments":[],"categories_sizes":[],"default_left":[0,0,0,0,0,0,0,0,0,0,0],"id":69,"left_children":[1,3,5,-1,-1,7,9,-1,-1,-1,-1],"loss_changes":[1.5081806E-1,1.3533372E-1,6.511418E-2,0E0,0E0,2.8663218E-2,1.5237838E-3,0E0,0E0,0E0,0E0],"parents":[2147483647,0,0,1,1,2,2,5,5,6,6],"right_children":[2,4,6,-1,-1,8,10,-1,-1,-1,-1],"split_conditions":[-1.1665404E0,-5.701425E-1,8.675929E-3,-0E0,1.01275155E-2,-6.738655E-1,1.8202935E-1,-0E0,-5.041328E-3,8.2476693E-4,-0E0],"split_indices":[21,23,12,0,0,0,0,0,0,0,0],"split_type":[0,0,0,0,0,0,0,0,0,0,0],"sum_hessian":[8.602822E0,3.014761E0,5.5880613E0,1.5123996E0,1.5023614E0,3.431325E0,2.1567364E0,1.0068977E0,2.4244273E0,1.0160595E0,1.140677E0],"tree_param":{"num_deleted":"0","num_feature":"37","num_nodes":"11","size_leaf_vector":"1"}},{"base_weights":[-0E0,5.6103086E-3,-4.165396E-2,-1.2515259E-1,-0E0,-1.5495509E-1,-0E0,3.6429716E-4,-0E0,-5.949396E-3,-0E0],"categories":[],"categories_nodes":[],"categories_segments":[],"categories_sizes":[],"default_left":[0,0,0,0,0,0,0,0,0,0,0],"id":70,"left_children":[1,-1,3,5,7,9,-1,-1,-1,-1,-1],"loss_changes":[1.1824577E-1,0E0,6.8966836E-2,1.7509356E-2,3.17214E-4,1.8202111E-2,0E0,0E0,0E0,0E0,0E0],"parents":[2147483647,0,0,2,2,3,3,4,4,5,5],"right_children":[2,-1,4,6,8,10,-1,-1,-1,-1,-1],"split_conditions":[-1.2691749E0,5.6103086E-3,-3.2410122E-2,9.108509E-2,-6.288828E-1,1.0246948E0,-0E0,3.6429716E-4,-0E0,-5.949396E-3,-0E0],"split_indices":[21,0,10,35,5,34,0,0,0,0,0],"split_type":[0,0,0,0,0,0,0,0,0,0,0],"sum_hessian":[8.399111E0,2.014724E0,6.3843865E0,4.22111E0,2.1632767E0,3.1351118E0,1.0859982E0,1.1512125E0,1.0120643E0,1.9874445E0,1.1476673E0],"tree_param":{"num_deleted":"0","num_feature":"37","num_nodes":"11","size_leaf_vector":"1"}},{"base_weights":[5.237994E-3,1.8020992E-1,-2.9144883E-2,-0E0,9.630712E-3,-4.088326E-3,-0E0],"categories":[],"categories_nodes":[],"categories_segments":[],"categories_sizes":[],"default_left":[0,0,0,0,0,0,0],"id":71,"left_children":[1,3,5,-1,-1,-1,-1],"loss_changes":[1.3908032E-1,1.1565918E-1,8.15238E-2,0E0,0E0,0E0,0E0],"parents":[2147483647,0,0,1,1,2,2],"right_children":[2,4,6,-1,-1,-1,-1],"split_conditions":[-1.1665404E0,7.8883654E-1,8.675929E-3,-0E0,9.630712E-3,-4.088326E-3,-0E0],"split_indices":[21,34,12,0,0,0,0],"split_type":[0,0,0,0,0,0,0],"sum_hessian":[8.690033E0,3.118922E0,5.571111E0,1.6986538E0,1.4202682E0,3.69026E0,1.8808514E0],"tree_param":{"num_deleted":"0","num_feature":"37","num_nodes":"7","size_leaf_vector":"1"}},{"base_weights":[-0E0,8.660135E-2,-3.7242987E-3,2.068525E-1,-0E0,-0E0,1.0063963E-2,-1.1834863E-3,-0E0],"categories":[],"categories_nodes":[],"categories_segments":[],"categories_sizes":[],"default_left":[0,0,0,0,0,0,0,0,0],"id":72,"left_children":[1,3,-1,5,7,-1,-1,-1,-1],"loss_changes":[9.6562475E-2,1.8213698E-1,0E0,8.794691E-2,3.5534343E-3,0E0,0E0,0E0,0E0],"parents":[2147483647,0,0,1,1,3,3,4,4],"right_children":[2,4,-1,6,8,-1,-1,-1,-1],"split_conditions":[2.0899385E-2,4.3638617E-1,-3.7242987E-3,1.9482769E-1,4.485185E-1,-0E0,1.0063963E-2,-1.1834863E-3,-0E0],"split_indices":[33,0,0,17,8,0,0,0,0],"split_type":[0,0,0,0,0,0,0,0,0],"sum_hessian":[8.362376E0,6.980252E0,1.3821241E0,4.655498E0,2.3247535E0,2.7237158E0,1.9317822E0,1.2833072E0,1.0414464E0],"tree_param":{"num_deleted":"0","num_feature":"37","num_nodes":"9","size_leaf_vector":"1"}},{"base_weights":[-0E0,5.731227E-3,-1.2399567E-2,1.3001356E-2,-4.9756076E-3,-0E0,4.1671456E-3],"categories":[],"categories_nodes":[],"categories_segments":[],"categories_sizes":[],"default_left":[0,0,0,0,0,0,0],"id":73,"left_children":[1,-1,3,5,-1,-1,-1],"loss_changes":[1.02417246E-1,0E0,1.0806854E-1,5.2740097E-2,0E0,0E0,0E0],"parents":[2147483647,0,0,2,2,3,3],"right_children":[2,-1,4,6,-1,-1,-1],"split_conditions":[-8.9470845E-1,5.731227E-3,-3.0592528E-1,3.027494E-2,-4.9756076E-3,-0E0,4.1671456E-3],"split_indices":[24,0,15,17,0,0,0],"split_type":[0,0,0,0,0,0,0],"sum_hessian":[8.339005E0,1.7743437E0,6.564662E0,3.6220772E0,2.9425845E0,1.848166E0,1.7739112E0],"tree_param":{"num_deleted":"0","num_feature":"37","num_nodes":"7","size_leaf_vector":"1"}},{"base_weights":[-0E0,3.9506294E-3,-7.339972E-2,-1.4791624E-1,-0E0,-1.9948621E-1,-0E0,-0E0,-7.212378E-3],"categories":[],"categories_nodes":[],"categories_segments":[],"categories_sizes":[],"default_left":[0,0,0,0,0,0,0,0,0],"id":74,"left_children":[1,-1,3,5,-1,7,-1,-1,-1],"loss_changes":[8.84783E-2,0E0,8.2615755E-2,5.4305114E-2,0E0,1.9309819E-2,0E0,0E0,0E0],"parents":[2147483647,0,0,2,2,3,3,5,5],"right_children":[2,-1,4,6,-1,8,-1,-1,-1],"split_conditions":[-1.2349354E0,3.9506294E-3,8.4627223E-1,9.108509E-2,-0E0,-5.82677E-1,-0E0,-0E0,-7.212378E-3],"split_indices":[21,0,10,35,0,14,0,0,0],"split_type":[0,0,0,0,0,0,0,0,0],"sum_hessian":[7.5133457E0,2.113987E0,5.3993587E0,4.351765E0,1.0475937E0,3.307039E0,1.0447261E0,1.0075023E0,2.2995367E0],"tree_param":{"num_deleted":"0","num_feature":"37","num_nodes":"9","size_leaf_vector":"1"}},{"base_weights":[-0E0,6.6858684E-3,-2.0539772E-2,-1.4179385E-1,1.0663939E-2,-0E0,-5.456877E-3,3.7204495E-3,-0E0],"categories":[],"categories_nodes":[],"categories_segments":[],"categories_sizes":[],"default_left":[0,0,0,0,0,0,0,0,0],"id":75,"left_children":[1,-1,3,5,7,-1,-1,-1,-1],"loss_changes":[1.3456127E-1,0E0,9.716045E-2,3.0554384E-2,4.446393E-2,0E0,0E0,0E0,0E0],"parents":[2147483647,0,0,2,2,3,3,4,4],"right_children":[2,-1,4,6,8,-1,-1,-1,-1],"split_conditions":[-8.9470845E-1,6.6858684E-3,1.0338266E0,-5.2925265E-1,-0E0,-0E0,-5.456877E-3,3.7204495E-3,-0E0],"split_indices":[24,0,24,18,33,0,0,0,0],"split_type":[0,0,0,0,0,0,0,0,0],"sum_hessian":[8.592751E0,1.6416994E0,6.951051E0,3.976894E0,2.9741573E0,1.029096E0,2.9477978E0,1.9204612E0,1.053696E0],"tree_param":{"num_deleted":"0","num_feature":"37","num_nodes":"9","size_leaf_vector":"1"}},{"base_weights":[-0E0,5.776795E-3,-4.5248713E-2,-0E0,-1.3843898E-1,-5.2055125E-3,-0E0],"categories":[],"categories_nodes":[],"categories_segments":[],"categories_sizes":[],"default_left":[0,0,0,0,0,0,0],"id":76,"left_children":[1,-1,3,-1,5,-1,-1],"loss_changes":[1.05181284E-1,0E0,9.732907E-2,0E0,2.7637005E-2,0E0,0E0],"parents":[2147483647,0,0,2,2,4,4],"right_children":[2,-1,4,-1,6,-1,-1],"split_conditions":[-1.0487301E0,5.776795E-3,-9.0158796E-1,-0E0,1.8269799E0,-5.2055125E-3,-0E0],"split_indices":[24,0,13,0,24,0,0],"split_type":[0,0,0,0,0,0,0],"sum_hessian":[8.263158E0,1.4026147E0,6.860543E0,1.9424105E0,4.9181323E0,3.6851087E0,1.2330236E0],"tree_param":{"num_deleted":"0","num_feature":"37","num_nodes":"7","size_leaf_vector":"1"}},{"base_weights":[-0E0,1.9419149E-1,-4.900506E-2,-0E0,7.111589E-3,-1.5799396E-1,8.886285E-4,-1.985011E-1,-0E0,-6.987747E-3,-0E0],"categories":[],"categories_nodes":[],"categories_segments":[],"categories_sizes":[],"default_left":[0,0,0,0,0,0,0,0,0,0,0],"id":77,"left_children":[1,3,5,-1,-1,7,-1,9,-1,-1,-1],"loss_changes":[1.5252036E-1,8.90395E-3,1.3269958E-1,0E0,0E0,4.406075E-2,0E0,1.2229338E-2,0E0,0E0,0E0],"parents":[2147483647,0,0,1,1,2,2,5,5,7,7],"right_children":[2,4,6,-1,-1,8,-1,10,-1,-1,-1],"split_conditions":[-1.2349354E0,-8.0687445E-1,8.4627223E-1,-0E0,7.111589E-3,7.6049465E-1,8.886285E-4,6.509364E-2,-0E0,-6.987747E-3,-0E0],"split_indices":[21,23,10,0,0,17,0,35,0,0,0],"split_type":[0,0,0,0,0,0,0,0,0,0,0],"sum_hessian":[9.019148E0,2.5701516E0,6.4489965E0,1.0158703E0,1.5542814E0,4.9446545E0,1.5043417E0,3.8842294E0,1.0604252E0,2.772645E0,1.1115844E0],"tree_param":{"num_deleted":"0","num_feature":"37","num_nodes":"11","size_leaf_vector":"1"}},{"base_weights":[-0E0,-7.205441E-2,1.024973E-1,-0E0,-5.186574E-3,-0E0,2.3000695E-1,-0E0,9.628512E-3],"categories":[],"categories_nodes":[],"categories_segments":[],"categories_sizes":[],"default_left":[0,0,0,0,0,0,0,0,0],"id":78,"left_children":[1,3,5,-1,-1,-1,7,-1,-1],"loss_changes":[8.223306E-2,1.1069505E-1,1.2675618E-1,0E0,0E0,0E0,5.0903007E-2,0E0,0E0],"parents":[2147483647,0,0,1,1,2,2,6,6],"right_children":[2,4,6,-1,-1,-1,8,-1,-1],"split_conditions":[8.642381E-1,-1.5253015E0,-5.6982416E-1,-0E0,-5.186574E-3,-0E0,-4.2815915E-1,-0E0,9.628512E-3],"split_indices":[34,13,3,0,0,0,14,0,0],"split_type":[0,0,0,0,0,0,0,0,0],"sum_hessian":[8.72924E0,4.736904E0,3.9923365E0,1.0369217E0,3.6999826E0,1.604939E0,2.3873975E0,1.1535466E0,1.233851E0],"tree_param":{"num_deleted":"0","num_feature":"37","num_nodes":"9","size_leaf_vector":"1"}},{"base_weights":[-0E0,6.3700285E-3,-1.4959528E-2,-1.3325669E-1,2.1955505E-2,-0E0,-5.055528E-3,4.9204514E-3,-0E0],"categories":[],"categories_nodes":[],"categories_segments":[],"categories_sizes":[],"default_left":[0,0,0,0,0,0,0,0,0],"id":79,"left_children":[1,-1,3,5,7,-1,-1,-1,-1],"loss_changes":[1.2097902E-1,0E0,9.5179245E-2,2.77716E-2,6.867994E-2,0E0,0E0,0E0,0E0],"parents":[2147483647,0,0,2,2,3,3,4,4],"right_children":[2,-1,4,6,8,-1,-1,-1,-1],"split_conditions":[-8.9470845E-1,6.3700285E-3,1.0338266E0,-5.2925265E-1,-3.3350512E-2,-0E0,-5.055528E-3,4.9204514E-3,-0E0],"split_indices":[24,0,24,18,33,0,0,0,0],"split_type":[0,0,0,0,0,0,0,0,0],"sum_hessian":[9.0235195E0,1.6416994E0,7.38182E0,4.356349E0,3.0254712E0,1.029096E0,3.327253E0,1.6252018E0,1.4002693E0],"tree_param":{"num_deleted":"0","num_feature":"37","num_nodes":"9","size_leaf_vector":"1"}},{"base_weights":[-0E0,4.1707563E-3,-3.1913847E-2,-1.6516174E-1,7.4878866E-3,-5.6696422E-3,-0E0,4.1392324E-3,-0E0],"categories":[],"categories_nodes":[],"categories_segments":[],"categories_sizes":[],"default_left":[0,0,0,0,0,0,0,0,0],"id":80,"left_children":[1,-1,3,5,7,-1,-1,-1,-1],"loss_changes":[6.116967E-2,0E0,1.2070831E-1,1.2911856E-3,5.4018106E-2,0E0,0E0,0E0,0E0],"parents":[2147483647,0,0,2,2,3,3,4,4],"right_children":[2,-1,4,6,8,-1,-1,-1,-1],"split_conditions":[-8.547256E-1,4.1707563E-3,1.0338266E0,9.9590576E-1,-0E0,-5.6696422E-3,-0E0,4.1392324E-3,-0E0],"split_indices":[19,0,24,26,33,0,0,0,0],"split_type":[0,0,0,0,0,0,0,0,0],"sum_hessian":[8.496625E0,1.7569776E0,6.7396474E0,3.705735E0,3.0339122E0,2.6301467E0,1.0755883E0,1.8494225E0,1.1844897E0],"tree_param":{"num_deleted":"0","num_feature":"37","num_nodes":"9","size_leaf_vector":"1"}},{"base_weights":[-0E0,-1.8866923E-2,1.212434E-1,-1.2288279E-1,-0E0,-0E0,7.1660187E-3,-0E0,-5.495903E-3],"categories":[],"categories_nodes":[],"categories_segments":[],"categories_sizes":[],"default_left":[0,0,0,0,0,0,0,0,0],"id":81,"left_children":[1,3,5,7,-1,-1,-1,-1,-1],"loss_changes":[7.220934E-2,6.941428E-2,1.2162006E-1,2.6430428E-2,0E0,0E0,0E0,0E0,0E0],"parents":[2147483647,0,0,1,1,2,2,3,3],"right_children":[2,4,6,8,-1,-1,-1,-1,-1],"split_conditions":[2.5660563E-1,6.509364E-2,-2.3727758E-1,-5.6082025E-2,-0E0,-0E0,7.1660187E-3,-0E0,-5.495903E-3],"split_indices":[17,35,14,14,0,0,0,0,0],"split_type":[0,0,0,0,0,0,0,0,0],"sum_hessian":[9.060176E0,5.300531E0,3.7596447E0,3.745441E0,1.5550901E0,1.4018675E0,2.357777E0,1.8227844E0,1.9226565E0],"tree_param":{"num_deleted":"0","num_feature":"37","num_nodes":"9","size_leaf_vector":"1"}},{"base_weights":[-0E0,6.1723837E-3,-1.07039185E-2,-3.2476948E-3,-0E0,-0E0,3.1907018E-4],"categories":[],"categories_nodes":[],"categories_segments":[],"categories_sizes":[],"default_left":[0,0,0,0,0,0,0],"id":82,"left_children":[1,-1,3,-1,5,-1,-1],"loss_changes":[1.1266339E-1,0E0,4.9292475E-2,0E0,3.2661465E-4,0E0,0E0],"parents":[2147483647,0,0,2,2,4,4],"right_children":[2,-1,4,-1,6,-1,-1],"split_conditions":[-8.9470845E-1,6.1723837E-3,0E0,-3.2476948E-3,9.77027E-1,-0E0,3.1907018E-4],"split_indices":[24,0,10,0,24,0,0],"split_type":[0,0,0,0,0,0,0],"sum_hessian":[7.941458E0,1.6416994E0,6.299759E0,3.2773986E0,3.0223603E0,1.1349683E0,1.887392E0],"tree_param":{"num_deleted":"0","num_feature":"37","num_nodes":"7","size_leaf_vector":"1"}},{"base_weights":[-0E0,4.7328714E-3,-3.0668713E-2,-1.24357305E-1,6.0241105E-4,-1.4847335E-1,-0E0,-5.37181E-3,-0E0],"categories":[],"categories_nodes":[],"categories_segments":[],"categories_sizes":[],"default_left":[0,0,0,0,0,0,0,0,0],"id":83,"left_children":[1,-1,3,5,-1,7,-1,-1,-1],"loss_changes":[9.3483046E-2,0E0,9.2514224E-2,1.9193009E-2,0E0,1.9388303E-2,0E0,0E0,0E0],"parents":[2147483647,0,0,2,2,3,3,5,5],"right_children":[2,-1,4,6,-1,8,-1,-1,-1],"split_conditions":[-1.2349354E0,4.7328714E-3,1.106517E0,1.1872877E-1,6.0241105E-4,9.985441E-1,-0E0,-5.37181E-3,-0E0],"split_indices":[21,0,34,35,0,27,0,0,0],"split_type":[0,0,0,0,0,0,0,0,0],"sum_hessian":[9.42165E0,2.454936E0,6.9667134E0,5.39988E0,1.5668339E0,4.3603554E0,1.0395246E0,3.290162E0,1.070193E0],"tree_param":{"num_deleted":"0","num_feature":"37","num_nodes":"9","size_leaf_vector":"1"}},{"base_weights":[-0E0,4.908137E-3,-3.2290492E-2,-1.2227478E-1,-0E0,-0E0,-4.36072E-3,1.6180581E-3,-0E0],"categories":[],"categories_nodes":[],"categories_segments":[],"categories_sizes":[],"default_left":[0,0,0,0,0,0,0,0,0],"id":84,"left_children":[1,-1,3,5,7,-1,-1,-1,-1],"loss_changes":[8.2989566E-2,0E0,7.099913E-2,7.557474E-3,8.834272E-3,0E0,0E0,0E0,0E0],"parents":[2147483647,0,0,2,2,3,3,4,4],"right_children":[2,-1,4,6,8,-1,-1,-1,-1],"split_conditions":[-8.9470845E-1,4.908137E-3,1.9758351E-1,-5.9150647E-2,2.2230849E-1,-0E0,-4.36072E-3,1.6180581E-3,-0E0],"split_indices":[24,0,10,35,18,0,0,0,0],"split_type":[0,0,0,0,0,0,0,0,0],"sum_hessian":[9.1472435E0,1.7743437E0,7.3728995E0,4.3326674E0,3.0402322E0,1.2014811E0,3.1311862E0,2.0368617E0,1.0033704E0],"tree_param":{"num_deleted":"0","num_feature":"37","num_nodes":"9","size_leaf_vector":"1"}},{"base_weights":[7.2641E-2,1.7009068E-1,-1.34002E-3,-0E0,2.6279435E-1,1.039747E-2,-0E0],"categories":[],"categories_nodes":[],"categories_segments":[],"categories_sizes":[],"default_left":[0,0,0,0,0,0,0],"id":85,"left_children":[1,3,-1,-1,5,-1,-1],"loss_changes":[1.739298E-1,1.5388806E-1,0E0,0E0,1.09133065E-1,0E0,0E0],"parents":[2147483647,0,0,1,1,4,4],"right_children":[2,4,-1,-1,6,-1,-1],"split_conditions":[7.257493E-1,-3.0325183E-1,-1.34002E-3,-0E0,7.5640815E-1,1.039747E-2,-0E0],"split_indices":[21,16,0,0,2,0,0],"split_type":[0,0,0,0,0,0,0],"sum_hessian":[8.064354E0,6.4874578E0,1.5768964E0,2.1225314E0,4.3649263E0,2.993027E0,1.3718996E0],"tree_param":{"num_deleted":"0","num_feature":"37","num_nodes":"7","size_leaf_vector":"1"}},{"base_weights":[-0E0,-3.8408305E-2,1.1630958E-1,-0E0,-4.2151595E-3,-0E0,2.4989645E-1,-0E0,-3.1386735E-4,9.756054E-3,-0E0],"categories":[],"categories_nodes":[],"categories_segments":[],"categories_sizes":[],"default_left":[0,0,0,0,0,0,0,0,0,0,0],"id":86,"left_children":[1,3,5,-1,-1,7,9,-1,-1,-1,-1],"loss_changes":[9.036794E-2,7.583817E-2,1.6930248E-1,0E0,0E0,2.224729E-4,5.9120566E-2,0E0,0E0,0E0,0E0],"parents":[2147483647,0,0,1,1,2,2,5,5,6,6],"right_children":[2,4,6,-1,-1,8,10,-1,-1,-1,-1],"split_conditions":[7.8883654E-1,-1.5253015E0,-3.0325183E-1,-0E0,-4.2151595E-3,-1.2608744E-1,7.5640815E-1,-0E0,-3.1386735E-4,9.756054E-3,-0E0],"split_indices":[34,13,16,0,0,9,2,0,0,0,0],"split_type":[0,0,0,0,0,0,0,0,0,0,0],"sum_hessian":[9.518111E0,4.4301543E0,5.087957E0,1.182874E0,3.2472804E0,2.0580614E0,3.0298958E0,1.0255765E0,1.0324849E0,1.9386493E0,1.0912465E0],"tree_param":{"num_deleted":"0","num_feature":"37","num_nodes":"11","size_leaf_vector":"1"}},{"base_weights":[-0E0,1.5434954E-1,-1.7252028E-2,-0E0,6.3149696E-3,-1.0717321E-1,4.5566182E-4,-0E0,-4.567295E-3],"categories":[],"categories_nodes":[],"categories_segments":[],"categories_sizes":[],"default_left":[0,0,0,0,0,0,0,0,0],"id":87,"left_children":[1,3,5,-1,-1,7,-1,-1,-1],"loss_changes":[8.928224E-2,2.6237339E-2,7.0552744E-2,0E0,0E0,3.9533123E-2,0E0,0E0,0E0],"parents":[2147483647,0,0,1,1,2,2,5,5],"right_children":[2,4,6,-1,-1,8,-1,-1,-1],"split_conditions":[-1.2349354E0,-8.0687445E-1,1.106517E0,-0E0,6.3149696E-3,-5.2925265E-1,4.5566182E-4,-0E0,-4.567295E-3],"split_indices":[21,23,34,0,0,18,0,0,0],"split_type":[0,0,0,0,0,0,0,0,0],"sum_hessian":[9.510832E0,2.6493964E0,6.861435E0,1.0951152E0,1.5542814E0,5.2946014E0,1.5668339E0,1.4696115E0,3.8249898E0],"tree_param":{"num_deleted":"0","num_feature":"37","num_nodes":"9","size_leaf_vector":"1"}},{"base_weights":[-0E0,1.352863E-1,-1.8697202E-2,7.912763E-3,-0E0,-1.2008332E-1,-0E0,-0E0,-4.748553E-3],"categories":[],"categories_nodes":[],"categories_segments":[],"categories_sizes":[],"default_left":[0,0,0,0,0,0,0,0,0],"id":88,"left_children":[1,3,5,-1,-1,7,-1,-1,-1],"loss_changes":[6.281343E-2,9.2427544E-2,6.535667E-2,0E0,0E0,2.0445764E-2,0E0,0E0,0E0],"parents":[2147483647,0,0,1,1,2,2,5,5],"right_children":[2,4,6,-1,-1,8,-1,-1,-1],"split_conditions":[-3.2671285E-1,6.9068414E-1,1.0338266E0,7.912763E-3,-0E0,-1.8178993E-1,-0E0,-0E0,-4.748553E-3],"split_indices":[4,5,24,0,0,9,0,0,0],"split_type":[0,0,0,0,0,0,0,0,0],"sum_hessian":[7.9776917E0,2.30452E0,5.6731715E0,1.1979446E0,1.1065753E0,3.69414E0,1.9790318E0,1.1763515E0,2.5177884E0],"tree_param":{"num_deleted":"0","num_feature":"37","num_nodes":"9","size_leaf_vector":"1"}},{"base_weights":[4.09303E-3,5.510144E-3,-0E0,-1.0275218E-1,2.1478783E-2,-0E0,-3.9672544E-3,3.3948717E-3,-0E0],"categories":[],"categories_nodes":[],"categories_segments":[],"categories_sizes":[],"default_left":[0,0,0,0,0,0,0,0,0],"id":89,"left_children":[1,-1,3,5,7,-1,-1,-1,-1],"loss_changes":[8.922036E-2,0E0,5.721536E-2,1.825326E-2,3.7035987E-2,0E0,0E0,0E0,0E0],"parents":[2147483647,0,0,2,2,3,3,4,4],"right_children":[2,-1,4,6,8,-1,-1,-1,-1],"split_conditions":[-8.9470845E-1,5.510144E-3,1.0338266E0,-5.2925265E-1,9.936429E-1,-0E0,-3.9672544E-3,3.3948717E-3,-0E0],"split_indices":[24,0,24,18,32,0,0,0,0],"split_type":[0,0,0,0,0,0,0,0,0],"sum_hessian":[9.187331E0,1.6497842E0,7.537547E0,4.230963E0,3.3065836E0,1.029096E0,3.2018673E0,2.047291E0,1.2592925E0],"tree_param":{"num_deleted":"0","num_feature":"37","num_nodes":"9","size_leaf_vector":"1"}},{"base_weights":[-0E0,4.265467E-2,-2.320457E-3,-0E0,1.5871762E-1,-0E0,-1.0947616E-2,-0E0,7.684984E-3,-0E0,-1.1722759E-3],"categories":[],"categories_nodes":[],"categories_segments":[],"categories_sizes":[],"default_left":[0,0,0,0,0,0,0,0,0,0,0],"id":90,"left_children":[1,3,-1,5,7,-1,9,-1,-1,-1,-1],"loss_changes":[3.061102E-2,7.757759E-2,0E0,4.585754E-4,6.2074453E-2,0E0,3.3696063E-3,0E0,0E0,0E0,0E0],"parents":[2147483647,0,0,1,1,3,3,4,4,6,6],"right_children":[2,4,-1,6,8,-1,10,-1,-1,-1,-1],"split_conditions":[7.257493E-1,2.3334669E-1,-2.320457E-3,-9.507672E-1,-3.82026E-1,-0E0,-2.346198E-1,-0E0,7.684984E-3,-0E0,-1.1722759E-3],"split_indices":[21,17,0,19,6,0,4,0,0,0,0],"split_type":[0,0,0,0,0,0,0,0,0,0,0],"sum_hessian":[8.329407E0,6.4909716E0,1.8384349E0,3.870401E0,2.6205707E0,1.0441657E0,2.8262353E0,1.2847164E0,1.3358542E0,1.3191141E0,1.5071212E0],"tree_param":{"num_deleted":"0","num_feature":"37","num_nodes":"11","size_leaf_vector":"1"}},{"base_weights":[-0E0,1.4689487E-1,-3.7350114E-2,-0E0,6.031939E-3,-1.3281918E-1,-0E0,-0E0,-5.753949E-3],"categories":[],"categories_nodes":[],"categories_segments":[],"categories_sizes":[],"default_left":[0,0,0,0,0,0,0,0,0],"id":91,"left_children":[1,3,5,-1,-1,7,-1,-1,-1],"loss_changes":[8.8809825E-2,2.4514832E-2,9.1131315E-2,0E0,0E0,5.5763647E-2,0E0,0E0,0E0],"parents":[2147483647,0,0,1,1,2,2,5,5],"right_children":[2,4,6,-1,-1,8,-1,-1,-1],"split_conditions":[-1.2349354E0,-8.0687445E-1,1.106517E0,-0E0,6.031939E-3,-5.2925265E-1,-0E0,-0E0,-5.753949E-3],"split_indices":[21,23,34,0,0,18,0,0,0],"split_type":[0,0,0,0,0,0,0,0,0],"sum_hessian":[8.862688E0,2.6493964E0,6.213292E0,1.0951152E0,1.5542814E0,4.7363224E0,1.4769697E0,1.4696115E0,3.2667108E0],"tree_param":{"num_deleted":"0","num_feature":"37","num_nodes":"9","size_leaf_vector":"1"}},{"base_weights":[4.5864745E-3,-6.508359E-2,1.4785568E-1,-3.5699417E-3,-0E0,2.1940714E-1,-0E0,-0E0,9.36807E-3,3.448568E-4,-0E0],"categories":[],"categories_nodes":[],"categories_segments":[],"categories_sizes":[],"default_left":[0,0,0,0,0,0,0,0,0,0,0],"id":92,"left_children":[1,3,5,-1,-1,7,-1,9,-1,-1,-1],"loss_changes":[1.4334501E-1,2.9935675E-2,9.1540374E-2,0E0,0E0,2.1046966E-2,0E0,2.6603282E-4,0E0,0E0,0E0],"parents":[2147483647,0,0,1,1,2,2,5,5,7,7],"right_children":[2,4,6,-1,-1,8,-1,10,-1,-1,-1],"split_conditions":[-3.0325183E-1,4.1517863E-1,7.5640815E-1,-3.5699417E-3,-0E0,8.569366E-1,-0E0,-6.738655E-1,9.36807E-3,3.448568E-4,-0E0],"split_indices":[16,13,2,0,0,20,0,0,0,0,0],"split_type":[0,0,0,0,0,0,0,0,0,0,0],"sum_hessian":[8.250643E0,3.5702605E0,4.6803823E0,2.4811335E0,1.0891271E0,3.4811633E0,1.199219E0,2.0530722E0,1.4280912E0,1.0132616E0,1.0398107E0],"tree_param":{"num_deleted":"0","num_feature":"37","num_nodes":"11","size_leaf_vector":"1"}},{"base_weights":[-0E0,2.7079214E-3,-6.232674E-2,-1.328622E-1,-0E0,-5.054143E-3,-0E0],"categories":[],"categories_nodes":[],"categories_segments":[],"categories_sizes":[],"default_left":[0,0,0,0,0,0,0],"id":93,"left_children":[1,-1,3,5,-1,-1,-1],"loss_changes":[5.399763E-2,0E0,6.965934E-2,2.8638043E-2,0E0,0E0,0E0],"parents":[2147483647,0,0,2,2,3,3],"right_children":[2,-1,4,6,-1,-1,-1],"split_conditions":[-1.2349354E0,2.7079214E-3,8.4627223E-1,7.413895E-1,-0E0,-5.054143E-3,-0E0],"split_indices":[21,0,10,17,0,0,0],"split_type":[0,0,0,0,0,0,0],"sum_hessian":[8.208599E0,2.3641005E0,5.8444986E0,4.452394E0,1.3921045E0,3.400075E0,1.0523192E0],"tree_param":{"num_deleted":"0","num_feature":"37","num_nodes":"7","size_leaf_vector":"1"}},{"base_weights":[-0E0,4.4553787E-3,-3.4314673E-2,-1.0623409E-1,-0E0,-1.4069931E-1,-0E0,3.9616635E-4,-0E0,-0E0,-4.9489974E-3],"categories":[],"categories_nodes":[],"categories_segments":[],"categories_sizes":[],"default_left":[0,0,0,0,0,0,0,0,0,0,0],"id":94,"left_children":[1,-1,3,5,7,9,-1,-1,-1,-1,-1],"loss_changes":[7.9607345E-2,0E0,4.772854E-2,2.0212151E-2,3.917561E-4,9.0850145E-4,0E0,0E0,0E0,0E0,0E0],"parents":[2147483647,0,0,2,2,3,3,4,4,5,5],"right_children":[2,-1,4,6,8,10,-1,-1,-1,-1,-1],"split_conditions":[-1.2349354E0,4.4553787E-3,1.0338266E0,7.190587E-1,-0E0,-8.3851025E-2,-0E0,3.9616635E-4,-0E0,-0E0,-4.9489974E-3],"split_indices":[21,0,24,5,33,14,0,0,0,0,0],"split_type":[0,0,0,0,0,0,0,0,0,0,0],"sum_hessian":[8.909018E0,2.197643E0,6.7113748E0,4.0336933E0,2.6776817E0,2.8906672E0,1.143026E0,1.2464831E0,1.4311986E0,1.0270901E0,1.8635771E0],"tree_param":{"num_deleted":"0","num_feature":"37","num_nodes":"11","size_leaf_vector":"1"}},{"base_weights":[-0E0,-5.820927E-2,8.845581E-2,-0E0,-3.7192975E-3,-0E0,1.9774696E-1,-0E0,1.00243045E-2],"categories":[],"categories_nodes":[],"categories_segments":[],"categories_sizes":[],"default_left":[0,0,0,0,0,0,0,0,0],"id":95,"left_children":[1,3,5,-1,-1,-1,7,-1,-1],"loss_changes":[6.575138E-2,4.2863533E-2,1.2515557E-1,0E0,0E0,0E0,1.4860547E-1,0E0,0E0],"parents":[2147483647,0,0,1,1,2,2,6,6],"right_children":[2,4,6,-1,-1,-1,8,-1,-1],"split_conditions":[7.8883654E-1,-1.239756E0,-5.6982416E-1,-0E0,-3.7192975E-3,-0E0,-4.2815915E-1,-0E0,1.00243045E-2],"split_indices":[34,13,3,0,0,0,14,0,0],"split_type":[0,0,0,0,0,0,0,0,0],"sum_hessian":[9.159465E0,3.8612573E0,5.2982073E0,1.000862E0,2.8603954E0,1.8373829E0,3.4608245E0,1.5675377E0,1.893287E0],"tree_param":{"num_deleted":"0","num_feature":"37","num_nodes":"9","size_leaf_vector":"1"}},{"base_weights":[-0E0,1.0265589E-1,-4.798226E-2,-0E0,1.7371239E-1,-0E0,-1.2239803E-1,-0E0,6.9322027E-3,-4.8270654E-3,-0E0],"categories":[],"categories_nodes":[],"categories_segments":[],"categories_sizes":[],"default_left":[0,0,0,0,0,0,0,0,0,0,0],"id":96,"left_children":[1,3,5,-1,7,-1,9,-1,-1,-1,-1],"loss_changes":[6.243041E-2,5.549667E-2,6.970128E-2,0E0,2.2720918E-2,0E0,3.6142312E-2,0E0,0E0,0E0,0E0],"parents":[2147483647,0,0,1,1,2,2,4,4,6,6],"right_children":[2,4,6,-1,8,-1,10,-1,-1,-1,-1],"split_conditions":[2.9029727E-2,8.023457E-1,-1.5253015E0,-0E0,-4.2089415E-1,-0E0,1.2659635E-1,-0E0,6.9322027E-3,-4.8270654E-3,-0E0],"split_indices":[29,34,13,0,14,0,35,0,0,0,0],"split_type":[0,0,0,0,0,0,0,0,0,0,0],"sum_hessian":[9.312867E0,3.4178145E0,5.8950534E0,1.0359002E0,2.3819141E0,1.182874E0,4.712179E0,1.0451092E0,1.3368051E0,3.701442E0,1.0107371E0],"tree_param":{"num_deleted":"0","num_feature":"37","num_nodes":"11","size_leaf_vector":"1"}},{"base_weights":[-0E0,9.632505E-2,-3.5861402E-3,-0E0,1.8242285E-1,-0E0,8.048574E-3],"categories":[],"categories_nodes":[],"categories_segments":[],"categories_sizes":[],"default_left":[0,0,0,0,0,0,0],"id":97,"left_children":[1,3,-1,-1,5,-1,-1],"loss_changes":[1.1481402E-1,1.3903688E-1,0E0,0E0,1.24473915E-1,0E0,0E0],"parents":[2147483647,0,0,1,1,4,4],"right_children":[2,4,-1,-1,6,-1,-1],"split_conditions":[7.257493E-1,-5.6982416E-1,-3.5861402E-3,-0E0,-4.5083186E-1,-0E0,8.048574E-3],"split_indices":[21,3,0,0,20,0,0],"split_type":[0,0,0,0,0,0,0],"sum_hessian":[8.931103E0,7.2589636E0,1.6721395E0,1.77819E0,5.4807734E0,1.7550914E0,3.725682E0],"tree_param":{"num_deleted":"0","num_feature":"37","num_nodes":"7","size_leaf_vector":"1"}},{"base_weights":[-0E0,7.507331E-2,-2.3435305E-3,-0E0,1.6524638E-1,-0E0,2.347399E-1,-0E0,8.462333E-3],"categories":[],"categories_nodes":[],"categories_segments":[],"categories_sizes":[],"default_left":[0,0,0,0,0,0,0,0,0],"id":98,"left_children":[1,3,-1,-1,5,-1,7,-1,-1],"loss_changes":[6.0437866E-2,1.1499018E-1,0E0,0E0,7.147591E-2,0E0,1.5447587E-2,0E0,0E0],"parents":[2147483647,0,0,1,1,4,4,6,6],"right_children":[2,4,-1,-1,6,-1,8,-1,-1],"split_conditions":[7.257493E-1,-5.6982416E-1,-2.3435305E-3,-0E0,-3.3190024E-1,-0E0,7.482819E-1,-0E0,8.462333E-3],"split_indices":[21,3,0,0,16,0,34,0,0],"split_type":[0,0,0,0,0,0,0,0,0],"sum_hessian":[8.480769E0,6.546993E0,1.9337769E0,1.77819E0,4.7688026E0,1.6129179E0,3.1558847E0,1.0836831E0,2.0722015E0],"tree_param":{"num_deleted":"0","num_feature":"37","num_nodes":"9","size_leaf_vector":"1"}},{"base_weights":[-0E0,-5.0546903E-2,7.1499065E-2,-0E0,-3.5110582E-3,-0E0,1.8647206E-1,-0E0,-2.4364906E-4,7.4803308E-3,-0E0],"categories":[],"categories_nodes":[],"categories_segments":[],"categories_sizes":[],"default_left":[0,0,0,0,0,0,0,0,0,0,0],"id":99,"left_children":[1,3,5,-1,-1,7,9,-1,-1,-1,-1],"loss_changes":[4.3507665E-2,4.2705543E-2,1.02116376E-1,0E0,0E0,1.3966243E-4,3.661397E-2,0E0,0E0,0E0,0E0],"parents":[2147483647,0,0,1,1,2,2,5,5,6,6],"right_children":[2,4,6,-1,-1,8,10,-1,-1,-1,-1],"split_conditions":[7.8883654E-1,-1.8039029E0,-3.0325183E-1,-0E0,-3.5110582E-3,-1.2608744E-1,7.5640815E-1,-0E0,-2.4364906E-4,7.4803308E-3,-0E0],"split_indices":[34,21,16,0,0,9,2,0,0,0,0],"split_type":[0,0,0,0,0,0,0,0,0,0,0],"sum_hessian":[9.068317E0,4.1131063E0,4.955211E0,1.0415258E0,3.0715806E0,2.142926E0,2.812285E0,1.0255765E0,1.1173496E0,1.7210386E0,1.0912465E0],"tree_param":{"num_deleted":"0","num_feature":"37","num_nodes":"11","size_leaf_vector":"1"}},{"base_weights":[-0E0,5.084942E-3,-1.6283754E-2,1.4217201E-5,-1.120296E-1,-0E0,-5.1018996E-3],"categories":[],"categories_nodes":[],"categories_segments":[],"categories_sizes":[],"default_left":[0,0,0,0,0,0,0],"id":100,"left_children":[1,-1,3,-1,5,-1,-1],"loss_changes":[7.431736E-2,0E0,6.808447E-2,0E0,5.7585426E-2,0E0,0E0],"parents":[2147483647,0,0,2,2,4,4],"right_children":[2,-1,4,-1,6,-1,-1],"split_conditions":[-8.547256E-1,5.084942E-3,-9.0158796E-1,1.4217201E-5,2.592133E-3,-0E0,-5.1018996E-3],"split_indices":[19,0,13,0,29,0,0],"split_type":[0,0,0,0,0,0,0],"sum_hessian":[8.153391E0,1.5163007E0,6.6370897E0,2.051009E0,4.5860806E0,1.1708844E0,3.4151964E0],"tree_param":{"num_deleted":"0","num_feature":"37","num_nodes":"7","size_leaf_vector":"1"}},{"base_weights":[-0E0,9.455931E-2,-2.7860954E-2,-0E0,3.983761E-3,-9.340737E-2,-0E0,-1.1677386E-1,-0E0,7.211753E-4,-0E0,-4.5907795E-3,-0E0],"categories":[],"categories_nodes":[],"categories_segments":[],"categories_sizes":[],"default_left":[0,0,0,0,0,0,0,0,0,0,0,0,0],"id":101,"left_children":[1,3,5,-1,-1,7,9,11,-1,-1,-1,-1,-1],"loss_changes":[3.7430365E-2,1.1287171E-2,4.1480456E-2,0E0,0E0,1.1892233E-2,1.17072E-3,1.5679214E-2,0E0,0E0,0E0,0E0,0E0],"parents":[2147483647,0,0,1,1,2,2,5,5,6,6,7,7],"right_children":[2,4,6,-1,-1,8,10,12,-1,-1,-1,-1,-1],"split_conditions":[-1.2349354E0,-8.0687445E-1,0E0,-0E0,3.983761E-3,9.108509E-2,-6.288828E-1,1.0246948E0,-0E0,7.211753E-4,-0E0,-4.5907795E-3,-0E0],"split_indices":[21,23,10,0,0,35,5,34,0,0,0,0,0],"split_type":[0,0,0,0,0,0,0,0,0,0,0,0,0],"sum_hessian":[9.191826E0,2.520158E0,6.6716676E0,1.0951152E0,1.4250429E0,4.4367685E0,2.234899E0,3.3507702E0,1.0859982E0,1.0258806E0,1.2090185E0,2.203103E0,1.1476673E0],"tree_param":{"num_deleted":"0","num_feature":"37","num_nodes":"13","size_leaf_vector":"1"}},{"base_weights":[-0E0,-2.956673E-2,1.2016954E-1,-1.06655546E-1,-0E0,5.10598E-3,-0E0,-0E0,-4.185231E-3],"categories":[],"categories_nodes":[],"categories_segments":[],"categories_sizes":[],"default_left":[0,0,0,0,0,0,0,0,0],"id":102,"left_children":[1,3,5,7,-1,-1,-1,-1,-1],"loss_changes":[6.1438136E-2,5.5193506E-2,2.5789477E-2,2.1913327E-2,0E0,0E0,0E0,0E0,0E0],"parents":[2147483647,0,0,1,1,2,2,3,3],"right_children":[2,4,6,8,-1,-1,-1,-1,-1],"split_conditions":[2.528654E-1,4.1517863E-1,6.443283E-1,-5.661603E-1,-0E0,5.10598E-3,-0E0,-0E0,-4.185231E-3],"split_indices":[10,13,19,18,0,0,0,0,0],"split_type":[0,0,0,0,0,0,0,0,0],"sum_hessian":[8.549395E0,5.7005143E0,2.8488803E0,4.3669333E0,1.333581E0,1.8089817E0,1.0398986E0,1.1041305E0,3.2628028E0],"tree_param":{"num_deleted":"0","num_feature":"37","num_nodes":"9","size_leaf_vector":"1"}},{"base_weights":[1.0952355E-2,-7.1645677E-3,1.04237735E-1,-1.6858126E-3,-0E0,-0E0,6.4475797E-3],"categories":[],"categories_nodes":[],"categories_segments":[],"categories_sizes":[],"default_left":[0,0,0,0,0,0,0],"id":103,"left_children":[1,3,5,-1,-1,-1,-1],"loss_changes":[6.473037E-2,9.43315E-3,1.09414965E-1,0E0,0E0,0E0,0E0],"parents":[2147483647,0,0,1,1,2,2],"right_children":[2,4,6,-1,-1,-1,-1],"split_conditions":[-3.0325183E-1,4.7828844E-1,7.8883654E-1,-1.6858126E-3,-0E0,-0E0,6.4475797E-3],"split_indices":[16,11,34,0,0,0,0],"split_type":[0,0,0,0,0,0,0],"sum_hessian":[8.139977E0,3.101028E0,5.038949E0,2.0539775E0,1.0470506E0,2.2496006E0,2.7893484E0],"tree_param":{"num_deleted":"0","num_feature":"37","num_nodes":"7","size_leaf_vector":"1"}},{"base_weights":[-0E0,1.232042E-1,-2.7669901E-2,-0E0,4.506543E-3,-0E0,-8.3693735E-2,-0E0,-4.7558234E-3],"categories":[],"categories_nodes":[],"categories_segments":[],"categories_sizes":[],"default_left":[0,0,0,0,0,0,0,0,0],"id":104,"left_children":[1,3,5,-1,-1,-1,7,-1,-1],"loss_changes":[6.1157756E-2,1.7709732E-3,3.5577442E-2,0E0,0E0,0E0,7.28664E-2,0E0,0E0],"parents":[2147483647,0,0,1,1,2,2,6,6],"right_children":[2,4,6,-1,-1,-1,8,-1,-1],"split_conditions":[-1.2349354E0,7.4507207E-1,-5.734898E-1,-0E0,4.506543E-3,-0E0,-3.280043E-1,-0E0,-4.7558234E-3],"split_indices":[21,34,18,0,0,0,9,0,0],"split_type":[0,0,0,0,0,0,0,0,0],"sum_hessian":[9.17602E0,2.6493964E0,6.526623E0,1.1160504E0,1.5333462E0,1.6248219E0,4.901801E0,1.3573483E0,3.5444524E0],"tree_param":{"num_deleted":"0","num_feature":"37","num_nodes":"9","size_leaf_vector":"1"}},{"base_weights":[-0E0,4.4623883E-3,-1.1496741E-2,-6.95968E-2,-0E0,-2.7799215E-3,-0E0,1.0128337E-3,-0E0],"categories":[],"categories_nodes":[],"categories_segments":[],"categories_sizes":[],"default_left":[0,0,0,0,0,0,0,0,0],"id":105,"left_children":[1,-1,3,5,7,-1,-1,-1,-1],"loss_changes":[7.581669E-2,0E0,2.3633514E-2,5.839886E-3,2.5160417E-3,0E0,0E0,0E0,0E0],"parents":[2147483647,0,0,2,2,3,3,4,4],"right_children":[2,-1,4,6,8,-1,-1,-1,-1],"split_conditions":[-1.2349354E0,4.4623883E-3,2.5660563E-1,8.642381E-1,4.8734072E-1,-2.7799215E-3,-0E0,1.0128337E-3,-0E0],"split_indices":[21,0,17,34,18,0,0,0,0],"split_type":[0,0,0,0,0,0,0,0,0],"sum_hessian":[8.710013E0,2.382901E0,6.3271127E0,4.0791554E0,2.2479572E0,2.545264E0,1.5338911E0,1.2074151E0,1.0405421E0],"tree_param":{"num_deleted":"0","num_feature":"37","num_nodes":"9","size_leaf_vector":"1"}},{"base_weights":[-0E0,-2.4323355E-2,8.548159E-2,-0E0,-3.1039002E-3,-0E0,6.540064E-3],"categories":[],"categories_nodes":[],"categories_segments":[],"categories_sizes":[],"default_left":[0,0,0,0,0,0,0],"id":106,"left_children":[1,3,5,-1,-1,-1,-1],"loss_changes":[4.367837E-2,3.290957E-2,1.2087851E-1,0E0,0E0,0E0,0E0],"parents":[2147483647,0,0,1,1,2,2],"right_children":[2,4,6,-1,-1,-1,-1],"split_conditions":[7.8883654E-1,-5.2925265E-1,-3.0325183E-1,-0E0,-3.1039002E-3,-0E0,6.540064E-3],"split_indices":[34,18,16,0,0,0,0],"split_type":[0,0,0,0,0,0,0],"sum_hessian":[8.96802E0,4.4301543E0,4.5378656E0,2.0557199E0,2.3744347E0,2.142926E0,2.3949394E0],"tree_param":{"num_deleted":"0","num_feature":"37","num_nodes":"7","size_leaf_vector":"1"}},{"base_weights":[-0E0,1.1686359E-1,-2.2690894E-2,-0E0,4.931817E-3,-0E0,-6.8496265E-2,-1.0346603E-1,-0E0,-0E0,-4.900646E-3],"categories":[],"categories_nodes":[],"categories_segments":[],"categories_sizes":[],"default_left":[0,0,0,0,0,0,0,0,0,0,0],"id":107,"left_children":[1,3,5,-1,-1,-1,7,9,-1,-1,-1],"loss_changes":[5.3648613E-2,1.9190185E-2,2.609628E-2,0E0,0E0,0E0,1.322847E-2,3.216834E-2,0E0,0E0,0E0],"parents":[2147483647,0,0,1,1,2,2,6,6,7,7],"right_children":[2,4,6,-1,-1,-1,8,10,-1,-1,-1],"split_conditions":[-1.2349354E0,-8.0687445E-1,1.789402E-3,-0E0,4.931817E-3,-0E0,7.892312E-1,-6.9892466E-1,-0E0,-0E0,-4.900646E-3],"split_indices":[21,23,29,0,0,0,1,14,0,0,0],"split_type":[0,0,0,0,0,0,0,0,0,0,0],"sum_hessian":[9.046191E0,2.6493964E0,6.396795E0,1.0951152E0,1.5542814E0,1.0228856E0,5.373909E0,3.0291739E0,2.3447354E0,1.2072872E0,1.8218867E0],"tree_param":{"num_deleted":"0","num_feature":"37","num_nodes":"11","size_leaf_vector":"1"}},{"base_weights":[-0E0,1.2276163E-1,-2.5959976E-3,-0E0,5.2484632E-3,-6.334809E-2,-0E0,-0E0,-3.0192256E-3],"categories":[],"categories_nodes":[],"categories_segments":[],"categories_sizes":[],"default_left":[0,0,0,0,0,0,0,0,0],"id":108,"left_children":[1,3,5,-1,-1,7,-1,-1,-1],"loss_changes":[5.3478617E-2,2.1562833E-2,2.4839604E-2,0E0,0E0,1.7622415E-2,0E0,0E0,0E0],"parents":[2147483647,0,0,1,1,2,2,5,5],"right_children":[2,4,6,-1,-1,8,-1,-1,-1],"split_conditions":[-1.2349354E0,-8.0687445E-1,8.4627223E-1,-0E0,5.2484632E-3,-6.0279036E-1,-0E0,-0E0,-3.0192256E-3],"split_indices":[21,23,10,0,0,15,0,0,0],"split_type":[0,0,0,0,0,0,0,0,0],"sum_hessian":[9.030043E0,2.5452354E0,6.484807E0,1.0951152E0,1.4501202E0,5.202384E0,1.2824229E0,2.0051072E0,3.1972768E0],"tree_param":{"num_deleted":"0","num_feature":"37","num_nodes":"9","size_leaf_vector":"1"}},{"base_weights":[-0E0,-3.7920136E-2,8.160754E-2,-1.033947E-1,-0E0,1.5203987E-1,-0E0,-3.9637457E-3,-0E0,-0E0,5.5723297E-3],"categories":[],"categories_nodes":[],"categories_segments":[],"categories_sizes":[],"default_left":[0,0,0,0,0,0,0,0,0,0,0],"id":109,"left_children":[1,3,5,7,-1,9,-1,-1,-1,-1,-1],"loss_changes":[3.859211E-2,4.1844543E-2,5.0724015E-2,1.2325674E-2,0E0,3.4296885E-3,0E0,0E0,0E0,0E0,0E0],"parents":[2147483647,0,0,1,1,2,2,3,3,5,5],"right_children":[2,4,6,8,-1,10,-1,-1,-1,-1,-1],"split_conditions":[2.5660563E-1,6.509364E-2,4.9453256E-1,9.953933E-1,-0E0,-2.1061736E-1,-0E0,-3.9637457E-3,-0E0,-0E0,5.5723297E-3],"split_indices":[17,35,2,27,0,22,0,0,0,0,0],"split_type":[0,0,0,0,0,0,0,0,0,0,0],"sum_hessian":[8.481352E0,4.9770923E0,3.5042596E0,3.7181509E0,1.2589413E0,2.4919977E0,1.0122619E0,2.5954046E0,1.1227461E0,1.052902E0,1.4390959E0],"tree_param":{"num_deleted":"0","num_feature":"37","num_nodes":"11","size_leaf_vector":"1"}},{"base_weights":[-0E0,-4.4568356E-2,7.4899726E-2,-2.8377813E-3,-0E0,-0E0,6.3762576E-3,-0E0,-1.5378761E-3],"categories":[],"categories_nodes":[],"categories_segments":[],"categories_sizes":[],"default_left":[0,0,0,0,0,0,0,0,0],"id":110,"left_children":[1,3,5,-1,-1,7,-1,-1,-1],"loss_changes":[4.6432547E-2,2.2070337E-2,1.3121802E-1,0E0,0E0,7.211059E-3,0E0,0E0,0E0],"parents":[2147483647,0,0,1,1,2,2,5,5],"right_children":[2,4,6,-1,-1,8,-1,-1,-1],"split_conditions":[-3.0325183E-1,4.1517863E-1,7.8883654E-1,-2.8377813E-3,-0E0,-1.5253015E0,6.3762576E-3,-0E0,-1.5378761E-3],"split_indices":[16,13,34,0,0,13,0,0,0],"split_type":[0,0,0,0,0,0,0,0,0],"sum_hessian":[9.2288475E0,3.5702605E0,5.658587E0,2.4811335E0,1.0891271E0,2.926967E0,2.7316198E0,1.182874E0,1.744093E0],"tree_param":{"num_deleted":"0","num_feature":"37","num_nodes":"9","size_leaf_vector":"1"}},{"base_weights":[1.2191562E-2,1.000575E-1,-1.9039399E-3,-0E0,1.8491572E-1,2.5126916E-1,-0E0,9.198281E-3,-0E0],"categories":[],"categories_nodes":[],"categories_segments":[],"categories_sizes":[],"default_left":[0,0,0,0,0,0,0,0,0],"id":111,"left_children":[1,3,-1,-1,5,7,-1,-1,-1],"loss_changes":[9.018378E-2,1.24754064E-1,0E0,0E0,6.299581E-2,3.142658E-2,0E0,0E0,0E0],"parents":[2147483647,0,0,1,1,4,4,5,5],"right_children":[2,4,-1,-1,6,8,-1,-1,-1],"split_conditions":[7.257493E-1,-8.1620634E-1,-1.9039399E-3,-0E0,7.5640815E-1,9.9790144E-1,-0E0,9.198281E-3,-0E0],"split_indices":[21,10,0,0,2,28,0,0,0],"split_type":[0,0,0,0,0,0,0,0,0],"sum_hessian":[8.858776E0,7.0071254E0,1.8516505E0,2.0143058E0,4.99282E0,3.2434175E0,1.7494022E0,2.1841507E0,1.0592667E0],"tree_param":{"num_deleted":"0","num_feature":"37","num_nodes":"9","size_leaf_vector":"1"}},