{"learner":{"attributes":{"scikit_learn":"{\"_estimator_type\": \"regressor\"}"},"feature_names":[],"feature_types":[],"gradient_booster":{"model":{"cats":{"enc":[],"feature_segments":[],"sorted_idx":[]},"gbtree_model_param":{"num_parallel_tree":"1","num_trees":"800"},"iteration_indptr":[0,1,2,3,4,5,6,7,8,9,10,11,12,13,14,15,16,17,18,19,20,21,22,23,24,25,26,27,28,29,30,31,32,33,34,35,36,37,38,39,40,41,42,43,44,45,46,47,48,49,50,51,52,53,54,55,56,57,58,59,60,61,62,63,64,65,66,67,68,69,70,71,72,73,74,75,76,77,78,79,80,81,82,83,84,85,86,87,88,89,90,91,92,93,94,95,96,97,98,99,100,101,102,103,104,105,106,107,108,109,110,111,112,113,114,115,116,117,118,119,120,121,122,123,124,125,126,127,128,129,130,131,132,133,134,135,136,137,138,139,140,141,142,143,144,145,146,147,148,149,150,151,152,153,154,155,156,157,158,159,160,161,162,163,164,165,166,167,168,169,170,171,172,173,174,175,176,177,178,179,180,181,182,183,184,185,186,187,188,189,190,191,192,193,194,195,196,197,198,199,200,201,202,203,204,205,206,207,208,209,210,211,212,213,214,215,216,217,218,219,220,221,222,223,224,225,226,227,228,229,230,231,232,233,234,235,236,237,238,239,240,241,242,243,244,245,246,247,248,249,250,251,252,253,254,255,256,257,258,259,260,261,262,263,264,265,266,267,268,269,270,271,272,273,274,275,276,277,278,279,280,281,282,283,284,285,286,287,288,289,290,291,292,293,294,295,296,297,298,299,300,301,302,303,304,305,306,307,308,309,310,311,312,313,314,315,316,317,318,319,320,321,322,323,324,325,326,327,328,329,330,331,332,333,334,335,336,337,338,339,340,341,342,343,344,345,346,347,348,349,350,351,352,353,354,355,356,357,358,359,360,361,362,363,364,365,366,367,368,369,370,371,372,373,374,375,376,377,378,379,380,381,382,383,384,385,386,387,388,389,390,391,392,393,394,395,396,397,398,399,400,401,402,403,404,405,406,407,408,409,410,411,412,413,414,415,416,417,418,419,420,421,422,423,424,425,426,427,428,429,430,431,432,433,434,435,436,437,438,439,440,441,442,443,444,445,446,447,448,449,450,451,452,453,454,455,456,457,458,459,460,461,462,463,464,465,466,467,468,469,470,471,472,473,474,475,476,477,478,479,480,481,482,483,484,485,486,487,488,489,490,491,492,493,494,495,496,497,498,499,500,501,502,503,504,505,506,507,508,509,510,511,512,513,514,515,516,517,518,519,520,521,522,523,524,525,526,527,528,529,530,531,532,533,534,535,536,537,538,539,540,541,542,543,544,545,546,547,548,549,550,551,552,553,554,555,556,557,558,559,560,561,562,563,564,565,566,567,568,569,570,571,572,573,574,575,576,577,578,579,580,581,582,583,584,585,586,587,588,589,590,591,592,593,594,595,596,597,598,599,600,601,602,603,604,605,606,607,608,609,610,611,612,613,614,615,616,617,618,619,620,621,622,623,624,625,626,627,628,629,630,631,632,633,634,635,636,637,638,639,640,641,642,643,644,645,646,647,648,649,650,651,652,653,654,655,656,657,658,659,660,661,662,663,664,665,666,667,668,669,670,671,672,673,674,675,676,677,678,679,680,681,682,683,684,685,686,687,688,689,690,691,692,693,694,695,696,697,698,699,700,701,702,703,704,705,706,707,708,709,710,711,712,713,714,715,716,717,718,719,720,721,722,723,724,725,726,727,728,729,730,731,732,733,734,735,736,737,738,739,740,741,742,743,744,745,746,747,748,749,750,751,752,753,754,755,756,757,758,759,760,761,762,763,764,765,766,767,768,769,770,771,772,773,774,775,776,777,778,779,780,781,782,783,784,785,786,787,788,789,790,791,792,793,794,795,796,797,798,799,800],"tree_info":[0,0,0,0,0,0,0,0,0,0,0,0,0,0,0,0,0,0,0,0,0,0,0,0,0,0,0,0,0,0,0,0,0,0,0,0,0,0,0,0,0,0,0,0,0,0,0,0,0,0,0,0,0,0,0,0,0,0,0,0,0,0,0,0,0,0,0,0,0,0,0,0,0,0,0,0,0,0,0,0,0,0,0,0,0,0,0,0,0,0,0,0,0,0,0,0,0,0,0,0,0,0,0,0,0,0,0,0,0,0,0,0,0,0,0,0,0,0,0,0,0,0,0,0,0,0,0,0,0,0,0,0,0,0,0,0,0,0,0,0,0,0,0,0,0,0,0,0,0,0,0,0,0,0,0,0,0,0,0,0,0,0,0,0,0,0,0,0,0,0,0,0,0,0,0,0,0,0,0,0,0,0,0,0,0,0,0,0,0,0,0,0,0,0,0,0,0,0,0,0,0,0,0,0,0,0,0,0,0,0,0,0,0,0,0,0,0,0,0,0,0,0,0,0,0,0,0,0,0,0,0,0,0,0,0,0,0,0,0,0,0,0,0,0,0,0,0,0,0,0,0,0,0,0,0,0,0,0,0,0,0,0,0,0,0,0,0,0,0,0,0,0,0,0,0,0,0,0,0,0,0,0,0,0,0,0,0,0,0,0,0,0,0,0,0,0,0,0,0,0,0,0,0,0,0,0,0,0,0,0,0,0,0,0,0,0,0,0,0,0,0,0,0,0,0,0,0,0,0,0,0,0,0,0,0,0,0,0,0,0,0,0,0,0,0,0,0,0,0,0,0,0,0,0,0,0,0,0,0,0,0,0,0,0,0,0,0,0,0,0,0,0,0,0,0,0,0,0,0,0,0,0,0,0,0,0,0,0,0,0,0,0,0,0,0,0,0,0,0,0,0,0,0,0,0,0,0,0,0,0,0,0,0,0,0,0,0,0,0,0,0,0,0,0,0,0,0,0,0,0,0,0,0,0,0,0,0,0,0,0,0,0,0,0,0,0,0,0,0,0,0,0,0,0,0,0,0,0,0,0,0,0,0,0,0,0,0,0,0,0,0,0,0,0,0,0,0,0,0,0,0,0,0,0,0,0,0,0,0,0,0,0,0,0,0,0,0,0,0,0,0,0,0,0,0,0,0,0,0,0,0,0,0,0,0,0,0,0,0,0,0,0,0,0,0,0,0,0,0,0,0,0,0,0,0,0,0,0,0,0,0,0,0,0,0,0,0,0,0,0,0,0,0,0,0,0,0,0,0,0,0,0,0,0,0,0,0,0,0,0,0,0,0,0,0,0,0,0,0,0,0,0,0,0,0,0,0,0,0,0,0,0,0,0,0,0,0,0,0,0,0,0,0,0,0,0,0,0,0,0,0,0,0,0,0,0,0,0,0,0,0,0,0,0,0,0,0,0,0,0,0,0,0,0,0,0,0,0,0,0,0,0,0,0,0,0,0,0,0,0,0,0,0,0,0,0,0,0,0,0,0,0,0,0,0,0,0,0,0,0,0,0,0,0,0,0,0,0,0,0,0,0,0,0,0,0,0,0,0,0,0,0,0,0,0,0,0,0,0,0,0,0,0,0,0,0,0,0,0,0,0,0,0,0,0,0,0,0,0,0,0,0,0,0,0,0,0,0,0,0,0,0,0,0,0,0,0,0,0,0,0,0,0,0,0,0,0,0,0,0,0,0,0,0,0,0,0,0,0,0,0,0,0,0,0,0,0,0,0,0,0,0,0,0,0,0,0,0,0,0,0,0,0,0,0,0,0,0,0,0,0,0,0,0,0,0,0,0,0,0],"trees":[{"base_weights":[-0E0,4.1526973E-1,-1.5533355E-1,-0E0,1.7810777E-2,-2.6633713E-1,-0E0,-1.1740299E-2,-0E0],"categories":[],"categories_nodes":[],"categories_segments":[],"categories_sizes":[],"default_left":[0,0,0,0,0,0,0,0,0],"id":0,"left_children":[1,3,5,-1,-1,7,-1,-1,-1],"loss_changes":[7.558193E-1,2.3903364E-1,1.6862641E-1,0E0,0E0,1.7969349E-1,0E0,0E0,0E0],"parents":[2147483647,0,0,1,1,2,2,5,5],"right_children":[2,4,6,-1,-1,8,-1,-1,-1],"split_conditions":[3.080845E-2,8.16459E-2,2.6482242E-1,-0E0,1.7810777E-2,4.4606477E-1,-0E0,-1.1740299E-2,-0E0],"split_indices":[22,19,19,0,0,3,0,0,0],"split_type":[0,0,0,0,0,0,0,0,0],"sum_hessian":[8.057892E0,2.4596534E0,5.598239E0,1.0888273E0,1.3708261E0,3.6215544E0,1.9766845E0,2.3139207E0,1.3076336E0],"tree_param":{"num_deleted":"0","num_feature":"32","num_nodes":"9","size_leaf_vector":"1"}},{"base_weights":[-0E0,2.04566E-2,-3.2655117E-1,-1.30945975E-2,-0E0],"categories":[],"categories_nodes":[],"categories_segments":[],"categories_sizes":[],"default_left":[0,0,0,0,0],"id":1,"left_children":[1,-1,3,-1,-1],"loss_changes":[2.1207714E0,0E0,1.8504256E-1,0E0,0E0],"parents":[2147483647,0,0,2,2],"right_children":[2,-1,4,-1,-1],"split_conditions":[-1.1648151E0,2.04566E-2,3.7623447E-1,-1.30945975E-2,-0E0],"split_indices":[18,0,11,0,0],"split_type":[0,0,0,0,0],"sum_hessian":[6.7294836E0,2.320639E0,4.4088445E0,2.9986148E0,1.4102297E0],"tree_param":{"num_deleted":"0","num_feature":"32","num_nodes":"5","size_leaf_vector":"1"}},{"base_weights":[-0E0,-2.9382625E-1,1.9032655E-2,-0E0,-3.5734957E-1,-0E0,-1.3220187E-2],"categories":[],"categories_nodes":[],"categories_segments":[],"categories_sizes":[],"default_left":[0,0,0,0,0,0,0],"id":2,"left_children":[1,3,-1,-1,5,-1,-1],"loss_changes":[1.608542E0,1.3606173E-1,0E0,0E0,1.6458803E-1,0E0,0E0],"parents":[2147483647,0,0,1,1,4,4],"right_children":[2,4,-1,-1,6,-1,-1],"split_conditions":[1.2270746E0,-9.956964E-1,1.9032655E-2,-0E0,-7.0356035E-1,-0E0,-1.3220187E-2],"split_indices":[15,12,0,0,17,0,0],"split_type":[0,0,0,0,0,0,0],"sum_hessian":[7.151903E0,5.5632463E0,1.5886569E0,1.0605114E0,4.502735E0,1.0366521E0,3.466083E0],"tree_param":{"num_deleted":"0","num_feature":"32","num_nodes":"7","size_leaf_vector":"1"}},{"base_weights":[-0E0,1.4358942E-2,-2.5817466E-1,-1.36252325E-2,-0E0,-3.0691952E-3,4.1883863E-3],"categories":[],"categories_nodes":[],"categories_segments":[],"categories_sizes":[],"default_left":[0,0,0,0,0,0,0],"id":3,"left_children":[1,-1,3,-1,5,-1,-1],"loss_changes":[1.2229967E0,0E0,4.1952103E-1,0E0,7.58757E-2,0E0,0E0],"parents":[2147483647,0,0,2,2,4,4],"right_children":[2,-1,4,-1,6,-1,-1],"split_conditions":[-1.2315413E0,1.4358942E-2,1.0161408E0,-1.36252325E-2,4.7206622E-1,-3.0691952E-3,4.1883863E-3],"split_indices":[18,0,28,0,9,0,0],"split_type":[0,0,0,0,0,0,0],"sum_hessian":[8.72885E0,2.1266522E0,6.6021976E0,3.490325E0,3.1118727E0,1.6330559E0,1.4788169E0],"tree_param":{"num_deleted":"0","num_feature":"32","num_nodes":"7","size_leaf_vector":"1"}},{"base_weights":[-0E0,-2.432138E-1,1.7343145E-2,-0E0,-3.66049E-1,-0E0,-4.2750517E-1,-1.4923387E-2,-0E0],"categories":[],"categories_nodes":[],"categories_segments":[],"categories_sizes":[],"default_left":[0,0,0,0,0,0,0,0,0],"id":4,"left_children":[1,3,-1,-1,5,-1,7,-1,-1],"loss_changes":[1.4372405E0,3.6995536E-1,0E0,0E0,4.2945087E-2,0E0,2.2381425E-2,0E0,0E0],"parents":[2147483647,0,0,1,1,4,4,6,6],"right_children":[2,4,-1,-1,6,-1,8,-1,-1],"split_conditions":[1.0203975E0,1.0126241E0,1.7343145E-2,-0E0,-3.1417927E-1,-0E0,1.377793E0,-1.4923387E-2,-0E0],"split_indices":[15,31,0,0,9,0,20,0,0],"split_type":[0,0,0,0,0,0,0,0,0],"sum_hessian":[8.373414E0,6.3789926E0,1.9944211E0,1.3603845E0,5.018608E0,1.3710563E0,3.647552E0,2.5229797E0,1.1245722E0],"tree_param":{"num_deleted":"0","num_feature":"32","num_nodes":"9","size_leaf_vector":"1"}},{"base_weights":[-0E0,-2.7186638E-1,1.7525125E-2,-0E0,-3.541087E-1,-0E0,-4.2849073E-1,-0E0,-1.4434662E-2],"categories":[],"categories_nodes":[],"categories_segments":[],"categories_sizes":[],"default_left":[0,0,0,0,0,0,0,0,0],"id":5,"left_children":[1,3,-1,-1,5,-1,7,-1,-1],"loss_changes":[1.6195855E0,2.7228713E-1,0E0,0E0,1.9221348E-1,0E0,9.356737E-4,0E0,0E0],"parents":[2147483647,0,0,1,1,4,4,6,6],"right_children":[2,4,-1,-1,6,-1,8,-1,-1],"split_conditions":[1.1325779E0,-1.0285776E0,1.7525125E-2,-0E0,-1.0646575E-1,-0E0,-1.4851819E0,-0E0,-1.4434662E-2],"split_indices":[15,12,0,0,30,0,2,0,0],"split_type":[0,0,0,0,0,0,0,0,0],"sum_hessian":[9.052014E0,7.049457E0,2.002557E0,1.1333336E0,5.916124E0,1.145852E0,4.770272E0,1.1899947E0,3.580277E0],"tree_param":{"num_deleted":"0","num_feature":"32","num_nodes":"9","size_leaf_vector":"1"}},{"base_weights":[-0E0,1.5531297E-2,-2.2359315E-1,-1.3044461E-2,-0E0,-0E0,3.69185E-3],"categories":[],"categories_nodes":[],"categories_segments":[],"categories_sizes":[],"default_left":[0,0,0,0,0,0,0],"id":6,"left_children":[1,-1,3,-1,5,-1,-1],"loss_changes":[1.1205726E0,0E0,4.6120152E-1,0E0,3.317371E-2,0E0,0E0],"parents":[2147483647,0,0,2,2,4,4],"right_children":[2,-1,4,-1,6,-1,-1],"split_conditions":[-1.2315413E0,1.5531297E-2,2.6482242E-1,-1.3044461E-2,2.0727322E-3,-0E0,3.69185E-3],"split_indices":[18,0,19,0,26,0,0],"split_type":[0,0,0,0,0,0,0],"sum_hessian":[7.522954E0,1.9559422E0,5.567012E0,3.1758893E0,2.3911226E0,1.2005965E0,1.1905261E0],"tree_param":{"num_deleted":"0","num_feature":"32","num_nodes":"7","size_leaf_vector":"1"}},{"base_weights":[2.9526273E-2,5.3617644E-1,-1.6619565E-1,-0E0,2.0809228E-2,-2.989231E-1,-0E0,-0E0,-1.1105385E-2],"categories":[],"categories_nodes":[],"categories_segments":[],"categories_sizes":[],"default_left":[0,0,0,0,0,0,0,0,0],"id":7,"left_children":[1,3,5,-1,-1,7,-1,-1,-1],"loss_changes":[1.1780206E0,1.7146516E-1,2.3110583E-1,0E0,0E0,4.3986917E-2,0E0,0E0,0E0],"parents":[2147483647,0,0,1,1,2,2,5,5],"right_children":[2,4,6,-1,-1,8,-1,-1,-1],"split_conditions":[-1.2595129E0,7.897428E-1,9.3246883E-1,-0E0,2.0809228E-2,-3.1417927E-1,-0E0,-0E0,-1.1105385E-2],"split_indices":[18,28,20,0,0,9,0,0,0],"split_type":[0,0,0,0,0,0,0,0,0],"sum_hessian":[8.115539E0,2.4886158E0,5.626923E0,1.0477543E0,1.4408615E0,3.63486E0,1.9920629E0,1.2916114E0,2.3432486E0],"tree_param":{"num_deleted":"0","num_feature":"32","num_nodes":"9","size_leaf_vector":"1"}},{"base_weights":[-0E0,1.1626945E-2,-1.6962445E-1,-2.8558525E-1,-0E0,-0E0,-1.0814072E-2],"categories":[],"categories_nodes":[],"categories_segments":[],"categories_sizes":[],"default_left":[0,0,0,0,0,0,0],"id":8,"left_children":[1,-1,3,5,-1,-1,-1],"loss_changes":[6.731099E-1,0E0,2.14196E-1,6.6342205E-2,0E0,0E0,0E0],"parents":[2147483647,0,0,2,2,3,3],"right_children":[2,-1,4,6,-1,-1,-1],"split_conditions":[-1.2315413E0,1.1626945E-2,1.4395757E0,-3.1417927E-1,-0E0,-0E0,-1.0814072E-2],"split_indices":[18,0,20,9,0,0,0],"split_type":[0,0,0,0,0,0,0],"sum_hessian":[7.7900724E0,2.2233584E0,5.5667143E0,3.9428854E0,1.6238288E0,1.3297864E0,2.613099E0],"tree_param":{"num_deleted":"0","num_feature":"32","num_nodes":"7","size_leaf_vector":"1"}},{"base_weights":[-0E0,-1.7731561E-1,1.3788535E-2,-0E0,-2.606322E-1,-0E0,-9.645643E-3],"categories":[],"categories_nodes":[],"categories_segments":[],"categories_sizes":[],"default_left":[0,0,0,0,0,0,0],"id":9,"left_children":[1,3,-1,-1,5,-1,-1],"loss_changes":[8.3515173E-1,1.7830785E-1,0E0,0E0,1.00120544E-1,0E0,0E0],"parents":[2147483647,0,0,1,1,4,4],"right_children":[2,4,-1,-1,6,-1,-1],"split_conditions":[1.1325779E0,5.498943E-3,1.3788535E-2,-0E0,1.0126241E0,-0E0,-9.645643E-3],"split_indices":[15,23,0,0,31,0,0],"split_type":[0,0,0,0,0,0,0],"sum_hessian":[8.244149E0,6.3907285E0,1.853421E0,1.3450383E0,5.04569E0,1.1045153E0,3.9411745E0],"tree_param":{"num_deleted":"0","num_feature":"32","num_nodes":"7","size_leaf_vector":"1"}},{"base_weights":[2.3570098E-2,5.1183116E-1,-1.6276982E-1,-0E0,1.8210072E-2,-0E0,-2.8789833E-1,-1.1231594E-2,-0E0],"categories":[],"categories_nodes":[],"categories_segments":[],"categories_sizes":[],"default_left":[0,0,0,0,0,0,0,0,0],"id":10,"left_children":[1,3,5,-1,-1,-1,7,-1,-1],"loss_changes":[1.1675876E0,1.51587725E-2,2.5052136E-1,0E0,0E0,0E0,1.5953219E-1,0E0,0E0],"parents":[2147483647,0,0,1,1,2,2,6,6],"right_children":[2,4,6,-1,-1,-1,8,-1,-1],"split_conditions":[-1.1648151E0,-4.8164133E-2,1.768916E0,-0E0,1.8210072E-2,-0E0,1.3769666E0,-1.1231594E-2,-0E0],"split_indices":[18,3,31,0,0,0,4,0,0],"split_type":[0,0,0,0,0,0,0,0,0],"sum_hessian":[8.999131E0,2.744446E0,6.254685E0,1.0409846E0,1.7034614E0,1.9132518E0,4.341433E0,3.2967818E0,1.0446513E0],"tree_param":{"num_deleted":"0","num_feature":"32","num_nodes":"9","size_leaf_vector":"1"}},{"base_weights":[-0E0,3.8701177E-1,-2.4635944E-1,-0E0,1.8565321E-2,-1.02539845E-2,-0E0],"categories":[],"categories_nodes":[],"categories_segments":[],"categories_sizes":[],"default_left":[0,0,0,0,0,0,0],"id":11,"left_children":[1,3,5,-1,-1,-1,-1],"loss_changes":[8.852757E-1,3.4630507E-1,1.8333954E-1,0E0,0E0,0E0,0E0],"parents":[2147483647,0,0,1,1,2,2],"right_children":[2,4,6,-1,-1,-1,-1],"split_conditions":[-1.1648151E0,7.864541E-1,1.2605366E0,-0E0,1.8565321E-2,-1.02539845E-2,-0E0],"split_indices":[18,28,4,0,0,0,0],"split_type":[0,0,0,0,0,0,0],"sum_hessian":[7.3985815E0,2.5342355E0,4.864346E0,1.2477355E0,1.2865E0,3.6159236E0,1.2484221E0],"tree_param":{"num_deleted":"0","num_feature":"32","num_nodes":"7","size_leaf_vector":"1"}},{"base_weights":[-0E0,-7.858758E-3,2.981616E-1,-0E0,4.8678952E-1,-0E0,2.0365814E-2],"categories":[],"categories_nodes":[],"categories_segments":[],"categories_sizes":[],"default_left":[0,0,0,0,0,0,0],"id":12,"left_children":[1,-1,3,-1,5,-1,-1],"loss_changes":[7.7950335E-1,0E0,3.3669904E-1,0E0,2.8758448E-1,0E0,0E0],"parents":[2147483647,0,0,2,2,4,4],"right_children":[2,-1,4,-1,6,-1,-1],"split_conditions":[-4.1869786E-2,-7.858758E-3,9.060769E-1,-0E0,-1.1046016E0,-0E0,2.0365814E-2],"split_indices":[11,0,28,0,2,0,0],"split_type":[0,0,0,0,0,0,0],"sum_hessian":[7.7872148E0,3.46707E0,4.3201447E0,1.9033319E0,2.4168127E0,1.0359023E0,1.3809103E0],"tree_param":{"num_deleted":"0","num_feature":"32","num_nodes":"7","size_leaf_vector":"1"}},{"base_weights":[-0E0,4.5154983E-1,-1.7033216E-1,-0E0,2.041688E-2,-0E0,-3.1672144E-1,-1.1615157E-2,-0E0],"categories":[],"categories_nodes":[],"categories_segments":[],"categories_sizes":[],"default_left":[0,0,0,0,0,0,0,0,0],"id":13,"left_children":[1,3,5,-1,-1,-1,7,-1,-1],"loss_changes":[9.2636865E-1,4.183125E-1,3.1066626E-1,0E0,0E0,0E0,9.373069E-2,0E0,0E0],"parents":[2147483647,0,0,1,1,2,2,6,6],"right_children":[2,4,6,-1,-1,-1,8,-1,-1],"split_conditions":[-1.1648151E0,-3.6625552E-1,1.795679E0,-0E0,2.041688E-2,-0E0,1.3769666E0,-1.1615157E-2,-0E0],"split_indices":[18,19,31,0,0,0,4,0,0],"split_type":[0,0,0,0,0,0,0,0,0],"sum_hessian":[8.314992E0,2.5857975E0,5.7291946E0,1.1040784E0,1.4817193E0,1.6859467E0,4.0432477E0,3.000153E0,1.0430948E0],"tree_param":{"num_deleted":"0","num_feature":"32","num_nodes":"9","size_leaf_vector":"1"}},{"base_weights":[-0E0,-2.4797803E-1,1.5227206E-2,-0E0,-3.127218E-1,-1.0668859E-2,-0E0],"categories":[],"categories_nodes":[],"categories_segments":[],"categories_sizes":[],"default_left":[0,0,0,0,0,0,0],"id":14,"left_children":[1,3,-1,-1,5,-1,-1],"loss_changes":[1.2372174E0,1.5848714E-1,0E0,0E0,4.145956E-2,0E0,0E0],"parents":[2147483647,0,0,1,1,4,4],"right_children":[2,4,-1,-1,6,-1,-1],"split_conditions":[1.1325779E0,-1.2154932E0,1.5227206E-2,-0E0,9.944797E-1,-1.0668859E-2,-0E0],"split_indices":[15,18,0,0,23,0,0],"split_type":[0,0,0,0,0,0,0],"sum_hessian":[8.206456E0,6.098484E0,2.107972E0,1.014375E0,5.084109E0,4.0323863E0,1.0517228E0],"tree_param":{"num_deleted":"0","num_feature":"32","num_nodes":"7","size_leaf_vector":"1"}},{"base_weights":[-0E0,4.211884E-1,-2.6158828E-1,-0E0,1.8023584E-2,-0E0,-3.940844E-1,-1.3731353E-2,-0E0],"categories":[],"categories_nodes":[],"categories_segments":[],"categories_sizes":[],"default_left":[0,0,0,0,0,0,0,0,0],"id":15,"left_children":[1,3,5,-1,-1,-1,7,-1,-1],"loss_changes":[1.10471E0,2.3905563E-1,3.5637572E-1,0E0,0E0,0E0,7.353628E-2,0E0,0E0],"parents":[2147483647,0,0,1,1,2,2,6,6],"right_children":[2,4,6,-1,-1,-1,8,-1,-1],"split_conditions":[-1.1648151E0,7.46815E-1,1.795679E0,-0E0,1.8023584E-2,-0E0,7.339595E-1,-1.3731353E-2,-0E0],"split_indices":[18,28,31,0,0,0,12,0,0],"split_type":[0,0,0,0,0,0,0,0,0],"sum_hessian":[8.418379E0,2.5954137E0,5.8229647E0,1.1660036E0,1.4294102E0,1.5219523E0,4.3010125E0,3.2806516E0,1.020361E0],"tree_param":{"num_deleted":"0","num_feature":"32","num_nodes":"9","size_leaf_vector":"1"}},{"base_weights":[9.830837E-3,-8.925608E-2,1.4506153E-2,1.1940439E-3,-2.1439187E-1,-0E0,-2.9536694E-1,-1.1023161E-2,-0E0],"categories":[],"categories_nodes":[],"categories_segments":[],"categories_sizes":[],"default_left":[0,0,0,0,0,0,0,0,0],"id":16,"left_children":[1,3,-1,-1,5,-1,7,-1,-1],"loss_changes":[6.497971E-1,2.1188425E-1,0E0,0E0,1.4452848E-1,0E0,7.73018E-2,0E0,0E0],"parents":[2147483647,0,0,1,1,4,4,6,6],"right_children":[2,4,-1,-1,6,-1,8,-1,-1],"split_conditions":[1.1325779E0,1.0126241E0,1.4506153E-2,1.1940439E-3,3.122481E-1,-0E0,9.4582444E-1,-1.1023161E-2,-0E0],"split_indices":[15,31,0,0,23,0,12,0,0],"split_type":[0,0,0,0,0,0,0,0,0],"sum_hessian":[7.724173E0,6.1862516E0,1.5379214E0,1.414104E0,4.7721477E0,1.0744048E0,3.6977427E0,2.6081488E0,1.0895939E0],"tree_param":{"num_deleted":"0","num_feature":"32","num_nodes":"9","size_leaf_vector":"1"}},{"base_weights":[-0E0,-2.1708539E-1,1.6410708E-2,-0E0,-2.9315758E-1,-1.213864E-2,-0E0],"categories":[],"categories_nodes":[],"categories_segments":[],"categories_sizes":[],"default_left":[0,0,0,0,0,0,0],"id":17,"left_children":[1,3,-1,-1,5,-1,-1],"loss_changes":[1.1100674E0,1.7725983E-1,0E0,0E0,2.1733087E-1,0E0,0E0],"parents":[2147483647,0,0,1,1,4,4],"right_children":[2,4,-1,-1,6,-1,-1],"split_conditions":[1.2270746E0,-9.956964E-1,1.6410708E-2,-0E0,9.4582444E-1,-1.213864E-2,-0E0],"split_indices":[15,12,0,0,12,0,0],"split_type":[0,0,0,0,0,0,0],"sum_hessian":[7.515621E0,5.8912244E0,1.624397E0,1.0498445E0,4.84138E0,3.3938067E0,1.4475732E0],"tree_param":{"num_deleted":"0","num_feature":"32","num_nodes":"7","size_leaf_vector":"1"}},{"base_weights":[-0E0,1.4408057E-2,-1.8875678E-1,-0E0,-8.33483E-3],"categories":[],"categories_nodes":[],"categories_segments":[],"categories_sizes":[],"default_left":[0,0,0,0,0],"id":18,"left_children":[1,-1,3,-1,-1],"loss_changes":[9.3846935E-1,0E0,1.4460935E-1,0E0,0E0],"parents":[2147483647,0,0,2,2],"right_children":[2,-1,4,-1,-1],"split_conditions":[-1.2315413E0,1.4408057E-2,3.2567117E-1,-0E0,-8.33483E-3],"split_indices":[18,0,22,0,0],"split_type":[0,0,0,0,0],"sum_hessian":[7.6357126E0,2.0516388E0,5.5840735E0,1.6714827E0,3.912591E0],"tree_param":{"num_deleted":"0","num_feature":"32","num_nodes":"5","size_leaf_vector":"1"}},{"base_weights":[6.850282E-3,4.5476225E-1,-1.8427847E-1,-0E0,2.0163722E-2,-1.0119287E-2,-0E0],"categories":[],"categories_nodes":[],"categories_segments":[],"categories_sizes":[],"default_left":[0,0,0,0,0,0,0],"id":19,"left_children":[1,3,5,-1,-1,-1,-1],"loss_changes":[9.590377E-1,3.7961298E-1,2.6779962E-1,0E0,0E0,0E0,0E0],"parents":[2147483647,0,0,1,1,2,2],"right_children":[2,4,6,-1,-1,-1,-1],"split_conditions":[-1.1648151E0,-3.6625552E-1,1.4395757E0,-0E0,2.0163722E-2,-1.0119287E-2,-0E0],"split_indices":[18,19,20,0,0,0,0],"split_type":[0,0,0,0,0,0,0],"sum_hessian":[7.6438823E0,2.6560628E0,4.9878197E0,1.142025E0,1.5140377E0,3.1408565E0,1.8469632E0],"tree_param":{"num_deleted":"0","num_feature":"32","num_nodes":"7","size_leaf_vector":"1"}},{"base_weights":[-0E0,3.708628E-1,-1.6786112E-1,-0E0,1.4457825E-2,-1.1036393E-2,-0E0,-1.1083547E-3,6.4717103E-3],"categories":[],"categories_nodes":[],"categories_segments":[],"categories_sizes":[],"default_left":[0,0,0,0,0,0,0,0,0],"id":20,"left_children":[1,3,5,-1,-1,-1,7,-1,-1],"loss_changes":[6.651886E-1,7.4159E-2,3.6684477E-1,0E0,0E0,0E0,1.0053385E-1,0E0,0E0],"parents":[2147483647,0,0,1,1,2,2,6,6],"right_children":[2,4,6,-1,-1,-1,8,-1,-1],"split_conditions":[-1.2315413E0,7.438688E-1,1.9225435E-1,-0E0,1.4457825E-2,-1.1036393E-2,1.3054974E-1,-1.1083547E-3,6.4717103E-3],"split_indices":[18,28,19,0,0,0,21,0,0],"split_type":[0,0,0,0,0,0,0,0,0],"sum_hessian":[8.56405E0,2.3606007E0,6.203449E0,1.0511758E0,1.3094249E0,3.2104166E0,2.9930322E0,1.9183152E0,1.074717E0],"tree_param":{"num_deleted":"0","num_feature":"32","num_nodes":"9","size_leaf_vector":"1"}},{"base_weights":[1.1897006E-2,2.911132E-1,-1.3444285E-1,1.2674534E-2,-0E0,-0E0,-7.3237224E-3],"categories":[],"categories_nodes":[],"categories_segments":[],"categories_sizes":[],"default_left":[0,0,0,0,0,0,0],"id":21,"left_children":[1,3,5,-1,-1,-1,-1],"loss_changes":[4.8242557E-1,2.1731359E-1,1.6178516E-1,0E0,0E0,0E0,0E0],"parents":[2147483647,0,0,1,1,2,2],"right_children":[2,4,6,-1,-1,-1,-1],"split_conditions":[1.7979985E0,-4.1711025E-2,2.9902789E-3,1.2674534E-2,-0E0,-0E0,-7.3237224E-3],"split_indices":[31,14,24,0,0,0,0],"split_type":[0,0,0,0,0,0,0],"sum_hessian":[7.931676E0,3.5622733E0,4.3694024E0,2.3836157E0,1.1786577E0,1.0262591E0,3.3431435E0],"tree_param":{"num_deleted":"0","num_feature":"32","num_nodes":"7","size_leaf_vector":"1"}},{"base_weights":[-2.8972704E-2,1.0631843E-2,-2.3997228E-1,-3.3012417E-1,-0E0,-0E0,-1.1563142E-2],"categories":[],"categories_nodes":[],"categories_segments":[],"categories_sizes":[],"default_left":[0,0,0,0,0,0,0],"id":22,"left_children":[1,-1,3,5,-1,-1,-1],"loss_changes":[7.899031E-1,0E0,1.6119033E-1,5.210346E-2,0E0,0E0,0E0],"parents":[2147483647,0,0,2,2,3,3],"right_children":[2,-1,4,6,-1,-1,-1],"split_conditions":[-1.2315413E0,1.0631843E-2,9.4582444E-1,-9.394464E-1,-0E0,-0E0,-1.1563142E-2],"split_indices":[18,0,12,16,0,0,0],"split_type":[0,0,0,0,0,0,0],"sum_hessian":[8.421015E0,1.906962E0,6.5140533E0,4.4495234E0,2.0645297E0,1.1011631E0,3.34836E0],"tree_param":{"num_deleted":"0","num_feature":"32","num_nodes":"7","size_leaf_vector":"1"}},{"base_weights":[-0E0,1.0005048E-2,-1.695128E-1,-2.694987E-1,-0E0,-0E0,-3.194209E-1,-1.1232725E-2,-0E0],"categories":[],"categories_nodes":[],"categories_segments":[],"categories_sizes":[],"default_left":[0,0,0,0,0,0,0,0,0],"id":23,"left_children":[1,-1,3,5,-1,-1,7,-1,-1],"loss_changes":[5.3329825E-1,0E0,1.9383387E-1,5.8348775E-2,0E0,0E0,2.1674395E-2,0E0,0E0],"parents":[2147483647,0,0,2,2,3,3,6,6],"right_children":[2,-1,4,6,-1,-1,8,-1,-1],"split_conditions":[-1.2595129E0,1.0005048E-2,1.4395757E0,-1.0827277E0,-0E0,-0E0,3.081245E-1,-1.1232725E-2,-0E0],"split_indices":[18,0,20,17,0,0,3,0,0],"split_type":[0,0,0,0,0,0,0,0,0],"sum_hessian":[8.330078E0,1.8666676E0,6.4634104E0,4.6215672E0,1.8418432E0,1.0479914E0,3.573576E0,2.4831514E0,1.0904247E0],"tree_param":{"num_deleted":"0","num_feature":"32","num_nodes":"9","size_leaf_vector":"1"}},{"base_weights":[-0E0,-8.1969775E-2,8.602562E-3,-1.8215236E-1,-0E0,-7.0657684E-3,-0E0,1.1099104E-4,-0E0],"categories":[],"categories_nodes":[],"categories_segments":[],"categories_sizes":[],"default_left":[0,0,0,0,0,0,0,0,0],"id":24,"left_children":[1,3,-1,5,7,-1,-1,-1,-1],"loss_changes":[2.7244198E-1,1.1855551E-1,0E0,3.2917544E-2,2.7418933E-5,0E0,0E0,0E0,0E0],"parents":[2147483647,0,0,1,1,3,3,4,4],"right_children":[2,4,-1,6,8,-1,-1,-1,-1],"split_conditions":[1.1325779E0,7.7498424E-1,8.602562E-3,4.4606477E-1,9.7209173E-1,-7.0657684E-3,-0E0,1.1099104E-4,-0E0],"split_indices":[15,5,0,3,5,0,0,0,0],"split_type":[0,0,0,0,0,0,0,0,0],"sum_hessian":[7.7426753E0,6.0014915E0,1.7411838E0,3.9910014E0,2.0104902E0,2.5786564E0,1.4123449E0,1.0031673E0,1.0073229E0],"tree_param":{"num_deleted":"0","num_feature":"32","num_nodes":"9","size_leaf_vector":"1"}},{"base_weights":[-1.2893056E-2,9.007404E-3,-1.7713623E-1,-0E0,-2.768671E-1,-9.484567E-3,-0E0],"categories":[],"categories_nodes":[],"categories_segments":[],"categories_sizes":[],"default_left":[0,0,0,0,0,0,0],"id":25,"left_children":[1,-1,3,-1,5,-1,-1],"loss_changes":[4.5513594E-1,0E0,1.5202956E-1,0E0,1.4782071E-2,0E0,0E0],"parents":[2147483647,0,0,2,2,4,4],"right_children":[2,-1,4,-1,6,-1,-1],"split_conditions":[-1.2481414E0,9.007404E-3,5.934225E-1,-0E0,9.4582444E-1,-9.484567E-3,-0E0],"split_indices":[12,0,24,0,12,0,0],"split_type":[0,0,0,0,0,0,0],"sum_hessian":[8.01219E0,1.424315E0,6.587875E0,2.4986548E0,4.0892196E0,3.050917E0,1.0383028E0],"tree_param":{"num_deleted":"0","num_feature":"32","num_nodes":"7","size_leaf_vector":"1"}},{"base_weights":[-0E0,-1.8384513E-1,1.3255744E-2,-0E0,-2.9834747E-1,-1.0389989E-2,-0E0],"categories":[],"categories_nodes":[],"categories_segments":[],"categories_sizes":[],"default_left":[0,0,0,0,0,0,0],"id":26,"left_children":[1,3,-1,-1,5,-1,-1],"loss_changes":[7.6584816E-1,2.8896123E-1,0E0,0E0,4.892546E-2,0E0,0E0],"parents":[2147483647,0,0,1,1,4,4],"right_children":[2,4,-1,-1,6,-1,-1],"split_conditions":[1.2270746E0,1.0126241E0,1.3255744E-2,-0E0,7.339595E-1,-1.0389989E-2,-0E0],"split_indices":[15,31,0,0,12,0,0],"split_type":[0,0,0,0,0,0,0],"sum_hessian":[7.7251806E0,6.017379E0,1.7078022E0,1.1064178E0,4.910961E0,3.7943635E0,1.1165974E0],"tree_param":{"num_deleted":"0","num_feature":"32","num_nodes":"7","size_leaf_vector":"1"}},{"base_weights":[-0E0,-1.1621601E-1,2.780525E-1,-0E0,-9.598678E-3,4.8687452E-1,-0E0,2.1535996E-3,-0E0,-0E0,1.8109558E-2],"categories":[],"categories_nodes":[],"categories_segments":[],"categories_sizes":[],"default_left":[0,0,0,0,0,0,0,0,0,0,0],"id":27,"left_children":[1,3,5,7,-1,9,-1,-1,-1,-1,-1],"loss_changes":[4.1157246E-1,2.9723266E-1,4.3232536E-1,1.2080385E-2,0E0,2.7540565E-2,0E0,0E0,0E0,0E0,0E0],"parents":[2147483647,0,0,1,1,2,2,3,3,5,5],"right_children":[2,4,6,8,-1,10,-1,-1,-1,-1,-1],"split_conditions":[1.016956E0,1.8256874E0,5.305949E-1,-2.9882413E-1,-9.598678E-3,-1.1046016E0,-0E0,2.1535996E-3,-0E0,-0E0,1.8109558E-2],"split_indices":[28,31,29,6,0,2,0,0,0,0,0],"split_type":[0,0,0,0,0,0,0,0,0,0,0],"sum_hessian":[8.334037E0,5.071195E0,3.2628417E0,2.3667457E0,2.7044492E0,2.21413E0,1.0487118E0,1.3441926E0,1.0225531E0,1.0476941E0,1.1664358E0],"tree_param":{"num_deleted":"0","num_feature":"32","num_nodes":"11","size_leaf_vector":"1"}},{"base_weights":[-0E0,-5.3459695E-3,1.3816087E-1,-0E0,1.19685205E-2],"categories":[],"categories_nodes":[],"categories_segments":[],"categories_sizes":[],"default_left":[0,0,0,0,0],"id":28,"left_children":[1,-1,3,-1,-1],"loss_changes":[2.4158823E-1,0E0,3.6819446E-1,0E0,0E0],"parents":[2147483647,0,0,2,2],"right_children":[2,-1,4,-1,-1],"split_conditions":[-4.1869786E-2,-5.3459695E-3,9.060769E-1,-0E0,1.19685205E-2],"split_indices":[11,0,28,0,0],"split_type":[0,0,0,0,0],"sum_hessian":[7.688711E0,3.4721277E0,4.2165837E0,2.277617E0,1.9389668E0],"tree_param":{"num_deleted":"0","num_feature":"32","num_nodes":"5","size_leaf_vector":"1"}},{"base_weights":[1.0488618E-2,-9.715314E-2,1.3998174E-2,-0E0,-7.200557E-3,-4.2448897E-2,4.2125424E-3,-0E0,-2.027657E-3],"categories":[],"categories_nodes":[],"categories_segments":[],"categories_sizes":[],"default_left":[0,0,0,0,0,0,0,0,0],"id":29,"left_children":[1,3,-1,5,-1,7,-1,-1,-1],"loss_changes":[6.9946903E-1,1.4589003E-1,0E0,5.1144578E-2,0E0,5.1323287E-3,0E0,0E0,0E0],"parents":[2147483647,0,0,1,1,3,3,5,5],"right_children":[2,4,-1,6,-1,8,-1,-1,-1],"split_conditions":[1.1325779E0,3.3214936E-1,1.3998174E-2,2.4175642E-2,-7.200557E-3,4.1001715E-4,4.2125424E-3,-0E0,-2.027657E-3],"split_indices":[15,0,0,30,0,26,0,0,0],"split_type":[0,0,0,0,0,0,0,0,0],"sum_hessian":[8.56083E0,6.6760902E0,1.8847395E0,3.8860066E0,2.790084E0,2.6232219E0,1.2627847E0,1.0705746E0,1.5526472E0],"tree_param":{"num_deleted":"0","num_feature":"32","num_nodes":"9","size_leaf_vector":"1"}},{"base_weights":[-0E0,3.7250185E-1,-2.0989771E-1,-0E0,1.4293601E-2,-3.0871615E-1,-0E0,-0E0,-1.157838E-2],"categories":[],"categories_nodes":[],"categories_segments":[],"categories_sizes":[],"default_left":[0,0,0,0,0,0,0,0,0],"id":30,"left_children":[1,3,5,-1,-1,7,-1,-1,-1],"loss_changes":[7.20016E-1,2.9764384E-2,1.8469658E-1,0E0,0E0,3.7741005E-2,0E0,0E0,0E0],"parents":[2147483647,0,0,1,1,2,2,5,5],"right_children":[2,4,6,-1,-1,8,-1,-1,-1],"split_conditions":[-1.1648151E0,8.16459E-2,3.7623447E-1,-0E0,1.4293601E-2,-1.4209301E0,-0E0,-0E0,-1.157838E-2],"split_indices":[18,19,11,0,0,2,0,0,0],"split_type":[0,0,0,0,0,0,0,0,0],"sum_hessian":[7.5729628E0,2.1495008E0,5.423462E0,1.0932647E0,1.0562361E0,3.9073195E0,1.5161421E0,1.5140886E0,2.393231E0],"tree_param":{"num_deleted":"0","num_feature":"32","num_nodes":"9","size_leaf_vector":"1"}},{"base_weights":[9.042081E-3,3.263287E-1,-7.914343E-2,-0E0,1.3093081E-2,-0E0,-6.1932695E-3,1.5206271E-3,-0E0],"categories":[],"categories_nodes":[],"categories_segments":[],"categories_sizes":[],"default_left":[0,0,0,0,0,0,0,0,0],"id":31,"left_children":[1,3,5,-1,-1,7,-1,-1,-1],"loss_changes":[4.1140962E-1,5.84009E-2,1.4586994E-1,0E0,0E0,5.264408E-3,0E0,0E0,0E0],"parents":[2147483647,0,0,1,1,2,2,5,5],"right_children":[2,4,6,-1,-1,8,-1,-1,-1],"split_conditions":[-1.2315413E0,8.0203515E-1,-6.563704E-1,-0E0,1.3093081E-2,1.768916E0,-6.1932695E-3,1.5206271E-3,-0E0],"split_indices":[18,28,14,0,0,31,0,0,0],"split_type":[0,0,0,0,0,0,0,0,0],"sum_hessian":[8.363453E0,2.4647617E0,5.8986917E0,1.221099E0,1.2436626E0,2.462087E0,3.4366045E0,1.0490217E0,1.4130652E0],"tree_param":{"num_deleted":"0","num_feature":"32","num_nodes":"9","size_leaf_vector":"1"}},{"base_weights":[-0E0,3.4124613E-1,-1.2556113E-1,-0E0,1.4433612E-2,-2.2875583E-1,-0E0,-0E0,-9.163118E-3],"categories":[],"categories_nodes":[],"categories_segments":[],"categories_sizes":[],"default_left":[0,0,0,0,0,0,0,0,0],"id":32,"left_children":[1,3,5,-1,-1,7,-1,-1,-1],"loss_changes":[4.8804665E-1,1.3271657E-1,1.5697595E-1,0E0,0E0,9.561062E-2,0E0,0E0,0E0],"parents":[2147483647,0,0,1,1,2,2,5,5],"right_children":[2,4,6,-1,-1,8,-1,-1,-1],"split_conditions":[-1.1648151E0,-6.7443687E-1,1.4395757E0,-0E0,1.4433612E-2,-3.2953918E-1,-0E0,-0E0,-9.163118E-3],"split_indices":[18,19,20,0,0,9,0,0,0],"split_type":[0,0,0,0,0,0,0,0,0],"sum_hessian":[7.9618225E0,2.2874615E0,5.6743608E0,1.0602931E0,1.2271684E0,4.0106077E0,1.663753E0,1.1752073E0,2.8354006E0],"tree_param":{"num_deleted":"0","num_feature":"32","num_nodes":"9","size_leaf_vector":"1"}},{"base_weights":[-0E0,-1.2898572E-1,8.835873E-3,-0E0,-2.3432851E-1,-3.1105813E-1,-0E0,-0E0,-1.058052E-2],"categories":[],"categories_nodes":[],"categories_segments":[],"categories_sizes":[],"default_left":[0,0,0,0,0,0,0,0,0],"id":33,"left_children":[1,3,-1,-1,5,7,-1,-1,-1],"loss_changes":[3.6462897E-1,1.9964698E-1,0E0,0E0,1.4540163E-1,2.4693608E-3,0E0,0E0,0E0],"parents":[2147483647,0,0,1,1,4,4,5,5],"right_children":[2,4,-1,-1,6,8,-1,-1,-1],"split_conditions":[1.1325779E0,1.0126241E0,8.835873E-3,-0E0,9.4582444E-1,1.795679E0,-0E0,-0E0,-1.058052E-2],"split_indices":[15,31,0,0,12,31,0,0,0],"split_type":[0,0,0,0,0,0,0,0,0],"sum_hessian":[8.400586E0,6.667866E0,1.7327193E0,1.7086498E0,4.9592166E0,3.8846133E0,1.0746034E0,1.0651273E0,2.819486E0],"tree_param":{"num_deleted":"0","num_feature":"32","num_nodes":"9","size_leaf_vector":"1"}},{"base_weights":[-0E0,1.9631445E-1,-1.4468667E-1,-0E0,1.447831E-2,-0E0,-7.7049294E-3],"categories":[],"categories_nodes":[],"categories_segments":[],"categories_sizes":[],"default_left":[0,0,0,0,0,0,0],"id":34,"left_children":[1,3,5,-1,-1,-1,-1],"loss_changes":[2.871682E-1,3.8061953E-1,1.2749913E-1,0E0,0E0,0E0,0E0],"parents":[2147483647,0,0,1,1,2,2],"right_children":[2,4,6,-1,-1,-1,-1],"split_conditions":[6.7730285E-3,2.5688866E-1,-4.4075817E-2,-0E0,1.447831E-2,-0E0,-7.7049294E-3],"split_indices":[0,8,30,0,0,0,0],"split_type":[0,0,0,0,0,0,0],"sum_hessian":[7.479013E0,4.040139E0,3.4388738E0,2.5719905E0,1.468149E0,1.0972067E0,2.341667E0],"tree_param":{"num_deleted":"0","num_feature":"32","num_nodes":"7","size_leaf_vector":"1"}},{"base_weights":[-0E0,-1.2649217E-1,1.04616106E-1,-2.0264407E-1,-0E0,-0E0,9.96081E-3,-0E0,-7.344127E-3],"categories":[],"categories_nodes":[],"categories_segments":[],"categories_sizes":[],"default_left":[0,0,0,0,0,0,0,0,0],"id":35,"left_children":[1,3,5,7,-1,-1,-1,-1,-1],"loss_changes":[1.317945E-1,8.313556E-2,2.1482189E-1,1.27506405E-2,0E0,0E0,0E0,0E0,0E0],"parents":[2147483647,0,0,1,1,2,2,3,3],"right_children":[2,4,6,8,-1,-1,-1,-1,-1],"split_conditions":[1.021957E0,7.997292E-1,2.5688866E-1,-5.979087E-1,-0E0,-0E0,9.96081E-3,-0E0,-7.344127E-3],"split_indices":[28,2,8,14,0,0,0,0,0],"split_type":[0,0,0,0,0,0,0,0,0],"sum_hessian":[7.4722333E0,4.563056E0,2.909177E0,3.1920755E0,1.3709805E0,1.5724435E0,1.3367336E0,1.106821E0,2.0852547E0],"tree_param":{"num_deleted":"0","num_feature":"32","num_nodes":"9","size_leaf_vector":"1"}},{"base_weights":[5.7464402E-2,-4.2549178E-2,2.2216254E-1,-0E0,-3.564944E-3,-0E0,1.3282609E-2],"categories":[],"categories_nodes":[],"categories_segments":[],"categories_sizes":[],"default_left":[0,0,0,0,0,0,0],"id":36,"left_children":[1,3,5,-1,-1,-1,-1],"loss_changes":[2.42503E-1,3.6130726E-2,3.9560452E-1,0E0,0E0,0E0,0E0],"parents":[2147483647,0,0,1,1,2,2],"right_children":[2,4,6,-1,-1,-1,-1],"split_conditions":[8.762287E-1,1.0126241E0,-3.823682E-1,-0E0,-3.564944E-3,-0E0,1.3282609E-2],"split_indices":[28,31,15,0,0,0,0],"split_type":[0,0,0,0,0,0,0],"sum_hessian":[7.696154E0,3.3609817E0,4.3351727E0,1.2431965E0,2.1177852E0,1.9738214E0,2.3613513E0],"tree_param":{"num_deleted":"0","num_feature":"32","num_nodes":"7","size_leaf_vector":"1"}},{"base_weights":[-0E0,-1.401168E-1,1.0964444E-2,-0E0,-2.1846446E-1,-0E0,-3.2192308E-1,-1.1326618E-2,-0E0],"categories":[],"categories_nodes":[],"categories_segments":[],"categories_sizes":[],"default_left":[0,0,0,0,0,0,0,0,0],"id":37,"left_children":[1,3,-1,-1,5,-1,7,-1,-1],"loss_changes":[5.1160717E-1,1.656557E-1,0E0,0E0,2.0779666E-1,0E0,4.637146E-2,0E0,0E0],"parents":[2147483647,0,0,1,1,4,4,6,6],"right_children":[2,4,-1,-1,6,-1,8,-1,-1],"split_conditions":[1.2270746E0,-9.956964E-1,1.0964444E-2,-0E0,-7.0356035E-1,-0E0,7.725566E-1,-1.1326618E-2,-0E0],"split_indices":[15,12,0,0,17,0,12,0,0],"split_type":[0,0,0,0,0,0,0,0,0],"sum_hessian":[8.309624E0,6.5959983E0,1.7136254E0,1.00041E0,5.595588E0,1.5530336E0,4.042555E0,2.9913435E0,1.0512114E0],"tree_param":{"num_deleted":"0","num_feature":"32","num_nodes":"9","size_leaf_vector":"1"}},{"base_weights":[-0E0,2.330026E-1,-6.862543E-2,-0E0,1.1132231E-2,-1.7052469E-1,-0E0,-6.2630493E-3,-0E0],"categories":[],"categories_nodes":[],"categories_segments":[],"categories_sizes":[],"default_left":[0,0,0,0,0,0,0,0,0],"id":38,"left_children":[1,3,5,-1,-1,7,-1,-1,-1],"loss_changes":[2.0039223E-1,1.1114189E-1,1.1275786E-1,0E0,0E0,9.451613E-3,0E0,0E0,0E0],"parents":[2147483647,0,0,1,1,2,2,5,5],"right_children":[2,4,6,-1,-1,8,-1,-1,-1],"split_conditions":[-1.1648151E0,7.897428E-1,1.4395757E0,-0E0,1.1132231E-2,7.267225E-1,-0E0,-6.2630493E-3,-0E0],"split_indices":[18,28,20,0,0,5,0,0,0],"split_type":[0,0,0,0,0,0,0,0,0],"sum_hessian":[7.990834E0,2.0927496E0,5.8980846E0,1.0662017E0,1.026548E0,3.9948657E0,1.9032192E0,2.5493505E0,1.4455152E0],"tree_param":{"num_deleted":"0","num_feature":"32","num_nodes":"9","size_leaf_vector":"1"}},{"base_weights":[-0E0,2.3915099E-1,-1.3497788E-1,-0E0,8.94109E-3,-0E0,-2.7574003E-1,-1.0495742E-2,-0E0],"categories":[],"categories_nodes":[],"categories_segments":[],"categories_sizes":[],"default_left":[0,0,0,0,0,0,0,0,0],"id":39,"left_children":[1,3,5,-1,-1,-1,7,-1,-1],"loss_changes":[3.101184E-1,1.3424218E-2,2.5382733E-1,0E0,0E0,0E0,9.9657595E-2,0E0,0E0],"parents":[2147483647,0,0,1,1,2,2,6,6],"right_children":[2,4,6,-1,-1,-1,8,-1,-1],"split_conditions":[3.4497477E-2,8.16459E-2,1.0126241E0,-0E0,8.94109E-3,-0E0,7.280607E-1,-1.0495742E-2,-0E0],"split_indices":[24,19,31,0,0,0,12,0,0],"split_type":[0,0,0,0,0,0,0,0,0],"sum_hessian":[7.7350903E0,2.4062188E0,5.3288713E0,1.0618879E0,1.3443309E0,1.4739351E0,3.8549361E0,2.8299694E0,1.0249667E0],"tree_param":{"num_deleted":"0","num_feature":"32","num_nodes":"9","size_leaf_vector":"1"}},{"base_weights":[6.843431E-2,1.2483737E-2,-5.2107155E-2,-0E0,-1.940456E-1,-0E0,2.2398294E-3,-0E0,-8.449382E-3],"categories":[],"categories_nodes":[],"categories_segments":[],"categories_sizes":[],"default_left":[0,0,0,0,0,0,0,0,0],"id":40,"left_children":[1,-1,3,5,7,-1,-1,-1,-1],"loss_changes":[5.687867E-1,0E0,1.3861282E-1,1.1638229E-2,4.8088104E-2,0E0,0E0,0E0,0E0],"parents":[2147483647,0,0,2,2,3,3,4,4],"right_children":[2,-1,4,6,8,-1,-1,-1,-1],"split_conditions":[-1.1648151E0,1.2483737E-2,1.8256874E0,-1.943349E-1,4.6844494E-1,-0E0,2.2398294E-3,-0E0,-8.449382E-3],"split_indices":[18,0,31,8,29,0,0,0,0],"split_type":[0,0,0,0,0,0,0,0,0],"sum_hessian":[7.7111754E0,2.4217353E0,5.28944E0,2.154664E0,3.1347764E0,1.0668128E0,1.0878512E0,1.5658637E0,1.5689125E0],"tree_param":{"num_deleted":"0","num_feature":"32","num_nodes":"9","size_leaf_vector":"1"}},{"base_weights":[-0E0,-1.0366609E-1,9.515159E-3,-0E0,-1.8564446E-1,-2.4538504E-1,-0E0,-8.766024E-3,-0E0],"categories":[],"categories_nodes":[],"categories_segments":[],"categories_sizes":[],"default_left":[0,0,0,0,0,0,0,0,0],"id":41,"left_children":[1,3,-1,-1,5,7,-1,-1,-1],"loss_changes":[3.4643373E-1,1.2560123E-1,0E0,0E0,6.6524E-2,1.9816041E-2,0E0,0E0,0E0],"parents":[2147483647,0,0,1,1,4,4,5,5],"right_children":[2,4,-1,-1,6,8,-1,-1,-1],"split_conditions":[1.1325779E0,1.0126241E0,9.515159E-3,-0E0,1.1815145E1,3.8847128E-1,-0E0,-8.766024E-3,-0E0],"split_indices":[15,31,0,0,31,11,0,0,0],"split_type":[0,0,0,0,0,0,0,0,0],"sum_hessian":[7.675965E0,5.9776263E0,1.6983385E0,1.1574032E0,4.820223E0,3.4360483E0,1.3841745E0,2.3605413E0,1.0755069E0],"tree_param":{"num_deleted":"0","num_feature":"32","num_nodes":"9","size_leaf_vector":"1"}},{"base_weights":[-0E0,2.5268647E-1,-8.1232E-2,-0E0,1.0475574E-2,-7.855363E-3,1.4169209E-3,3.7843264E-3,-0E0],"categories":[],"categories_nodes":[],"categories_segments":[],"categories_sizes":[],"default_left":[0,0,0,0,0,0,0,0,0],"id":42,"left_children":[1,3,5,-1,-1,-1,7,-1,-1],"loss_changes":[2.498753E-1,5.4653585E-2,2.3391101E-1,0E0,0E0,0E0,3.7222452E-2,0E0,0E0],"parents":[2147483647,0,0,1,1,2,2,6,6],"right_children":[2,4,6,-1,-1,-1,8,-1,-1],"split_conditions":[-1.2315413E0,8.0203515E-1,1.0087446E0,-0E0,1.0475574E-2,-7.855363E-3,-3.590183E-1,3.7843264E-3,-0E0],"split_indices":[18,28,28,0,0,0,7,0,0],"split_type":[0,0,0,0,0,0,0,0,0],"sum_hessian":[8.119944E0,2.1981077E0,5.921836E0,1.0751467E0,1.122961E0,3.077678E0,2.8441577E0,1.3397009E0,1.5044568E0],"tree_param":{"num_deleted":"0","num_feature":"32","num_nodes":"9","size_leaf_vector":"1"}},{"base_weights":[-0E0,-5.175754E-2,9.813879E-3,-0E0,-1.8080792E-1,-0E0,2.801158E-3,-0E0,-6.96494E-3],"categories":[],"categories_nodes":[],"categories_segments":[],"categories_sizes":[],"default_left":[0,0,0,0,0,0,0,0,0],"id":43,"left_children":[1,3,-1,5,7,-1,-1,-1,-1],"loss_changes":[3.017025E-1,1.3239037E-1,0E0,1.9339884E-2,4.0988743E-2,0E0,0E0,0E0,0E0],"parents":[2147483647,0,0,1,1,3,3,4,4],"right_children":[2,4,-1,6,8,-1,-1,-1,-1],"split_conditions":[1.1325779E0,1.7979985E0,9.813879E-3,6.9983023E-1,4.2735275E-2,-0E0,2.801158E-3,-0E0,-6.96494E-3],"split_indices":[15,31,0,2,23,0,0,0,0],"split_type":[0,0,0,0,0,0,0,0,0],"sum_hessian":[8.074879E0,6.4418774E0,1.6330011E0,2.7823794E0,3.6594982E0,1.564075E0,1.2183044E0,1.0729835E0,2.5865147E0],"tree_param":{"num_deleted":"0","num_feature":"32","num_nodes":"9","size_leaf_vector":"1"}},{"base_weights":[1.0560499E-2,-9.275181E-2,1.2137246E-2,-0E0,-1.9467433E-1,-6.9370493E-3,-0E0],"categories":[],"categories_nodes":[],"categories_segments":[],"categories_sizes":[],"default_left":[0,0,0,0,0,0,0],"id":44,"left_children":[1,3,-1,-1,5,-1,-1],"loss_changes":[5.2675396E-1,1.3919652E-1,0E0,0E0,1.3761237E-2,0E0,0E0],"parents":[2147483647,0,0,1,1,4,4],"right_children":[2,4,-1,-1,6,-1,-1],"split_conditions":[1.1325779E0,1.1779534E0,1.2137246E-2,-0E0,1.2548819E1,-6.9370493E-3,-0E0],"split_indices":[15,31,0,0,31,0,0],"split_type":[0,0,0,0,0,0,0],"sum_hessian":[7.1883016E0,5.2954264E0,1.8928754E0,1.1934433E0,4.101983E0,2.8735394E0,1.2284434E0],"tree_param":{"num_deleted":"0","num_feature":"32","num_nodes":"7","size_leaf_vector":"1"}},{"base_weights":[-0E0,7.774668E-3,-5.7588473E-2,-2.0287965E-1,-0E0,-8.285758E-3,-0E0,1.2341342E-1,-3.5775444E-4,-0E0,7.244518E-3],"categories":[],"categories_nodes":[],"categories_segments":[],"categories_sizes":[],"default_left":[0,0,0,0,0,0,0,0,0,0,0],"id":45,"left_children":[1,-1,3,5,7,-1,-1,9,-1,-1,-1],"loss_changes":[2.1068995E-1,0E0,1.3135053E-1,5.572684E-2,4.744132E-2,0E0,0E0,7.306953E-2,0E0,0E0,0E0],"parents":[2147483647,0,0,2,2,3,3,4,4,7,7],"right_children":[2,-1,4,6,8,-1,-1,10,-1,-1,-1],"split_conditions":[-1.2315413E0,7.774668E-3,3.5501805E-1,7.7550524E-1,9.6945584E-1,-8.285758E-3,-0E0,-7.150983E-1,-3.5775444E-4,-0E0,7.244518E-3],"split_indices":[18,0,5,10,5,0,0,20,0,0,0],"split_type":[0,0,0,0,0,0,0,0,0,0,0],"sum_hessian":[7.871302E0,1.7872486E0,6.0840535E0,2.7619953E0,3.3220582E0,1.7604307E0,1.0015647E0,2.0940094E0,1.2280487E0,1.0328753E0,1.0611342E0],"tree_param":{"num_deleted":"0","num_feature":"32","num_nodes":"11","size_leaf_vector":"1"}},{"base_weights":[-0E0,8.637762E-3,-6.606816E-2,-2.1467376E-1,-0E0,-0E0,-8.024807E-3,-0E0,3.417665E-3],"categories":[],"categories_nodes":[],"categories_segments":[],"categories_sizes":[],"default_left":[0,0,0,0,0,0,0,0,0],"id":46,"left_children":[1,-1,3,5,7,-1,-1,-1,-1],"loss_changes":[2.901601E-1,0E0,1.5366344E-1,2.4558052E-2,3.3416074E-2,0E0,0E0,0E0,0E0],"parents":[2147483647,0,0,2,2,3,3,4,4],"right_children":[2,-1,4,6,8,-1,-1,-1,-1],"split_conditions":[-1.2315413E0,8.637762E-3,1.0161408E0,-5.3927943E-2,4.7206622E-1,-0E0,-8.024807E-3,-0E0,3.417665E-3],"split_indices":[18,0,28,30,9,0,0,0,0],"split_type":[0,0,0,0,0,0,0,0,0],"sum_hessian":[8.414503E0,2.1157773E0,6.2987256E0,3.0256724E0,3.2730532E0,1.0896531E0,1.9360193E0,1.69828E0,1.5747732E0],"tree_param":{"num_deleted":"0","num_feature":"32","num_nodes":"9","size_leaf_vector":"1"}},{"base_weights":[-0E0,-1.4115998E-1,2.0180686E-1,-0E0,-2.2571822E-1,-0E0,1.2855421E-2,-0E0,-8.63223E-3],"categories":[],"categories_nodes":[],"categories_segments":[],"categories_sizes":[],"default_left":[0,0,0,0,0,0,0,0,0],"id":47,"left_children":[1,3,5,-1,7,-1,-1,-1,-1],"loss_changes":[2.806989E-1,1.3299295E-1,3.2812124E-1,0E0,5.3332657E-2,0E0,0E0,0E0,0E0],"parents":[2147483647,0,0,1,1,2,2,4,4],"right_children":[2,4,6,-1,8,-1,-1,-1,-1],"split_conditions":[2.6482242E-1,-1.5459965E0,2.3062209E-2,-0E0,-3.1417927E-1,-0E0,1.2855421E-2,-0E0,-8.63223E-3],"split_indices":[19,18,21,0,9,0,0,0,0],"split_type":[0,0,0,0,0,0,0,0,0],"sum_hessian":[7.9717226E0,5.0293436E0,2.9423795E0,1.0609258E0,3.9684176E0,1.2810829E0,1.6612965E0,1.2668953E0,2.7015224E0],"tree_param":{"num_deleted":"0","num_feature":"32","num_nodes":"9","size_leaf_vector":"1"}},{"base_weights":[-0E0,2.620283E-1,-1.6341744E-1,-0E0,1.0535234E-2,-0E0,-2.5285196E-1,-9.210456E-3,-0E0],"categories":[],"categories_nodes":[],"categories_segments":[],"categories_sizes":[],"default_left":[0,0,0,0,0,0,0,0,0],"id":48,"left_children":[1,3,5,-1,-1,-1,7,-1,-1],"loss_changes":[3.9223206E-1,4.1647553E-2,1.7136495E-1,0E0,0E0,0E0,5.813402E-2,0E0,0E0],"parents":[2147483647,0,0,1,1,2,2,6,6],"right_children":[2,4,6,-1,-1,-1,8,-1,-1],"split_conditions":[-1.2315413E0,7.438688E-1,8.0884534E-1,-0E0,1.0535234E-2,-0E0,7.7550524E-1,-9.210456E-3,-0E0],"split_indices":[18,28,31,0,0,0,10,0,0],"split_type":[0,0,0,0,0,0,0,0,0],"sum_hessian":[7.765038E0,2.1333253E0,5.631713E0,1.0511758E0,1.0821496E0,1.1813112E0,4.450402E0,3.3136826E0,1.136719E0],"tree_param":{"num_deleted":"0","num_feature":"32","num_nodes":"9","size_leaf_vector":"1"}},{"base_weights":[-0E0,2.900912E-1,-9.0387E-2,-0E0,1.22662755E-2,-0E0,-2.0673005E-1,-0E0,1.8399517E-3,-7.244003E-3,-0E0],"categories":[],"categories_nodes":[],"categories_segments":[],"categories_sizes":[],"default_left":[0,0,0,0,0,0,0,0,0,0,0],"id":49,"left_children":[1,3,5,-1,-1,7,9,-1,-1,-1,-1],"loss_changes":[3.370393E-1,9.51041E-2,1.441875E-1,0E0,0E0,8.953254E-3,1.5270457E-2,0E0,0E0,0E0,0E0],"parents":[2147483647,0,0,1,1,2,2,5,5,6,6],"right_children":[2,4,6,-1,-1,8,10,-1,-1,-1,-1],"split_conditions":[-1.2315413E0,8.0203515E-1,1.8256874E0,-0E0,1.22662755E-2,-3.8397157E-1,1.7972554E0,-0E0,1.8399517E-3,-7.244003E-3,-0E0],"split_indices":[18,28,31,0,0,21,20,0,0,0,0],"split_type":[0,0,0,0,0,0,0,0,0,0,0],"sum_hessian":[8.466474E0,2.310345E0,6.1561284E0,1.0751467E0,1.2351983E0,2.4143305E0,3.741798E0,1.0341467E0,1.3801839E0,2.7375467E0,1.0042511E0],"tree_param":{"num_deleted":"0","num_feature":"32","num_nodes":"11","size_leaf_vector":"1"}},{"base_weights":[2.5081262E-3,3.251151E-1,-8.037193E-2,-0E0,1.2681303E-2,-0E0,-2.283806E-1,-0E0,4.1704E-3,-0E0,-9.183811E-3],"categories":[],"categories_nodes":[],"categories_segments":[],"categories_sizes":[],"default_left":[0,0,0,0,0,0,0,0,0,0,0],"id":50,"left_children":[1,3,5,-1,-1,7,9,-1,-1,-1,-1],"loss_changes":[4.0770712E-1,6.022966E-2,1.9886768E-1,0E0,0E0,4.1714694E-2,9.733383E-2,0E0,0E0,0E0,0E0],"parents":[2147483647,0,0,1,1,2,2,5,5,6,6],"right_children":[2,4,6,-1,-1,8,10,-1,-1,-1,-1],"split_conditions":[-1.2315413E0,7.897428E-1,-3.590183E-1,-0E0,1.2681303E-2,2.0105447E-1,-7.897005E-1,-0E0,4.1704E-3,-0E0,-9.183811E-3],"split_indices":[18,28,7,0,0,4,14,0,0,0,0],"split_type":[0,0,0,0,0,0,0,0,0,0,0],"sum_hessian":[8.694385E0,2.4127924E0,6.2815924E0,1.0568925E0,1.3558998E0,2.5669637E0,3.7146285E0,1.408344E0,1.1586196E0,1.0520077E0,2.6626208E0],"tree_param":{"num_deleted":"0","num_feature":"32","num_nodes":"11","size_leaf_vector":"1"}},{"base_weights":[8.4790145E-4,-9.8045535E-2,1.8505964E-1,-0E0,-1.6506505E-1,3.7473413E-1,-0E0,-0E0,-7.158392E-3,-0E0,1.48048205E-2],"categories":[],"categories_nodes":[],"categories_segments":[],"categories_sizes":[],"default_left":[0,0,0,0,0,0,0,0,0,0,0],"id":51,"left_children":[1,3,5,-1,7,9,-1,-1,-1,-1,-1],"loss_changes":[2.4395336E-1,6.47394E-2,3.5609907E-1,0E0,6.437295E-2,1.5597361E-1,0E0,0E0,0E0,0E0,0E0],"parents":[2147483647,0,0,1,1,2,2,4,4,5,5],"right_children":[2,4,6,-1,8,10,-1,-1,-1,-1,-1],"split_conditions":[7.56412E-2,-9.956964E-1,7.5696915E-1,-0E0,-6.0934925E-1,-1.472962E-3,-0E0,-0E0,-7.158392E-3,-0E0,1.48048205E-2],"split_indices":[19,12,4,0,17,26,0,0,0,0,0],"split_type":[0,0,0,0,0,0,0,0,0,0,0],"sum_hessian":[9.007067E0,4.3989787E0,4.608088E0,1.1180805E0,3.2808983E0,2.9035573E0,1.7045307E0,1.1016849E0,2.1792133E0,1.0122713E0,1.8912859E0],"tree_param":{"num_deleted":"0","num_feature":"32","num_nodes":"11","size_leaf_vector":"1"}},{"base_weights":[-0E0,1.5116571E-1,-1.0493162E-1,-0E0,9.227672E-3,-2.037877E-1,-0E0,-0E0,-7.121568E-3],"categories":[],"categories_nodes":[],"categories_segments":[],"categories_sizes":[],"default_left":[0,0,0,0,0,0,0,0,0],"id":52,"left_children":[1,3,5,-1,-1,7,-1,-1,-1],"loss_changes":[1.6328657E-1,1.9400781E-1,1.3908483E-1,0E0,0E0,1.4539868E-2,0E0,0E0,0E0],"parents":[2147483647,0,0,1,1,2,2,5,5],"right_children":[2,4,6,-1,-1,8,-1,-1,-1],"split_conditions":[1.5846319E0,-1.4704931E-1,1.0832006E0,-0E0,9.227672E-3,-3.568577E-1,-0E0,-0E0,-7.121568E-3],"split_indices":[31,13,28,0,0,6,0,0,0],"split_type":[0,0,0,0,0,0,0,0,0],"sum_hessian":[8.443384E0,3.0790896E0,5.3642945E0,1.0432973E0,2.0357924E0,4.0364246E0,1.3278695E0,1.0667342E0,2.9696906E0],"tree_param":{"num_deleted":"0","num_feature":"32","num_nodes":"9","size_leaf_vector":"1"}},{"base_weights":[-0E0,1.7291822E-1,-1.5562257E-1,-0E0,1.067671E-2,-0E0,-7.7515417E-3],"categories":[],"categories_nodes":[],"categories_segments":[],"categories_sizes":[],"default_left":[0,0,0,0,0,0,0],"id":53,"left_children":[1,3,5,-1,-1,-1,-1],"loss_changes":[2.7591658E-1,2.1769416E-1,1.07357174E-1,0E0,0E0,0E0,0E0],"parents":[2147483647,0,0,1,1,2,2],"right_children":[2,4,6,-1,-1,-1,-1],"split_conditions":[8.031152E-2,9.256052E-2,-3.197618E-1,-0E0,1.067671E-2,-0E0,-7.7515417E-3],"split_indices":[0,8,6,0,0,0,0],"split_type":[0,0,0,0,0,0,0],"sum_hessian":[8.094956E0,4.5317264E0,3.5632305E0,2.5070698E0,2.0246563E0,1.2998616E0,2.263369E0],"tree_param":{"num_deleted":"0","num_feature":"32","num_nodes":"7","size_leaf_vector":"1"}},{"base_weights":[-0E0,2.3478554E-1,-1.7980166E-1,1.2395645E-2,-0E0,-2.3076178E-1,-0E0,-0E0,-8.09769E-3],"categories":[],"categories_nodes":[],"categories_segments":[],"categories_sizes":[],"default_left":[0,0,0,0,0,0,0,0,0],"id":54,"left_children":[1,3,5,-1,-1,7,-1,-1,-1],"loss_changes":[4.3984643E-1,2.8788522E-1,3.6728144E-2,0E0,0E0,2.6787221E-3,0E0,0E0,0E0],"parents":[2147483647,0,0,1,1,2,2,5,5],"right_children":[2,4,6,-1,-1,8,-1,-1,-1],"split_conditions":[-3.197618E-1,-3.1267896E-2,1.0257342E0,1.2395645E-2,-0E0,-3.8283682E-1,-0E0,-0E0,-8.09769E-3],"split_indices":[6,27,3,0,0,20,0,0,0],"split_type":[0,0,0,0,0,0,0,0,0],"sum_hessian":[8.280941E0,3.7148368E0,4.5661044E0,2.2086036E0,1.5062333E0,3.0688946E0,1.4972097E0,1.0582416E0,2.010653E0],"tree_param":{"num_deleted":"0","num_feature":"32","num_nodes":"9","size_leaf_vector":"1"}},{"base_weights":[-0E0,-7.077017E-2,2.4534513E-1,-0E0,-1.7880946E-1,1.1197495E-2,-0E0,-0E0,-6.9327187E-3],"categories":[],"categories_nodes":[],"categories_segments":[],"categories_sizes":[],"default_left":[0,0,0,0,0,0,0,0,0],"id":55,"left_children":[1,3,5,-1,7,-1,-1,-1,-1],"loss_changes":[2.4873133E-1,1.2145774E-1,1.3977994E-1,0E0,1.2571648E-2,0E0,0E0,0E0,0E0],"parents":[2147483647,0,0,1,1,2,2,4,4],"right_children":[2,4,6,-1,8,-1,-1,-1,-1],"split_conditions":[1.021957E0,-3.825686E-1,1.0137339E0,-0E0,-1.6445862E-2,1.1197495E-2,-0E0,-0E0,-6.9327187E-3],"split_indices":[28,6,19,0,30,0,0,0,0],"split_type":[0,0,0,0,0,0,0,0,0],"sum_hessian":[7.5946703E0,4.9582787E0,2.6363916E0,1.2261575E0,3.732121E0,1.5745147E0,1.061877E0,1.6635419E0,2.0685792E0],"tree_param":{"num_deleted":"0","num_feature":"32","num_nodes":"9","size_leaf_vector":"1"}},{"base_weights":[-0E0,4.841363E-3,-8.986767E-2,-1.8156762E-1,-0E0,-7.2663347E-3,-0E0],"categories":[],"categories_nodes":[],"categories_segments":[],"categories_sizes":[],"default_left":[0,0,0,0,0,0,0],"id":56,"left_children":[1,-1,3,5,-1,-1,-1],"loss_changes":[1.1417171E-1,0E0,1.1047748E-1,6.30815E-2,0E0,0E0,0E0],"parents":[2147483647,0,0,2,2,3,3],"right_children":[2,-1,4,6,-1,-1,-1],"split_conditions":[-1.5459965E0,4.841363E-3,4.6777436E-1,1.2351083E1,-0E0,-7.2663347E-3,-0E0],"split_indices":[18,0,11,31,0,0,0],"split_type":[0,0,0,0,0,0,0],"sum_hessian":[6.7615414E0,1.4162073E0,5.345334E0,3.9056518E0,1.4396824E0,2.8319335E0,1.0737183E0],"tree_param":{"num_deleted":"0","num_feature":"32","num_nodes":"7","size_leaf_vector":"1"}},{"base_weights":[-0E0,-6.8858765E-2,7.846921E-3,-0E0,-6.368736E-3,-0E0,3.0320082E-3,-0E0,-5.334987E-4],"categories":[],"categories_nodes":[],"categories_segments":[],"categories_sizes":[],"default_left":[0,0,0,0,0,0,0,0,0],"id":57,"left_children":[1,3,-1,5,-1,7,-1,-1,-1],"loss_changes":[2.2686042E-1,1.4261214E-1,0E0,2.1231811E-2,0E0,7.6769025E-4,0E0,0E0,0E0],"parents":[2147483647,0,0,1,1,3,3,5,5],"right_children":[2,4,-1,6,-1,8,-1,-1,-1],"split_conditions":[1.1325779E0,8.031152E-2,7.846921E-3,9.3246883E-1,-6.368736E-3,-3.1417927E-1,3.0320082E-3,-0E0,-5.334987E-4],"split_indices":[15,0,0,20,0,9,0,0,0],"split_type":[0,0,0,0,0,0,0,0,0],"sum_hessian":[8.709386E0,6.944035E0,1.7653514E0,3.9438396E0,3.0001955E0,2.8652494E0,1.07859E0,1.437735E0,1.4275146E0],"tree_param":{"num_deleted":"0","num_feature":"32","num_nodes":"9","size_leaf_vector":"1"}},{"base_weights":[-0E0,1.1860458E-1,-1.515903E-1,-0E0,7.921504E-3,-0E0,-7.934479E-3],"categories":[],"categories_nodes":[],"categories_segments":[],"categories_sizes":[],"default_left":[0,0,0,0,0,0,0],"id":58,"left_children":[1,3,5,-1,-1,-1,-1],"loss_changes":[1.8444905E-1,1.3273196E-1,1.5436043E-1,0E0,0E0,0E0,0E0],"parents":[2147483647,0,0,1,1,2,2],"right_children":[2,4,6,-1,-1,-1,-1],"split_conditions":[8.031152E-2,-1.298618E-1,-4.4075817E-2,-0E0,7.921504E-3,-0E0,-7.934479E-3],"split_indices":[0,11,30,0,0,0,0],"split_type":[0,0,0,0,0,0,0],"sum_hessian":[8.084664E0,4.3062906E0,3.7783735E0,2.331987E0,1.9743037E0,1.0019387E0,2.776435E0],"tree_param":{"num_deleted":"0","num_feature":"32","num_nodes":"7","size_leaf_vector":"1"}},{"base_weights":[-0E0,-7.788931E-2,1.7200981E-1,-0E0,-1.1380755E-1,1.1846853E-2,-6.3063775E-4,-4.7425823E-3,-0E0],"categories":[],"categories_nodes":[],"categories_segments":[],"categories_sizes":[],"default_left":[0,0,0,0,0,0,0,0,0],"id":59,"left_children":[1,3,5,-1,7,-1,-1,-1,-1],"loss_changes":[1.6224279E-1,2.649032E-2,3.8058016E-1,0E0,2.8487E-2,0E0,0E0,0E0,0E0],"parents":[2147483647,0,0,1,1,2,2,4,4],"right_children":[2,4,6,-1,8,-1,-1,-1,-1],"split_conditions":[3.009631E-1,5.5516637E-3,1.7934201E-2,-0E0,2.0471787E-2,1.1846853E-2,-6.3063775E-4,-4.7425823E-3,-0E0],"split_indices":[8,23,14,0,8,0,0,0,0],"split_type":[0,0,0,0,0,0,0,0,0],"sum_hessian":[8.041369E0,4.7334757E0,3.307894E0,1.0026933E0,3.7307825E0,2.2520444E0,1.0558496E0,2.5916975E0,1.139085E0],"tree_param":{"num_deleted":"0","num_feature":"32","num_nodes":"9","size_leaf_vector":"1"}},{"base_weights":[-0E0,1.6496468E-1,-1.0664437E-1,-0E0,1.1026849E-2,-6.5551866E-3,-0E0],"categories":[],"categories_nodes":[],"categories_segments":[],"categories_sizes":[],"default_left":[0,0,0,0,0,0,0],"id":60,"left_children":[1,3,5,-1,-1,-1,-1],"loss_changes":[2.0599881E-1,2.9897583E-1,1.0687101E-1,0E0,0E0,0E0,0E0],"parents":[2147483647,0,0,1,1,2,2],"right_children":[2,4,6,-1,-1,-1,-1],"split_conditions":[8.031152E-2,-1.298618E-1,1.0087446E0,-0E0,1.1026849E-2,-6.5551866E-3,-0E0],"split_indices":[0,11,28,0,0,0,0],"split_type":[0,0,0,0,0,0,0],"sum_hessian":[8.312439E0,4.600594E0,3.7118452E0,2.2595022E0,2.3410919E0,2.36075E0,1.3510953E0],"tree_param":{"num_deleted":"0","num_feature":"32","num_nodes":"7","size_leaf_vector":"1"}},{"base_weights":[-0E0,-4.2225998E-2,7.4224533E-3,-0E0,-1.4530264E-1,-0E0,1.5803281E-3,-7.2793807E-3,-0E0],"categories":[],"categories_nodes":[],"categories_segments":[],"categories_sizes":[],"default_left":[0,0,0,0,0,0,0,0,0],"id":61,"left_children":[1,3,-1,5,7,-1,-1,-1,-1],"loss_changes":[1.6872646E-1,8.331192E-2,0E0,7.9250205E-3,8.876953E-2,0E0,0E0,0E0,0E0],"parents":[2147483647,0,0,1,1,3,3,4,4],"right_children":[2,4,-1,6,8,-1,-1,-1,-1],"split_conditions":[1.2725306E0,1.8256874E0,7.4224533E-3,-4.4386396E-1,1.1815145E1,-0E0,1.5803281E-3,-7.2793807E-3,-0E0],"split_indices":[15,31,0,21,31,0,0,0,0],"split_type":[0,0,0,0,0,0,0,0,0],"sum_hessian":[8.352961E0,6.824545E0,1.5284153E0,3.2177136E0,3.6068313E0,1.3617783E0,1.8559353E0,2.159682E0,1.4471492E0],"tree_param":{"num_deleted":"0","num_feature":"32","num_nodes":"9","size_leaf_vector":"1"}},{"base_weights":[1.9490365E-2,-4.7897413E-2,1.1475673E-2,-0E0,-1.3828361E-1,-0E0,-1.9546886E-1,-7.631596E-3,-0E0],"categories":[],"categories_nodes":[],"categories_segments":[],"categories_sizes":[],"default_left":[0,0,0,0,0,0,0,0,0],"id":62,"left_children":[1,3,-1,-1,5,-1,7,-1,-1],"loss_changes":[3.9855215E-1,7.6912925E-2,0E0,0E0,4.9298756E-2,0E0,2.095452E-2,0E0,0E0],"parents":[2147483647,0,0,1,1,4,4,6,6],"right_children":[2,4,-1,-1,6,-1,8,-1,-1],"split_conditions":[1.1325779E0,-6.563704E-1,1.1475673E-2,-0E0,-6.336963E-1,-0E0,9.8610944E-1,-7.631596E-3,-0E0],"split_indices":[15,14,0,0,4,0,22,0,0],"split_type":[0,0,0,0,0,0,0,0,0],"sum_hessian":[7.7033367E0,6.06778E0,1.6355567E0,2.1976922E0,3.870088E0,1.1424389E0,2.7276492E0,1.524718E0,1.2029312E0],"tree_param":{"num_deleted":"0","num_feature":"32","num_nodes":"9","size_leaf_vector":"1"}},{"base_weights":[-0E0,6.0319556E-3,-5.0994337E-2,1.4940243E-4,-1.7316502E-1,-0E0,-7.924684E-3],"categories":[],"categories_nodes":[],"categories_segments":[],"categories_sizes":[],"default_left":[0,0,0,0,0,0,0],"id":63,"left_children":[1,-1,3,-1,5,-1,-1],"loss_changes":[1.3519357E-1,0E0,1.3063529E-1,0E0,7.7679306E-2,0E0,0E0],"parents":[2147483647,0,0,2,2,4,4],"right_children":[2,-1,4,-1,6,-1,-1],"split_conditions":[-1.1648151E0,6.0319556E-3,1.8256874E0,1.4940243E-4,4.6844494E-1,-0E0,-7.924684E-3],"split_indices":[18,0,31,0,29,0,0],"split_type":[0,0,0,0,0,0,0],"sum_hessian":[7.594403E0,1.9144441E0,5.6799583E0,1.7464134E0,3.933545E0,1.7002101E0,2.233335E0],"tree_param":{"num_deleted":"0","num_feature":"32","num_nodes":"7","size_leaf_vector":"1"}},{"base_weights":[-0E0,9.4681665E-2,-5.703678E-3,9.263087E-3,-0E0,-0E0,-3.280175E-4],"categories":[],"categories_nodes":[],"categories_segments":[],"categories_sizes":[],"default_left":[0,0,0,0,0,0,0],"id":64,"left_children":[1,3,-1,-1,5,-1,-1],"loss_changes":[2.0090443E-1,2.462078E-1,0E0,0E0,2.619637E-4,0E0,0E0],"parents":[2147483647,0,0,1,1,4,4],"right_children":[2,4,-1,-1,6,-1,-1],"split_conditions":[-2.9882413E-1,-3.5258546E-2,-5.703678E-3,9.263087E-3,-1.1674744E0,-0E0,-3.280175E-4],"split_indices":[6,27,0,0,2,0,0],"split_type":[0,0,0,0,0,0,0],"sum_hessian":[7.8658347E0,4.728499E0,3.1373355E0,2.1211014E0,2.6073978E0,1.4161593E0,1.1912385E0],"tree_param":{"num_deleted":"0","num_feature":"32","num_nodes":"7","size_leaf_vector":"1"}},{"base_weights":[-0E0,-8.2603686E-2,9.40458E-3,-0E0,-1.5211996E-1,-2.016533E-1,-0E0,-0E0,-7.27563E-3],"categories":[],"categories_nodes":[],"categories_segments":[],"categories_sizes":[],"default_left":[0,0,0,0,0,0,0,0,0],"id":65,"left_children":[1,3,-1,-1,5,7,-1,-1,-1],"loss_changes":[3.3427158E-1,1.0024878E-1,0E0,0E0,5.3823337E-2,3.0435547E-2,0E0,0E0,0E0],"parents":[2147483647,0,0,1,1,4,4,5,5],"right_children":[2,4,-1,-1,6,8,-1,-1,-1],"split_conditions":[1.1325779E0,-1.5459965E0,9.40458E-3,-0E0,1.1098572E1,-9.544655E-1,-0E0,-0E0,-7.27563E-3],"split_indices":[15,18,0,0,31,17,0,0,0],"split_type":[0,0,0,0,0,0,0,0,0],"sum_hessian":[8.500456E0,6.6286926E0,1.8717633E0,1.0470603E0,5.581632E0,4.0689855E0,1.5126468E0,1.0469626E0,3.0220227E0],"tree_param":{"num_deleted":"0","num_feature":"32","num_nodes":"9","size_leaf_vector":"1"}},{"base_weights":[-0E0,-5.1491145E-2,5.760102E-3,-0E0,-1.6285561E-1,-0E0,1.4991246E-3,-7.1907486E-3,-0E0],"categories":[],"categories_nodes":[],"categories_segments":[],"categories_sizes":[],"default_left":[0,0,0,0,0,0,0,0,0],"id":66,"left_children":[1,3,-1,5,7,-1,-1,-1,-1],"loss_changes":[1.1427158E-1,9.430438E-2,0E0,5.841477E-3,5.6773305E-2,0E0,0E0,0E0,0E0],"parents":[2147483647,0,0,1,1,3,3,4,4],"right_children":[2,4,-1,6,8,-1,-1,-1,-1],"split_conditions":[1.1325779E0,1.795679E0,5.760102E-3,-4.4386396E-1,1.1815145E1,-0E0,1.4991246E-3,-7.1907486E-3,-0E0],"split_indices":[15,31,0,21,31,0,0,0,0],"split_type":[0,0,0,0,0,0,0,0,0],"sum_hessian":[7.2709026E0,5.649421E0,1.6214813E0,2.4289832E0,3.220438E0,1.089663E0,1.3393203E0,1.9364916E0,1.2839463E0],"tree_param":{"num_deleted":"0","num_feature":"32","num_nodes":"9","size_leaf_vector":"1"}},{"base_weights":[-0E0,-1.9967714E-2,6.7815497E-3,2.278586E-4,-1.04526676E-1,-0E0,-1.6773246E-1,-6.222471E-3,-0E0],"categories":[],"categories_nodes":[],"categories_segments":[],"categories_sizes":[],"default_left":[0,0,0,0,0,0,0,0,0],"id":67,"left_children":[1,3,-1,-1,5,-1,7,-1,-1],"loss_changes":[1.4018396E-1,6.806945E-2,0E0,0E0,8.163525E-2,0E0,3.0067295E-2,0E0,0E0],"parents":[2147483647,0,0,1,1,4,4,6,6],"right_children":[2,4,-1,-1,6,-1,8,-1,-1],"split_conditions":[1.1325779E0,1.0126241E0,6.7815497E-3,2.278586E-4,5.498943E-3,-0E0,9.4582444E-1,-6.222471E-3,-0E0],"split_indices":[15,31,0,0,23,0,12,0,0],"split_type":[0,0,0,0,0,0,0,0,0],"sum_hessian":[8.750868E0,7.070478E0,1.6803898E0,1.5593371E0,5.511141E0,1.0809184E0,4.4302225E0,3.2500393E0,1.180183E0],"tree_param":{"num_deleted":"0","num_feature":"32","num_nodes":"9","size_leaf_vector":"1"}},{"base_weights":[-0E0,-3.972869E-2,6.8180016E-3,-0E0,-1.21370025E-1,2.379626E-4,-0E0,-0E0,-1.8194413E-1,-0E0,-6.380745E-3],"categories":[],"categories_nodes":[],"categories_segments":[],"categories_sizes":[],"default_left":[0,0,0,0,0,0,0,0,0,0,0],"id":68,"left_children":[1,3,-1,5,7,-1,-1,-1,9,-1,-1],"loss_changes":[1.4342307E-1,6.767969E-2,0E0,1.2829382E-4,6.4443514E-2,0E0,0E0,0E0,5.9398413E-3,0E0,0E0],"parents":[2147483647,0,0,1,1,3,3,4,4,8,8],"right_children":[2,4,-1,6,8,-1,-1,-1,10,-1,-1],"split_conditions":[1.1325779E0,-6.563704E-1,6.8180016E-3,2.3168807E0,-9.694052E-1,2.379626E-4,-0E0,-0E0,-9.184382E-2,-0E0,-6.380745E-3],"split_indices":[15,14,0,31,12,0,0,0,30,0,0],"split_type":[0,0,0,0,0,0,0,0,0,0,0],"sum_hessian":[8.350586E0,6.8125095E0,1.5380762E0,2.380941E0,4.4315686E0,1.0390638E0,1.3418771E0,1.0678757E0,3.3636928E0,1.0391616E0,2.3245313E0],"tree_param":{"num_deleted":"0","num_feature":"32","num_nodes":"11","size_leaf_vector":"1"}},{"base_weights":[-0E0,-8.9133926E-2,5.961088E-3,-1.363758E-1,-0E0,-0E0,-1.9602825E-1,-6.9792694E-3,-0E0],"categories":[],"categories_nodes":[],"categories_segments":[],"categories_sizes":[],"default_left":[0,0,0,0,0,0,0,0,0],"id":69,"left_children":[1,3,-1,5,-1,-1,7,-1,-1],"loss_changes":[1.5936758E-1,5.866939E-2,0E0,7.954432E-2,0E0,0E0,2.540882E-2,0E0,0E0],"parents":[2147483647,0,0,1,1,3,3,6,6],"right_children":[2,4,-1,6,-1,-1,8,-1,-1],"split_conditions":[1.2725306E0,9.951759E-1,5.961088E-3,-3.2953918E-1,-0E0,-0E0,1.4324616E0,-6.9792694E-3,-0E0],"split_indices":[15,22,0,9,0,0,20,0,0],"split_type":[0,0,0,0,0,0,0,0,0],"sum_hessian":[8.473139E0,7.058274E0,1.4148645E0,5.596884E0,1.4613901E0,1.3340441E0,4.26284E0,3.206098E0,1.0567416E0],"tree_param":{"num_deleted":"0","num_feature":"32","num_nodes":"9","size_leaf_vector":"1"}},{"base_weights":[-0E0,1.14119336E-1,-3.5342015E-2,-0E0,5.993301E-3,-9.981414E-2,-0E0,-0E0,-4.2988476E-3],"categories":[],"categories_nodes":[],"categories_segments":[],"categories_sizes":[],"default_left":[0,0,0,0,0,0,0,0,0],"id":70,"left_children":[1,3,5,-1,-1,7,-1,-1,-1],"loss_changes":[6.1996855E-2,7.067481E-2,3.676364E-2,0E0,0E0,1.7312445E-2,0E0,0E0,0E0],"parents":[2147483647,0,0,1,1,2,2,5,5],"right_children":[2,4,6,-1,-1,8,-1,-1,-1],"split_conditions":[-3.590183E-1,-1.1930324E0,-1.6641362E-1,-0E0,5.993301E-3,-6.336963E-1,-0E0,-0E0,-4.2988476E-3],"split_indices":[7,2,1,0,0,4,0,0,0],"split_type":[0,0,0,0,0,0,0,0,0],"sum_hessian":[7.707881E0,3.235642E0,4.472239E0,1.0826926E0,2.1529493E0,3.37613E0,1.0961088E0,1.4096892E0,1.966441E0],"tree_param":{"num_deleted":"0","num_feature":"32","num_nodes":"9","size_leaf_vector":"1"}},{"base_weights":[-0E0,-5.184357E-2,1.725508E-1,-1.584395E-1,-0E0,-0E0,1.0362094E-2,-5.9065097E-3,-0E0],"categories":[],"categories_nodes":[],"categories_segments":[],"categories_sizes":[],"default_left":[0,0,0,0,0,0,0,0,0],"id":71,"left_children":[1,3,5,7,-1,-1,-1,-1,-1],"loss_changes":[1.2467815E-1,9.574518E-2,1.8190801E-1,1.5142083E-2,0E0,0E0,0E0,0E0,0E0],"parents":[2147483647,0,0,1,1,2,2,3,3],"right_children":[2,4,6,8,-1,-1,-1,-1,-1],"split_conditions":[2.2556834E-1,8.001357E-1,2.3062209E-2,1.2351083E1,-0E0,-0E0,1.0362094E-2,-5.9065097E-3,-0E0],"split_indices":[19,2,21,31,0,0,0,0,0],"split_type":[0,0,0,0,0,0,0,0,0],"sum_hessian":[7.745523E0,5.1095304E0,2.6359925E0,3.4682212E0,1.6413093E0,1.2038285E0,1.4321641E0,2.2842557E0,1.1839654E0],"tree_param":{"num_deleted":"0","num_feature":"32","num_nodes":"9","size_leaf_vector":"1"}},{"base_weights":[1.7158525E-2,-5.969975E-2,2.6342136E-1,-0E0,-4.99006E-3,-0E0,1.0768123E-2],"categories":[],"categories_nodes":[],"categories_segments":[],"categories_sizes":[],"default_left":[0,0,0,0,0,0,0],"id":72,"left_children":[1,3,5,-1,-1,-1,-1],"loss_changes":[2.7724832E-1,9.587424E-2,3.9578855E-2,0E0,0E0,0E0,0E0],"parents":[2147483647,0,0,1,1,2,2],"right_children":[2,4,6,-1,-1,-1,-1],"split_conditions":[1.021957E0,1.0126241E0,-8.405914E-2,-0E0,-4.99006E-3,-0E0,1.0768123E-2],"split_indices":[28,31,21,0,0,0,0],"split_type":[0,0,0,0,0,0,0],"sum_hessian":[7.435489E0,4.6968384E0,2.7386506E0,1.4977474E0,3.199091E0,1.4178189E0,1.3208317E0],"tree_param":{"num_deleted":"0","num_feature":"32","num_nodes":"7","size_leaf_vector":"1"}},{"base_weights":[-0E0,-4.9269325E-3,1.1729972E-1,-0E0,2.400853E-1,1.0764241E-2,-0E0],"categories":[],"categories_nodes":[],"categories_segments":[],"categories_sizes":[],"default_left":[0,0,0,0,0,0,0],"id":73,"left_children":[1,-1,3,-1,5,-1,-1],"loss_changes":[1.85298E-1,0E0,1.3936965E-1,0E0,1.2037395E-1,0E0,0E0],"parents":[2147483647,0,0,2,2,4,4],"right_children":[2,-1,4,-1,6,-1,-1],"split_conditions":[7.56412E-2,-4.9269325E-3,-1.8124363E-1,-0E0,7.5696915E-1,1.0764241E-2,-0E0],"split_indices":[19,0,15,0,4,0,0],"split_type":[0,0,0,0,0,0,0],"sum_hessian":[7.242167E0,3.3998008E0,3.8423662E0,1.2685726E0,2.5737936E0,1.5350529E0,1.0387408E0],"tree_param":{"num_deleted":"0","num_feature":"32","num_nodes":"7","size_leaf_vector":"1"}},{"base_weights":[-0E0,2.351813E-3,-7.6396026E-2,-0E0,-1.5053447E-1,-5.658998E-3,-0E0],"categories":[],"categories_nodes":[],"categories_segments":[],"categories_sizes":[],"default_left":[0,0,0,0,0,0,0],"id":74,"left_children":[1,-1,3,-1,5,-1,-1],"loss_changes":[5.1910352E-2,0E0,7.523145E-2,0E0,2.8087042E-2,0E0,0E0],"parents":[2147483647,0,0,2,2,4,4],"right_children":[2,-1,4,-1,6,-1,-1],"split_conditions":[-1.0285776E0,2.351813E-3,-3.2953918E-1,-0E0,9.962512E-1,-5.658998E-3,-0E0],"split_indices":[12,0,9,0,25,0,0],"split_type":[0,0,0,0,0,0,0],"sum_hessian":[6.7671943E0,1.3992087E0,5.3679857E0,1.4079615E0,3.9600244E0,2.948128E0,1.0118965E0],"tree_param":{"num_deleted":"0","num_feature":"32","num_nodes":"7","size_leaf_vector":"1"}},{"base_weights":[-0E0,2.3363936E-1,-1.00783974E-1,-0E0,9.828202E-3,-0E0,-2.2722362E-1,7.3149864E-4,-0E0,-8.387136E-3,-0E0],"categories":[],"categories_nodes":[],"categories_segments":[],"categories_sizes":[],"default_left":[0,0,0,0,0,0,0,0,0,0,0],"id":75,"left_children":[1,3,5,-1,-1,7,9,-1,-1,-1,-1],"loss_changes":[2.5868958E-1,6.555803E-2,1.5958804E-1,0E0,0E0,1.2156938E-3,1.770261E-2,0E0,0E0,0E0,0E0],"parents":[2147483647,0,0,1,1,2,2,5,5,6,6],"right_children":[2,4,6,-1,-1,8,10,-1,-1,-1,-1],"split_conditions":[-1.2315413E0,8.0203515E-1,-6.563704E-1,-0E0,9.828202E-3,1.795679E0,2.3421684E-2,7.3149864E-4,-0E0,-8.387136E-3,-0E0],"split_indices":[18,28,14,0,0,31,30,0,0,0,0],"split_type":[0,0,0,0,0,0,0,0,0,0,0],"sum_hessian":[8.460183E0,2.4310465E0,6.0291367E0,1.0751467E0,1.3558998E0,2.5553174E0,3.4738193E0,1.0447475E0,1.51057E0,2.1817846E0,1.2920346E0],"tree_param":{"num_deleted":"0","num_feature":"32","num_nodes":"11","size_leaf_vector":"1"}},{"base_weights":[6.645627E-2,1.9449767E-1,-4.0816452E-4,-0E0,3.0069864E-1,-0E0,1.3167102E-2],"categories":[],"categories_nodes":[],"categories_segments":[],"categories_sizes":[],"default_left":[0,0,0,0,0,0,0],"id":76,"left_children":[1,3,-1,-1,5,-1,-1],"loss_changes":[1.770227E-1,1.7706196E-1,0E0,0E0,1.737788E-1,0E0,0E0],"parents":[2147483647,0,0,1,1,4,4],"right_children":[2,4,-1,-1,6,-1,-1],"split_conditions":[3.3214936E-1,-1.3287625E0,-4.0816452E-4,-0E0,8.762287E-1,-0E0,1.3167102E-2],"split_indices":[0,2,0,0,28,0,0],"split_type":[0,0,0,0,0,0,0],"sum_hessian":[7.1873536E0,4.6178837E0,2.5694697E0,1.3092766E0,3.3086073E0,1.3841225E0,1.9244847E0],"tree_param":{"num_deleted":"0","num_feature":"32","num_nodes":"7","size_leaf_vector":"1"}},{"base_weights":[-0E0,4.761938E-3,-7.205302E-2,-1.6206694E-1,-0E0,-6.436612E-3,-0E0,-0E0,1.4296144E-3],"categories":[],"categories_nodes":[],"categories_segments":[],"categories_sizes":[],"default_left":[0,0,0,0,0,0,0,0,0],"id":77,"left_children":[1,-1,3,5,7,-1,-1,-1,-1],"loss_changes":[1.0505401E-1,0E0,1.01701386E-1,5.7688028E-2,4.845335E-3,0E0,0E0,0E0,0E0],"parents":[2147483647,0,0,2,2,3,3,4,4],"right_children":[2,-1,4,6,8,-1,-1,-1,-1],"split_conditions":[-8.274917E-1,4.761938E-3,2.6482242E-1,8.001357E-1,5.0894227E-3,-6.436612E-3,-0E0,-0E0,1.4296144E-3],"split_indices":[20,0,19,2,26,0,0,0,0],"split_type":[0,0,0,0,0,0,0,0,0],"sum_hessian":[8.203601E0,1.6035136E0,6.600087E0,4.374245E0,2.2258418E0,3.3196177E0,1.0546273E0,1.0921657E0,1.1336762E0],"tree_param":{"num_deleted":"0","num_feature":"32","num_nodes":"9","size_leaf_vector":"1"}},{"base_weights":[-0E0,7.168384E-3,-1.0947351E-1,-2.1062383E-1,-0E0,-0E0,-8.219904E-3],"categories":[],"categories_nodes":[],"categories_segments":[],"categories_sizes":[],"default_left":[0,0,0,0,0,0,0],"id":78,"left_children":[1,-1,3,5,-1,-1,-1],"loss_changes":[2.5480187E-1,0E0,1.356419E-1,6.181164E-2,0E0,0E0,0E0],"parents":[2147483647,0,0,2,2,3,3],"right_children":[2,-1,4,6,-1,-1,-1],"split_conditions":[-1.2315413E0,7.168384E-3,4.6777436E-1,-1.4209301E0,-0E0,-0E0,-8.219904E-3],"split_indices":[18,0,11,2,0,0,0],"split_type":[0,0,0,0,0,0,0],"sum_hessian":[7.3708353E0,2.1588345E0,5.2120013E0,3.7357523E0,1.4762489E0,1.1139925E0,2.62176E0],"tree_param":{"num_deleted":"0","num_feature":"32","num_nodes":"7","size_leaf_vector":"1"}},{"base_weights":[-0E0,1.3651422E-1,-1.0429524E-1,-0E0,2.719701E-1,-0E0,-5.536053E-3,-0E0,1.0914703E-2],"categories":[],"categories_nodes":[],"categories_segments":[],"categories_sizes":[],"default_left":[0,0,0,0,0,0,0,0,0],"id":79,"left_children":[1,3,5,-1,7,-1,-1,-1,-1],"loss_changes":[1.6760537E-1,1.9937843E-1,7.311975E-2,0E0,6.834036E-2,0E0,0E0,0E0,0E0],"parents":[2147483647,0,0,1,1,2,2,4,4],"right_children":[2,4,6,-1,8,-1,-1,-1,-1],"split_conditions":[8.031152E-2,-5.2318722E-2,-7.5371915E-1,-0E0,2.5688866E-1,-0E0,-5.536053E-3,-0E0,1.0914703E-2],"split_indices":[0,30,14,0,8,0,0,0,0],"split_type":[0,0,0,0,0,0,0,0,0],"sum_hessian":[8.989399E0,5.1954494E0,3.7939494E0,1.9390306E0,3.2564185E0,1.1154137E0,2.678536E0,1.3616145E0,1.894804E0],"tree_param":{"num_deleted":"0","num_feature":"32","num_nodes":"9","size_leaf_vector":"1"}},{"base_weights":[-0E0,3.9350404E-3,-5.734203E-2,-1.6346917E-1,-0E0,-0E0,-6.2137675E-3,-0E0,1.7364784E-3],"categories":[],"categories_nodes":[],"categories_segments":[],"categories_sizes":[],"default_left":[0,0,0,0,0,0,0,0,0],"id":80,"left_children":[1,-1,3,5,7,-1,-1,-1,-1],"loss_changes":[7.1141236E-2,0E0,1.0623224E-1,3.324707E-2,6.7256456E-3,0E0,0E0,0E0,0E0],"parents":[2147483647,0,0,2,2,3,3,4,4],"right_children":[2,-1,4,6,8,-1,-1,-1,-1],"split_conditions":[-1.2315413E0,3.9350404E-3,1.4395757E0,-2.7663097E-1,2.0387964E-2,-0E0,-6.2137675E-3,-0E0,1.7364784E-3],"split_indices":[18,0,20,9,13,0,0,0,0],"split_type":[0,0,0,0,0,0,0,0,0],"sum_hessian":[7.6539783E0,1.8309313E0,5.823047E0,3.8149967E0,2.0080504E0,1.0408611E0,2.7741356E0,1.0006331E0,1.0074173E0],"tree_param":{"num_deleted":"0","num_feature":"32","num_nodes":"9","size_leaf_vector":"1"}},{"base_weights":[-0E0,1.4440069E-1,-1.4796421E-1,-0E0,9.293654E-3,-0E0,-1.9646113E-1,-0E0,-6.883166E-3],"categories":[],"categories_nodes":[],"categories_segments":[],"categories_sizes":[],"default_left":[0,0,0,0,0,0,0,0,0],"id":81,"left_children":[1,3,5,-1,-1,-1,7,-1,-1],"loss_changes":[2.1770369E-1,1.5334836E-1,5.7224557E-2,0E0,0E0,0E0,1.8804327E-2,0E0,0E0],"parents":[2147483647,0,0,1,1,2,2,6,6],"right_children":[2,4,6,-1,-1,-1,8,-1,-1],"split_conditions":[-1.1648151E0,-3.6625552E-1,-3.2953918E-1,-0E0,9.293654E-3,-0E0,-7.54138E-1,-0E0,-6.883166E-3],"split_indices":[18,19,9,0,0,0,14,0,0],"split_type":[0,0,0,0,0,0,0,0,0],"sum_hessian":[8.119873E0,2.6999516E0,5.419921E0,1.2981511E0,1.4018005E0,1.2957243E0,4.1241965E0,1.009953E0,3.1142437E0],"tree_param":{"num_deleted":"0","num_feature":"32","num_nodes":"9","size_leaf_vector":"1"}},{"base_weights":[-0E0,-2.5243822E-2,1.8294962E-1,-0E0,-1.109269E-1,7.923988E-3,-0E0,-0E0,-5.522937E-3],"categories":[],"categories_nodes":[],"categories_segments":[],"categories_sizes":[],"default_left":[0,0,0,0,0,0,0,0,0],"id":82,"left_children":[1,3,5,-1,7,-1,-1,-1,-1],"loss_changes":[1.1668216E-1,5.6730542E-2,5.1922463E-2,0E0,6.335855E-2,0E0,0E0,0E0,0E0],"parents":[2147483647,0,0,1,1,2,2,4,4],"right_children":[2,4,6,-1,8,-1,-1,-1,-1],"split_conditions":[3.5032207E-1,1.4257894E-2,-1.4793903E-1,-0E0,-3.1417927E-1,7.923988E-3,-0E0,-0E0,-5.522937E-3],"split_indices":[21,22,7,0,9,0,0,0,0],"split_type":[0,0,0,0,0,0,0,0,0],"sum_hessian":[7.6965322E0,5.3309555E0,2.365577E0,1.3926342E0,3.9383214E0,1.3588821E0,1.0066949E0,1.276001E0,2.6623201E0],"tree_param":{"num_deleted":"0","num_feature":"32","num_nodes":"9","size_leaf_vector":"1"}},{"base_weights":[5.5094482E-3,-2.9970443E-2,7.7271303E-3,-0E0,-1.3696696E-1,-0E0,1.3572867E-3,-5.973913E-3,-0E0],"categories":[],"categories_nodes":[],"categories_segments":[],"categories_sizes":[],"default_left":[0,0,0,0,0,0,0,0,0],"id":83,"left_children":[1,3,-1,5,7,-1,-1,-1,-1],"loss_changes":[2.0524518E-1,8.588766E-2,0E0,4.847264E-3,5.863288E-2,0E0,0E0,0E0,0E0],"parents":[2147483647,0,0,1,1,3,3,4,4],"right_children":[2,4,-1,6,8,-1,-1,-1,-1],"split_conditions":[1.1325779E0,1.8256874E0,7.7271303E-3,-6.7591304E-1,7.725566E-1,-0E0,1.3572867E-3,-5.973913E-3,-0E0],"split_indices":[15,31,0,18,12,0,0,0,0],"split_type":[0,0,0,0,0,0,0,0,0],"sum_hessian":[8.361988E0,6.3636985E0,1.9982903E0,2.4328775E0,3.9308207E0,1.0648E0,1.3680776E0,2.8114414E0,1.1193792E0],"tree_param":{"num_deleted":"0","num_feature":"32","num_nodes":"9","size_leaf_vector":"1"}},{"base_weights":[1.8241087E-2,1.6582887E-1,-5.4091256E-2,-0E0,2.683436E-1,-0E0,-1.1562946E-1,-0E0,1.0384086E-2,-4.16363E-3,-0E0],"categories":[],"categories_nodes":[],"categories_segments":[],"categories_sizes":[],"default_left":[0,0,0,0,0,0,0,0,0,0,0],"id":84,"left_children":[1,3,5,-1,7,-1,9,-1,-1,-1,-1],"loss_changes":[1.6587013E-1,1.4062001E-1,3.5794295E-2,0E0,5.1325023E-2,0E0,9.749606E-4,0E0,0E0,0E0,0E0],"parents":[2147483647,0,0,1,1,2,2,4,4,6,6],"right_children":[2,4,6,-1,8,-1,10,-1,-1,-1,-1],"split_conditions":[8.031152E-2,-5.2318722E-2,-4.4075817E-2,-0E0,-5.289665E-1,-0E0,6.276211E-1,-0E0,1.0384086E-2,-4.16363E-3,-0E0],"split_indices":[0,30,30,0,11,0,10,0,0,0,0],"split_type":[0,0,0,0,0,0,0,0,0,0,0],"sum_hessian":[8.463975E0,4.632239E0,3.8317358E0,1.5285144E0,3.1037245E0,1.0972067E0,2.734529E0,1.2089205E0,1.894804E0,1.6428311E0,1.091698E0],"tree_param":{"num_deleted":"0","num_feature":"32","num_nodes":"11","size_leaf_vector":"1"}},{"base_weights":[-0E0,-4.2525087E-2,5.26976E-3,-0E0,-9.853717E-2,-1.2360658E-1,-0E0,-4.2706504E-3,-0E0],"categories":[],"categories_nodes":[],"categories_segments":[],"categories_sizes":[],"default_left":[0,0,0,0,0,0,0,0,0],"id":85,"left_children":[1,3,-1,-1,5,7,-1,-1,-1],"loss_changes":[1.00236826E-1,4.3169126E-2,0E0,0E0,1.5196811E-2,2.5190488E-3,0E0,0E0,0E0],"parents":[2147483647,0,0,1,1,4,4,5,5],"right_children":[2,4,-1,-1,6,8,-1,-1,-1],"split_conditions":[9.605926E-1,5.498943E-3,5.26976E-3,-0E0,7.7498424E-1,9.986289E-1,-0E0,-4.2706504E-3,-0E0],"split_indices":[15,23,0,0,5,23,0,0,0],"split_type":[0,0,0,0,0,0,0,0,0],"sum_hessian":[7.6437883E0,5.7933908E0,1.8503977E0,1.0821024E0,4.711288E0,3.6241834E0,1.0871047E0,2.6106684E0,1.0135151E0],"tree_param":{"num_deleted":"0","num_feature":"32","num_nodes":"9","size_leaf_vector":"1"}},{"base_weights":[-0E0,4.0953136E-3,-3.0192964E-2,-1.2260037E-1,-0E0,-0E0,-5.4895044E-3,4.4522113E-3,-0E0],"categories":[],"categories_nodes":[],"categories_segments":[],"categories_sizes":[],"default_left":[0,0,0,0,0,0,0,0,0],"id":86,"left_children":[1,-1,3,5,7,-1,-1,-1,-1],"loss_changes":[6.411898E-2,0E0,7.8551E-2,3.341633E-2,4.46746E-2,0E0,0E0,0E0,0E0],"parents":[2147483647,0,0,2,2,3,3,4,4],"right_children":[2,-1,4,6,8,-1,-1,-1,-1],"split_conditions":[-1.2315413E0,4.0953136E-3,5.259049E-1,-8.903646E-1,5.5354154E-1,-0E0,-5.4895044E-3,4.4522113E-3,-0E0],"split_indices":[18,0,29,11,29,0,0,0,0],"split_type":[0,0,0,0,0,0,0,0,0],"sum_hessian":[8.925267E0,2.055794E0,6.869473E0,4.703266E0,2.1662068E0,2.1449997E0,2.5582662E0,1.028391E0,1.1378158E0],"tree_param":{"num_deleted":"0","num_feature":"32","num_nodes":"9","size_leaf_vector":"1"}},{"base_weights":[-0E0,5.848488E-3,-2.2468837E-2,-0E0,-1.2024591E-1,2.576891E-3,-0E0,-4.761561E-3,-0E0],"categories":[],"categories_nodes":[],"categories_segments":[],"categories_sizes":[],"default_left":[0,0,0,0,0,0,0,0,0],"id":87,"left_children":[1,-1,3,5,7,-1,-1,-1,-1],"loss_changes":[1.26468E-1,0E0,6.5955035E-2,1.5974438E-2,2.542118E-2,0E0,0E0,0E0,0E0],"parents":[2147483647,0,0,2,2,3,3,4,4],"right_children":[2,-1,4,6,8,-1,-1,-1,-1],"split_conditions":[-1.2315413E0,5.848488E-3,-3.590183E-1,-2.2571039E-1,3.7623447E-1,2.576891E-3,-0E0,-4.761561E-3,-0E0],"split_indices":[18,0,7,3,11,0,0,0,0],"split_type":[0,0,0,0,0,0,0,0,0],"sum_hessian":[8.896503E0,2.2257419E0,6.670761E0,2.8414352E0,3.829326E0,1.1650898E0,1.6763453E0,2.7809703E0,1.0483556E0],"tree_param":{"num_deleted":"0","num_feature":"32","num_nodes":"9","size_leaf_vector":"1"}},{"base_weights":[-0E0,1.2788074E-1,-8.3613165E-2,-0E0,8.569924E-3,-0E0,-4.849642E-3],"categories":[],"categories_nodes":[],"categories_segments":[],"categories_sizes":[],"default_left":[0,0,0,0,0,0,0],"id":88,"left_children":[1,3,5,-1,-1,-1,-1],"loss_changes":[1.1306739E-1,2.1077141E-1,5.439844E-2,0E0,0E0,0E0,0E0],"parents":[2147483647,0,0,1,1,2,2],"right_children":[2,4,6,-1,-1,-1,-1],"split_conditions":[6.7730285E-3,-5.2318722E-2,-6.7656183E-1,-0E0,8.569924E-3,-0E0,-4.849642E-3],"split_indices":[0,30,14,0,0,0,0],"split_type":[0,0,0,0,0,0,0],"sum_hessian":[7.4377937E0,4.0293336E0,3.4084604E0,1.4385955E0,2.590738E0,1.1474062E0,2.261054E0],"tree_param":{"num_deleted":"0","num_feature":"32","num_nodes":"7","size_leaf_vector":"1"}},{"base_weights":[-0E0,1.7573522E-1,-5.9916325E-2,-0E0,8.716154E-3,-0E0,-1.6671547E-1,-0E0,-6.1533083E-3],"categories":[],"categories_nodes":[],"categories_segments":[],"categories_sizes":[],"default_left":[0,0,0,0,0,0,0,0,0],"id":89,"left_children":[1,3,5,-1,-1,-1,7,-1,-1],"loss_changes":[1.2147854E-1,8.3521575E-2,1.0906233E-1,0E0,0E0,0E0,2.2929385E-2,0E0,0E0],"parents":[2147483647,0,0,1,1,2,2,6,6],"right_children":[2,4,6,-1,-1,-1,8,-1,-1],"split_conditions":[-1.1648151E0,8.0203515E-1,1.8256874E0,-0E0,8.716154E-3,-0E0,-1.4851819E0,-0E0,-6.1533083E-3],"split_indices":[18,28,31,0,0,0,2,0,0],"split_type":[0,0,0,0,0,0,0,0,0],"sum_hessian":[7.954865E0,2.141509E0,5.813356E0,1.0027239E0,1.1387852E0,2.0093765E0,3.8039796E0,1.0851635E0,2.718816E0],"tree_param":{"num_deleted":"0","num_feature":"32","num_nodes":"9","size_leaf_vector":"1"}},{"base_weights":[4.336783E-3,5.0732326E-3,-8.057682E-3,-0E0,-7.7398546E-2,-3.1021067E-3,-0E0],"categories":[],"categories_nodes":[],"categories_segments":[],"categories_sizes":[],"default_left":[0,0,0,0,0,0,0],"id":90,"left_children":[1,-1,3,-1,5,-1,-1],"loss_changes":[9.931006E-2,0E0,2.6667682E-2,0E0,6.5571778E-3,0E0,0E0],"parents":[2147483647,0,0,2,2,4,4],"right_children":[2,-1,4,-1,6,-1,-1],"split_conditions":[1.3720497E-2,5.0732326E-3,-3.1417927E-1,-0E0,1.3054974E-1,-3.1021067E-3,-0E0],"split_indices":[23,0,9,0,21,0,0],"split_type":[0,0,0,0,0,0,0],"sum_hessian":[7.5309963E0,2.4645293E0,5.0664673E0,1.5490818E0,3.5173852E0,2.1442018E0,1.3731836E0],"tree_param":{"num_deleted":"0","num_feature":"32","num_nodes":"7","size_leaf_vector":"1"}},{"base_weights":[3.942425E-4,1.9378862E-1,-3.8175013E-2,7.79579E-3,-0E0,-0E0,-1.5462726E-1,-0E0,8.105282E-4,-0E0,-6.1379615E-3],"categories":[],"categories_nodes":[],"categories_segments":[],"categories_sizes":[],"default_left":[0,0,0,0,0,0,0,0,0,0,0],"id":91,"left_children":[1,3,5,-1,-1,7,9,-1,-1,-1,-1],"loss_changes":[1.5353745E-1,4.2642593E-2,9.115069E-2,0E0,0E0,1.5009481E-3,3.334835E-2,0E0,0E0,0E0,0E0],"parents":[2147483647,0,0,1,1,2,2,5,5,6,6],"right_children":[2,4,6,-1,-1,8,10,-1,-1,-1,-1],"split_conditions":[-1.1648151E0,-3.3828023E-1,-3.590183E-1,7.79579E-3,-0E0,2.4175642E-2,-7.5371915E-1,-0E0,8.105282E-4,-0E0,-6.1379615E-3],"split_indices":[18,6,7,0,0,30,14,0,0,0,0],"split_type":[0,0,0,0,0,0,0,0,0,0,0],"sum_hessian":[8.161024E0,2.8433135E0,5.317711E0,1.7688822E0,1.0744312E0,2.1203282E0,3.197383E0,1.0640969E0,1.0562311E0,1.0033071E0,2.1940756E0],"tree_param":{"num_deleted":"0","num_feature":"32","num_nodes":"11","size_leaf_vector":"1"}},{"base_weights":[-0E0,6.645422E-2,-2.6949695E-3,-0E0,9.39086E-3,4.407102E-4,-6.259933E-2,-0E0,-3.572362E-3],"categories":[],"categories_nodes":[],"categories_segments":[],"categories_sizes":[],"default_left":[0,0,0,0,0,0,0,0,0],"id":92,"left_children":[1,3,-1,5,-1,-1,7,-1,-1],"loss_changes":[5.2822478E-2,1.9423547E-1,0E0,1.8153043E-2,0E0,0E0,2.6429592E-2,0E0,0E0],"parents":[2147483647,0,0,1,1,3,3,6,6],"right_children":[2,4,-1,6,-1,-1,8,-1,-1],"split_conditions":[1.2223381E0,9.1169536E-1,-2.6949695E-3,-1.5459965E0,9.39086E-3,4.407102E-4,-3.1417927E-1,-0E0,-3.572362E-3],"split_indices":[9,9,0,18,0,0,9,0,0],"split_type":[0,0,0,0,0,0,0,0,0],"sum_hessian":[7.7658234E0,6.1123343E0,1.6534895E0,4.8095303E0,1.3028036E0,1.3039701E0,3.5055604E0,1.396518E0,2.1090422E0],"tree_param":{"num_deleted":"0","num_feature":"32","num_nodes":"9","size_leaf_vector":"1"}},{"base_weights":[-0E0,-7.560129E-2,5.321494E-3,-0E0,-1.2965462E-1,-0E0,-4.7110687E-3],"categories":[],"categories_nodes":[],"categories_segments":[],"categories_sizes":[],"default_left":[0,0,0,0,0,0,0],"id":93,"left_children":[1,3,-1,-1,5,-1,-1],"loss_changes":[1.3451725E-1,5.13267E-2,0E0,0E0,1.2923457E-2,0E0,0E0],"parents":[2147483647,0,0,1,1,4,4],"right_children":[2,4,-1,-1,6,-1,-1],"split_conditions":[2.6482242E-1,-1.0285776E0,5.321494E-3,-0E0,1.795679E0,-0E0,-4.7110687E-3],"split_indices":[19,12,0,0,31,0,0],"split_type":[0,0,0,0,0,0,0],"sum_hessian":[7.3566966E0,5.2094736E0,2.1472232E0,1.0449504E0,4.164523E0,1.1199178E0,3.0446055E0],"tree_param":{"num_deleted":"0","num_feature":"32","num_nodes":"7","size_leaf_vector":"1"}},{"base_weights":[-0E0,-7.975396E-2,1.0129631E-1,-1.4697224E-1,-0E0,-0E0,8.846518E-3,-0E0,-6.16192E-3],"categories":[],"categories_nodes":[],"categories_segments":[],"categories_sizes":[],"default_left":[0,0,0,0,0,0,0,0,0],"id":94,"left_children":[1,3,5,7,-1,-1,-1,-1,-1],"loss_changes":[8.171199E-2,4.62901E-2,1.6770609E-1,3.6647446E-2,0E0,0E0,0E0,0E0,0E0],"parents":[2147483647,0,0,1,1,2,2,3,3],"right_children":[2,4,6,8,-1,-1,-1,-1,-1],"split_conditions":[2.6482242E-1,3.081245E-1,2.3062209E-2,-1.1285295E0,-0E0,-0E0,8.846518E-3,-0E0,-6.16192E-3],"split_indices":[19,3,21,3,0,0,0,0,0],"split_type":[0,0,0,0,0,0,0,0,0],"sum_hessian":[8.229776E0,4.962479E0,3.2672973E0,2.8987188E0,2.06376E0,1.8351332E0,1.4321641E0,1.0338553E0,1.8648636E0],"tree_param":{"num_deleted":"0","num_feature":"32","num_nodes":"9","size_leaf_vector":"1"}},{"base_weights":[9.917196E-3,-1.0166876E-2,7.039654E-3,-0E0,-9.519338E-2,-0E0,-5.2190246E-3],"categories":[],"categories_nodes":[],"categories_segments":[],"categories_sizes":[],"default_left":[0,0,0,0,0,0,0],"id":95,"left_children":[1,3,-1,-1,5,-1,-1],"loss_changes":[1.576623E-1,4.583611E-2,0E0,0E0,7.8290746E-2,0E0,0E0],"parents":[2147483647,0,0,1,1,4,4],"right_children":[2,4,-1,-1,6,-1,-1],"split_conditions":[1.1325779E0,-6.563704E-1,7.039654E-3,-0E0,-1.0285776E0,-0E0,-5.2190246E-3],"split_indices":[15,14,0,0,12,0,0],"split_type":[0,0,0,0,0,0,0],"sum_hessian":[8.533841E0,6.6679015E0,1.86594E0,2.5222552E0,4.1456466E0,1.0180823E0,3.1275642E0],"tree_param":{"num_deleted":"0","num_feature":"32","num_nodes":"7","size_leaf_vector":"1"}},{"base_weights":[1.4125932E-2,-0E0,6.8324143E-3,-0E0,-7.511877E-2,8.0679357E-4,-0E0,-0E0,-1.3398468E-1,-0E0,-4.897552E-3],"categories":[],"categories_nodes":[],"categories_segments":[],"categories_sizes":[],"default_left":[0,0,0,0,0,0,0,0,0,0,0],"id":96,"left_children":[1,3,-1,5,7,-1,-1,-1,9,-1,-1],"loss_changes":[1.364859E-1,2.913498E-2,0E0,1.5079814E-3,4.5025244E-2,0E0,0E0,0E0,8.242197E-3,0E0,0E0],"parents":[2147483647,0,0,1,1,3,3,4,4,8,8],"right_children":[2,4,-1,6,8,-1,-1,-1,10,-1,-1],"split_conditions":[1.1325779E0,-6.563704E-1,6.8324143E-3,2.1593306E0,-1.2786402E0,8.0679357E-4,-0E0,-0E0,-9.184382E-2,-0E0,-4.897552E-3],"split_indices":[15,14,0,31,10,0,0,0,30,0,0],"split_type":[0,0,0,0,0,0,0,0,0,0,0],"sum_hessian":[8.372778E0,6.7053504E0,1.6674277E0,2.5421646E0,4.163186E0,1.0850363E0,1.4571283E0,1.0321326E0,3.1310532E0,1.0391616E0,2.0918918E0],"tree_param":{"num_deleted":"0","num_feature":"32","num_nodes":"11","size_leaf_vector":"1"}},{"base_weights":[-0E0,-7.928811E-2,4.6186326E-3,-0E0,-1.2705939E-1,-0E0,-5.9531913E-3],"categories":[],"categories_nodes":[],"categories_segments":[],"categories_sizes":[],"default_left":[0,0,0,0,0,0,0],"id":97,"left_children":[1,3,-1,-1,5,-1,-1],"loss_changes":[1.1366916E-1,4.215808E-2,0E0,0E0,8.594729E-2,0E0,0E0],"parents":[2147483647,0,0,1,1,4,4],"right_children":[2,4,-1,-1,6,-1,-1],"split_conditions":[9.605926E-1,-3.1417927E-1,4.6186326E-3,-0E0,-1.2786402E0,-0E0,-5.9531913E-3],"split_indices":[15,9,0,0,10,0,0],"split_type":[0,0,0,0,0,0,0],"sum_hessian":[8.132214E0,6.2627974E0,1.8694166E0,1.8232566E0,4.439541E0,1.0268668E0,3.412674E0],"tree_param":{"num_deleted":"0","num_feature":"32","num_nodes":"7","size_leaf_vector":"1"}},{"base_weights":[-0E0,1.3266076E-1,-1.23575054E-1,-0E0,7.2820187E-3,-5.2390783E-3,-0E0],"categories":[],"categories_nodes":[],"categories_segments":[],"categories_sizes":[],"default_left":[0,0,0,0,0,0,0],"id":98,"left_children":[1,3,5,-1,-1,-1,-1],"loss_changes":[1.5424728E-1,7.6765046E-2,3.8747564E-2,0E0,0E0,0E0,0E0],"parents":[2147483647,0,0,1,1,2,2],"right_children":[2,4,6,-1,-1,-1,-1],"split_conditions":[-1.1648151E0,-3.6625552E-1,7.725566E-1,-0E0,7.2820187E-3,-5.2390783E-3,-0E0],"split_indices":[18,19,12,0,0,0,0],"split_type":[0,0,0,0,0,0,0],"sum_hessian":[7.556403E0,2.570927E0,4.985476E0,1.2014449E0,1.369482E0,3.2675507E0,1.7179254E0],"tree_param":{"num_deleted":"0","num_feature":"32","num_nodes":"7","size_leaf_vector":"1"}},{"base_weights":[1.4687307E-2,4.9044844E-3,-0E0,-9.527692E-2,1.979941E-2,-0E0,-4.3057427E-3,-0E0,3.206162E-3],"categories":[],"categories_nodes":[],"categories_segments":[],"categories_sizes":[],"default_left":[0,0,0,0,0,0,0,0,0],"id":99,"left_children":[1,-1,3,5,7,-1,-1,-1,-1],"loss_changes":[8.0346756E-2,0E0,4.3412145E-2,2.99741E-2,2.7679995E-2,0E0,0E0,0E0,0E0],"parents":[2147483647,0,0,2,2,3,3,4,4],"right_children":[2,-1,4,6,8,-1,-1,-1,-1],"split_conditions":[-1.2315413E0,4.9044844E-3,1.0161408E0,-6.450345E-1,4.1609633E-1,-0E0,-4.3057427E-3,-0E0,3.206162E-3],"split_indices":[18,0,28,20,9,0,0,0,0],"split_type":[0,0,0,0,0,0,0,0,0],"sum_hessian":[8.528153E0,2.0831473E0,6.4450064E0,3.6169775E0,2.828029E0,1.1272768E0,2.4897006E0,1.2731726E0,1.5548562E0],"tree_param":{"num_deleted":"0","num_feature":"32","num_nodes":"9","size_leaf_vector":"1"}},{"base_weights":[-0E0,1.6139077E-1,-1.00465626E-1,2.516834E-1,-0E0,-0E0,-4.2743296E-3,-0E0,1.00486465E-2],"categories":[],"categories_nodes":[],"categories_segments":[],"categories_sizes":[],"default_left":[0,0,0,0,0,0,0,0,0],"id":100,"left_children":[1,3,5,7,-1,-1,-1,-1,-1],"loss_changes":[1.8168989E-1,1.322254E-1,2.237996E-2,4.150912E-2,0E0,0E0,0E0,0E0,0E0],"parents":[2147483647,0,0,1,1,2,2,3,3],"right_children":[2,4,6,8,-1,-1,-1,-1,-1],"split_conditions":[8.031152E-2,7.398415E-2,-3.4757946E-2,1.044075E-1,-0E0,-0E0,-4.2743296E-3,-0E0,1.00486465E-2],"split_indices":[0,7,30,13,0,0,0,0,0],"split_type":[0,0,0,0,0,0,0,0,0],"sum_hessian":[7.6202855E0,4.3021803E0,3.3181055E0,3.2676318E0,1.0345485E0,1.068625E0,2.2494802E0,1.4881771E0,1.7794547E0],"tree_param":{"num_deleted":"0","num_feature":"32","num_nodes":"9","size_leaf_vector":"1"}},{"base_weights":[4.6547323E-2,1.3734762E-1,-3.81125E-6,9.441392E-3,-0E0,2.389709E-4,-0E0],"categories":[],"categories_nodes":[],"categories_segments":[],"categories_sizes":[],"default_left":[0,0,0,0,0,0,0],"id":101,"left_children":[1,3,-1,-1,5,-1,-1],"loss_changes":[1.0583581E-1,1.507827E-1,0E0,0E0,1.399109E-4,0E0,0E0],"parents":[2147483647,0,0,1,1,4,4],"right_children":[2,4,-1,-1,6,-1,-1],"split_conditions":[-2.0273018E-1,-3.7119586E-2,-3.81125E-6,9.441392E-3,1.8256874E0,2.389709E-4,-0E0],"split_indices":[6,27,0,0,31,0,0],"split_type":[0,0,0,0,0,0,0],"sum_hessian":[7.7795334E0,5.618719E0,2.1608143E0,1.7830032E0,3.8357158E0,1.2049769E0,2.6307387E0],"tree_param":{"num_deleted":"0","num_feature":"32","num_nodes":"7","size_leaf_vector":"1"}},{"base_weights":[-0E0,1.01701744E-1,-2.7408367E-3,6.9022137E-3,-0E0],"categories":[],"categories_nodes":[],"categories_segments":[],"categories_sizes":[],"default_left":[0,0,0,0,0],"id":102,"left_children":[1,3,-1,-1,-1],"loss_changes":[9.718504E-2,1.5288886E-1,0E0,0E0,0E0],"parents":[2147483647,0,0,1,1],"right_children":[2,4,-1,-1,-1],"split_conditions":[-2.9882413E-1,-3.1267896E-2,-2.7408367E-3,6.9022137E-3,-0E0],"split_indices":[6,27,0,0,0],"split_type":[0,0,0,0,0],"sum_hessian":[8.084615E0,5.516847E0,2.5677676E0,3.1616807E0,2.3551664E0],"tree_param":{"num_deleted":"0","num_feature":"32","num_nodes":"5","size_leaf_vector":"1"}},{"base_weights":[-0E0,1.12732075E-1,-6.332033E-2,-0E0,7.680112E-3,-0E0,-3.544171E-3],"categories":[],"categories_nodes":[],"categories_segments":[],"categories_sizes":[],"default_left":[0,0,0,0,0,0,0],"id":103,"left_children":[1,3,5,-1,-1,-1,-1],"loss_changes":[7.278359E-2,9.3082674E-2,3.2069437E-2,0E0,0E0,0E0,0E0],"parents":[2147483647,0,0,1,1,2,2],"right_children":[2,4,6,-1,-1,-1,-1],"split_conditions":[-3.590183E-1,2.1222974E-1,5.5516637E-3,-0E0,7.680112E-3,-0E0,-3.544171E-3],"split_indices":[7,16,23,0,0,0,0],"split_type":[0,0,0,0,0,0,0],"sum_hessian":[6.9734626E0,3.2308977E0,3.742565E0,1.990193E0,1.2407047E0,1.0823803E0,2.6601849E0],"tree_param":{"num_deleted":"0","num_feature":"32","num_nodes":"7","size_leaf_vector":"1"}},{"base_weights":[-0E0,-4.2725117E-3,2.611172E-3,-0E0,-2.5202397E-3],"categories":[],"categories_nodes":[],"categories_segments":[],"categories_sizes":[],"default_left":[0,0,0,0,0],"id":104,"left_children":[1,3,-1,-1,-1],"loss_changes":[2.3053758E-2,2.9383654E-2,0E0,0E0,0E0],"parents":[2147483647,0,0,1,1],"right_children":[2,4,-1,-1,-1],"split_conditions":[1.0832006E0,1.8256874E0,2.611172E-3,-0E0,-2.5202397E-3],"split_indices":[28,31,0,0,0],"split_type":[0,0,0,0,0],"sum_hessian":[7.292264E0,5.264279E0,2.0279853E0,2.0845182E0,3.1797605E0],"tree_param":{"num_deleted":"0","num_feature":"32","num_nodes":"5","size_leaf_vector":"1"}},{"base_weights":[-0E0,1.7594089E-1,-2.756E-2,-0E0,7.8105996E-3,-9.76454E-2,-0E0,-0E0,-4.155688E-3],"categories":[],"categories_nodes":[],"categories_segments":[],"categories_sizes":[],"default_left":[0,0,0,0,0,0,0,0,0],"id":105,"left_children":[1,3,5,-1,-1,7,-1,-1,-1],"loss_changes":[1.0670296E-1,4.4314325E-2,4.3054797E-2,0E0,0E0,2.7352769E-2,0E0,0E0,0E0],"parents":[2147483647,0,0,1,1,2,2,5,5],"right_children":[2,4,6,-1,-1,8,-1,-1,-1],"split_conditions":[-1.1648151E0,-7.954381E-1,-1.6600482E-1,-0E0,7.8105996E-3,-3.1417927E-1,-0E0,-0E0,-4.155688E-3],"split_indices":[18,19,1,0,0,9,0,0,0],"split_type":[0,0,0,0,0,0,0,0,0],"sum_hessian":[7.7668405E0,2.2880418E0,5.478799E0,1.1327158E0,1.1553259E0,4.031744E0,1.4470547E0,1.1060517E0,2.9256923E0],"tree_param":{"num_deleted":"0","num_feature":"32","num_nodes":"9","size_leaf_vector":"1"}},{"base_weights":[2.3421017E-3,-8.021593E-3,1.24590866E-1,-0E0,-6.526502E-2,2.4501275E-1,-0E0,-0E0,-3.1306867E-3,-0E0,9.534431E-3],"categories":[],"categories_nodes":[],"categories_segments":[],"categories_sizes":[],"default_left":[0,0,0,0,0,0,0,0,0,0,0],"id":106,"left_children":[1,3,5,-1,7,9,-1,-1,-1,-1,-1],"loss_changes":[7.109647E-2,1.9621775E-2,1.3323474E-1,0E0,1.859301E-2,2.2226796E-2,0E0,0E0,0E0,0E0,0E0],"parents":[2147483647,0,0,1,1,2,2,4,4,5,5],"right_children":[2,4,6,-1,8,10,-1,-1,-1,-1,-1],"split_conditions":[4.1875705E-1,5.498943E-3,1.2223381E0,-0E0,-3.1417927E-1,9.072415E-1,-0E0,-0E0,-3.1306867E-3,-0E0,9.534431E-3],"split_indices":[8,23,9,0,9,28,0,0,0,0,0],"split_type":[0,0,0,0,0,0,0,0,0,0,0],"sum_hessian":[8.323516E0,4.7640066E0,3.5595086E0,1.0703678E0,3.693639E0,2.3984213E0,1.1610873E0,1.1504911E0,2.5431478E0,1.158571E0,1.2398504E0],"tree_param":{"num_deleted":"0","num_feature":"32","num_nodes":"11","size_leaf_vector":"1"}},{"base_weights":[-0E0,-8.015211E-2,9.205713E-2,-1.2897596E-1,-0E0,4.432084E-3,-0E0,-5.5606216E-3,-0E0],"categories":[],"categories_nodes":[],"categories_segments":[],"categories_sizes":[],"default_left":[0,0,0,0,0,0,0,0,0],"id":107,"left_children":[1,3,5,7,-1,-1,-1,-1,-1],"loss_changes":[6.575176E-2,4.46809E-2,2.0756677E-2,4.313998E-2,0E0,0E0,0E0,0E0,0E0],"parents":[2147483647,0,0,1,1,2,2,3,3],"right_children":[2,4,6,8,-1,-1,-1,-1,-1],"split_conditions":[9.605926E-1,1.2491748E0,3.760276E-1,3.081245E-1,-0E0,4.432084E-3,-0E0,-5.5606216E-3,-0E0],"split_indices":[15,4,21,3,0,0,0,0,0],"split_type":[0,0,0,0,0,0,0,0,0],"sum_hessian":[7.2137313E0,5.014251E0,2.19948E0,4.0086946E0,1.0055566E0,1.1932924E0,1.0061876E0,2.680817E0,1.3278776E0],"tree_param":{"num_deleted":"0","num_feature":"32","num_nodes":"9","size_leaf_vector":"1"}},{"base_weights":[6.547429E-3,-0E0,1.2464067E-1,-0E0,-2.9189934E-3,-0E0,6.297335E-3],"categories":[],"categories_nodes":[],"categories_segments":[],"categories_sizes":[],"default_left":[0,0,0,0,0,0,0],"id":108,"left_children":[1,3,5,-1,-1,-1,-1],"loss_changes":[5.7618517E-2,3.047471E-2,3.4576178E-2,0E0,0E0,0E0,0E0],"parents":[2147483647,0,0,1,1,2,2],"right_children":[2,4,6,-1,-1,-1,-1],"split_conditions":[1.016956E0,1.8256874E0,2.3062209E-2,-0E0,-2.9189934E-3,-0E0,6.297335E-3],"split_indices":[28,31,21,0,0,0,0],"split_type":[0,0,0,0,0,0,0],"sum_hessian":[7.028747E0,4.297714E0,2.7310328E0,2.0787518E0,2.2189622E0,1.6308692E0,1.1001637E0],"tree_param":{"num_deleted":"0","num_feature":"32","num_nodes":"7","size_leaf_vector":"1"}},{"base_weights":[7.4696112E-3,-0E0,1.3834809E-1,-0E0,-9.407873E-2,-0E0,7.65231E-3,-4.3889876E-3,-0E0],"categories":[],"categories_nodes":[],"categories_segments":[],"categories_sizes":[],"default_left":[0,0,0,0,0,0,0,0,0],"id":109,"left_children":[1,3,5,-1,7,-1,-1,-1,-1],"loss_changes":[7.1341805E-2,4.1923996E-2,6.968222E-2,0E0,3.5254735E-2,0E0,0E0,0E0,0E0],"parents":[2147483647,0,0,1,1,2,2,4,4],"right_children":[2,4,6,-1,8,-1,-1,-1,-1],"split_conditions":[1.021957E0,-3.7183115E-1,2.3421684E-2,-0E0,1.0257342E0,-0E0,7.65231E-3,-4.3889876E-3,-0E0],"split_indices":[28,6,30,0,3,0,0,0,0],"split_type":[0,0,0,0,0,0,0,0,0],"sum_hessian":[7.943037E0,5.189638E0,2.753399E0,1.4528952E0,3.7367427E0,1.5782728E0,1.175126E0,2.605882E0,1.130861E0],"tree_param":{"num_deleted":"0","num_feature":"32","num_nodes":"9","size_leaf_vector":"1"}},{"base_weights":[1.9733567E-2,1.5129776E-1,-4.0721605E-3,-0E0,9.227841E-3,-0E0,-3.7920794E-3,9.77524E-4,-0E0],"categories":[],"categories_nodes":[],"categories_segments":[],"categories_sizes":[],"default_left":[0,0,0,0,0,0,0,0,0],"id":110,"left_children":[1,3,5,-1,-1,7,-1,-1,-1],"loss_changes":[1.035491E-1,1.1747576E-1,4.3710366E-2,0E0,0E0,3.0655803E-3,0E0,0E0,0E0],"parents":[2147483647,0,0,1,1,2,2,5,5],"right_children":[2,4,6,-1,-1,8,-1,-1,-1],"split_conditions":[-3.590183E-1,2.4167551E-1,2.1593306E0,-0E0,9.227841E-3,5.8977693E-1,-3.7920794E-3,9.77524E-4,-0E0],"split_indices":[7,16,31,0,0,23,0,0,0],"split_type":[0,0,0,0,0,0,0,0,0],"sum_hessian":[8.361547E0,3.6787083E0,4.682839E0,2.3051176E0,1.3735908E0,2.9412181E0,1.7416207E0,1.8873553E0,1.0538627E0],"tree_param":{"num_deleted":"0","num_feature":"32","num_nodes":"9","size_leaf_vector":"1"}},{"base_weights":[-0E0,-3.8689464E-2,3.8156372E-3,-0E0,-9.118792E-2,-0E0,-1.4203148E-1,-5.2398955E-3,-0E0],"categories":[],"categories_nodes":[],"categories_segments":[],"categories_sizes":[],"default_left":[0,0,0,0,0,0,0,0,0],"id":111,"left_children":[1,3,-1,-1,5,-1,7,-1,-1],"loss_changes":[5.2567728E-2,4.158307E-2,0E0,0E0,4.1932423E-2,0E0,1.1565208E-2,0E0,0E0],"parents":[2147483647,0,0,1,1,4,4,6,6],"right_children":[2,4,-1,-1,6,-1,8,-1,-1],"split_conditions":[1.1325779E0,5.498943E-3,3.8156372E-3,-0E0,-2.042501E-1,-0E0,9.9191463E-1,-5.2398955E-3,-0E0],"split_indices":[15,23,0,0,9,0,22,0,0],"split_type":[0,0,0,0,0,0,0,0,0],"sum_hessian":[8.15721E0,6.611984E0,1.545227E0,1.2408773E0,5.371106E0,1.6663048E0,3.7048016E0,2.4901524E0,1.2146491E0],"tree_param":{"num_deleted":"0","num_feature":"32","num_nodes":"9","size_leaf_vector":"1"}},{"base_weights":[-0E0,1.3897121E-1,-1.1092156E-1,-0E0,7.811315E-3,-0E0,-5.490397E-3],"categories":[],"categories_nodes":[],"categories_segments":[],"categories_sizes":[],"default_left":[0,0,0,0,0,0,0],"id":112,"left_children":[1,3,5,-1,-1,-1,-1],"loss_changes":[1.6135776E-1,1.4907499E-1,6.279752E-2,0E0,0E0,0E0,0E0],"parents":[2147483647,0,0,1,1,2,2],"right_children":[2,4,6,-1,-1,-1,-1],"split_conditions":[8.031152E-2,-5.325323E-2,-4.4075817E-2,-0E0,7.811315E-3,-0E0,-5.490397E-3],"split_indices":[0,30,30,0,0,0,0],"split_type":[0,0,0,0,0,0,0],"sum_hessian":[8.044788E0,4.388585E0,3.6562037E0,1.6546813E0,2.7339036E0,1.0709022E0,2.5853016E0],"tree_param":{"num_deleted":"0","num_feature":"32","num_nodes":"7","size_leaf_vector":"1"}},{"base_weights":[1.1123982E-2,-3.6672049E-3,1.0941761E-1,-0E0,-2.528704E-3,-0E0,7.3385746E-3],"categories":[],"categories_nodes":[],"categories_segments":[],"categories_sizes":[],"default_left":[0,0,0,0,0,0,0],"id":113,"left_children":[1,3,5,-1,-1,-1,-1],"loss_changes":[6.6857316E-2,2.2599822E-2,1.4534584E-1,0E0,0E0,0E0,0E0],"parents":[2147483647,0,0,1,1,2,2],"right_children":[2,4,6,-1,-1,-1,-1],"split_conditions":[7.56412E-2,3.122481E-1,-1.2462459E0,-0E0,-2.528704E-3,-0E0,7.3385746E-3],"split_indices":[19,23,2,0,0,0,0],"split_type":[0,0,0,0,0,0,0],"sum_hessian":[8.34112E0,3.665438E0,4.675682E0,1.4756958E0,2.189742E0,2.111151E0,2.5645313E0],"tree_param":{"num_deleted":"0","num_feature":"32","num_nodes":"7","size_leaf_vector":"1"}},{"base_weights":[-0E0,-1.0182037E-1,8.1800684E-2,-0E0,-4.953286E-3,-0E0,7.7059898E-3],"categories":[],"categories_nodes":[],"categories_segments":[],"categories_sizes":[],"default_left":[0,0,0,0,0,0,0],"id":114,"left_children":[1,3,5,-1,-1,-1,-1],"loss_changes":[8.480719E-2,5.935843E-2,1.4755909E-1,0E0,0E0,0E0,0E0],"parents":[2147483647,0,0,1,1,2,2],"right_children":[2,4,6,-1,-1,-1,-1],"split_conditions":[8.4738225E-2,-1.5459965E0,-1.8124363E-1,-0E0,-4.953286E-3,-0E0,7.7059898E-3],"split_indices":[10,18,15,0,0,0,0],"split_type":[0,0,0,0,0,0,0],"sum_hessian":[7.803342E0,4.225623E0,3.5777187E0,1.0609258E0,3.1646974E0,1.8770616E0,1.700657E0],"tree_param":{"num_deleted":"0","num_feature":"32","num_nodes":"7","size_leaf_vector":"1"}},{"base_weights":[-0E0,-4.4277634E-2,1.0153254E-1,-0E0,-1.316455E-1,5.7399417E-3,-0E0,-4.9339887E-3,-0E0],"categories":[],"categories_nodes":[],"categories_segments":[],"categories_sizes":[],"default_left":[0,0,0,0,0,0,0,0,0],"id":115,"left_children":[1,3,5,-1,7,-1,-1,-1,-1],"loss_changes":[5.21892E-2,6.83785E-2,5.2344944E-2,0E0,1.7642759E-2,0E0,0E0,0E0,0E0],"parents":[2147483647,0,0,1,1,2,2,4,4],"right_children":[2,4,6,-1,8,-1,-1,-1,-1],"split_conditions":[1.021957E0,-3.8283682E-1,-1.4793903E-1,-0E0,9.986289E-1,5.7399417E-3,-0E0,-4.9339887E-3,-0E0],"split_indices":[28,20,7,0,23,0,0,0,0],"split_type":[0,0,0,0,0,0,0,0,0],"sum_hessian":[7.8348346E0,4.892987E0,2.941848E0,1.2807957E0,3.612191E0,1.5399268E0,1.4019213E0,2.6073027E0,1.0048883E0],"tree_param":{"num_deleted":"0","num_feature":"32","num_nodes":"9","size_leaf_vector":"1"}},{"base_weights":[-0E0,-1.8307181E-2,1.09069705E-1,-0E0,-3.3326512E-3,-0E0,5.61709E-3],"categories":[],"categories_nodes":[],"categories_segments":[],"categories_sizes":[],"default_left":[0,0,0,0,0,0,0],"id":116,"left_children":[1,3,5,-1,-1,-1,-1],"loss_changes":[5.3419095E-2,4.3271583E-2,5.202238E-2,0E0,0E0,0E0,0E0],"parents":[2147483647,0,0,1,1,2,2],"right_children":[2,4,6,-1,-1,-1,-1],"split_conditions":[1.021957E0,1.8256874E0,-8.903646E-1,-0E0,-3.3326512E-3,-0E0,5.61709E-3],"split_indices":[28,31,11,0,0,0,0],"split_type":[0,0,0,0,0,0,0],"sum_hessian":[8.567018E0,5.2527437E0,3.314274E0,2.5764952E0,2.6762486E0,1.3663737E0,1.9479003E0],"tree_param":{"num_deleted":"0","num_feature":"32","num_nodes":"7","size_leaf_vector":"1"}},{"base_weights":[-0E0,1.13869466E-1,-7.461795E-2,-0E0,2.1501535E-1,-0E0,-1.3943507E-1,-0E0,8.114113E-3,-0E0,-5.024684E-3],"categories":[],"categories_nodes":[],"categories_segments":[],"categories_sizes":[],"default_left":[0,0,0,0,